svm_type c_svc
kernel_type rbf
gamma 0.0220971
nr_class 23
total_sv 1297
rho 0.540175 -0.542334 -0.08016 0.0743194 0.224753 0.262656 -0.240319 -0.340125 -0.00670496 0.578579 -0.44268 0.239768 -0.827301 -0.511069 -0.742068 -0.604909 -0.436937 -0.879098 -0.37665 -0.402937 -0.581099 -0.227754 -0.788593 -0.536262 -0.422507 -0.20694 -0.210831 -0.645543 -0.703671 -0.448616 0.271553 -0.736506 -0.249967 -0.942276 -0.775835 -0.910953 -0.797488 -0.745564 -0.938119 -0.76161 -0.700076 -0.799246 -0.575038 0.454321 0.504808 0.648759 0.690835 0.307311 0.211962 0.501124 0.861387 0.0828603 0.669834 -0.404235 0.0477976 -0.313807 -0.119032 0.0918875 -0.637926 0.221157 0.179318 -0.0908331 0.327047 0.099627 0.261477 0.404594 -0.156363 -0.253384 0.0751121 0.693061 -0.360726 0.324378 -0.779108 -0.401545 -0.677711 -0.531469 -0.360279 -0.828624 -0.24252 -0.287469 -0.507661 -0.122993 0.168804 0.244016 -0.239917 -0.339259 -0.0150352 0.555344 -0.431559 0.209969 -0.809991 -0.475806 -0.715376 -0.586252 -0.433948 -0.857993 -0.325742 -0.373284 -0.567865 -0.211664 0.0531554 -0.424657 -0.490071 -0.182315 0.369399 -0.546911 0.0124599 -0.886835 -0.620387 -0.819321 -0.691839 -0.577228 -0.889097 -0.462119 -0.533668 -0.675904 -0.369649 -0.474839 -0.564231 -0.271872 0.336417 -0.625387 -0.0527239 -0.91223 -0.705306 -0.876919 -0.76334 -0.660946 -0.908626 -0.594118 -0.585623 -0.745378 -0.522752 -0.106542 0.239603 0.730417 -0.225655 0.494289 -0.707415 -0.263377 -0.621507 -0.413781 -0.213468 -0.778632 -0.0916744 -0.140095 -0.393006 0.0143705 0.346741 0.789063 -0.124845 0.561625 -0.633988 -0.186009 -0.517655 -0.343538 -0.122067 -0.741982 0.00803253 -0.0347253 -0.333871 0.124835 0.548367 -0.421049 0.243436 -0.82634 -0.511734 -0.777856 -0.58717 -0.44604 -0.849735 -0.302104 -0.355538 -0.599178 -0.200651 -0.756335 -0.425944 -0.964596 -0.868476 -0.944185 -0.856419 -0.797508 -0.955274 -0.748854 -0.781815 -0.872657 -0.705682 0.600639 -0.477225 -0.03738 -0.383338 -0.198943 0.00746727 -0.680285 0.135803 0.0935058 -0.171219 0.242357 -0.915698 -0.644433 -0.862911 -0.710972 -0.638014 -0.906407 -0.509198 -0.557948 -0.721039 -0.442226 0.460982 0.0919098 0.279965 0.519254 -0.336886 0.6054 0.589634 0.307127 0.703136 -0.365886 -0.175302 0.0459076 -0.659019 0.180116 0.130575 -0.146995 0.280796 0.206151 0.419868 -0.409175 0.503981 0.474444 0.232226 0.591755 0.208349 -0.55741 0.33572 0.282723 0.0329043 0.428071 -0.6826 0.125684 0.0859302 -0.183545 0.243885 0.74837 0.724241 0.578305 0.786958 -0.0470813 -0.302603 0.114345 -0.265046 0.159012 0.399728
label 18 12 7 17 16 5 19 6 1 8 0 20 10 11 9 3 2 14 4 21 22 13 15
nr_sv 86 208 12 21 58 58 182 30 24 37 265 17 159 3 13 7 9 12 3 18 16 13 46
SV
26.87460621044928 5.681688180096484 8.012041835983077 5.311528690414656 21.2457145531577 8.652268549693227 3.666388213550501 0 2.754163170993969 14.54906608490228 1.442812323306199 1.433095750559256 1.42010104959344 3.515500323765164 0.0274153045216209 1.332620344831987 0.9991293559646808 0.3460596790166978 2.62780938056246 2.778357801284951 0.4403629718699049 1.05094847409271 31:0.11886652 160:0.0031202031 318:0.6790113 360:0.0052137878 607:0.24310179 965:0.093077709 1146:0.1874302 2005:0.24310179 2062:0.02483467 2232:0.28119106 2411:0.072988027 2502:0.10747907 2572:0.079917688 2586:0.17617627 2663:0.19821411 3380:0.17205451 3511:0.080431452 3539:0.2582275 3622:0.081125733 3658:0.24310179 3664:0.11425183 4537:0.089567336 
0 0 0 0 21.87644674428548 0 0 0 0 0 0 0 0 0 0 0.6089450060280557 0 0 0 0 5.083099897972627 0 31:0.27442508 106:0.19564357 107:0.19422178 160:0.0016007909 318:0.13063514 360:0.0026748848 1056:0.32681919 1146:0.061816694 1206:0.11884652 1711:0.018196303 1712:0.01814915 1733:0.017914024 1991:0.28062244 2062:0.028667686 2087:0.21668399 2192:0.58693071 2411:0.084253097 2572:0.092252292 2586:0.067789183 3175:0.15619075 3503:0.41020922 4444:0.10487401 4445:0.10487401 
3.300649889455549 0.8646095872709341 3.863232830195035 0 4.853797431202564 0 0 0 0 6.308972742089331 0 0 0.437583234325654 0.9809913511498789 0 0 0 0 0 0 0 0 31:0.1943219 160:0.00056676437 318:0.092503451 326:0.20437455 360:0.00094705024 377:0.1620193 554:0.12432429 975:0.21107397 1020:0.14063657 1056:0.11571123 1146:0.10943184 1194:0.27751035 1303:0.057018086 1520:0.13957142 1526:0.091073503 1540:0.065457092 1556:0.11156655 1598:0.17070541 1631:0.025895619 1632:0.050892424 1633:0.16833394 1663:0.13375747 1741:0.19871028 1877:0.11856111 1888:0.090516749 1890:0.21107397 2008:0.16013452 2062:0.020299745 2117:0.0089900489 2566:0.20437455 2572:0.06532435 2586:0.04800189 3058:0.1375295 3107:0.19871028 3151:0.22820339 3241:0.15663235 3380:0.14063657 3593:0.22984427 3597:0.22984427 3612:0.22984427 3819:0.21107397 4512:0.18210207 4537:0.073211928 
8.148999691075085 1.134072211862608 2.646948452842486 0 1.820291933451673 5.202115609106225 3.003521983936105 5.754172910357332 4.048256482951668 10.41578124008743 8.994576240649936 6.006219383882167 1.758808956190305 1.899130819751029 0.4648510741037905 0 1.840526689447827 0.5129538540519528 4.447209616787579 0 2.581420571240408 0.4701684130376219 31:0.17031052 106:0.2428361 107:0.24107136 160:0.0014901965 233:0.21437797 318:0.16214654 360:0.0024900841 720:0.28748122 998:0.24844045 1146:0.076727925 1206:0.14751431 1303:0.04997265 1540:0.057368891 1583:0.066880304 1711:0.022585558 1712:0.022527031 1713:0.2613655 1733:0.02223519 2062:0.017791408 2117:0.015758388 2192:0.2428361 2411:0.10457637 2572:0.1145051 2586:0.084141079 2663:0.28399879 3175:0.1938666 3462:0.38435777 3545:0.36998525 3561:0.18981436 
28.86369114122724 4.299496133391662 7.315947026910367 10.85582933789392 12.64599273337426 25.36940695073158 7.192758335704037 6.212483688815373 9.133477062665719 21.64780481308296 4.236365255863142 16.12562188080336 4.52439240153294 21.31300775333834 2.535528356706644 5.425815687111421 3.910269458315589 1.053405406219818 8.33764927024596 5.749087910288823 3.57805398121326 7.602225068645661 34:0.4232716 160:0.00035132932 360:0.00058706322 779:0.11396577 1146:0.027134109 1583:0.094606361 1626:0.19022456 1705:0.24027237 1724:0.23490671 1744:0.066105049 2000:0.22180121 2071:0.30311573 2115:0.20333006 2117:0.011145611 3154:0.098182313 3200:0.22180121 3577:0.28495451 3589:0.28495451 3663:0.22180121 3670:0.2116358 3741:0.025778812 3747:0.24635545 3768:0.23490671 3776:0.17435729 
27.80040983681216 3.534797027349639 13.59487238265454 10.3671886445071 17.55538830384212 16.80854794952488 9.801039087044121 8.403643692418017 8.86664694829666 32 5.954819743989696 16.1988072840763 2.771710425678392 1.759884881471143 3.276161050095145 2.36800714493092 4.2393557594137 1.10083816364123 2.786325842209635 4.821892364203555 4.473383328240146 8.874323097485316 30:0.43190513 31:0.13674938 160:0.00079769368 360:0.00066646391 779:0.25875944 1206:0.059222674 1289:0.085157645 1296:0.083301375 1303:0.040125112 1540:0.04606386 1583:0.053700967 1632:0.071628648 1711:0.018134881 1712:0.018087887 1733:0.017853555 1877:0.16686907 2117:0.037959189 2120:0.062331983 2121:0.062331983 2506:0.33886815 2572:0.091940892 3390:0.29707649 3434:0.3234948 3670:0.48051937 3741:0.058530826 3793:0.19118602 4532:0.18460511 4547:0.19793923 
32 9.164054382650718 16.57856445358134 22.95736308641632 32 32 13.51634438921156 15.37918197534825 22.41096617302973 32 5.605405824960688 32 4.757823390595698 9.551216404819034 7.028774155372937 6.346397660890228 10.96855003320191 0.8794954503610292 11.00043292165532 8.126082661172854 6.74258714418694 12.09571537392364 160:0.0015543732 360:0.0012986609 1206:0.11540036 1289:0.16593683 1296:0.16231973 1303:0.1563743 1540:0.089759301 1583:0.10464085 1632:0.13957444 1711:0.035337339 1712:0.035245767 1733:0.034789152 2117:0.049311112 2120:0.12145911 2121:0.12145911 2506:0.33015653 2587:0.3644066 3049:0.49065341 3158:0.42509064 3741:0.11405223 3793:0.18627102 4444:0.20366601 4445:0.20366601 4537:0.20078654 
32 3.940304155699755 11.04006008045762 17.19597429044375 18.87722037562993 23.17805111080187 8.337913452107046 9.877202487129733 11.63423844822949 32 5.609172523294928 13.58484559284517 1.791384217674079 5.704960851225582 4.505461480284914 14.18994059190744 6.901331116615149 4.91046295737873 19.02829926428455 5.645661519014761 4.384826798628453 10.74232488244467 4:0.23167705 119:0.24217778 160:0.00078003457 183:0.22039223 360:0.0013034199 525:0.2904999 779:0.12651555 1050:0.16483322 1152:0.1607853 1206:0.05791162 1303:0.078473668 1540:0.045044112 1665:0.23167705 1728:0.21792482 2117:0.037118859 2166:0.2904999 2168:0.2904999 2176:0.16568319 3175:0.15221749 3308:0.18928107 3369:0.1639973 3386:0.2904999 3388:0.2904999 3511:0.090483503 3622:0.091264554 3635:0.30178471 3741:0.11447018 
8.966011716657121 0 0 0 0 0 0 0 0 16.28481007371937 0 0 0 0 0 0 0 0 0 0 0 0 160:0.00064564014 318:0.070251348 360:0.00071923323 779:0.20943563 965:0.057779609 1051:0.11429197 1152:0.088722089 1303:0.04330214 1526:0.06916538 1540:0.024855553 1583:0.028976453 1631:0.019666316 1727:0.12025194 2062:0.0077082769 2071:0.12378616 2117:0.0068274539 2158:0.14095634 2239:0.1315668 2409:0.12964149 2538:0.12784049 2572:0.099220593 2592:0.16652623 2594:0.33305246 2597:0.16652623 2601:0.16652623 2602:0.16652623 2609:0.16652623 2617:0.16652623 2619:0.16652623 2621:0.16652623 2663:0.12304486 3178:0.17814899 3193:0.084359117 3225:0.30181933 3381:0.11429197 3392:0.16029921 3438:0.066915337 3551:0.36484042 3664:0.070923811 3741:0.015791296 3769:0.14389652 3776:0.10680583 3808:0.31042275 4533:0.1315668 4537:0.055600483 
31.94520836697165 7.503355870021644 17.82791450568843 18.5460324177395 22.99643729128525 24.85013030869364 11.84716174500928 9.470654312335729 16.01851713189505 27.96974004066017 8.077053920724309 20.72563434265517 2.493544854887208 7.695748646985074 5.131650129648153 6.137260559901938 9.276796806965658 1.14012299544355 12.2081062253569 11.10115596330442 7.162462556722878 12.0268280762903 160:0.00064564014 318:0.070251348 360:0.00071923323 779:0.20943563 965:0.057779609 1051:0.11429197 1152:0.088722089 1303:0.04330214 1526:0.06916538 1540:0.024855553 1583:0.028976453 1631:0.019666316 1727:0.12025194 2062:0.0077082769 2071:0.12378616 2117:0.0068274539 2158:0.14095634 2239:0.1315668 2409:0.12964149 2538:0.12784049 2572:0.099220593 2592:0.16652623 2594:0.33305246 2597:0.16652623 2601:0.16652623 2602:0.16652623 2609:0.16652623 2617:0.16652623 2619:0.16652623 2621:0.16652623 2663:0.12304486 3178:0.17814899 3193:0.084359117 3225:0.30181933 3381:0.11429197 3392:0.16029921 3438:0.066915337 3551:0.36484042 3664:0.070923811 3741:0.015791296 3769:0.14389652 3776:0.10680583 3808:0.31042275 4533:0.1315668 4537:0.055600483 
8.394004526905752 0 1.7370383274701 6.774300532164547 5.81059011332094 3.005629392294911 3.765545023626495 1.074141741715502 6.676570838234638 6.144538409165952 1.219024924599742 3.858505114786235 0.4428257922702892 1.247753654293449 1.208703377127898 0.8651136149321601 4.259184882651011 0.9007214522952245 0.4005690041011351 1.810932657349442 1.882904668138913 1.58641565663697 31:0.15287426 106:0.21797473 107:0.21639065 160:0.0008917542 318:0.1455461 360:0.0014901008 1146:0.068872578 1206:0.066205951 1303:0.044856488 1442:0.29812349 1540:0.051495507 1711:0.020273266 1712:0.020220731 1733:0.019958768 1887:0.24644731 2008:0.25195768 2062:0.015969937 2117:0.014145056 2201:0.30493313 2411:0.093869918 2586:0.075526779 2593:0.34500751 3178:0.12302915 3232:0.18381361 3351:0.34500751 3478:0.34500751 3499:0.34500751 
14.26243308691869 4.230939439933452 0 8.238576226385851 11.2596350783601 4.090453331490689 9.41876519666409 8.701690077073709 11.78000656919596 18.86472672775823 6.6501357468377 16.27783999738626 1.979482728247736 5.302430580599721 3.139092983292491 4.869914476816269 7.431003473886993 1.616511136329764 6.400222083393183 9.612860187504728 4.69306735727583 9.942804995561994 31:0.106795 106:0.15227293 107:0.15116632 160:0.00062296224 318:0.10167569 360:0.0010409556 1056:0.12718464 1146:0.048113051 1206:0.046250197 1711:0.014162511 1712:0.014125811 1733:0.013942809 2005:0.65524056 2050:0.23200314 2052:0.23200314 2053:0.23200314 2054:0.23200314 2055:0.23200314 2057:0.23200314 2062:0.011156289 2201:0.21302039 2411:0.065575709 2570:0.22463944 2586:0.052761547 3506:0.21302039 3665:0.10135641 
0 0 9.800838627829503 0.7115931450742863 0 10.07469202030683 0 0 0 0 0 0 0 0 0 0 0 0 0 0 0 0 31:0.10341052 106:0.14744719 107:0.14637566 160:0.00060321972 318:0.098453447 360:0.0010079663 1056:0.12315399 1146:0.046588283 1206:0.044784465 1711:0.013713682 1712:0.013678145 1733:0.013500942 2005:0.6344751 2050:0.22465064 2052:0.22465064 2053:0.22465064 2054:0.22465064 2055:0.22465064 2057:0.22465064 2062:0.010802731 2071:0.08673979 2201:0.20626948 2411:0.063497525 2570:0.21752031 2586:0.051089462 3164:0.1791615 3506:0.20626948 3665:0.098144287 3742:0.15085008 
0 5.041472921641979 0 0 0 0 0.4256784071502686 0 0 0 0 3.98092135651354 0 0 1.44998197508761 0 1.781539125714592 0.7000247494558688 7.033684233814353 0 0.1069630064090369 0.121063367074849 31:0.18599763 106:0.26520346 107:0.26327616 160:0.0010849712 318:0.17708167 360:0.001812962 1054:0.3710032 1056:0.22150889 1146:0.083795246 1206:0.08055084 1555:0.29372467 1586:0.34860254 1711:0.024665888 1712:0.02460197 1733:0.024283247 2062:0.019430154 2068:0.26140027 2072:0.38039606 2117:0.017209875 2411:0.11420878 2543:0.30654952 2586:0.091891217 3305:0.23539154 
5.681917528525764 5.022230474173156 3.850904757201238 3.018436273907516 9.153537372363038 4.959066348564623 4.157992158171052 0.959892807263757 8.357730101336244 3.689546318146074 3.656593222509535 13.89788472926923 2.780478240058828 3.50646060069024 3.02482271474112 2.099255862776301 5.076480715745749 1.023396909117952 1.152897904711759 2.814205497051209 1.275647888918631 4.779363680430937 31:0.16541467 106:0.23585539 107:0.23414137 160:0.0009649056 318:0.15748537 360:0.0016123351 580:0.2995748 1020:0.23943109 1056:0.19699617 1146:0.11178339 1206:0.071636885 1302:0.23585539 1549:0.2308481 1711:0.0219363 1712:0.021879455 1733:0.021596003 2019:0.28658535 2062:0.017279965 2117:0.030610776 2162:0.35934943 2411:0.10157015 2586:0.081722308 3240:0.2995748 3293:0.22621207 3566:0.39130552 
32 4.568648504285638 11.69503048008658 17.40069926720723 22.86427176483451 21.45533991598484 9.009323302337153 8.959625402267719 12.66240996595215 26.48381431758795 7.588082266188528 19.93744133182711 5.821510841567336 6.244697136580285 2.570076285985801 7.504846333009561 8.640157464659417 5.233768150536526 12.77778236407783 8.613871180709591 9.163470732330005 9.985091718253587 31:0.11995575 119:0.21724625 160:0.00034986609 205:0.28376773 360:0.0005846182 1030:0.23927168 1142:0.23927168 1631:0.063941909 1906:0.28376773 2007:0.24532943 2045:0.26059374 2056:0.26059374 2062:0.01253112 2111:0.10224785 2133:0.18580111 2215:0.28376773 2586:0.059263548 3057:0.19337965 3090:0.26059374 3154:0.097773401 3156:0.080137394 3208:0.080478491 3525:0.26059374 3739:0.21724625 3741:0.051342895 3744:0.184089 3797:0.19337965 4444:0.091684331 4445:0.091684331 
4.784165046107837 4.715147816756549 1.970138229496996 0.9053079401348365 2.915893645604044 17.99993857405114 1.476162500489264 4.197506972924837 7.969648386197372 17.60446692282743 6.941320427949158 5.057312543742935 0 14.01644962518489 0 1.294302374174331 2.988254941366769 0.6871571863029259 2.380921571387694 12.0314997302502 2.207647196893685 4.696413441710669 31:0.16158828 160:0.00023564632 326:0.16994757 332:0.13812561 360:0.0003937596 377:0.13472707 607:0.16523744 632:0.11048965 1020:0.11694627 1056:0.096219616 1146:0.0545988 1156:0.15755845 1194:0.23076361 1303:0.023706682 1520:0.34818164 1526:0.075732129 1540:0.027215407 1544:0.11519978 1556:0.092773114 1583:0.031727556 1632:0.042319572 1663:0.11122596 1741:0.16523744 1877:0.098589433 1888:0.075269161 1890:0.17551846 2008:0.13315979 2062:0.0084401217 2114:0.10455715 2117:0.007475671 2566:0.16994757 2586:0.039915949 3058:0.22872519 3107:0.16523744 3151:0.18976243 3241:0.13024756 3258:0.10640956 3380:0.11694627 3402:0.35639603 3593:0.1911269 3597:0.1911269 3612:0.1911269 3663:0.14876823 3741:0.017290564 4512:0.15142689 4531:0.15142689 4537:0.060879345 
0 0 8.480979222761341 0 0 10.99057513922544 0 0 0 0 0 0 0.8447322142406715 0 0 0 0 0 0 0 0 5.331894831915114 31:0.093774028 106:0.13370706 107:0.13273538 160:0.0005470076 318:0.089278886 360:0.00091403715 643:0.083571627 1020:0.13573414 1048:0.47486681 1054:0.18704789 1056:0.11167766 1146:0.063370305 1206:0.040611144 1443:0.19178347 1444:0.19178347 1445:0.19178347 1584:0.14663882 1620:0.18704789 1629:0.12740575 1711:0.012435748 1712:0.012403523 1733:0.012242833 1877:0.1144282 1884:0.18287081 1896:0.13679285 1998:0.16475482 2060:0.20371617 2062:0.0097960593 2116:0.17913429 2120:0.042743311 2121:0.042743311 2411:0.057580395 2414:0.1757542 2586:0.046328598 3048:0.17266841 3050:0.17266841 3109:0.31274298 3548:0.13178961 3659:0.16246601 3660:0.16246601 3674:0.12740575 4444:0.071673174 4445:0.071673174 
19.76854519179622 0 0 0 0 0 0 0 0 0 0 0 0 0 0 0 0 0 0 0 0 0 31:0.087524856 106:0.12479672 107:0.12388979 160:0.00051055461 318:0.083329274 360:0.00085312503 361:0.11741049 643:0.078002352 1020:0.12668871 1048:0.44322133 1054:0.17458288 1056:0.10423538 1146:0.039431507 1193:0.13821794 1206:0.037904787 1443:0.17900287 1444:0.17900287 1445:0.17900287 1526:0.082041143 1584:0.1368667 1620:0.17458288 1629:0.11891533 1711:0.011607021 1712:0.011576943 1733:0.011426961 1877:0.10680262 1884:0.17068416 1896:0.12767687 1998:0.15377543 2006:0.17900287 2060:0.19014037 2062:0.0091432426 2071:0.22024512 2116:0.16719665 2120:0.039894864 2121:0.039894864 2411:0.053743194 2414:0.16404181 2586:0.043241226 3048:0.16116166 3050:0.16116166 3109:0.29190155 3294:0.095971613 3548:0.12300705 3659:0.15163916 3660:0.15163916 3674:0.11891533 3741:0.037461978 4444:0.06689682 4445:0.06689682 
0 0 0 0 0 0 0 0 0 0 0.4148443499757412 0 0 0.09842140630393778 0 0 0 0 0 0 0 0 31:0.17790802 106:0.25366894 107:0.25182547 160:0.0010377824 318:0.16937984 360:0.0017341106 966:0.29666788 1020:0.25751471 1056:0.42374957 1146:0.080150732 1206:0.077047435 1711:0.023593093 1712:0.023531954 1733:0.023227094 1877:0.2170931 2062:0.018585077 2117:0.016461365 2411:0.10924148 2586:0.087894584 2632:0.42085983 3156:0.11885287 3208:0.11935876 3503:0.265936 3620:0.34694238 
25.01080637266217 0 0 11.80066205227833 0 6.274738113033354 0 0 0 12.73205261110736 0 0 0 0 0 0 0 0 2.32137015399375 0 0 0 31:0.12211393 106:0.17411531 107:0.17284998 160:0.0007123214 318:0.11626029 324:0.17284998 360:0.0011902727 380:0.19900722 533:0.19480597 1029:0.22886972 1056:0.14542831 1146:0.055014499 1206:0.052884433 1542:0.15454275 1631:0.032546159 1711:0.016194015 1712:0.016152051 1733:0.015942798 1996:0.24974327 2062:0.012756573 2071:0.3072841 2120:0.11132194 2121:0.11132194 2155:0.13128893 2411:0.074982042 2586:0.060329787 3096:0.19685883 3101:0.25686225 3104:0.25686225 3154:0.099532489 3244:0.21773238 3438:0.11073946 3571:0.28887313 3573:0.28887313 3607:0.28887313 
0 3.55335779039344 0 6.791513577566763 10.2466618166418 0 4.289429825343851 2.606718262536248 5.979334527507752 14.26794730171191 3.575745151949769 6.660328390332766 0 3.275599419238515 1.008975735731925 2.314213125636861 2.994483535627419 0.5939431250506249 5.867461726968293 3.385379704851302 1.942555326140285 0 31:0.093878808 106:0.13385646 107:0.13288369 160:0.00054761881 318:0.089378644 360:0.00091505847 643:0.083665008 1020:0.1358858 1048:0.47539741 1054:0.18725689 1056:0.11180245 1146:0.042294075 1206:0.040656522 1443:0.19199776 1444:0.19199776 1445:0.19199776 1584:0.14680267 1620:0.18725689 1629:0.12754811 1711:0.012449643 1712:0.012417382 1733:0.012256513 1877:0.11455606 1884:0.18307515 1896:0.13694569 1998:0.16493891 2060:0.20394379 2062:0.0098070052 2116:0.17933445 2120:0.042791071 2121:0.042791071 2411:0.057644733 2414:0.17595058 2586:0.046380365 3048:0.17286135 3050:0.17286135 3109:0.31309243 3548:0.13193687 3659:0.16264755 3660:0.16264755 3674:0.12754811 4444:0.071753259 4445:0.071753259 
0 0 2.008312724730632 32 3.717447435404724 0 2.251534820889595 0 2.789483759591266 0 0 4.121756255757996 0 0.3231725197152787 2.396455104432581 0.793826661153885 0.1604716950456262 0 0 2.930582267187806 0 1.831380228631532 31:0.12633993 106:0.18014092 107:0.1788318 160:0.00073697271 318:0.12028371 324:0.1788318 360:0.0012314645 380:0.20589426 533:0.20154762 1029:0.23679021 1056:0.15046115 1146:0.056918387 1206:0.054714606 1542:0.15989101 1711:0.016754442 1712:0.016711025 1733:0.016494531 1996:0.25838614 2062:0.01319804 2071:0.21194552 2120:0.11517446 2121:0.11517446 2155:0.13583244 2411:0.077576946 2586:0.06241762 3096:0.20367153 3101:0.26575148 3104:0.26575148 3154:0.10297701 3244:0.22526745 3571:0.29887016 3573:0.29887016 3607:0.29887016 
0 4.378821724591421 0 0 1.649846893161465 0 0 0 0 19.35766590258665 0.3430372768982846 1.155363717367196 0 3.661814578918699 0 0 0 0 0 0 0 0 31:0.38058374 160:0.0011100206 318:0.12078004 360:0.0024730919 629:0.22619698 731:0.19837885 1020:0.36725311 1194:0.12078004 1206:0.16482113 1303:0.074447457 1526:0.11891298 1540:0.085466111 1598:0.22288689 1618:0.19649714 1877:0.30960607 2062:0.0132525 2070:0.21154559 2411:0.15579411 2572:0.17058558 2586:0.062675177 3178:0.10209456 3310:0.18088425 3382:0.25304585 3397:0.15800271 3744:0.19468646 4408:0.26684806 4444:0.09696233 4445:0.09696233 
30.72451213357794 10.312117473538 14.84572255105047 20.7698198442332 19.11899669336884 23.20934756840905 12.07783763827476 11.50618776662626 15.8170189754488 31.85416843528899 9.378157279411312 21.14803913282056 2.363786654480524 9.030198174836523 4.386774996012799 9.22444567319538 8.715417554985061 1.249614182961675 11.63217864180455 20.09933283122773 6.365980201741885 12.89751452517004 31:0.055148863 160:0.00016084863 332:0.094282456 360:0.00026877436 553:0.073979615 722:0.24892054 728:0.10534956 731:0.086238847 985:0.24525707 1146:0.012422772 1194:0.052505253 1544:0.078633631 1577:0.11600365 1578:0.11600365 1631:0.014698435 1632:0.057773403 1711:0.0073135108 1712:0.0072945588 1726:0.16218037 1733:0.0072000566 1740:0.11278859 1948:0.13046034 2062:0.0057610998 2065:0.33001072 2071:0.092516711 2111:0.047007775 2117:0.015308341 2236:0.52184136 2411:0.033863249 2541:0.18178573 2572:0.11123493 2586:0.027246025 3133:0.12446027 3154:0.044950676 3156:0.073685276 3208:0.073998911 3251:0.46401458 3307:0.10154695 3528:0.11980625 3629:0.0466297 3635:0.12446027 3795:0.091962668 3803:0.11000357 
7.427296190379024 6.189629883336361 10.17876191793728 9.644622955798825 10.55163517490749 14.34269451538816 5.56190098569451 6.119641107815271 7.439016497500703 17.76850538771278 3.801650009606648 9.264081427009524 0.8093546725314116 3.400671830785012 1.873368714446808 3.032619786263169 4.106445804771258 0.5833562208108443 2.316731107029884 12.33643867631917 3.017039061868795 7.826376781707035 31:0.10483254 106:0.14947477 107:0.1483885 160:0.0006115147 318:0.099807299 360:0.0015327405 635:0.1841839 1146:0.047228927 1206:0.045400305 1584:0.16393153 1632:0.054910766 1711:0.013902262 1712:0.013866236 1733:0.013686596 1877:0.1279224 1887:0.16899966 1896:0.15292445 1998:0.1841839 2006:0.21439996 2062:0.010951282 2240:0.22051147 2411:0.12874138 2586:0.051792002 2593:0.23658668 3156:0.070034216 3208:0.07033231 3307:0.19303072 3352:0.23658668 3511:0.070935308 3568:0.24799222 3572:0.24799222 3575:0.24799222 3578:0.24799222 3581:0.24799222 3598:0.24799222 3611:0.24799222 3622:0.071547619 3674:0.14243036 3742:0.15292445 4445:0.080125393 
24.78621888324115 7.13130823520795 15.21008286590823 16.48284077888048 24.49279042484916 24.08178142290174 11.98426801863629 11.15625978873155 15.9844122781854 32 7.215724561469879 20.63220977587448 2.564363752432366 7.960297078157021 4.632084784947724 5.527687675396366 11.62203739144981 1.592416387606382 7.043243337882642 7.962099567060583 5.958818869047503 15.36854685968167 31:0.13100295 160:0.00019104332 318:0.062361602 360:0.00031922901 1146:0.02950958 1194:0.062361602 1206:0.028367021 1289:0.040789591 1296:0.039900458 1303:0.019219495 1540:0.022064091 1583:0.025722183 1598:0.11508179 1632:0.034309348 1711:0.0086864118 1712:0.0086639022 1733:0.0085516599 2045:0.14229643 2056:0.14229643 2062:0.0068425804 2120:0.029856346 2121:0.029856346 2122:0.11862666 2200:0.13065358 2586:0.032360682 2591:0.10343894 2603:0.4434723 2606:0.1478241 2607:0.4434723 2608:0.1478241 2623:0.1478241 2663:0.10922601 3154:0.053388871 3358:0.14229643 3511:0.088643606 3520:0.11862666 3622:0.089408774 3691:0.20291228 3763:0.55111996 
4.935051281920278 2.087893487578588 32 0.5523289526745817 4.511968711807398 6.096406755790084 2.657564320220192 1.487150784756919 3.389121396951449 6.58085505766448 1.78456810729695 4.91605493814099 0.7695743066764486 0 0.9968528585307934 1.042647732346303 1.435391669264559 0.8736898146902287 0.1745346581561039 0 0.7623524603033424 1.660410055315196 31:0.12054422 106:0.17187716 107:0.17062808 160:0.0010547473 233:0.15173475 318:0.11476582 360:0.0017624586 644:0.14494047 779:0.11404788 1146:0.054307317 1206:0.052204633 1303:0.035370181 1540:0.040605172 1584:0.18850061 1631:0.032127796 1711:0.01598585 1712:0.015944425 1733:0.015737862 1744:0.066152677 1877:0.14709465 2006:0.24653295 2097:0.27204488 2108:0.54408977 2120:0.05494548 2121:0.05494548 2586:0.05955428 3175:0.13721699 3225:0.4930659 3251:0.25356042 3561:0.13434885 
12.96182466823036 0 3.642067453690093 11.85716062966146 6.780240644823928 15.96060069895716 11.89628243311615 9.987979778696728 20.2117507434517 24.00303751027937 4.860069839935342 17.46435989254776 0.7281839704256621 15.71866311971307 3.37813836408014 0 4.89187689291126 0.6690717333440006 7.175799085725018 2.949156542918083 4.90401559993804 2.754808392085769 160:0.00047025642 360:0.00078578769 530:0.49486953 1206:0.034912954 1442:0.15721203 1520:0.23161074 1711:0.010690876 1712:0.010663172 1733:0.010525029 1986:0.089479086 2001:0.11950543 2004:0.58400313 2062:0.0084215645 2111:0.068715875 2117:0.029836937 2411:0.049501232 2506:0.099884785 2586:0.039828187 2604:0.18193578 2675:0.15721203 3081:0.17513255 3156:0.053856497 3208:0.054085732 3305:0.10202518 3388:0.17513255 3397:0.10040596 3564:0.19070667 3580:0.19070667 3592:0.19070667 3599:0.19070667 3741:0.034505096 
32 3.729834075055329 9.107296303638435 7.344135688383298 5.739099643816446 9.790613663283905 10.57641830321586 3.192438825674979 10.97310056541843 17.89416447794615 5.060426832756217 9.578890780281968 0.7573326822050023 1.807569631116002 4.09333571920677 2.602140460951079 6.45840987555095 0.4866250732009253 9.233090080442135 3.679111484009284 2.132598656995906 1.058728147973739 31:0.17969919 160:0.00052411541 297:0.18375735 318:0.085542577 332:0.15360681 360:0.00087578482 735:0.15785985 1056:0.10700397 1146:0.10119711 1194:0.17108515 1206:0.038911573 1586:0.16839891 1598:0.15785985 1628:0.14484578 1631:0.023946976 1663:0.12369224 1711:0.011915314 1712:0.011884437 1733:0.011730472 1877:0.1096394 1986:0.099727224 2006:0.18375735 2062:0.0093860956 2063:0.080536486 2114:0.11627598 2117:0.033254195 2155:0.096600424 2566:0.18899539 2586:0.088779506 3049:0.16544226 3156:0.12004948 3208:0.12056046 3257:0.16020423 3293:0.1228734 3380:0.13005368 3692:0.70087077 
22.68935664206114 11.61852713067924 5.090084286559136 9.109491780833015 14.28290397921775 8.778429616574671 4.519632619681503 5.729704866716831 7.728566663827207 14.95271871435753 4.093572237996924 11.51206399632559 2.210189947285676 2.59787861139016 0.8613216359869286 2.507173746331853 4.360611965048125 1.737778657811891 5.017602480836449 3.907160969631432 3.221395674393492 6.542232280659043 160:0.0002913795 319:0.19927299 360:0.00048688846 1146:0.045008047 1301:0.1577652 1442:0.19482291 1540:0.033652177 1546:0.16105266 1631:0.079879254 1632:0.052328658 1663:0.13753224 1711:0.013248525 1712:0.013214194 1733:0.013043002 1888:0.093071219 2062:0.010436312 2067:0.39854598 2068:0.14040314 2117:0.036975027 2194:0.14040314 2565:0.2101422 2586:0.049356549 3049:0.1839537 3482:0.22546149 3574:0.2363307 3585:0.2363307 3586:0.2363307 3708:0.38168435 3766:0.19482291 3767:0.19482291 3771:0.19482291 3773:0.19482291 4512:0.18724116 
14.41165195306499 0 20.41559078201255 8.932165884580641 13.93208018032694 18.23702261011656 10.99609373267444 7.097843818382502 10.31880266846936 19.74461950353238 5.778121536123583 13.49298753386679 0.9028470779375941 6.184774590854005 4.254741290637813 4.388243328800277 6.205220864101602 0.4801865593183463 6.839173040161245 12.53758147729243 3.892863044180203 13.84616362371206 160:0.00026397307 360:0.00044109294 633:0.086715468 782:0.12544148 1146:0.040774702 1301:0.1429262 1442:0.3529967 1540:0.030486937 1546:0.14590445 1631:0.048244007 1632:0.047406755 1711:0.012002402 1712:0.0119713 1733:0.011816209 1888:0.084317172 2002:0.16391174 2062:0.0094546981 2068:0.12719717 2117:0.033497248 2194:0.12719717 2565:0.19037675 2577:0.19037675 2586:0.044714195 2588:0.10214676 3049:0.16665147 3156:0.060463459 3178:0.072837071 3208:0.060720816 3574:0.21410202 3585:0.21410202 3586:0.21410202 3637:0.20425515 3674:0.24593213 3708:0.34578407 3766:0.17649835 3767:0.17649835 3771:0.3529967 3773:0.17649835 3802:0.18052987 
32 2.99769158798633 16.51183785600872 18.63990978051112 30.42622380924586 32 8.268269141595381 6.018609936379519 6.691754469602331 32 1.571062379449365 18.18399982104414 3.740991582763676 0 2.567127413553879 2.304793390513138 4.191305369502486 0.2271414484003949 6.083632042411997 3.437106140821395 2.399626361699916 4.243717794188832 160:0.0018113428 360:0.0030267122 966:0.51780335 1206:0.13447839 1711:0.041179323 1712:0.041072612 1733:0.04054051 2062:0.032438345 2071:0.52092294 2117:0.057463246 2120:0.28307755 2121:0.28307755 2411:0.1906698 2586:0.15341098 3402:0.45658494 3741:0.066453698 
32 9.054120642557869 16.60115268555648 10.10239034900122 17.96081498873564 20.90154726474967 12.04744890410141 3.900410153359659 0.9943609588180324 20.85189992681585 6.99787753679388 16.99717445073846 2.318017881424332 2.167970820368907 4.120609157847505 8.582292402358883 6.460196626604337 1.224776352532905 10.22258115707651 7.788457732812617 3.472294858040124 12.71252894977786 160:0.00045766708 360:0.00076475119 530:0.48162126 1206:0.033978292 1442:0.15300327 1520:0.22541023 1711:0.010404668 1712:0.010377706 1733:0.010243261 1986:0.087083621 2001:0.11630613 2004:0.56836865 2062:0.0081961089 2086:0.12648196 2111:0.066876267 2117:0.029038166 2411:0.048176023 2506:0.097210746 2586:0.038761937 3156:0.052414693 3208:0.052637791 3388:0.17044404 3397:0.097717971 3564:0.37120244 3580:0.18560122 3592:0.18560122 3599:0.18560122 3655:0.16046025 3741:0.050372028 
1.571612678618155 0 0 0 0 0 0 0 0 0 0 0 0 0 0 0 0 0 0 0 0 0 31:0.1828211 106:0.26067422 107:0.25877984 160:0.0010664417 318:0.1740574 324:0.25877984 360:0.00089099977 533:0.29165093 1146:0.08236416 1206:0.079175163 1595:0.36466707 1711:0.024244635 1712:0.024181809 1733:0.023868529 2062:0.019098319 2071:0.46004593 2120:0.083332017 2121:0.083332017 2586:0.090321866 3156:0.12213509 3208:0.12265495 3438:0.16579198 3534:0.39716342 3690:0.22535542 3741:0.039125114 
17.07333688020966 3.852447117065317 7.922066413949596 7.688626395779721 10.89282799392028 10.74442017425529 4.999582286170233 3.406634878985309 6.866395345193884 14.95329614739926 4.02119101162283 7.59284808145622 0.5553493561223839 3.597178192097744 1.337500271787271 2.658994600147209 3.614903200269549 0.7326482928909086 6.0959376879204 4.018347919188694 2.450057292865736 5.501955352963219 31:0.09351822 106:0.13334232 107:0.13237329 160:0.00054551541 318:0.089035341 360:0.00091154373 643:0.083343651 1020:0.13536386 1048:0.47357141 1054:0.18653764 1056:0.11137302 1146:0.042131624 1206:0.040500361 1443:0.1912603 1444:0.1912603 1445:0.1912603 1584:0.1462388 1620:0.18653764 1629:0.1270582 1711:0.012401824 1712:0.012369687 1733:0.012209436 1877:0.11411605 1884:0.18237196 1896:0.13641969 1998:0.16430538 2062:0.0097693365 2116:0.17864563 2120:0.04262671 2121:0.04262671 2411:0.05742332 2414:0.17527475 2586:0.046202218 3048:0.17219739 3050:0.17219739 3109:0.31188984 3548:0.1314301 3569:0.22122703 3659:0.16202282 3660:0.16202282 3674:0.1270582 4444:0.071477655 4445:0.071477655 
18.11546356095807 2.353451195646813 9.762494086827145 11.46458048310787 12.26911899991419 11.00361714867025 5.994046337346715 4.783982288324472 7.527797598043168 16.6694596000863 5.670250231118214 12.07741058953503 1.685245478210247 3.165510688876144 1.51969248639561 3.205856631965749 5.151357380714357 0.6972400918328691 3.135259677350407 6.409695645159823 3.672207071986634 5.632921969840281 160:0.00031485223 360:0.00052611084 1008:0.098767356 1442:0.2105173 1540:0.036363104 1631:0.028771368 1708:0.17791772 2062:0.011277032 2071:0.090548155 2117:0.019976816 2194:0.15171362 2565:0.22707067 2586:0.053332576 3049:0.1987725 3156:0.072117412 3208:0.072424373 3386:0.23451407 3563:0.5107377 3602:0.5107377 3674:0.14666701 3741:0.023102303 3766:0.2105173 3767:0.2105173 3771:0.2105173 3773:0.2105173 
16.38319898833661 0 0 0 0 0.4109024800129817 0 0 0 16.3932891186629 0.2998831312176509 0 0 0 0 0 0 0 0 0 0 0 31:0.15114173 106:0.2155044 107:0.21393828 160:0.0017632958 318:0.14389661 360:0.0014732134 526:0.25512462 966:0.25203414 1056:0.17999819 1146:0.06809204 1206:0.065455634 1526:0.14167221 1555:0.23868074 1666:0.26185708 1711:0.020043507 1712:0.019991568 1733:0.019732574 1744:0.082944084 1877:0.36886281 2062:0.015788949 2071:0.25355256 2112:0.24111345 2411:0.092806083 2543:0.24910222 2586:0.074670828 3156:0.10097144 3175:0.17204651 3208:0.10140121 3566:0.35754139 3741:0.032345486 4444:0.11552034 4445:0.11552034 
2.400004496937118 0 12.21399670420562 0 1.179958055343356 4.679771126312943 4.308306668527011 11.98450820860461 5.299279029680764 5.840831239332589 0.8570303823243546 9.017123851525472 1.822356112726014 5.382546296050763 0.05557123984169751 1.215088951157274 1.497358765884343 0.5241071196297392 0 0.8051979259179369 3.00747288862715 1.46224767253287 31:0.18939047 106:0.27004112 107:0.26807866 160:0.0011047625 318:0.18031187 328:0.39837603 360:0.0018460327 577:0.20441172 1056:0.45109901 1146:0.085323781 1206:0.082020192 1711:0.025115826 1712:0.025050742 1733:0.024726206 2062:0.019784586 2411:0.11629209 2586:0.093567433 3293:0.25900006 3661:0.31968784 3665:0.17974566 3697:0.37777078 
0 4.334817041884987 0 32 1.385692823427874 0 0.04913953639650262 0.4657873076646673 0.02887899227617508 11.49142510722635 0.1574054489249941 1.86380311135787 2.721576093239843 0 0 0 0 0 0 0 0 0 31:0.2098013 106:0.29914376 107:0.29696981 160:0.001223824 318:0.19974429 324:0.29696981 360:0.0010224909 533:0.33469192 1146:0.094519223 1206:0.090859603 1595:0.41848357 1711:0.027822588 1712:0.027750489 1733:0.027390977 2062:0.021916793 2120:0.095629913 2121:0.095629913 2586:0.1036513 3156:0.14015943 3208:0.14075601 3534:0.45577563 3690:0.25861271 
12.51206381642936 5.775214502425364 8.406290277931904 11.91482070749675 14.23727484031142 16.05755119889235 9.251519173919489 9.150077660786623 9.150961701674893 19.7498080514956 5.948697295563369 14.06662071197243 1.029816562745731 5.392197358142634 2.032691086610769 6.368501300004384 5.117311907106704 0.7084513553864287 3.551442536114167 11.07410508786005 3.487004033769864 7.319048242988423 31:0.10917807 106:0.15567081 107:0.15453951 160:0.00063686327 318:0.10394452 324:0.15453951 360:0.0010641839 532:0.17792585 1020:0.15803087 1146:0.049186665 1206:0.047282243 1296:0.066506214 1542:0.13817162 1628:0.17600505 1631:0.029098457 1711:0.01447854 1712:0.01444102 1733:0.014253935 2014:0.21291058 2046:0.23718015 2047:0.23718015 2049:0.23718015 2062:0.011405235 2122:0.19772731 2199:0.21777381 2202:0.21777381 2411:0.067038992 2568:0.22965214 2569:0.22965214 2586:0.05393889 2674:0.21291058 3056:0.17600505 3226:0.22328729 3228:0.22328729 3508:0.21777381 3511:0.073875726 3551:0.17994038 3561:0.12168106 3622:0.074513418 3770:0.21291058 
32 5.802655296055825 10.55448223138425 13.1462095283906 15.75589931206483 29.62734959063483 7.080555580849871 6.668158234369561 9.693540157458406 23.16620778562802 5.999217623564162 18.35283873155715 4.950639229859079 9.152289720979816 3.953210753737113 4.155560538815367 5.21476573139836 1.248632263083824 18.20135227428133 5.043380839383717 4.200222489396913 7.655881616758641 160:0.00043028808 214:0.34899601 360:0.0007190015 1146:0.033232307 1631:0.03931996 1708:0.48629717 1711:0.01956446 1712:0.019513761 1733:0.019260957 1744:0.080961689 1970:0.34899601 2062:0.015411587 2071:0.24749256 2087:0.23297618 2117:0.027301017 2155:0.31722792 2239:0.26304881 2586:0.072886167 2637:0.34899601 3741:0.031572416 3768:0.28770032 4537:0.11116514 
0 6.674841900313989 0 0 0 0 0 0 0 0 6.93980889525025 0 0 0 0 0 0 0.7885103432460225 0 0 0 0 31:0.10841583 160:0.00031620848 164:0.18078721 360:0.0005283771 1629:0.14729878 1705:0.2162534 1708:0.17868411 1726:0.15941326 2000:0.19962873 2062:0.011325609 2071:0.27281459 2111:0.092411463 2114:0.14030288 2117:0.010031434 2586:0.05356231 3096:0.17477625 3330:0.12288204 3390:0.47104851 3550:0.19962873 3567:0.25646887 3583:0.25646887 3588:0.25646887 3615:0.25646887 3670:0.19047951 3741:0.023201818 3743:0.16637937 3745:0.22172839 
32 10.00517165086525 16.64415332734138 19.69826929874618 25.60321041423852 32 13.75752297937632 12.3498017199508 21.41468698453715 32 11.6260950653198 32 3.099917232668869 7.675507700899263 4.54027681837166 10.06095963590836 10.73120882864529 0.870945461482761 12.55359054199081 20.62556581107755 10.93449746444863 16.72019768235329 160:0.00036931806 322:0.21374095 332:0.21647816 360:0.000617122 377:0.21115178 606:0.25896934 1045:0.2663513 1583:0.049725196 1618:0.58839404 1631:0.10124546 2062:0.013227829 2071:0.10621195 2112:0.20200253 2117:0.058581443 2586:0.062558502 2614:0.28576822 2667:0.27508232 3379:0.23732467 3565:0.29954474 3741:0.054197474 
32 9.211083899063041 25.80322920312569 32 32 32 25.65269955312255 16.77003515582166 24.47398110842235 32 14.06915121657908 32 2.250779524827212 14.12651192955711 5.172598149525224 7.674804738312711 12.31584015460276 2.886383051331054 14.92726479405643 11.44057411337997 7.370492365953929 15.60879544191224 26:0.31746765 160:0.0012067116 360:0.0020163874 742:0.29073098 1539:0.24754003 1631:0.11026997 1674:0.42307882 1744:0.11352558 2062:0.021610337 2111:0.17632985 2120:0.28287824 2121:0.28287824 2586:0.10220197 3156:0.13819962 3208:0.13878786 3668:0.35366088 3741:0.13281381 4444:0.1581127 4445:0.1581127 4446:0.34094625 
16.62443807416107 0 3.883398115097624 7.947485482490072 9.089156422365347 16.19089527386416 3.09367945684763 2.739877228710405 9.636812733665204 14.67641168631027 0 4.348539340885049 0.2158281651276843 0.6098212704379037 1.64329171041769 3.599986443892856 8.544988304653787 0 5.097835176808279 0.9598382959189005 3.020634373896798 4.622597485253714 31:0.10850501 160:0.00031646857 164:0.18093592 360:0.00052881171 992:0.035041423 1629:0.14741994 1705:0.21643128 1708:0.17883108 1726:0.15954438 2000:0.19979293 2062:0.011334924 2071:0.27303899 2111:0.092487475 2114:0.14041829 2117:0.010039685 3096:0.17492001 3330:0.12298311 3390:0.47143596 3550:0.19979293 3567:0.25667982 3583:0.25667982 3588:0.25667982 3615:0.25667982 3670:0.19063618 3741:0.023220902 3743:0.16651623 3745:0.22191077 
32 5.012712716019911 12.80205581338531 15.9929268029495 18.9842779905008 26.8236235506457 4.895103844766905 9.339486154337426 7.67359519910087 32 4.091907919911191 19.99432030822861 1.195540137116206 0.1133519902413596 2.603012542919152 5.670390095190527 4.768430486780386 0.2798642688790005 15.72907410722868 5.26729591713913 3.232128492043243 8.460145132233764 160:0.0006392711 196:0.21859716 318:0.10433751 360:0.0010682073 407:0.14101869 992:0.035392092 1056:0.13051428 1146:0.049372628 1206:0.047461005 1631:0.029208471 1633:0.18986907 1634:0.18062069 1887:0.17667048 2062:0.011448356 2070:0.18274659 2071:0.45961893 2117:0.010140155 2410:0.18062069 3164:0.18986907 3233:0.15742693 3419:0.25924848 3589:0.51849696 3606:0.25924848 4444:0.1675245 4445:0.1675245 
8.296745404974733 4.330944882470173 4.569079550484237 0.9756607344739861 10.616027688139 1.896284391038015 4.879714690691943 5.572863294958321 4.206844593381459 17.41183032022025 0 8.35954874552414 0.2070208703924517 0.4451067098921643 0.2698294072759878 0 0 0 0 5.720980644393498 0.402854410587044 7.149848435614809 31:0.19565154 160:0.0017119273 318:0.18627281 360:0.0019070609 1031:0.27117249 1206:0.084731703 1303:0.11481647 1540:0.13180996 1580:0.41154597 1708:0.32246049 1728:0.31885036 1744:0.10737034 2117:0.036206253 3047:0.28768354 3070:0.17386683 3629:0.16542812 3792:0.34374693 3806:0.41154597 
0 0 0 0 0 0 0 0 0 6.746527680661704 2.485176994006858 0 0 0 0 2.621944231143878 0 0.2934147853187415 0 0 0 3.88741854992482 31:0.45722047 160:0.00088902751 232:0.20706699 318:0.14510107 360:0.0014855446 417:0.24837509 418:0.24837509 728:0.29113912 982:0.2640489 1146:0.068661988 1610:0.32058226 1711:0.020211277 1712:0.020158902 1733:0.01989774 1744:0.083638349 2062:0.015921106 2071:0.12783743 2117:0.014101805 2171:0.17128358 2515:0.36053411 3070:0.13543717 3156:0.1018166 3208:0.10224997 3330:0.17274286 3768:0.29721193 
23.78254210145624 6.256336742124513 8.370847443631785 10.40944308599931 13.77844877670884 13.05787352031638 6.958424232347896 7.379732657353325 14.13003222310038 17.92569581212356 5.453592763817494 12.98430318682242 1.514979736782339 8.510496786687865 3.70418955038929 3.476806631741804 5.231889727984623 0 8.914875119409329 12.49395524514583 3.668812902063589 7.33580607856916 31:0.22620483 160:0.0008796733 318:0.071787167 360:0.0011024354 532:0.36864259 1020:0.1091408 1146:0.050954653 1147:0.11177491 1206:0.032654518 1711:0.0099993085 1712:0.0099733967 1733:0.0098441897 1744:0.041379159 1877:0.092009172 1959:0.53511093 2014:0.14704235 2062:0.0078767935 2202:0.15040105 2647:0.35674062 3070:0.06700606 3096:0.3646629 3156:0.050372648 3193:0.086203357 3208:0.050587055 3510:0.15040105 3775:0.19515717 3806:0.31720914 
18.2611345310509 2.685816994018131 5.666601803116748 8.506133441153493 5.064237184329729 6.830958732496542 4.537225629786511 0 8.51251574594373 14.4719568623002 3.375915975259432 6.769747795639479 1.024428521019135 4.07424026798854 2.02102553492885 0.5844102385058342 0 0 0.6234712796685649 4.583723044005561 1.543391834486815 5.984203624092601 160:0.00068301786 199:0.17080559 287:0.22834058 289:0.16573926 300:0.17808128 360:0.0011413072 361:0.15707128 376:0.15806642 554:0.14982542 728:0.22367499 729:0.12540399 1007:0.14078765 1194:0.11147756 1554:0.13564773 1632:0.06133137 1669:0.23946931 1736:0.20017765 1744:0.064257276 1888:0.10908335 2062:0.012231792 2245:0.19764656 3057:0.18876044 3070:0.10405303 3107:0.23946931 3380:0.16948364 3387:0.25436901 3527:0.25436901 3595:0.27698944 3608:0.27698944 3614:0.27698944 3629:0.099002766 3664:0.11254465 
0 1.490361223899731 2.572000105717495 0 4.77927873758961 0 4.818038644386878 9.23420030093847 1.193546081571016 0 2.715476173300336 8.09855158887693 0.1164234056955993 0 0 4.403024120330779 5.286648086171826 0.7427160018911447 4.060446823780127 0.9176825631848392 5.122470589468551 0.8979098755720627 160:0.00069397982 199:0.1735469 287:0.23200528 289:0.16839926 300:0.18093936 360:0.0011596244 361:0.15959216 376:0.16060328 554:0.15223002 728:0.22726482 729:0.12741664 1007:0.14304719 1194:0.1132667 1554:0.13782478 1632:0.062315696 1669:0.24331262 1736:0.20339037 1744:0.06528856 1888:0.11083406 2062:0.012428104 2187:0.22297655 2245:0.20081865 3070:0.10572301 3107:0.24331262 3380:0.17220373 3387:0.25845145 3595:0.28143493 3608:0.28143493 3614:0.28143493 3629:0.10059169 3664:0.11435092 3690:0.14664854 
4.369185407160233 0.1915754732672191 3.011259306054409 6.186261082404062 1.588674853658807 0 2.375080578919009 1.984462423975547 0 0 0 3.936060500550227 0 3.238612133352179 0 2.301489376034 1.403929867883141 0.4214735716290933 0 2.51725821192935 0.9883945329895254 1.880540856861364 160:0.00088394775 199:0.2210531 289:0.21449636 300:0.23046914 360:0.0014770564 361:0.20327843 376:0.20456633 521:0.27019271 554:0.193901 729:0.16229528 1007:0.1822045 1194:0.14427198 1554:0.17555252 1575:0.193901 1631:0.040387814 1632:0.079373805 1744:0.083160452 1888:0.14117344 2062:0.015830136 2117:0.02804246 2411:0.093048177 2572:0.1018824 2599:0.3419873 3070:0.1346633 3257:0.27019271 3604:0.35847407 3629:0.12812735 3809:0.3187505 
14.37626752299671 1.130983270418936 5.185761696589804 3.17813590276562 8.170111169699863 12.21899973784529 2.970077387729044 1.089071367867602 4.13103278033122 6.661488638999105 0.8209136107059367 4.84607824238617 2.113804693215324 2.250717329091499 1.871332247497277 2.339681988286831 1.083827692775196 0.03228062217520491 5.472782769317572 1.083523842706282 1.142751424913846 3.111311142026867 31:0.12627641 160:0.00073660219 199:0.18420568 289:0.17874189 300:0.19205216 360:0.0012308453 361:0.16939388 376:0.1704671 554:0.16157957 729:0.13524222 1007:0.15183277 1141:0.23251584 1194:0.12022323 1554:0.14628961 1632:0.066142957 1744:0.069298407 1888:0.11764119 2062:0.013191405 2117:0.046736104 2541:0.20812078 2596:0.28498132 2599:0.28498132 3070:0.11221623 3201:0.16341657 3227:0.25825623 3377:0.21057035 3378:0.23667116 3438:0.11451422 3629:0.10676976 3776:0.36556004 3805:0.26561787 
27.57414932050404 0.03072682642520901 1.994677790383722 0 0 6.996902998269567 0 0 2.670205126118209 7.736014244692118 0 9.05770963677624 0 3.119234420256737 0 0 0.6721143973696448 0 0 0 0 0.2071722334497326 160:0.00089919645 199:0.22486642 289:0.21819657 300:0.23444489 360:0.0015025366 361:0.20678513 376:0.20809524 554:0.19724592 728:0.29446925 729:0.16509498 1007:0.18534765 1194:0.14676077 1554:0.35716184 1632:0.080743057 1726:0.22666033 1744:0.084595027 1888:0.14360878 2062:0.016103216 2117:0.028526211 2618:0.34788681 3070:0.13698634 3359:0.33487808 3629:0.13033764 3741:0.032989299 3750:0.26020269 
32 5.496977384470573 3.948947921967291 5.116089702531179 10.90143221815271 21.24605642418349 6.71385801097621 4.225123000862443 9.499212153364494 24.2934742625721 7.068177560804445 10.02148935064692 1.50098383121894 2.138537595418733 2.518899781613539 0.9819320588199227 2.038909816505569 0.07942399502896012 4.68132375806812 4.153234005789916 2.639672157617101 5.586655808607567 160:0.0008422383 199:0.21062262 289:0.20437526 300:0.21959436 360:0.0014073609 361:0.19368665 376:0.19491378 521:0.25744355 554:0.1847517 729:0.15463731 1007:0.1736071 1194:0.13746445 1526:0.13533948 1554:0.167269 1575:0.1847517 1631:0.076964195 1632:0.15125704 1744:0.079236491 1888:0.26902423 2062:0.015083184 2117:0.013359632 2171:0.16226898 2187:0.27061217 3070:0.12830916 3257:0.25744355 3509:0.28800129 3604:0.34155932 3629:0.12208161 3690:0.17797782 
8.619014030289238 0.2249443955429768 0 0 2.257209287837633 4.217104694228826 0 0 0 16.48624434119139 0.1483089256521636 0 0 0 0.8321231894914505 0.1653583781918459 0.0738536607252351 0 0 0 0.648496539837187 0.330843701104751 31:0.090050464 160:0.00052528712 199:0.1313611 289:0.12746475 300:0.13695659 360:0.00087774271 361:0.12079848 376:0.12156381 554:0.11522592 729:0.096444183 1007:0.10827526 1194:0.085733815 1554:0.10432232 1626:0.14220634 1631:0.048001024 1632:0.047167988 1633:0.46804452 1726:0.13240906 1744:0.049418208 1888:0.083892505 2007:0.36833632 2062:0.009407079 2117:0.033328537 2599:0.2032264 3070:0.080023845 3379:0.16877538 3402:0.13240906 3591:0.21302369 3601:0.21302369 3617:0.21302369 3629:0.07613985 3741:0.13490042 3776:0.13034443 3793:0.18884609 3804:0.37883581 
2.813047061808007 0 0 0 0 0.4807575202778231 0 0 0 0 0 0 1.303424042979507 0 0 0 0 0 0 0 0 0 160:0.00066563277 199:0.16645802 289:0.16152064 300:0.17354851 360:0.0011122571 361:0.15307329 376:0.1540431 554:0.14601186 729:0.12221204 1007:0.13720413 1194:0.10864008 1554:0.13219504 1631:0.030412943 1632:0.11954056 1708:0.18806896 1744:0.062621713 1888:0.21261363 2062:0.011920452 2071:0.19142891 2596:0.25752422 2614:0.25752422 3070:0.10140453 3099:0.18806896 3202:0.20048388 3239:0.17843921 3377:0.19028252 3379:0.2138686 3438:0.10348112 3587:0.26993913 3629:0.096482814 3663:0.21011363 3665:0.10829894 3802:0.22761147 3805:0.24002638 3809:0.24002638 
9.073577900006541 0 0 0 0 0 0 0 0 8.167431168959471 0 0 0 0.0316557989351282 0 0 0 0 0 0.07567547366648213 0 0 31:0.14447493 160:0.00084275879 199:0.21075278 233:0.18185748 289:0.20450156 300:0.21973007 360:0.0014082306 361:0.19380635 376:0.19503424 554:0.18486587 729:0.15473287 1007:0.17371439 1194:0.1375494 1554:0.16737237 1583:0.056734764 1631:0.038505879 1632:0.075675255 1744:0.079285458 1888:0.13459524 2062:0.015092505 2117:0.013367888 2411:0.088712448 2572:0.097135024 2596:0.32605186 3070:0.12838845 3257:0.25760265 3438:0.13101762 3590:0.3417704 3610:0.3417704 3629:0.12215706 3741:0.030918741 3805:0.30389781 
0 0 0 0 0 0 0 0 0 0 0 0 0 0 0 0 0 1.593640895167942 0 0 0 0 31:0.090798294 160:0.0005296494 199:0.13245199 289:0.12852328 360:0.00088503198 361:0.12180166 376:0.12257335 533:0.14484875 554:0.11618282 613:0.13142688 729:0.097245109 1007:0.10917444 1194:0.086445797 1540:0.030585294 1554:0.10518867 1624:0.19099094 1625:0.19099094 1631:0.024199825 1632:0.047559698 1633:0.15731047 1737:0.13350865 1744:0.049828605 1888:0.084589195 2051:0.19725164 2058:0.19725164 2059:0.19725164 2061:0.19725164 2062:0.0094852007 2071:0.22848231 2112:0.14484875 2117:0.0084013291 2541:0.149648 2564:0.19099094 2571:0.19099094 2605:0.20491411 3070:0.080688408 3151:0.10662967 3158:0.14484875 3233:0.13043148 3378:0.17017698 3402:0.13350865 3605:0.21479276 3613:0.21479276 3629:0.076772158 3691:0.14063873 3741:0.038863059 3764:0.19099094 3772:0.17706777 4371:0.15731047 4536:0.16189578 
10.72576807209402 0 0 0 0 0 0 0 0 4.866942240719822 0 0 0.4843335721555136 0 0.4159737926351249 0 0 0 2.289560188744976 0 0 0.09224367296168359 31:0.094992112 160:0.000554113 199:0.13856973 289:0.13445956 295:0.25327576 300:0.14447228 360:0.0009259101 361:0.12742747 376:0.1282348 423:0.19981249 554:0.12154911 729:0.1017367 1007:0.11421702 1194:0.090438581 1554:0.11004715 1624:0.19981249 1625:0.19981249 1632:0.049756399 1737:0.13967519 1744:0.052130103 1888:0.088496226 2061:0.20636235 2062:0.009923306 2071:0.31871402 2117:0.0087893722 2171:0.10675762 2611:0.21437874 2612:0.21437874 2622:0.21437874 2625:0.21437874 3070:0.084415268 3099:0.15655999 3151:0.11155471 3201:0.122931 3239:0.14854359 3605:0.22471367 3613:0.22471367 3629:0.080318133 3663:0.1749113 3691:0.1471346 3739:0.17203578 3775:0.122931 
14.9050135425314 1.954354320003905 7.52232943521349 4.741187690631211 7.45807183300731 0 5.644871469186595 8.202617637749039 6.772652909080589 11.75545798288057 5.778048764895964 10.49479075324126 0 2.270426817784506 0 2.078315550334609 3.501415619846036 0 2.153649217460047 4.466322452029918 3.745782922534755 6.503025090549675 160:0.00086007015 199:0.21508191 289:0.20870229 300:0.22424361 360:0.0014371575 361:0.19778738 376:0.19904049 554:0.18866325 729:0.15791128 998:0.21508191 1007:0.17728271 1194:0.14037484 1554:0.17081041 1624:0.31014027 1625:0.31014027 1631:0.03929684 1632:0.077229723 1710:0.19656182 1744:0.080914084 1888:0.13736 2062:0.015402525 2620:0.33274938 3070:0.13102572 3151:0.17315038 3305:0.1865978 3577:0.3487908 3629:0.12466632 
9.14242845320924 0.7196664181238321 3.233432045255094 4.261008557594615 4.314223644644416 9.071147319835339 0.652796781777597 0 2.103393119298594 10.60103210396679 0 5.167346644681441 0.4052223661986236 0 0.8748632423248973 1.212228176824373 2.11819975641565 0 0.4673481276787329 1.143205883822619 0.6769330900226998 2.59591982596267 160:0.00057660555 199:0.14419455 289:0.13991754 360:0.00096349464 361:0.1326 376:0.13344011 533:0.15769034 554:0.12648303 729:0.10586639 1007:0.11885332 1194:0.094109663 1554:0.11451419 1624:0.20792327 1625:0.20792327 1632:0.051776111 1744:0.054246168 1888:0.092088464 2059:0.21473901 2062:0.010326113 2071:0.082912815 2073:0.18882704 2571:0.20792327 2615:0.22308081 2616:0.22308081 2624:0.22308081 3070:0.087841853 3099:0.16291507 3151:0.11608294 3257:0.17624867 3377:0.16483257 3385:0.21473901 3576:0.23383525 3594:0.23383525 3603:0.23383525 3629:0.083578406 3663:0.1820113 3741:0.021154235 3772:0.19276574 4371:0.17125686 4536:0.17624867 
8.927167472603859 5.222154664259567 9.225750951837055 12.10434517656659 12.54654345480585 10.76128612256245 9.619164943478737 9.372353568514249 11.15338951696046 18.49501331021218 9.232215104061954 12.85359870338284 1.528552617369683 6.996243863574123 2.414466471265402 4.384238035599927 5.741738324098408 1.020711567460845 10.55389266933839 7.463285025662898 4.830949079877121 8.031291433157072 160:0.00050082728 199:0.12524431 289:0.12152939 360:0.00083687089 361:0.11517353 376:0.11590323 533:0.13696646 554:0.10986046 729:0.091953289 998:0.12524431 1007:0.10323346 1194:0.081741646 1554:0.099464578 1632:0.044971625 1710:0.11445988 1744:0.047117064 1888:0.079986075 2000:0.15809113 2059:0.18651773 2062:0.0089690412 2073:0.16401114 2117:0.031776604 2567:0.18059772 2571:0.18059772 2595:0.19376323 2600:0.19376323 2611:0.19376323 2618:0.19376323 2620:0.19376323 2622:0.19376323 2624:0.19376323 3070:0.076297559 3099:0.14150455 3151:0.10082716 3509:0.17125664 3562:0.20310431 3576:0.20310431 3594:0.20310431 3603:0.20310431 3606:0.20310431 3629:0.07259442 3642:0.19376323 3669:0.14678156 3690:0.10583246 3741:0.018374117 3772:0.16743221 4371:0.14875005 4536:0.15308584 
0 0 0 0 0 7.692143444596971 0 0.08469584154084797 0 0.8841672881891922 0 0 0 0 3.920638696445765 0 0 0 0 0 0 0 31:0.10886368 160:0.00063502937 199:0.15880487 289:0.1540945 300:0.16556937 360:0.0010611195 361:0.14603553 376:0.14696075 423:0.22899083 554:0.13929876 578:0.14088245 728:0.2079597 729:0.11659317 998:0.15880487 1007:0.13089598 1194:0.1036452 1554:0.12611719 1632:0.057022258 1710:0.14513064 1726:0.16007177 1744:0.059742592 1888:0.10141921 2062:0.011372393 2071:0.091313849 2117:0.010072872 2567:0.22899083 2595:0.24568418 2600:0.24568418 2612:0.24568418 2620:0.24568418 2625:0.24568418 3070:0.096742315 3151:0.12784489 3377:0.36306803 3629:0.092046881 3739:0.19715793 3775:0.14088245 
5.942428884815078 2.239267647443367 3.350733450427854 0.8880797790841535 3.502551106815584 3.38849964805312 3.190920359303187 2.426714575823363 3.629574800614515 10.28127912698464 1.673786429769594 5.652386856992173 0.507670399604217 2.676803085518972 0.4490949213914597 1.198025884477403 1.785967526313266 2.939792652418711 3.022831174249772 4.41438791677122 1.596583688054664 3.399447812630416 31:0.098065364 160:0.00057204005 199:0.14305283 289:0.13880969 300:0.14914635 360:0.0009558658 361:0.13155009 376:0.13238354 554:0.12548155 613:0.14194567 729:0.10502815 1007:0.11791225 1194:0.093364513 1554:0.11360747 1632:0.051366153 1633:0.33980173 1744:0.053816653 1888:0.091359318 2051:0.21303873 2058:0.21303873 2061:0.21303873 2062:0.010244352 2071:0.08225632 2117:0.036294928 2564:0.20627696 2605:0.22131448 2615:0.22131448 2616:0.22131448 3070:0.087146331 3099:0.16162512 3151:0.1151638 3227:0.20055996 3233:0.14087061 3377:0.16352744 3385:0.21303873 3570:0.23198376 3579:0.23198376 3616:0.23198376 3629:0.082916642 3741:0.020986738 
5.466393376175942 1.4140642340796 2.322717507130768 8.632431095954949 2.908565067908723 0 2.814615488813053 1.693105660704743 3.875280916828831 2.170960161960017 1.404016717983303 3.826060749032366 0.3983297061008073 1.9257127692789 0 1.77617445245011 1.73943153712919 0.4972262278243834 0.5172238287625992 3.344959155703452 1.400550439809957 2.920630025186487 31:0.071759733 160:0.00041859266 199:0.1046795 289:0.10157456 360:0.00069945872 361:0.096262319 376:0.096872202 533:0.1144769 554:0.091821642 613:0.10386933 729:0.076854782 1007:0.086282775 1194:0.068319866 1554:0.083132736 1631:0.038251226 1632:0.037587394 1633:0.37297697 1726:0.1055146 1744:0.039380557 1888:0.066852556 2007:0.29352115 2051:0.15589197 2058:0.15589197 2059:0.15589197 2062:0.0074963465 2117:0.026558963 2564:0.15094401 2567:0.15094401 2571:0.15094401 2595:0.16194778 2598:0.16194778 2600:0.16194778 2605:0.16194778 2615:0.16194778 2616:0.16194778 3070:0.063769685 3151:0.084271587 3233:0.10308265 3379:0.13449432 3385:0.15589197 3402:0.1055146 3591:0.16975507 3601:0.16975507 3617:0.16975507 3629:0.060674593 3741:0.10749992 3772:0.13994025 3776:0.10386933 3793:0.15048834 3804:0.30188803 4371:0.12432566 4536:0.12794952 
0 0 0 4.841750430499952 0 1.675923067194413 0 0 0 0 0 0 0 0 0 0.8233512154117519 0 0 0 0 0 0.2543464690610112 31:0.10082844 160:0.00058815776 199:0.14708346 289:0.14272076 300:0.15334867 360:0.00098279811 361:0.13525662 376:0.13611356 554:0.1290171 729:0.10798741 1007:0.12123453 1194:0.095995136 1554:0.11680846 1624:0.21208898 1625:0.21208898 1632:0.052813437 1633:0.34937593 1744:0.055332982 1888:0.093933443 2061:0.21904128 2062:0.010532995 2071:0.08457396 2117:0.037317568 2598:0.2275502 2612:0.2275502 2625:0.2275502 3070:0.089601751 3099:0.16617905 3151:0.11840864 3227:0.20621091 3257:0.17977979 3377:0.16813496 3570:0.2385201 3579:0.2385201 3616:0.2385201 3629:0.085252887 3739:0.18260568 3741:0.043156114 3775:0.1304839 
11.65869439368485 1.144834501638825 7.104015052364055 5.868194763790747 4.972736133650487 9.684370159895201 2.461205876648632 2.993612064277561 4.164140103258406 3.348848854145345 0 8.248456221564799 0.4106922111421096 0.7376782845402196 3.0452048758972 0.7886683682957003 1.900431249148024 0.07116212190129115 1.637338568799193 2.105417968563521 0.875659338371286 3.464717086095309 160:0.0007037106 199:0.17598032 289:0.1707605 300:0.18347643 360:0.0011758843 361:0.16182992 376:0.16285521 520:0.21510036 554:0.15436454 581:0.21848144 729:0.12920323 1007:0.14505296 1194:0.11485489 1296:0.073486932 1554:0.13975732 1561:0.21848144 1632:0.063189468 1726:0.17738424 1744:0.066204017 1888:0.11238815 2062:0.012602367 2073:0.23045146 2117:0.011162298 2176:0.1494716 2611:0.27225601 2622:0.27225601 2624:0.27225601 3070:0.10720542 3151:0.14167188 3331:0.14102473 3382:0.24063209 3523:0.20363447 3629:0.10200216 3670:0.21195265 3769:0.23525839 
16.17972584663712 0 0.3935125358907715 1.275065582098698 2.071799512067099 10.8640552406087 0.1805968718344627 0.710237506431731 1.55831813589037 10.7716612155104 0.3062361500938949 0.03405941940517201 0 0 1.335432968849154 0.1448308517173558 0.1706854753387528 0 0 1.328576984748383 0.6491212794007976 1.548510140215976 31:0.1037067 160:0.00060494742 199:0.15128214 289:0.1467949 300:0.15772619 360:0.0010108532 361:0.13911768 376:0.13999908 554:0.13270005 633:0.099362974 729:0.11107004 1007:0.12469531 1194:0.098735431 1554:0.1201429 1631:0.027640213 1632:0.10864212 1744:0.056912528 1888:0.19322977 2000:0.19095769 2051:0.22529407 2058:0.22529407 2062:0.010833672 2071:0.086988224 2117:0.0095957106 2504:0.15772619 2564:0.21814332 2598:0.23404589 3070:0.092159539 3099:0.34184565 3151:0.12178876 3229:0.19810845 3233:0.14897438 3239:0.16217101 3378:0.19437033 3509:0.20686026 3629:0.087686532 3690:0.12783463 3764:0.21814332 3809:0.21814332 4399:0.21814332 
0 0 0 0 0 0 0.02636271016298274 0 0 0 0 0 0 0 0 0.01335517766185061 0 0 0 0 0.02715394505030239 0 160:0.00062824604 199:0.15710854 289:0.15244848 300:0.16380078 360:0.0010497847 361:0.14447559 376:0.14539093 554:0.13781079 728:0.20573829 729:0.11534773 1007:0.12949776 1194:0.10253808 1631:0.028704733 1632:0.056413152 1708:0.17750566 1726:0.1583619 1744:0.059104427 1888:0.10033586 2062:0.011250914 2071:0.090338443 2117:0.0099652748 2604:0.48611961 3070:0.095708923 3582:0.25477741 3584:0.25477741 3596:0.25477741 3600:0.25477741 3609:0.25477741 3619:0.25477741 3629:0.091063644 3665:0.10221609 3691:0.16681928 4372:0.13142242 
2.727902203808349 0 0 0 0 0 0 0 0 17.59115938960458 7.074198255151368 0 0 0 0 0 0 0 0 0 0 0 160:0.0034448566 360:0.0057562762 779:0.11174579 965:0.092486101 1575:0.15113136 1631:0.062958575 1744:0.12963473 2048:0.25658619 2062:0.024676819 2117:0.010928502 2239:0.21059506 2411:0.14504822 2502:0.21359186 2572:0.15881945 2610:0.26655358 2613:0.26655358 3241:0.19040575 3389:0.25658619 3391:0.25658619 3507:0.47118405 3510:0.23559202 3664:0.22705127 3807:0.24844223 4537:0.17799608 
0 6.403659038787582 13.51850243137697 18.4077584374378 0 0 13.22024688834985 13.02194080995328 18.83367458197896 0 0 24.65562590509112 2.749684913447099 0 3.568827021673342 0 9.349586425092149 0 10.52537030294257 12.72787069313892 4.880876847066695 12.99889323073936 160:0.0034519112 360:0.0057680644 779:0.11197464 965:0.092675502 1575:0.15144086 1744:0.12990021 2048:0.25711164 2062:0.024727354 2239:0.21102633 2411:0.14534526 2502:0.21402927 2572:0.1591447 2610:0.26709945 2613:0.26709945 3241:0.19079568 3389:0.25711164 3391:0.25711164 3507:0.47214898 3510:0.23607449 3664:0.22751624 3807:0.24895101 4537:0.1783606 
30.95928077288176 4.474007431735084 7.930460836914318 8.041562212825456 9.491321884510537 11.81335827004896 4.7301378591083 5.37450867833905 9.999306875217242 27.6524977949239 3.85834456991195 15.22501335175026 0.885851246948742 3.208856595086715 2.023197658760547 1.314049581988175 4.329433783871044 6.336201088222549 8.508953889254151 3.296648916057743 5.67165407072888 5.043649913656734 31:0.08230429 119:0.29811492 160:0.00072015259 360:0.00080223896 742:0.11567009 965:0.064447875 981:0.53639739 1146:0.037079549 1152:0.098961385 1303:0.048299581 1540:0.027724099 1631:0.043871958 1711:0.0109147 1712:0.010886416 1728:0.13413006 1733:0.010745381 2062:0.0085978786 2071:0.069036077 2117:0.0076154011 2124:0.44025222 2128:0.25740611 2155:0.088488202 2572:0.055335753 3156:0.10996808 3193:0.094094888 3208:0.11043615 3369:0.10093833 3507:0.49250877 3741:0.052841243 
31.92077136312154 0 0 0 18.7079656163806 24.73135856030681 0 0 0 30.88260193851727 0 0 0 9.313552389201172 0 5.902984480618312 0 0.4621933258590421 0 0 1.49401257610787 0 160:0.0034448566 360:0.0057562762 779:0.11174579 965:0.092486101 1575:0.15113136 1631:0.062958575 1744:0.12963473 2048:0.25658619 2062:0.024676819 2117:0.010928502 2239:0.21059506 2411:0.14504822 2502:0.21359186 2572:0.15881945 2610:0.26655358 2613:0.26655358 3241:0.19040575 3389:0.25658619 3391:0.25658619 3507:0.47118405 3510:0.23559202 3664:0.22705127 3807:0.24844223 4537:0.17799608 
10.78231102831303 0 0 0 0 0 0 0.01849266287813958 0 32 0 0 0 0.02179168366127373 0 0 0.02418671784411797 0 0.02923467947170029 0.02769385341532534 0.04307699018972788 0 31:0.12729785 160:0.0011138408 183:0.41960851 360:0.00062040079 992:0.041110525 1050:0.15691438 1152:0.15306093 1206:0.055129458 1295:0.20980425 1303:0.11205551 1419:0.20521579 1540:0.085760248 1631:0.10178338 1728:0.20745538 1733:0.016619594 2111:0.10850611 2114:0.16473844 2117:0.035335613 2172:0.21487657 2197:0.20980425 2200:0.25391672 3060:0.15611862 3154:0.10375779 3175:0.28980946 3178:0.10244593 3229:0.24317405 3664:0.12235583 3744:0.39071298 4391:0.20980425 
30.59155153860139 6.807127264357611 9.843821307811595 6.071870014986177 14.27294689286237 10.80808434391509 10.09232846510837 5.813098330492822 16.45238448790202 32 2.132021071396545 24.58605146220801 0.7913030449503671 3.598911265671238 3.71696249764614 1.371953242034482 4.742269097286807 0 23.61925570935971 5.957432133417463 3.33291202164822 7.290674869240873 31:0.12729785 160:0.0011138408 183:0.41960851 360:0.00062040079 992:0.041110525 1050:0.15691438 1152:0.15306093 1206:0.055129458 1295:0.20980425 1303:0.11205551 1419:0.20521579 1540:0.085760248 1631:0.10178338 1728:0.20745538 1733:0.016619594 2111:0.10850611 2114:0.16473844 2117:0.035335613 2172:0.21487657 2197:0.20980425 2200:0.25391672 3060:0.15611862 3154:0.10375779 3175:0.28980946 3178:0.10244593 3229:0.24317405 3664:0.12235583 3744:0.39071298 4391:0.20980425 
18.50153227899494 1.738385184991681 5.077507492062826 6.389323772563724 8.210270820034554 10.20832510569143 4.04810915652426 2.486547571919549 3.90446126433987 12.12905313524372 1.264114569161843 5.072357582691802 1.334995476529811 1.312074814024148 0.8492881783340817 2.662961368051493 2.451863966547414 0.5937780582560486 2.255010046849418 3.576823570443414 2.086768109169759 7.020688581959239 160:0.00062824604 199:0.15710854 289:0.15244848 300:0.16380078 360:0.0010497847 361:0.14447559 376:0.14539093 554:0.13781079 728:0.20573829 729:0.11534773 1007:0.12949776 1194:0.10253808 1631:0.028704733 1632:0.056413152 1708:0.17750566 1726:0.1583619 1744:0.059104427 1888:0.10033586 2062:0.011250914 2071:0.090338443 2117:0.0099652748 2604:0.48611961 3070:0.095708923 3582:0.25477741 3584:0.25477741 3596:0.25477741 3600:0.25477741 3609:0.25477741 3619:0.25477741 3629:0.091063644 3665:0.10221609 3691:0.16681928 4372:0.13142242 
18.55912332374334 0.5322919112262996 4.535726400816178 8.982867668289543 2.99033238783698 6.180049798219913 2.831606802315717 1.862225191582844 5.96543087548426 15.41608450731566 2.233007049910865 11.43895786258267 1.172848560870733 2.502012077557887 1.915729886396941 2.870145290951299 4.301126705893324 8.032473730183362 6.342853920532993 0 3.501303674311501 1.138590946362471 9:0.13273258 31:0.12980127 119:0.23507703 160:0.00056787272 169:0.12945511 360:0.00063260151 965:0.050820049 1146:0.014619446 1149:0.14099116 1152:0.078035504 1194:0.061789566 1303:0.019043197 1540:0.021861699 1573:0.071451072 1618:0.30157648 1626:0.10249011 1728:0.10576758 1744:0.035616398 1885:0.095429068 1904:0.15352917 2117:0.024020346 2155:0.069776928 2199:0.38836532 2502:0.058683135 3096:0.10462577 3156:0.043357388 3193:0.14839611 3208:0.043541935 3308:0.091865634 3369:0.079594415 3618:0.15352917 3806:0.68258074 4532:0.087612749 
32 14.1681983856693 10.40727484775558 15.56285881066207 16.98177071131221 31.83786187693726 6.314677263503399 8.874880343230416 13.04727053037243 19.8727834010096 8.809872891542296 18.24654022746402 1.229776651257007 3.745292367141667 4.50038403833248 10.14290609455899 6.070143271739062 0.03300095755962954 16.2792402399098 4.569881550012529 3.993610923959187 15.76082999427639 160:0.0011355071 232:0.26447553 360:0.0018974062 965:0.076214074 1146:0.087698267 1303:0.028558799 1540:0.032785667 1555:0.30740579 1586:0.18241989 1631:0.025940814 1663:0.26798183 1681:0.17921707 1728:0.31723615 2117:0.018011478 2411:0.0597642 2502:0.088006227 2572:0.065438359 3160:0.37185635 3178:0.15665804 3369:0.23873313 3421:0.23024542 3561:0.10847674 3691:0.30151318 3744:0.2987348 3793:0.068037733 4534:0.17354291 4537:0.14667941 4541:0.21144235 
1.582028218582246 0 0 0 0 0 0.08459906453885771 0 0 10.93859659876495 0.04826336330634332 0 0 0 0 0 0 0 0.01218506951806375 0.04915963093373225 0.02309680686540655 0 160:0.0010013392 360:0.00083660743 635:0.30159628 965:0.13441773 1147:0.25446857 1152:0.20640192 1303:0.10073754 1540:0.057823637 1542:0.21724704 1631:0.045751463 1663:0.23631797 1709:0.23475356 2117:0.0158833 2192:0.24476099 2194:0.24125096 3241:0.27673249 3330:0.38913126 3380:0.24847171 3384:0.37291801 3742:0.25040976 
32 4.365286660327598 8.115077954607926 19.60029664334492 6.139510759867647 13.75126236676161 10.26158938686604 6.45035478854127 13.23780883207236 32 4.421563331222219 16.12976736080674 1.690684316556903 6.713470626904977 0 2.721519630018002 3.596609367839349 1.203922857062321 3.331909238639482 18.68000307381062 8.944089375401346 2.511092481265555 160:0.0010013392 360:0.00083660743 635:0.30159628 965:0.13441773 1147:0.25446857 1152:0.20640192 1303:0.10073754 1540:0.057823637 1542:0.21724704 1631:0.045751463 1663:0.23631797 1709:0.23475356 2117:0.0158833 2192:0.24476099 2194:0.24125096 3241:0.27673249 3330:0.38913126 3380:0.24847171 3384:0.37291801 3742:0.25040976 
28.70088512477595 10.64543525465034 20.27371222121312 15.44008913661081 20.77392328437295 21.25937957995457 5.146087505247468 7.037824305287696 7.855975763102022 29.84116413106221 8.594806707389219 9.919113848765967 1.416717341261035 5.518197416920343 6.379421945918002 2.754024190726664 5.055104102454227 0.5701623800137678 17.99811645029153 3.281123866210045 3.457306894228212 9.728377414645484 160:0.00081591983 360:0.00068169165 635:0.24574927 965:0.10952741 1147:0.20734827 1152:0.16818218 1303:0.082083826 1540:0.047116353 1542:0.1770191 1631:0.0372796 1663:0.19255864 1667:0.24233528 1709:0.19128391 2010:0.2727712 2111:0.11922569 2117:0.012942167 2176:0.1733054 2192:0.19943826 2194:0.19657818 3058:0.19798889 3080:0.20404103 3241:0.22548954 3330:0.31707528 3380:0.20246185 3382:0.27900175 3384:0.30386426 3742:0.20404103 
23.45124671778635 2.628349055014892 8.409185352651745 32 16.15076921944729 19.05266825428209 6.504942215051659 6.839888805452596 6.374067500211377 32 4.668544265503559 11.98324811709277 1.390936583480882 4.856394475088121 1.80997547782337 3.545728382850395 4.348932132951306 1.653959036692433 10.54509049339463 6.48944406201568 3.001478450641812 9.714673650597357 22:0.20552691 31:0.1408925 106:0.20089062 107:0.19943069 160:0.0012327923 318:0.13413869 360:0.0020599677 742:0.19800971 965:0.22065004 1146:0.063474581 1547:0.28103352 1556:0.48534593 1711:0.018684317 1712:0.018635899 1733:0.018394468 2120:0.064220467 2121:0.064220467 2160:0.30607708 2165:0.30607708 3175:0.16037969 3497:0.317967 3561:0.15702741 3665:0.13371748 3671:0.25942881 
32 0 4.152155894550986 5.719787942495185 5.258073215979299 0.3615106384352117 5.234125705754235 5.004207420221819 1.563468156072408 20.47279720039447 12.24818718338996 7.309057153845448 1.884635496816314 5.687319728024615 0 0 2.870712577132252 0 6.115050461380706 5.704992751878456 3.3928430840495 0 160:0.0016021303 318:0.10459555 360:0.002677123 965:0.17205336 1146:0.074242102 1303:0.032235761 1540:0.03700684 1728:0.53712074 2117:0.010165233 2411:0.13491775 2502:0.099337079 2572:0.073863586 3055:0.1368304 3160:0.62959961 3369:0.26947016 3741:0.023511283 3744:0.33719708 4537:0.16556446 
21.50219681684896 7.874134398627561 9.958250816556239 17.66957840567225 16.40762575816447 25.15017572659069 9.491148471241299 8.071796616770149 12.58598029938364 27.98638726010737 5.87312784915283 15.50243679739788 1.420631626338323 7.408643672877391 4.856394453755082 3.422268654360468 8.302079101898949 2.636576053185194 9.853539864304265 7.788491271399323 5.450264583380839 8.940080805350748 24:0.20320155 31:0.20374492 160:0.0008913717 360:0.00049648721 519:0.18164131 604:0.16602 965:0.15954122 1017:0.24098984 1303:0.029891498 1632:0.05336029 1726:0.14979197 1888:0.09490607 2075:0.19460453 2114:0.13183498 2509:0.14217036 3100:0.21428505 3362:0.21428505 3387:0.22130933 3618:0.48197968 3664:0.097917515 3698:0.10827699 3768:0.39732748 4391:0.16789974 4535:0.18164131 4542:0.22130933 
-0 0 0 0 0 0 0 0 0 32 0 0 0 0 0 0 0 0 0 0 0 0 160:0.0029650528 360:0.0037159013 992:0.0820774 1147:0.37675181 1194:0.24196794 1575:0.325204 1631:0.067737035 1744:0.13947381 2062:0.026549752 2117:0.023515919 3175:0.28930313 3370:0.7357464 4537:0.19150572 
-0 0 0 0 0 28.85626599850459 0 0 0 32 0 0 0 0 0 0 0 0 0 0 0 0 160:0.0029650528 360:0.0037159013 992:0.0820774 1147:0.37675181 1194:0.24196794 1575:0.325204 1631:0.067737035 1744:0.13947381 2062:0.026549752 2117:0.023515919 3175:0.28930313 3370:0.7357464 4537:0.19150572 
-21.99425047912508 2.241237869957646 7.440418076657363 7.924831882115332 20.89428827375677 23.67418653688962 7.40926075751768 5.856331225662214 8.127172567090964 32 1.185415717751716 22.25555138579229 0.5653367353810546 5.088051777492379 0.8430836781901208 1.84974981136906 6.210314988789457 0.4707980745465389 13.51432594144784 8.977621313044166 1.632110862147863 5.017623433041328 160:0.0029650528 360:0.0037159013 992:0.0820774 1147:0.37675181 1194:0.24196794 1575:0.325204 1631:0.067737035 1744:0.13947381 2062:0.026549752 2117:0.023515919 3175:0.28930313 3370:0.7357464 4537:0.19150572 
-0 0 0.2885359159971517 0.9636580334466549 4.968630941178875 10.74287912869639 0.9059481442027189 6.319859806840301 0 32 0 8.201881727832351 0.1044414208903607 22.12356793635939 0 0 1.964622973255951 0 0 0 0.4210641511448264 0 109:0.34032253 160:0.0011299154 360:0.0018880628 550:0.38637177 1206:0.083887607 1289:0.12062392 1296:0.11799455 1303:0.056836333 1540:0.065248438 1583:0.076066231 1631:0.10325229 1632:0.10146039 1703:0.38637177 1711:0.025687657 1712:0.025621091 1733:0.025289166 1738:0.22340514 2117:0.089613917 2120:0.088291874 2121:0.088291874 3119:0.43714884 3294:0.2123961 3665:0.18383806 3690:0.23876839 3698:0.20588018 3715:0.26317316 3741:0.04145381 
-3.438140349582968 2.098497460403108 0 1.478723412157508 8.965274960344535 16.38221226797837 0 0 0 13.11650685158817 0 7.578189370920576 1.831325767865056 0 0 0 0 0 0 0 0 0 160:0.0010988033 360:0.0018360752 720:0.31796343 1193:0.29746932 1206:0.081577771 1289:0.11730255 1296:0.11474559 1303:0.05527135 1540:0.063451829 1583:0.22191527 1632:0.098666693 1711:0.02498035 1712:0.024915617 1733:0.024592831 1939:0.4456061 2062:0.019677867 2087:0.29746932 2120:0.085860767 2121:0.085860767 2176:0.23339125 2572:0.12664631 2586:0.093062726 3066:0.34684825 3331:0.22020194 3665:0.1787761 3671:0.34684825 3741:0.080624767 
-0 0 0.9134757776746583 0.8586978490793084 6.366916831416279 6.886594651260366 0 0 0 21.64714901038906 0 18.20203514400539 0 0.6898425538816405 0 0 0 0 0 0 2.640892645480533 0 160:0.00096046158 360:0.0016049092 719:0.23832835 1206:0.07130695 1289:0.1025339 1296:0.10029886 1303:0.048312566 1540:0.055463104 1583:0.064658549 1631:0.087767503 1632:0.086244339 1711:0.021835269 1712:0.021778686 1733:0.02149654 1973:0.38950331 2062:0.01720038 2063:0.1475862 2091:0.37158945 2117:0.060939586 2120:0.075050707 2121:0.075050707 2572:0.11070126 2586:0.081345924 3667:0.28149036 3735:0.31453238 3741:0.1057109 3793:0.23019717 4401:0.3463413 4438:0.38950331 4444:0.12584712 4445:0.12584712 
-2.361289106871483 2.903379636642831 5.505314748689274 8.11147755873017 9.427559023039329 11.07989733257425 3.541074407020417 4.972204452247723 14.78488918377682 20.82674074895023 5.096896315758829 17.4832105843727 0.549827271776153 1.547255362830588 1.658762500914421 3.024872198672107 2.608981311975947 2.800511094565561 3.233958236691494 3.416595726134533 2.035864285688545 6.736413538643697 8:0.214902 160:0.00061294663 360:0.0010242197 579:0.13839253 998:0.15328254 1146:0.023669759 1303:0.061664152 1540:0.070790802 1573:0.11568357 1602:0.22102782 1631:0.028005699 2062:0.02195385 2117:0.029167784 2198:0.20491497 2543:0.17318294 2586:0.051913279 3063:0.19348272 3087:0.68481939 3370:0.15209621 3474:0.20491497 3743:0.32251405 4536:0.1873569 4539:0.22827313 
-0 0 0 0 7.110503532686887 0 10.37721973874259 0 0 4.303460306485387 0 32 1.401466282745066 0 9.121946082226254 0 0 0 0 0 0 0 160:0.001363102 360:0.0022777121 611:0.38082126 633:0.22389031 1206:0.20239986 1289:0.1455177 1296:0.1423457 1303:0.20569783 1540:0.23614229 1552:0.43027675 1583:0.091764416 1630:0.30240672 1632:0.1223993 1711:0.061977905 1712:0.061817298 1733:0.061016445 1743:0.51041542 1744:0.12823855 2120:0.10651313 2121:0.10651313 2586:0.1154474 
-14.20490005752486 0.3503068476438608 2.363095511813198 0 0 0 0 0.4012668232571408 0 1.683444947611056 0.7425291900984496 2.292995605600466 0 1.933855136794636 0 0.05094493139400731 3.818210461811709 0 0 0 0 0 160:0.0030561526 360:0.0051067609 1206:0.15126402 1303:0.10248585 1540:0.11765434 1711:0.046319337 1712:0.046199307 1733:0.045600787 2062:0.072974617 2572:0.46966299 2586:0.17255978 3156:0.2333389 3208:0.23433209 3359:0.75878007 3741:0.074748467 
-9.240577734016448 0 2.410435851990602 5.995867035403129 0 0.7423102610029756 0 2.117796307298838 0 32 4.421349321491287 0 0 3.444528617482819 0 0.2588220681509835 0.1423783371245819 0 1.47036749232621 1.07417776350534 2.619632415028508 6.273870950730207 160:0.0015018178 360:0.002509503 407:0.22086026 633:0.16444964 729:0.1838253 992:0.055430289 1050:0.42314272 1159:0.3610358 1206:0.074332348 1526:0.16088498 1626:0.27104924 1631:0.045745643 1711:0.022761692 1712:0.022702708 1733:0.022408591 2062:0.035860309 2111:0.14630135 2117:0.04764384 2572:0.23079614 3156:0.1146646 3208:0.11515266 3294:0.18820302 3310:0.24472986 3629:0.14512467 3631:0.28621355 3741:0.073463986 3798:0.3423619 4372:0.20944292 
-0 0 1.229052962575297 0.08768103501848253 0 0 0 0 0 11.42886878987065 0 0 0 0 0 2.91093545658843 0 0 2.938409754605726 0 0 0 160:0.0011125343 232:0.25912484 360:0.0018590192 634:0.30425635 1145:0.2719408 1206:0.082597187 1289:0.11876839 1296:0.11617947 1303:0.11192407 1540:0.12848948 1583:0.14979225 1632:0.099899656 1711:0.025292511 1712:0.025226969 1733:0.024900149 2117:0.052941246 2120:0.086933704 2121:0.086933704 2176:0.23630776 2572:0.12822891 3201:0.2468178 3406:0.4511745 3535:0.41432918 3690:0.23509548 3741:0.12244841 3793:0.13332248 4372:0.23273039 
-12.40683884514331 5.70546573749145 11.4776553691915 6.092594045161172 29.39228298918849 7.199158132548264 4.700455085784444 1.238944202841692 5.963652564590955 23.16483302358373 1.373521339886332 6.266961390571884 3.335287472225973 4.926270719528573 1.129987041776642 1.990301589343958 1.218162995819814 0.01356326677795956 0 2.210561911700851 0.8906524801963394 3.747370732177394 160:0.00069907324 194:0.23904635 318:0.11409801 360:0.00058406767 581:0.21704167 781:0.22893281 992:0.03870293 1146:0.080986963 1206:0.051900859 1303:0.035164365 1540:0.040368894 1549:0.16724924 1573:0.13193854 1583:0.047061811 1588:0.18226735 1595:0.23904635 1631:0.063881695 1665:0.20763083 1711:0.01589283 1712:0.015851646 1733:0.015646285 1877:0.14623872 2062:0.025038639 2117:0.066532439 2119:0.22461307 2572:0.080574059 2591:0.18925392 3063:0.22066945 3298:0.12457269 3476:0.27046188 3629:0.20265995 3746:0.2450984 3766:0.46741614 3767:0.23370807 
-0 0 0 0 11.17821231744611 0 0 0 0 0 0 0 0 0 0.4611869921293749 0 0 0 0 5.494518980147767 0 0 160:0.00069820115 333:0.20462755 360:0.00058333905 1194:0.11395568 1206:0.051836113 1289:0.074536338 1296:0.072911592 1303:0.035120498 1540:0.040318535 1583:0.094006204 1632:0.062694749 1711:0.015873004 1712:0.015831871 1733:0.015626766 1744:0.065685697 1877:0.14605629 2063:0.1072868 2071:0.30119285 2083:0.26002356 2087:0.18901783 2117:0.055374534 2120:0.054557612 2121:0.054557612 3124:0.27012448 3311:0.6729986 3741:0.10246111 3747:0.24479264 3793:0.083670152 4372:0.14605629 4528:0.22433287 
-0 2.47977793544933 0 0 1.72000739388878 6.481411344614594 5.112118255173317 7.732292166340859 8.937754779565699 32 0 13.95887741081681 2.091797268951543 1.996790591005397 4.067891497378888 0 2.915413949025399 0 0 7.416906304951072 31.33964598847588 0 2:0.21943491 10:0.23065933 160:0.0010768369 165:0.2516961 360:0.0017993698 646:0.23999915 1146:0.027722338 1206:0.10659591 1289:0.076638355 1296:0.074967788 1303:0.072221879 1526:0.11535812 1540:0.082911133 1583:0.048328647 1632:0.19338845 1702:0.21943491 1707:0.17057298 1711:0.016320642 1712:0.016278349 1733:0.01606746 1743:0.26881539 1879:0.27774232 1888:0.22930583 1894:0.16112749 1984:0.29113193 1988:0.14131561 2062:0.012856321 2063:0.11031242 2117:0.011387233 2120:0.056096204 2121:0.056096204 2123:0.12182756 2192:0.17547678 2502:0.11127875 2572:0.082742996 2586:0.060801526 3675:0.37108093 4531:0.23065933 
-15.2513306379476 1.086799918485045 0 7.960753286044772 18.66549339398977 20.04164374268072 4.498990680246932 4.140626242489588 2.492054600004059 32 2.287650772320718 10.11437171865421 0 3.61079372270295 0 2.053206648385788 1.644897540391076 0.1139237809305038 8.974352779292389 2.510838671876105 1.132997841344643 4.838888721078749 24:0.28133836 160:0.00041137652 172:0.24436481 183:0.23246198 360:0.00068740073 1008:0.12904648 1583:0.055387971 1631:0.11277543 2062:0.029468467 2117:0.13050556 2239:0.25148758 3037:0.14451996 3062:0.25971022 3154:0.22992615 3232:0.16959069 3378:0.26435154 3438:0.12790747 3500:0.31831191 3620:0.27505563 3690:0.17386029 3741:0.090554339 3791:0.24780739 4444:0.10780348 4445:0.10780348 4446:0.23246198 4449:0.28846113 
-18.13442999395323 0.2428877972576531 12.51373036181517 14.76848776988484 2.703446849887547 11.91483841993527 0 2.564188932128589 3.60046444174207 10.52086710020852 0 4.139254833636723 0 1.095539685173726 0.3594097802463567 1.904703005518136 2.580837027413703 0 13.51151054188235 0.4458214152920556 1.741039497155081 2.697782673588163 160:0.001080789 233:0.46644324 360:0.0018059736 2062:0.038710516 3438:0.33604492 3548:0.52078533 3741:0.079302966 3744:0.56867862 3793:0.25903647 
-16.02242371414028 5.357553723102284 4.711263069572269 10.17621108585943 8.47493142870742 28.06679839593007 20.3192586034796 12.58096926793791 13.36908418540978 32 3.450461933150957 22.32004513582554 1.21922762797547 22.88612870310052 0.9032051890836208 4.079500417556814 6.86703521020909 0.3000033704328994 8.83502425234254 3.390202673108192 1.657687603344611 10.13393221015954 26:0.39165011 34:0.22419041 109:0.22419041 160:0.00074434158 180:0.27720714 360:0.0012437777 633:0.12225855 1004:0.26096969 1050:0.15729075 1303:0.037441426 1520:0.18330159 1631:0.13603668 1706:0.25452575 1707:0.17685764 2062:0.013330005 2111:0.10876637 2117:0.035420366 2502:0.11537875 2504:0.19407003 2572:0.085791614 3342:0.28797558 3376:0.17225818 3381:0.19764633 3661:0.21539195 3665:0.24220983 3741:0.081924168 4374:0.27720714 
-3.679754353588791 0 4.656162517692572 0 2.696860010728496 0.9465465481179741 0 0 0.772515220900288 28.58746479503484 0 9.420619417063577 1.146200839655023 0 0 0 0 2.883518855894825 0 0 0 0.9568350626780613 160:0.0013129665 360:0.0021939368 613:0.21719914 965:0.11749996 1146:0.16900656 1158:0.31563609 1289:0.093443666 1296:0.091406777 1303:0.13208811 1540:0.15163792 1583:0.058926186 1632:0.078598269 1711:0.019899443 1712:0.019847877 1733:0.019590744 1877:0.36621158 2062:0.031350929 2117:0.013884233 2120:0.068397018 2121:0.068397018 2199:0.29931041 2568:0.31563609 2572:0.20177387 3376:0.40513516 3548:0.21088719 3744:0.23028113 3819:0.32598267 
-0 0 0 0 3.479033822009654 0 0 0 0 0.7553781908342975 0 0 0 0 0 0 0 0 0 0 0 0 160:0.0015171676 360:0.0025351522 634:0.27661043 1289:0.10797664 1296:0.10562296 1526:0.16252935 1583:0.20427232 1631:0.092426402 1632:0.090822385 1711:0.022994335 1712:0.022934748 1733:0.022637625 1744:0.19031041 2062:0.03622683 2117:0.080217998 2119:0.32497851 2120:0.079034569 2121:0.079034569 2155:0.18642081 2411:0.1064691 2558:0.28257591 2572:0.11657753 3311:0.32497851 3438:0.31448411 3546:0.37668162 3555:0.36472588 3741:0.037107424 3793:0.12120828 4537:0.13065367 
-0 0 1.325149499900937 0 6.897186399799122 14.72385253450943 4.248713721617659 0.07445101107591244 11.84670863949673 28.57398070324046 0 27.21253912929382 1.947483188278558 0.7034662138275435 2.257970142416444 0 2.168877640238488 0 0 7.670864932166502 2.392669924602096 2.638597451512958 160:0.00081338832 360:0.0013591532 644:0.33532075 1146:0.062820169 1206:0.060387882 1289:0.086833123 1296:0.084940331 1303:0.040914574 1540:0.046970167 1583:0.10951507 1588:0.21207239 1632:0.073037943 1711:0.018491685 1712:0.018443766 1733:0.018204824 1743:0.30457438 1744:0.076522329 1986:0.15476927 2011:0.27192489 2117:0.025804024 2120:0.063558366 2121:0.063558366 2413:0.20340796 2503:0.21804871 2583:0.23252098 3178:0.11221755 3294:0.30579369 3298:0.14494329 3307:0.51350829 3741:0.059682421 3750:0.23537218 
-1.52072770985073 11.21524295985923 0 3.552605057147972 16.95729852659208 0 1.376164709015987 2.842629118723993 0.9005462128938828 10.79303300882572 0 8.948164397319003 0 0 0.3630675029950407 0.6731853795181376 0.8405231321517919 0 0 1.007175041576693 2.775605276990091 1.318043753082124 108:0.49483154 160:0.001447098 360:0.0024180675 729:0.26569123 971:0.53892715 1303:0.072791059 1540:0.083564556 1631:0.066118301 1632:0.1299417 1711:0.032898529 1712:0.032813277 1733:0.032388176 2062:0.025915284 2117:0.022953951 2572:0.16679019 3178:0.19964608 3690:0.30579391 3738:0.29685193 4444:0.18960999 4445:0.18960999 4537:0.18692924 
-5.881319795266202 0 3.295565318409301 4.162842210233475 7.510658801090913 14.73277706982635 0 0.9658984803422823 4.383459295118887 17.54313640411819 5.350347296643701 10.06391998917931 0 0.05762291826373597 0 2.533124202496878 0.9852201754783537 0.01693539616696352 0 1.095001930324295 2.293565283820631 0 160:0.0014212435 360:0.0023748653 729:0.26094428 1526:0.22837997 1557:0.45664725 1583:0.095678522 1631:0.19481101 1713:0.37390776 2062:0.025452271 2071:0.20436727 2117:0.045087693 2508:0.45664725 2572:0.16381025 3294:0.26715856 3775:0.31530553 4537:0.18358949 
-0 2.304455820810754 0.8275614115748273 0 9.151270893974322 0 0.8968741538227272 0 0.2732181202222995 0 0 3.274640950904615 0 0 0 0 0 0 0 0 0 0 160:0.00083040841 360:0.0013875934 1289:0.1773002 1296:0.1734354 1303:0.083541418 1540:0.095906029 1583:0.11180667 1632:0.14913251 1711:0.037757244 1712:0.037659402 1733:0.037171518 1995:0.58229027 2062:0.029742658 2120:0.12977664 2121:0.12977664 2249:0.52425341 2572:0.19142308 3300:0.44522273 
-0.3508346238990122 1.056943814279865 0.5575111278697507 0 6.11051080503503 0 3.848788047946904 1.998342591061245 0 10.53040946575912 0.02736224817243561 0 0 0 0 1.449806133536069 0 0 0 0 0.0777920159243233 0 160:0.0019294536 360:0.0096722179 1146:0.14901689 1303:0.19410845 1540:0.22283762 1711:0.08772894 1712:0.087501603 1733:0.086368006 2062:0.069107053 2572:0.44477144 3690:0.81544604 
-0 0 0 0 0 0 0 2.80538427269791 0 13.01966540462441 0 0 0 0 0 0 0 0 1.093014483475477 0.5916116132029825 0.8043883387200856 0 160:0.0029100563 187:0.26234071 238:0.17915765 360:0.0024313187 965:0.097660005 1035:0.21607801 1303:0.32935482 1526:0.11690441 1540:0.16804499 1631:0.099720952 1887:0.20105752 2062:0.013028651 2117:0.069239221 2196:0.18338438 2220:0.29503433 2502:0.11277036 2572:0.25155631 2587:0.34111621 3156:0.083319139 3208:0.083673779 3294:0.13675462 3664:0.35962963 3741:0.080072091 3776:0.1805249 3793:0.087182918 4371:0.21607801 4517:0.26234071 
-6.567644843449523 0 9.13074851978088 12.88008118534721 15.31545271431468 17.23455023280839 3.366372198896677 3.531032824699819 5.169750773879898 21.8985128008262 0.8102355960618611 22.93419972139651 0.8267425647806809 2.426026036231968 0 0.1385439361839605 1.153040853698309 0 3.017904725590676 3.188262328115397 1.540813376600713 2.339636374139202 160:0.00061308787 233:0.26459437 235:0.22426986 360:0.0020489115 994:0.41928774 1303:0.061678361 1540:0.070807114 1632:0.11010406 1711:0.027876052 1712:0.027803815 1733:0.027443612 2017:0.40992438 2062:0.021958909 2111:0.17917403 2117:0.038899339 2120:0.095813677 2121:0.095813677 2572:0.14132704 3068:0.40154857 3156:0.14042877 3208:0.14102649 3294:0.23049065 3738:0.25153282 3741:0.089970725 3797:0.33886884 
-0.03938874454029848 0 0 0 0 0 0 0 0 0 0 8.502064775786295 0.3745529122987158 0 0 0 0 0 0 0.2954801168746844 0 0 160:0.0034546653 360:0.0076968885 1206:0.085494187 1289:0.12293406 1296:0.12025434 1303:0.057924838 1417:0.35752397 1540:0.066498048 1583:0.07752302 1632:0.10340352 1711:0.026179616 1712:0.026111775 1733:0.025773493 1744:0.21667308 2062:0.061867707 2117:0.054798099 2120:0.089982803 2121:0.089982803 2249:0.72699973 2411:0.12121769 3151:0.23183248 3629:0.16691678 3744:0.3029568 4537:0.14875242 
-29.63626701624119 3.022205556544838 7.628996339151084 4.466893142704796 13.10476351491463 17.0419517686574 8.927407180358964 4.332042611869207 9.017344820034579 32 2.219537433688879 20.17550153930049 1.145508580103046 8.530345319280732 2.037967491826989 0.2593462450435584 3.415810090720956 0.9647142968732559 9.06498571391913 3.581820365665906 2.239500924857669 5.079235640157312 160:0.0029364185 360:0.0049066879 530:0.30901099 637:0.37738991 729:0.21565386 1194:0.19170496 1727:0.32814877 1744:0.44200602 1894:0.26362641 2004:0.36466862 2062:0.021034684 2155:0.21648612 2586:0.099479534 3256:0.26208796 4444:0.15390092 4445:0.15390092 
-21.58315360340249 6.690809512277794 8.960549573211781 12.7427468785973 17.70429979219069 22.00773769593551 10.4236393240103 5.042577590057944 14.62900134796034 32 6.149046843693701 22.09195420208951 1.001429665203172 3.818929857037806 3.862720153284862 15.94500144495618 5.770266116845526 1.230158361674136 32 10.23069032509346 4.137927761273257 7.994181811944341 4:0.24151603 160:0.00040658075 168:0.27805855 183:0.22975197 189:0.29322507 293:0.31460107 360:0.0006793871 1419:0.22472725 1446:0.60567401 1542:0.17642066 2062:0.014562464 2117:0.012898414 2155:0.1498749 2586:0.068870401 2654:0.32976758 3060:0.17096203 3178:0.11218626 
-3.033317055997308 1.873068311850915 2.433515425852454 8.146593531814068 0.6548298449926456 1.661085685693154 0 0 2.64918540029452 4.806092405993747 0 0.86177078746527 1.188699136021884 0 0 0 0.1793732885115863 0.1878727153053717 2.515454203692526 0 0 0 160:0.0007203793 360:0.0012037373 424:0.17608494 1303:0.07247218 1540:0.083198481 1564:0.25256841 1626:0.19502192 1744:0.067772183 2062:0.012900878 2071:0.10358672 2087:0.19502192 2117:0.034280093 2155:0.53109635 2586:0.061012248 2630:0.29214091 3096:0.19908574 3114:0.55740981 3156:0.082502022 3208:0.082853184 3258:0.16264893 3629:0.10441827 4532:0.16671274 
-16.46672405135994 1.946876101197522 10.02265280440945 5.010784128435406 3.08395535848545 11.37675409939979 2.469960581616646 6.407845658896175 12.32994370212516 14.35102803164072 0 2.903203290698049 0.8859151604071025 4.227761768331668 0 3.428154986897635 3.041663743495321 0 18.83499867930968 6.977953314734133 5.966222489140556 8.398009726775756 160:0.0022937366 360:0.0019163906 1146:0.088575725 1206:0.17029245 1632:0.20596534 1711:0.052146131 1712:0.052011002 1733:0.051337191 2062:0.041077271 2063:0.35245955 2586:0.19426714 3109:0.65570387 3233:0.56485567 
-10.20179505771549 1.999779745989604 3.7952681809162 4.720042241540286 7.566240927860314 5.38353870703615 7.030840928235301 8.029059459060195 3.229693457019737 30.83533511922501 8.472034289041213 13.98833730080317 0.2559460686991536 2.403691182560792 1.986462619230496 0.01913578885966755 1.520973088365339 0 0 8.265741780333112 0 1.050074907360854 160:0.0017194716 360:0.0014365988 1031:0.40855127 1146:0.066399711 1206:0.12765766 1632:0.1543994 1711:0.03909071 1712:0.038989412 1733:0.038484298 2062:0.030793075 2586:0.14562999 3156:0.19692388 3208:0.19776207 3233:0.42343716 3471:0.66524006 3629:0.24923572 
-8.667291216008357 0 0 1.962847363420104 8.973637303793655 1.244372910542763 0 0 0 24.20655933005386 0 4.61133912331193 0 0 0 0 0 4.178395149020397 0.3380820756199046 1.456088191293431 0.5813527962554334 0 160:0.0010049584 360:0.0016792625 613:0.24936978 981:0.37426588 1146:0.15523129 1206:0.074610502 1289:0.10728416 1296:0.10494557 1303:0.10110164 1540:0.11606527 1583:0.06765409 1585:0.23717211 1632:0.09023992 1711:0.022846867 1712:0.022787662 1733:0.022492445 1938:0.40754846 2062:0.01799725 2120:0.078527703 2121:0.078527703 2411:0.10578629 2586:0.085114568 3156:0.23018736 3198:0.31722517 3208:0.23116713 3233:0.24748111 3643:0.38880468 4444:0.13167744 4445:0.13167744 
-0 0 3.194124084667223 0 2.183613047567108 0 0 0 0 0 0 0 0 0 0 0 0 0 0 0 0 0 160:0.0018659647 360:0.0015589921 644:0.3846236 1206:0.13853366 1289:0.19920073 1296:0.19485854 1303:0.18772129 1540:0.21550513 1583:0.12561728 1632:0.16755371 1711:0.084842212 1712:0.084622355 1733:0.083526059 1994:0.65421611 2062:0.03341654 2120:0.14580695 2121:0.14580695 2411:0.19641955 2586:0.15803717 3629:0.27046975 
-20.1967678199381 2.25083118441055 11.80127524761005 10.98331910901719 14.23713811741996 28.19580570243415 3.442074410751907 2.460138937610273 8.068374767160561 32 6.215799577226473 6.447885103591195 1.31126663611334 4.347232327799016 1.487446009335097 1.58057734675332 3.842145059713532 0.5006736785761662 9.85960114791183 3.50797033614157 0.680850023399431 6.898057605998108 82:0.38091365 160:0.00036845681 360:0.00061568286 633:0.1210385 727:0.27444082 779:0.11952166 1193:0.19949811 1631:0.033669784 1632:0.066170921 1726:0.18575372 1888:0.11769093 1989:0.17630233 2010:0.24635853 2062:0.013196982 2071:0.10596426 2117:0.023377932 2195:0.25198577 2586:0.062412615 3106:0.26573017 3156:0.084395627 3208:0.084754849 3232:0.15189696 3660:0.43773949 3755:0.34552345 3776:0.1828573 4547:0.1828573 
-0 3.631412496822806 0 0 0 1.703770849981031 0 0 8.356232871533958 6.816812314895778 0 0 0.412082880606744 1.799336071085615 0 0 0 10.44829914694549 0 0 0 0 9:0.41782411 160:0.001191724 360:0.00099567176 1206:0.088476425 1289:0.12722229 1296:0.12444909 1303:0.059945392 1418:0.36999525 1540:0.068817656 1562:0.22401459 1567:0.41782411 1583:0.16045441 1631:0.10890039 1632:0.10701048 1711:0.027092823 1712:0.027022615 1733:0.026672533 1744:0.11211558 2117:0.056709585 2120:0.093121614 2121:0.093121614 2586:0.10093261 3438:0.18526872 3548:0.28712005 3741:0.08744283 4376:0.44382099 
-7.014662737220736 0 3.642186439124638 0 8.152270819358643 3.345369578755589 2.490257600199148 0 4.383088316110873 17.64468211522023 0 16.82843577522437 0 0.3215894515047657 0 4.231503521009244 0.1731925678309742 0 0.530293813818272 0 0 0 160:0.00092320786 360:0.0015426591 522:0.34382039 583:0.19409858 1206:0.068541146 1289:0.098556889 1296:0.19281708 1303:0.092877303 1540:0.10662368 1583:0.062150618 1631:0.084363239 1632:0.16579831 1711:0.020988338 1712:0.02093395 1733:0.020662747 2062:0.016533224 2086:0.51027984 2117:0.029287952 2120:0.072139693 2121:0.072139693 2411:0.097180867 2586:0.078190735 2640:0.37439552 3058:0.22402311 3156:0.10573113 3208:0.10618116 3380:0.22908424 3511:0.10709151 3622:0.10801592 3643:0.3571765 4444:0.12096585 4445:0.12096585 
-4.682167889976733 1.482967056621318 4.352833260595562 10.70439220492806 2.903558182282244 25.76646197727244 3.123598648735675 3.18784880959895 6.529185493777458 14.24221316752044 3.975323298488185 7.719131168892455 0.01956355345350365 2.247341225549303 0 0.4935537547269329 2.201618084420383 0.07214210315653266 0 2.233012217892606 1.460822532973614 0 160:0.0013553376 360:0.002264738 1303:0.13635077 1540:0.15653147 2062:0.048543996 2586:0.22957959 3052:0.84158489 3156:0.31044227 3208:0.31176364 
-27.95547969291012 6.205507513191849 7.353850911751193 23.24765935597127 13.32826297782781 17.45848286925246 6.046498863623201 4.487725749287288 21.00192406918702 30.75850378999395 9.408037343090316 10.12772598469152 0.3833292344513686 1.582503956730511 6.511451771726565 2.146707758624949 2.914864975825007 0.9968355529451914 1.028232147566889 7.69432667849676 1.918196982817755 10.35827497059854 74:0.21547096 160:0.00046255468 360:0.0023187548 1526:0.29731209 1631:0.042268499 1711:0.021031567 1712:0.020977067 1733:0.020705305 2062:0.016567276 2114:0.20523724 2172:0.26770117 2586:0.078351781 3096:0.76699626 3196:0.31633884 3742:0.23134659 
-0 0 0 0 0 0 0 0 0 0 2.052818533304851 0 0.5780758350929877 0 0 0 0 0 0 0 0 0 160:0.0010247851 360:0.0017123924 720:0.2965446 731:0.27471882 994:0.35042273 1206:0.076082484 1286:0.26260539 1289:0.10940075 1296:0.10701603 1303:0.10309626 1540:0.1183551 1583:0.20696649 1632:0.092020253 1711:0.02329761 1712:0.023237237 1733:0.022936195 2062:0.018352315 2117:0.065020802 2120:0.080076966 2121:0.080076966 2411:0.10787333 2586:0.086793783 2588:0.39654984 3545:0.38164972 3657:0.35929454 3690:0.21655276 3741:0.15038735 
-0 0 0 0 18.44009784149036 0 0 0 0 0 0 0 0 0 0 0 0 0 0 0 0 0 160:0.001653552 360:0.0027630474 1303:0.16635197 1540:0.19097302 1583:0.22263519 2062:0.059225112 2087:0.89530304 2117:0.052457473 2586:0.2800939 
-2.138606802109885 2.469041077016995 3.805495371240882 5.391867584878498 7.677834956338589 32 2.978713936083803 0.7526418041383287 5.473798963893421 32 1.629492704655374 5.266685368520491 0 4.767013354851288 1.022782153558683 1.3932672231523 2.151408973365293 0.3202266347397906 0.2048668022044868 0.7314540804393975 4.441990234140483 10.52984959988579 32:0.15221504 160:0.00058362717 163:0.19141302 178:0.2211956 360:0.0009752276 1146:0.045075098 1711:0.026536525 1712:0.026467759 1733:0.026124865 1926:0.47336555 2062:0.020903718 2117:0.092575277 2156:0.38225297 2191:0.27013015 2509:0.27925887 2586:0.098860157 3239:0.31291119 3698:0.21268364 3741:0.085647364 3793:0.13987996 4399:0.42091052 
-0.2809900067183193 0 2.301903594691569 8.062007419952172 5.214081334316926 2.595776205651265 0 0 0 29.30762163312122 0 0 0 0 0 0 0 0 0 0 0 0 160:0.0025339766 360:0.0010585542 603:0.33964733 1206:0.094064224 1289:0.13525711 1296:0.13230877 1303:0.063731291 1540:0.07316389 1583:0.085294017 1631:0.28944521 1632:0.11376881 1711:0.028803891 1712:0.02872925 1729:0.61488789 1733:0.028357058 2117:0.020097041 2120:0.099002783 2121:0.099002783 2586:0.10730709 3156:0.14510286 3483:0.49018046 3629:0.18364871 3741:0.13944803 
-32 10.98289211319346 6.032500372637859 7.086760689619015 7.421672674874182 7.897734939817774 4.033923454127832 2.251195015113235 5.015391343126434 22.71201656304627 1.16805880675569 17.29299347546927 0.784363338621515 0.05946493408720949 0 1.057466580513853 2.683416229328063 0.9385075489105288 2.248950013059438 19.19717153743363 0.8952446267324029 4.368699556120321 160:0.0010065638 360:0.001681945 532:0.56242439 1303:0.10126315 1540:0.11625068 1663:0.47510196 2062:0.036051999 2586:0.17050107 3049:0.63546384 
-0 0 0 0 2.567122614927806 9.269410543328537 0 0 0 12.3116668983371 0 0.704984977987686 0 0 0 0 0 3.191081932215818 0 0 0 0 70:0.37407251 160:0.0010044392 360:0.0016783949 985:0.25525636 1206:0.074571954 1289:0.10722873 1296:0.10489135 1303:0.050524702 1540:0.058002649 1567:0.35216116 1583:0.13523827 1631:0.1376793 1632:0.090193296 1711:0.022835063 1712:0.022775889 1733:0.022480823 2062:0.017987951 2086:0.2775892 2111:0.14677294 2117:0.063729889 2120:0.07848713 2121:0.07848713 2411:0.10573163 2503:0.26926459 2586:0.085070592 2588:0.1943384 3037:0.17643388 3193:0.19685952 3438:0.1561529 3511:0.11651429 3622:0.11752004 3741:0.036850396 3750:0.29065704 3793:0.12036872 4448:0.35216116 
-0.9180513490553039 0 1.265691132917808 0 9.439925955478481 4.870167722265455 1.196817482998489 0.5007997151164076 0 4.147817854092843 0 4.768439820025892 0 0.01609562329353482 0 0 0 0 1.830375836356329 0 0 0 160:0.00096887831 360:0.0016189734 633:0.15913884 1206:0.071931828 1289:0.10343243 1296:0.1011778 1303:0.048735939 1540:0.055949139 1583:0.26090066 1632:0.087000117 1711:0.022026616 1712:0.021969537 1733:0.021684918 1940:0.39291661 2062:0.017351111 2117:0.076842016 2120:0.075708392 2121:0.075708392 2176:0.20579453 2411:0.10198834 2586:0.082058775 2588:0.18745809 2629:0.39291661 2663:0.27697045 3051:0.23682645 3426:0.39291661 3656:0.33969334 3741:0.035545755 4372:0.20267909 
-10.81687056689497 0.2369207220565922 4.197482159221445 5.180228868467653 0 2.801265608999507 0.9014680430711901 0.210885181063499 0 1.333867151541099 1.691148893481175 4.100589095445576 0.1515776309302409 0 0 0 0 0 15.80906523655679 0 1.353917099677841 0 160:0.00077621499 360:0.0012970374 1583:0.3135301 1586:0.49879761 1631:0.07093095 2062:0.027801618 2117:0.12312367 2176:0.32974379 2586:0.13148246 3059:0.34053791 3400:0.51899486 3690:0.32805217 3741:0.11390965 
-1.583052361135421 0.2587570050544842 0 0 1.117405375902116 0.9025162659939576 0 0 1.88270144058268 15.65477257215917 0 4.78533504562673 0.04960648739738628 2.078113670299939 0 0 0 0 0 0 0 0 160:0.00079201425 318:0.12926722 360:0.00066171882 719:0.19652994 1206:0.05880102 1289:0.084551339 1296:0.082708285 1303:0.079678858 1527:0.19652994 1540:0.045735894 1583:0.10663725 1631:0.036187347 1632:0.071118666 1711:0.018005764 1712:0.017959104 1733:0.017726441 1744:0.07451149 1895:0.27768396 1999:0.25936918 2117:0.037688927 2120:0.061888191 2121:0.061888191 2586:0.067079342 3049:0.25000721 3096:0.21888294 3154:0.11066795 3235:0.2708273 3437:0.25000721 3544:0.58992273 3741:0.029057049 3793:0.094912408 4408:0.28559939 
-0 0 0 0 0 0 0 0 0 0 0 0 0 0 1.054752799904235 0 0 0 0 0 0 0 160:0.0012475357 360:0.0020846036 1206:0.092620017 1289:0.13318045 1292:0.46460633 1296:0.13027738 1303:0.062752798 1540:0.072040574 1583:0.25195339 1631:0.057000248 1632:0.11202207 1711:0.028361653 1712:0.028288158 1733:0.02792168 2062:0.022341433 2117:0.098942416 2120:0.097482752 2121:0.097482752 2411:0.13132102 2586:0.10565956 3059:0.27365692 3154:0.17431785 3201:0.27676813 3232:0.25714938 3383:0.42659173 3690:0.26362336 3698:0.22731159 3741:0.13730702 3793:0.14950062 
