svm_type c_svc
kernel_type rbf
gamma 0.176777
nr_class 16
total_sv 1124
rho 0.127452 -0.939166 -0.152147 -0.322468 -0.723727 -0.0646629 -0.118371 -0.965722 -0.724502 -0.922815 -0.494147 -0.714208 -0.913319 -0.674099 -0.534294 -0.893492 -0.072616 -0.268971 -0.690336 -0.00467983 -0.0372955 -0.884006 -0.644535 -0.806976 -0.474849 -0.613352 -0.898972 -0.615142 -0.440661 0.626306 0.633024 0.347437 0.84947 0.747531 -0.280083 0.28602 -0.0809787 0.238772 0.370048 -0.538722 0.187387 0.416993 -0.110016 -0.350936 0.374833 0.263624 -0.881498 -0.299555 -0.643018 -0.201897 -0.336056 -0.787802 -0.301873 -0.144836 -0.43231 0.298073 0.282859 -0.734459 -0.391044 -0.640226 -0.24264 -0.28006 -0.753257 -0.319088 -0.195832 0.729689 0.670278 -0.456579 -0.0499709 -0.296804 -0.0305987 0.0809909 -0.636325 -0.0775711 0.153063 -0.128352 -0.860611 -0.611269 -0.838382 -0.458341 -0.603375 -0.831254 -0.550721 -0.416635 -0.868196 -0.584117 -0.81031 -0.423127 -0.471228 -0.854097 -0.514946 -0.428277 0.416009 0.168197 0.384621 0.505997 -0.327364 0.381319 0.567344 -0.252009 0.0649735 0.0835176 -0.616672 0.0285529 0.175744 0.315682 0.393239 -0.434193 0.273715 0.371859 -0.0285277 -0.577068 -0.0320026 0.108307 -0.640562 -0.0474287 0.108329 0.599669 0.657331 0.131685
label 0 12 7 5 6 1 8 10 11 9 3 2 14 4 13 15
nr_sv 449 256 12 57 28 24 37 166 3 12 7 10 12 3 11 37
SV
16 0.02233151865298349 7.368670688816356 0 0 0 0 0 0 0 0 0 0 0 0 110:0.47108153 249:0.47108153 953:0.36639675 959:0.052342392 1428:0.31405435 1431:0.15702718 1750:0.052342392 1799:0.052342392 2116:0.052342392 2139:0.052342392 2154:0.10468478 2264:0.052342392 2371:0.052342392 2381:0.052342392 2407:0.052342392 2439:0.052342392 2874:0.052342392 3088:0.31405435 3126:0.052342392 3130:0.052342392 3144:0.052342392 3270:0.10468478 3303:0.052342392 3312:0.052342392 3372:0.15702718 3526:0.052342392 3888:0.052342392 4352:0.052342392 4444:0.31405435 4541:0.052342392 
0 0 10.16607345639391 0 0 0 0 0 0 0 0 0 0 0 0 110:0.43905704 249:0.43905704 953:0.21952852 959:0.21952852 1342:0.21952852 1409:0.10976426 1428:0.10976426 1431:0.10976426 1454:0.10976426 1542:0.32929278 1790:0.10976426 1799:0.10976426 2051:0.10976426 2070:0.10976426 2105:0.10976426 2124:0.10976426 2154:0.21952852 2157:0.10976426 2350:0.21952852 3126:0.10976426 3132:0.10976426 3133:0.10976426 3236:0.10976426 3779:0.10976426 3967:0.21952852 4352:0.10976426 4444:0.10976426 
5.885504218052101 0.9542933250627204 2.95146569875535 0.2621108705087692 0 0 0 0.4416153418729591 3.216813183686718 0 0 0 0 0 0 110:0.20739034 243:0.10369517 249:0.20739034 803:0.10369517 853:0.20739034 872:0.20739034 953:0.51847585 959:0.20739034 964:0.10369517 1088:0.10369517 1120:0.10369517 1123:0.10369517 1345:0.10369517 1417:0.10369517 1420:0.10369517 1428:0.10369517 1431:0.10369517 2072:0.10369517 2154:0.20739034 2166:0.10369517 2349:0.31108551 2381:0.10369517 2386:0.10369517 2394:0.10369517 2762:0.10369517 2807:0.10369517 2874:0.10369517 3126:0.10369517 3179:0.10369517 3756:0.10369517 3967:0.10369517 3998:0.10369517 4010:0.10369517 4011:0.10369517 4295:0.10369517 4298:0.10369517 4301:0.10369517 4310:0.10369517 4327:0.10369517 4558:0.20739034 
16 1.901649102503992 0 0 0 0 0 0 0.3177323869339599 0 0 0 0 0 0 110:0.39223227 249:0.19611614 318:0.098058068 853:0.2941742 872:0.2941742 953:0.098058068 1123:0.098058068 1342:0.2941742 1343:0.098058068 1431:0.098058068 1790:0.19611614 2045:0.098058068 2051:0.19611614 2054:0.098058068 2070:0.19611614 2154:0.098058068 2349:0.19611614 2457:0.098058068 2747:0.098058068 2807:0.098058068 2904:0.19611614 2919:0.098058068 3079:0.098058068 3132:0.098058068 3133:0.098058068 3372:0.19611614 3539:0.098058068 3660:0.098058068 3673:0.19611614 3760:0.098058068 3798:0.098058068 3867:0.098058068 4013:0.098058068 4318:0.098058068 4347:0.098058068 4352:0.098058068 4372:0.098058068 4558:0.19611614 
0 1.81154206639547 0 0 0 0 0 0 0 0 0 0 0.478805681393682 0 0 110:0.45226702 249:0.30151134 953:0.30151134 959:0.30151134 1342:0.30151134 1428:0.15075567 1431:0.15075567 1713:0.15075567 1790:0.15075567 2051:0.15075567 2070:0.15075567 2105:0.15075567 2124:0.15075567 2154:0.15075567 2157:0.15075567 2810:0.15075567 2969:0.15075567 3126:0.15075567 4298:0.15075567 4352:0.15075567 4487:0.30151134 
11.32883970086051 0 0.5581626102000772 0 1.311971382051812 0.2292757186598063 7.772187704975769 0 0 0 0 2.888504929306219 0 0 0.07882340011972459 110:0.4472136 249:0.4472136 882:0.2236068 1214:0.2236068 1342:0.2236068 1790:0.2236068 2051:0.2236068 2070:0.2236068 2393:0.2236068 2408:0.2236068 3969:0.2236068 4352:0.2236068 4480:0.2236068 4498:0.2236068 
4.423246332513378 0 0 0 0.3901991248171633 0 0 0 0 0 0 0 0 0 0 110:0.40451992 249:0.40451992 819:0.13483997 853:0.13483997 872:0.13483997 953:0.26967994 959:0.13483997 1342:0.26967994 1352:0.13483997 1428:0.13483997 1431:0.13483997 1542:0.13483997 1790:0.13483997 1799:0.13483997 2051:0.13483997 2070:0.13483997 2105:0.13483997 2124:0.13483997 2154:0.13483997 2157:0.13483997 2334:0.13483997 2375:0.13483997 2394:0.13483997 2407:0.13483997 2904:0.13483997 3059:0.13483997 3126:0.13483997 3167:0.13483997 3280:0.13483997 3586:0.13483997 4055:0.13483997 4352:0.13483997 4487:0.13483997 
0.7468620716056184 0 0 1.453347525512099 0.5152047825177387 5.492407196635177 0 0.9357413536382389 1.566470141033028 0.3927745410963475 0.2112901176768559 1.924696377315591 0 0.6762791219799165 1.951645338424364 110:0.092450033 249:0.092450033 872:0.092450033 882:0.092450033 953:0.64715023 1059:0.092450033 1411:0.092450033 1428:0.092450033 1432:0.18490007 1504:0.092450033 1750:0.092450033 1790:0.092450033 2051:0.092450033 2070:0.092450033 2166:0.092450033 2225:0.092450033 2264:0.092450033 2408:0.092450033 2904:0.092450033 3040:0.36980013 3063:0.092450033 3067:0.092450033 3131:0.36980013 3171:0.092450033 3372:0.18490007 3664:0.092450033 3967:0.092450033 3968:0.092450033 4075:0.092450033 4269:0.092450033 4289:0.092450033 4352:0.092450033 4444:0.092450033 
6.148550029516573 0 0.1639422310602237 0.4088912989457901 0 0 0 0.662150020519097 2.064512365629977 0 0.3721111453900643 0 0 0 0 19:0.29172998 110:0.14586499 249:0.14586499 953:0.14586499 1109:0.14586499 1204:0.14586499 1214:0.14586499 1352:0.29172998 1477:0.14586499 1534:0.14586499 2102:0.14586499 2394:0.14586499 2408:0.14586499 2416:0.14586499 2418:0.14586499 2944:0.14586499 3129:0.14586499 3284:0.14586499 3650:0.14586499 3780:0.14586499 3882:0.14586499 3888:0.14586499 3916:0.14586499 4019:0.14586499 4065:0.14586499 4069:0.29172998 4321:0.14586499 4331:0.14586499 4454:0.43759497 4461:0.14586499 
0.0670144117924162 0 7.852235036622206 0 0 0 0 0 0 0.4754056511458966 0 1.018112432817963 0 0 0 110:0.23408229 249:0.23408229 288:0.11704115 1108:0.11704115 1120:0.23408229 1428:0.11704115 1431:0.11704115 1480:0.11704115 1761:0.11704115 1790:0.11704115 2051:0.11704115 2058:0.11704115 2070:0.11704115 2103:0.35112344 2104:0.35112344 2117:0.11704115 2154:0.23408229 2219:0.11704115 2365:0.11704115 2408:0.23408229 2447:0.11704115 2774:0.11704115 3088:0.11704115 3296:0.11704115 3307:0.11704115 3366:0.11704115 3706:0.23408229 3742:0.11704115 3809:0.11704115 3973:0.11704115 3978:0.23408229 4347:0.23408229 4352:0.11704115 
16 0 1.676441085116323 0 0 0 4.547039375391397 0 0 0 0 0 0 0 0 110:0.30618622 249:0.30618622 448:0.10206207 808:0.10206207 843:0.10206207 849:0.10206207 853:0.30618622 872:0.30618622 1120:0.10206207 1123:0.10206207 1214:0.20412415 1342:0.10206207 1352:0.10206207 1542:0.10206207 1760:0.10206207 1790:0.10206207 2051:0.10206207 2070:0.10206207 2102:0.10206207 2103:0.10206207 2104:0.10206207 2116:0.10206207 2125:0.10206207 2139:0.10206207 2165:0.10206207 2251:0.10206207 2262:0.10206207 2394:0.40824829 2408:0.20412415 2874:0.10206207 2904:0.30618622 3077:0.10206207 3307:0.10206207 3571:0.10206207 4352:0.10206207 
3.23894861011228 0.3830797676914775 5.345586656969656 0.6940206960504441 0.7580612323539284 0 0 0 0 0.6540559024584505 0 0 0 0 0 110:0.24253563 249:0.12126781 843:0.12126781 849:0.12126781 853:0.12126781 872:0.12126781 959:0.12126781 1123:0.12126781 1342:0.12126781 1352:0.12126781 1534:0.24253563 1756:0.24253563 1790:0.12126781 2051:0.12126781 2070:0.12126781 2103:0.12126781 2104:0.12126781 2302:0.12126781 2394:0.36380344 2408:0.24253563 2447:0.24253563 2894:0.12126781 2905:0.12126781 2920:0.24253563 2944:0.24253563 3088:0.12126781 3126:0.12126781 3284:0.12126781 3295:0.12126781 3702:0.12126781 3746:0.24253563 3768:0.12126781 3981:0.12126781 4298:0.12126781 4320:0.12126781 4352:0.12126781 
16 1.986891639042475 6.999175714829809 0 0 0 1.054466791103035 0 0 0 0 0 0 0 0 110:0.31622777 249:0.15811388 843:0.15811388 849:0.15811388 853:0.15811388 872:0.31622777 1123:0.15811388 1342:0.15811388 1352:0.15811388 1756:0.15811388 1790:0.15811388 2051:0.15811388 2070:0.15811388 2103:0.15811388 2104:0.15811388 2107:0.15811388 2394:0.31622777 2408:0.31622777 2447:0.15811388 2874:0.15811388 2937:0.15811388 3067:0.15811388 3132:0.15811388 3133:0.15811388 3779:0.15811388 3870:0.15811388 3963:0.15811388 4352:0.15811388 
0 0 0.899137641914572 0 0 0.5583589040306808 0 0 0 0.3957117190857819 0 0 0 0 0 110:0.1933473 249:0.29002095 664:0.096673649 853:0.096673649 871:0.096673649 872:0.096673649 879:0.1933473 959:0.096673649 1069:0.096673649 1120:0.096673649 1152:0.096673649 1214:0.096673649 1215:0.1933473 1342:0.096673649 1352:0.096673649 1363:0.096673649 1475:0.096673649 1547:0.096673649 1750:0.096673649 1790:0.096673649 2051:0.096673649 2070:0.096673649 2103:0.096673649 2104:0.096673649 2116:0.1933473 2139:0.1933473 2174:0.096673649 2334:0.096673649 2394:0.29002095 2408:0.3866946 2457:0.096673649 2747:0.096673649 2807:0.096673649 2919:0.096673649 3079:0.1933473 3126:0.096673649 3236:0.096673649 3584:0.096673649 3640:0.096673649 3706:0.096673649 3792:0.1933473 3962:0.096673649 3976:0.096673649 4010:0.096673649 4066:0.096673649 4075:0.096673649 4291:0.096673649 4306:0.096673649 4344:0.096673649 4352:0.1933473 4480:0.096673649 4487:0.096673649 
9.039698226329231 0.01294788704270175 0 0 0 0 0 0 0 0 0 0 0 0 0 110:0.20306923 249:0.10153462 482:0.10153462 622:0.10153462 953:0.10153462 959:0.20306923 1342:0.10153462 1352:0.20306923 1431:0.10153462 1475:0.10153462 1498:0.20306923 1783:0.10153462 2057:0.10153462 2069:0.10153462 2120:0.10153462 2154:0.10153462 2158:0.10153462 2170:0.10153462 2172:0.10153462 2307:0.10153462 2390:0.10153462 2394:0.6092077 2398:0.10153462 2408:0.10153462 2432:0.10153462 2810:0.10153462 2945:0.10153462 3014:0.10153462 3059:0.10153462 3066:0.10153462 3230:0.10153462 3369:0.10153462 3650:0.10153462 3657:0.10153462 3675:0.10153462 3702:0.10153462 3744:0.10153462 4069:0.10153462 4454:0.20306923 4457:0.20306923 4468:0.10153462 4480:0.10153462 4521:0.10153462 4557:0.10153462 
2.287471921246655 0.4692645147921005 1.308963547838541 0 0 2.723682363945502 2.862665501184305 0 0 0.3460880586320844 0 0 0 0 0 110:0.26490647 249:0.13245324 804:0.13245324 843:0.13245324 849:0.13245324 853:0.13245324 872:0.26490647 879:0.13245324 1031:0.13245324 1054:0.13245324 1056:0.13245324 1059:0.13245324 1123:0.13245324 1342:0.13245324 1352:0.13245324 1790:0.13245324 2051:0.13245324 2070:0.13245324 2074:0.13245324 2103:0.13245324 2104:0.13245324 2351:0.13245324 2394:0.39735971 2408:0.26490647 2456:0.26490647 2457:0.13245324 3131:0.26490647 3270:0.13245324 3287:0.13245324 3305:0.13245324 3768:0.13245324 4309:0.13245324 4310:0.13245324 4352:0.13245324 
0 0 1.910741620841914 0 3.621915210838486 1.442146799466056 1.314608743103302 0 1.671562233465567 0 0.9594029832108452 0 0 0.36141062030677 0 110:0.19900744 249:0.19900744 428:0.099503719 819:0.19900744 853:0.099503719 861:0.099503719 872:0.099503719 953:0.099503719 1120:0.19900744 1206:0.099503719 1209:0.099503719 1342:0.099503719 1431:0.099503719 1437:0.099503719 1790:0.099503719 2051:0.099503719 2058:0.099503719 2070:0.099503719 2103:0.099503719 2104:0.099503719 2116:0.39801488 2117:0.099503719 2139:0.39801488 2154:0.099503719 2173:0.099503719 2394:0.39801488 2408:0.099503719 2413:0.19900744 2433:0.099503719 2457:0.099503719 2747:0.099503719 2807:0.099503719 3126:0.099503719 3282:0.099503719 3563:0.099503719 3706:0.099503719 3784:0.099503719 3794:0.099503719 4010:0.099503719 4066:0.099503719 4558:0.099503719 
0 0 0.07763384803251222 0 0 0 0 0 0 0 0 0 0 0 0 110:0.40613847 132:0.10153462 236:0.20306923 249:0.20306923 483:0.10153462 879:0.10153462 953:0.10153462 1052:0.10153462 1087:0.10153462 1150:0.10153462 1453:0.10153462 1785:0.10153462 1790:0.10153462 1799:0.10153462 2051:0.10153462 2070:0.10153462 2103:0.10153462 2104:0.10153462 2154:0.30460385 2394:0.30460385 2408:0.10153462 2439:0.10153462 2938:0.10153462 2943:0.10153462 3019:0.10153462 3079:0.10153462 3088:0.10153462 3130:0.10153462 3132:0.10153462 3133:0.10153462 3175:0.10153462 3181:0.10153462 3304:0.10153462 3305:0.20306923 3558:0.20306923 3694:0.10153462 3706:0.10153462 3742:0.10153462 3810:0.10153462 3836:0.20306923 4072:0.20306923 4324:0.10153462 4352:0.10153462 4475:0.10153462 4519:0.20306923 
15.72174906481517 0 0 1.538027219965994 0 0.9186469255052405 0 0 0 0 0 0 0 0 0 110:0.2773501 249:0.2773501 853:0.2773501 872:0.2773501 953:0.2773501 1342:0.2773501 1431:0.2773501 2408:0.2773501 3520:0.2773501 3661:0.2773501 3665:0.2773501 3681:0.2773501 4444:0.2773501 
2.836899425730708 0.1618442049867517 2.541311815347874 0.6700544528432387 0 1.783128651046491 2.431709024861208 0 0 0 0.276361989980735 1.587203464968284 0 0.4939634208572489 0 110:0.2236068 249:0.2236068 853:0.2236068 872:0.1118034 1120:0.2236068 1207:0.1118034 1342:0.1118034 1431:0.1118034 1790:0.1118034 2051:0.1118034 2065:0.2236068 2070:0.1118034 2117:0.3354102 2147:0.1118034 2154:0.1118034 2378:0.2236068 2382:0.2236068 2394:0.3354102 2405:0.2236068 2408:0.1118034 2904:0.1118034 3084:0.2236068 3126:0.1118034 3131:0.2236068 3159:0.2236068 3789:0.1118034 4480:0.1118034 4505:0.2236068 
9.213654180725463 1.10734033089246 0 0 0 0 0 0 0.3070166350404275 0 0 0 0 0.2241151925937675 0 110:0.25197632 236:0.12598816 249:0.25197632 853:0.25197632 872:0.12598816 966:0.12598816 1120:0.12598816 1342:0.12598816 1431:0.12598816 1514:0.12598816 1790:0.12598816 2051:0.12598816 2070:0.12598816 2154:0.12598816 2229:0.25197632 2382:0.12598816 2394:0.37796447 2405:0.12598816 2460:0.12598816 2904:0.12598816 3079:0.12598816 3084:0.12598816 3085:0.12598816 3126:0.12598816 3159:0.12598816 3799:0.12598816 3812:0.25197632 4073:0.25197632 4265:0.25197632 4444:0.25197632 4480:0.12598816 
2.649248769519245 0 0 0 0.3467424940975 0 2.266177548057387 0 0.8784327930260208 0 0 0 0 0.2123001236552615 0 17:0.13483997 110:0.26967994 249:0.26967994 853:0.26967994 872:0.13483997 1342:0.13483997 1431:0.13483997 1790:0.13483997 2051:0.13483997 2070:0.13483997 2117:0.13483997 2154:0.13483997 2229:0.13483997 2382:0.13483997 2393:0.13483997 2394:0.40451992 2405:0.13483997 2457:0.13483997 2459:0.13483997 2747:0.13483997 2904:0.13483997 3079:0.13483997 3084:0.13483997 3126:0.13483997 3159:0.13483997 3305:0.13483997 3799:0.26967994 3812:0.13483997 3825:0.26967994 4073:0.13483997 4265:0.13483997 4480:0.13483997 
13.84356514505167 0 1.253689643851349 0 0 0 0 0 0 0 0 0 0 0 0 110:0.29488391 249:0.29488391 818:0.14744196 843:0.14744196 849:0.14744196 853:0.14744196 872:0.14744196 953:0.14744196 1120:0.14744196 1123:0.14744196 1342:0.14744196 1352:0.14744196 1790:0.14744196 2051:0.14744196 2070:0.14744196 2103:0.14744196 2104:0.14744196 2144:0.14744196 2154:0.14744196 2394:0.14744196 2408:0.44232587 2419:0.14744196 3043:0.14744196 3126:0.14744196 3246:0.14744196 3583:0.14744196 3648:0.14744196 3706:0.14744196 3810:0.14744196 4013:0.14744196 4347:0.14744196 4361:0.14744196 
0 0.4246518129610378 0 0 0 0 0.9198289937425741 0 0 0 0 0 0 0 0 110:0.21081851 249:0.21081851 1032:0.31622777 1084:0.10540926 1120:0.10540926 1342:0.10540926 1352:0.10540926 1354:0.21081851 1431:0.10540926 1790:0.10540926 2051:0.10540926 2070:0.10540926 2103:0.21081851 2104:0.21081851 2154:0.10540926 2219:0.10540926 2364:0.10540926 2394:0.31622777 2408:0.10540926 2457:0.10540926 2747:0.10540926 2764:0.10540926 2892:0.10540926 2916:0.10540926 3126:0.10540926 3132:0.10540926 3133:0.10540926 3291:0.10540926 3305:0.21081851 3574:0.10540926 3664:0.10540926 3706:0.21081851 3816:0.31622777 3938:0.21081851 3992:0.10540926 3994:0.10540926 4368:0.21081851 4469:0.10540926 4480:0.10540926 
1.023572577690203 0 0 0 0 0 0 0.1679409936064538 0 0 0 0 0 0 0 110:0.17407766 236:0.17407766 249:0.17407766 818:0.087038828 853:0.17407766 872:0.087038828 879:0.087038828 953:0.087038828 1087:0.087038828 1120:0.087038828 1174:0.087038828 1790:0.087038828 2051:0.087038828 2070:0.087038828 2154:0.17407766 2158:0.087038828 2163:0.087038828 2167:0.17407766 2382:0.087038828 2392:0.087038828 2394:0.34815531 2405:0.087038828 2459:0.087038828 2894:0.087038828 2904:0.087038828 3084:0.087038828 3089:0.17407766 3126:0.087038828 3131:0.26111648 3159:0.087038828 3246:0.087038828 3269:0.52223297 3672:0.087038828 3780:0.087038828 3868:0.087038828 3869:0.087038828 3873:0.087038828 3874:0.17407766 3875:0.087038828 3879:0.17407766 3880:0.087038828 4346:0.17407766 4447:0.087038828 4480:0.087038828 
0 0.4416397242101734 0.8254293438338619 0 0 0 0 0 0 0 0 0 0 0 0 110:0.13363062 249:0.13363062 606:0.26726124 879:0.26726124 1031:0.13363062 1054:0.13363062 1087:0.13363062 1120:0.13363062 1475:0.13363062 1790:0.13363062 2051:0.13363062 2070:0.13363062 2154:0.13363062 2394:0.53452248 2408:0.13363062 2434:0.26726124 3706:0.13363062 3784:0.26726124 3825:0.26726124 4344:0.26726124 4352:0.13363062 4480:0.13363062 4550:0.13363062 
0 0.6210821971167396 0 0 0 0 0 0 0 0 0 0 0 0 0 110:0.3380617 249:0.3380617 953:0.50709255 959:0.16903085 1342:0.16903085 1417:0.16903085 1428:0.16903085 1790:0.16903085 2051:0.16903085 2070:0.16903085 2105:0.16903085 2124:0.16903085 2154:0.16903085 2157:0.16903085 2249:0.16903085 2264:0.16903085 3531:0.16903085 3670:0.16903085 3967:0.16903085 4298:0.16903085 4352:0.16903085 
1.814404711448582 0 2.242736096431724 0 0.1375274437861219 0 0 0 0 0 1.228156304134748 0 0 0 0 6:0.12598816 99:0.12598816 110:0.25197632 249:0.25197632 434:0.12598816 853:0.12598816 865:0.12598816 872:0.25197632 1135:0.12598816 1342:0.12598816 1519:0.12598816 1534:0.12598816 2116:0.12598816 2124:0.12598816 2139:0.12598816 2249:0.12598816 2394:0.37796447 2408:0.50395263 3070:0.12598816 3229:0.12598816 3559:0.12598816 3730:0.12598816 3743:0.12598816 3882:0.12598816 4321:0.12598816 4352:0.25197632 4359:0.12598816 4529:0.12598816 
0 0 2.010617294991788 0 2.222543311555449 0 1.707155552805717 0 0 0 0 0 0 0 0 110:0.17888544 249:0.26832816 335:0.089442719 853:0.089442719 893:0.089442719 1058:0.17888544 1120:0.17888544 1210:0.089442719 1214:0.089442719 1423:0.089442719 1799:0.089442719 1802:0.089442719 2102:0.089442719 2103:0.35777088 2104:0.35777088 2116:0.089442719 2117:0.17888544 2139:0.089442719 2144:0.089442719 2154:0.089442719 2163:0.089442719 2167:0.089442719 2212:0.089442719 2225:0.089442719 2251:0.089442719 2333:0.089442719 2393:0.17888544 2394:0.26832816 2408:0.17888544 3019:0.089442719 3126:0.17888544 3130:0.089442719 3131:0.17888544 3134:0.089442719 3296:0.089442719 3526:0.089442719 3789:0.26832816 4010:0.089442719 4398:0.089442719 4454:0.17888544 4460:0.17888544 
0 0 1.270215723310463 2.05574763183058 0.6984906167691521 1.07526262610883 2.512829070346896 0 0 0 0 0 0 0 0.3236422523932545 110:0.22086305 249:0.33129458 1083:0.11043153 1120:0.22086305 1174:0.11043153 1214:0.22086305 1428:0.11043153 1447:0.11043153 1475:0.11043153 1779:0.22086305 1799:0.11043153 2046:0.22086305 2098:0.11043153 2103:0.11043153 2104:0.11043153 2117:0.11043153 2154:0.33129458 2228:0.22086305 2264:0.11043153 2378:0.11043153 2394:0.11043153 2420:0.11043153 2457:0.11043153 2747:0.11043153 2959:0.11043153 3057:0.22086305 3060:0.11043153 3126:0.11043153 3129:0.11043153 3270:0.11043153 3671:0.11043153 3706:0.33129458 3801:0.11043153 3982:0.11043153 4005:0.11043153 4276:0.11043153 4444:0.11043153 
5.653863075789626 0.09126915252998195 7.65389064000165 0.2809622800434273 0 1.168720973522039 0.3191850522420303 0 0 0 0 1.552707277022243 0 0 0 110:0.2773501 249:0.2773501 1354:0.2773501 1431:0.2773501 1454:0.2773501 2103:0.2773501 2104:0.2773501 2154:0.2773501 2170:0.2773501 2174:0.2773501 2343:0.2773501 3706:0.2773501 3803:0.2773501 
6.908315805542675 0 0.19527945976731 0 0 0.02985461017793601 0 0 0 0 0 0 0 0 0 110:0.34299717 249:0.34299717 853:0.17149859 872:0.17149859 953:0.34299717 959:0.17149859 1342:0.17149859 1420:0.17149859 1428:0.17149859 1431:0.17149859 1790:0.17149859 1799:0.17149859 2051:0.17149859 2070:0.17149859 2105:0.17149859 2117:0.17149859 2154:0.17149859 2157:0.17149859 2158:0.17149859 2394:0.17149859 3295:0.17149859 3669:0.17149859 4281:0.17149859 4296:0.17149859 4372:0.17149859 
0 1.541248962379713 0 0 0 0 0 0 0 0 0 0 0 0 0 110:0.35355339 249:0.35355339 953:0.35355339 959:0.1767767 1342:0.1767767 1428:0.1767767 1431:0.1767767 1713:0.1767767 1766:0.1767767 1790:0.1767767 1799:0.1767767 2051:0.1767767 2070:0.1767767 2105:0.1767767 2154:0.1767767 2157:0.1767767 2216:0.1767767 2394:0.1767767 2420:0.1767767 3967:0.1767767 3995:0.1767767 4487:0.1767767 4510:0.1767767 
0 0.3181091625016839 0 0 0 0 1.197510344665761 1.056922704530826 0 0 0 0 0 0 0 110:0.3086067 249:0.3086067 435:0.15430335 947:0.15430335 953:0.46291005 959:0.15430335 1053:0.15430335 1342:0.15430335 1417:0.15430335 1428:0.15430335 1430:0.15430335 1431:0.15430335 1790:0.15430335 1799:0.15430335 2051:0.15430335 2070:0.15430335 2105:0.15430335 2154:0.15430335 2157:0.15430335 2167:0.15430335 2168:0.15430335 2394:0.3086067 3368:0.15430335 3706:0.15430335 3967:0.15430335 
0 0 0 0.7966703587843756 0 0 0 0 0 0 0 0 0 0 0 110:0.24433889 249:0.24433889 464:0.12216944 863:0.36650833 953:0.36650833 959:0.12216944 1032:0.12216944 1342:0.12216944 1354:0.12216944 1417:0.12216944 1428:0.12216944 1431:0.12216944 1790:0.12216944 1799:0.12216944 2051:0.12216944 2070:0.12216944 2103:0.12216944 2104:0.12216944 2105:0.12216944 2154:0.12216944 2157:0.12216944 2378:0.12216944 3132:0.12216944 3133:0.12216944 3233:0.24433889 3252:0.12216944 3305:0.12216944 3367:0.12216944 3757:0.12216944 3763:0.12216944 3801:0.12216944 3816:0.12216944 3831:0.24433889 3967:0.12216944 4055:0.12216944 4070:0.12216944 4298:0.12216944 4510:0.12216944 4549:0.12216944 
0 0 0 0 0 0 0 0 0 0 0 0 0 0 0.2238277996925044 110:0.2236068 249:0.2236068 464:0.1118034 863:0.3354102 917:0.1118034 953:0.2236068 959:0.1118034 1032:0.1118034 1342:0.1118034 1354:0.1118034 1417:0.1118034 1428:0.1118034 1431:0.1118034 1790:0.1118034 1799:0.1118034 2051:0.1118034 2070:0.1118034 2103:0.1118034 2104:0.1118034 2105:0.1118034 2154:0.1118034 2157:0.1118034 2212:0.1118034 2378:0.1118034 2408:0.2236068 3015:0.1118034 3132:0.1118034 3133:0.1118034 3233:0.2236068 3252:0.1118034 3305:0.1118034 3367:0.1118034 3757:0.1118034 3763:0.1118034 3801:0.1118034 3816:0.1118034 3831:0.2236068 3967:0.1118034 4010:0.1118034 4055:0.1118034 4070:0.1118034 4298:0.1118034 4348:0.1118034 4454:0.3354102 4510:0.1118034 4549:0.1118034 
2.270977443426489 0 0 0 0 0 0 0 0.06217235951045464 0 0 0 0 0 0 110:0.29488391 249:0.29488391 796:0.14744196 953:0.29488391 959:0.14744196 1342:0.14744196 1417:0.14744196 1428:0.14744196 1431:0.14744196 1790:0.14744196 1799:0.14744196 2051:0.14744196 2070:0.14744196 2105:0.14744196 2154:0.14744196 2157:0.14744196 2350:0.14744196 2379:0.14744196 2394:0.14744196 2457:0.14744196 2747:0.14744196 3372:0.44232587 3831:0.14744196 3865:0.14744196 3967:0.29488391 4298:0.14744196 
0 0 0.7964774628624758 0 0 0 0 0 0.04865525440015375 0 0 0 0 0 0 110:0.25197632 249:0.25197632 464:0.12598816 863:0.37796447 953:0.25197632 959:0.12598816 1032:0.12598816 1342:0.12598816 1354:0.12598816 1417:0.12598816 1428:0.12598816 1431:0.12598816 1790:0.12598816 1799:0.12598816 2051:0.12598816 2070:0.12598816 2103:0.12598816 2104:0.12598816 2105:0.12598816 2154:0.12598816 2157:0.12598816 2378:0.12598816 3132:0.12598816 3133:0.12598816 3233:0.25197632 3252:0.12598816 3305:0.12598816 3367:0.12598816 3670:0.12598816 3757:0.12598816 3763:0.12598816 3801:0.12598816 3816:0.12598816 3831:0.25197632 3967:0.12598816 4055:0.12598816 4070:0.12598816 4298:0.12598816 4510:0.12598816 4549:0.12598816 
9.726298735720217 1.140797787718273 0 1.295549311482316 0 0 3.774512260375994 0 0.3004609125766993 0 0.7652724424343741 0.5722485411320633 0.1788559255914033 0.2788338022140759 0.8062611806846091 10:0.33333333 110:0.33333333 319:0.33333333 953:0.33333333 1431:0.33333333 2076:0.33333333 2154:0.33333333 2386:0.33333333 3130:0.33333333 
0 0 0.9386131637035524 0 0 1.228631167117884 0.6569644264756219 0 0.2348489070184755 0 0 0 0 0 0 110:0.22645541 249:0.22645541 464:0.1132277 863:0.33968311 953:0.22645541 959:0.1132277 1032:0.1132277 1342:0.1132277 1354:0.1132277 1417:0.1132277 1428:0.1132277 1431:0.1132277 1790:0.1132277 1799:0.1132277 2051:0.1132277 2070:0.1132277 2103:0.1132277 2104:0.1132277 2105:0.1132277 2154:0.1132277 2157:0.1132277 2378:0.1132277 2942:0.45291081 3132:0.1132277 3133:0.1132277 3233:0.22645541 3252:0.1132277 3305:0.1132277 3367:0.1132277 3757:0.1132277 3763:0.1132277 3801:0.1132277 3816:0.1132277 3831:0.22645541 3967:0.1132277 4055:0.1132277 4070:0.1132277 4298:0.1132277 4510:0.1132277 4549:0.1132277 
3.981486680762337 0 1.551303142014078 0.6469057104299064 0 0.797711959032173 0 0 0 0 0.5768100209375648 0 0 0 0 110:0.31108551 249:0.41478068 481:0.10369517 853:0.20739034 872:0.20739034 959:0.31108551 1115:0.10369517 1342:0.31108551 1417:0.20739034 1428:0.10369517 1431:0.10369517 1437:0.10369517 1799:0.20739034 2117:0.10369517 2154:0.10369517 2166:0.10369517 2219:0.10369517 2254:0.10369517 2260:0.10369517 2349:0.10369517 2398:0.10369517 2777:0.10369517 3117:0.10369517 3126:0.20739034 3132:0.10369517 3133:0.10369517 3312:0.10369517 3372:0.10369517 3526:0.10369517 3718:0.10369517 3845:0.10369517 4010:0.10369517 4280:0.10369517 4298:0.20739034 4352:0.10369517 4471:0.10369517 
0 0 0 0 0 0 0 0 0 0 0 0 0.2789696324284192 0 0 110:0.4472136 249:0.4472136 1120:0.2236068 1174:0.2236068 1214:0.2236068 1431:0.2236068 1446:0.2236068 2154:0.2236068 2169:0.2236068 3706:0.2236068 4041:0.2236068 4301:0.2236068 4523:0.2236068 4533:0.2236068 
0 0.5420980808183831 1.686135197410861 0 0.6246210770801999 0.2119257716129821 0 0 1.593617294199394 0.1049320083388758 0.007732201063212 1.256600504437872 0 0.4377135148676721 0 110:0.089087081 249:0.089087081 335:0.089087081 950:0.089087081 953:0.089087081 959:0.089087081 1120:0.089087081 1123:0.17817416 1194:0.089087081 1431:0.089087081 1434:0.26726124 1475:0.089087081 1764:0.17817416 1790:0.089087081 1799:0.089087081 2051:0.089087081 2070:0.089087081 2089:0.089087081 2102:0.089087081 2154:0.089087081 2229:0.089087081 2308:0.35634832 2349:0.089087081 2394:0.26726124 2398:0.089087081 2457:0.17817416 2747:0.17817416 2922:0.089087081 2929:0.089087081 3019:0.089087081 3079:0.089087081 3126:0.26726124 3130:0.17817416 3312:0.26726124 3368:0.089087081 3561:0.26726124 3643:0.089087081 3760:0.089087081 3887:0.089087081 3889:0.17817416 3997:0.17817416 4036:0.089087081 4312:0.089087081 4445:0.089087081 4454:0.17817416 4464:0.089087081 4486:0.089087081 
0 0 0 0 0 0 0 0 0 0 0 0.6059847953473784 0.02126624078555927 0 0 110:0.12309149 249:0.12309149 843:0.12309149 849:0.12309149 853:0.12309149 872:0.12309149 953:0.24618298 959:0.24618298 1123:0.12309149 1342:0.12309149 1352:0.12309149 1428:0.12309149 1431:0.12309149 1761:0.12309149 1790:0.12309149 2051:0.12309149 2070:0.12309149 2102:0.12309149 2103:0.12309149 2104:0.12309149 2116:0.24618298 2139:0.24618298 2154:0.12309149 2166:0.12309149 2233:0.12309149 2349:0.12309149 2360:0.12309149 2407:0.12309149 2431:0.49236596 3372:0.24618298 3526:0.12309149 3865:0.24618298 4513:0.12309149 
0 0 0 0 0 0 0 0 0.3297547435217357 0 0 0 0 0 0 110:0.25400025 249:0.25400025 464:0.12700013 863:0.38100038 953:0.25400025 959:0.12700013 1032:0.12700013 1342:0.12700013 1354:0.12700013 1417:0.12700013 1428:0.12700013 1431:0.12700013 1790:0.12700013 1799:0.12700013 2051:0.12700013 2070:0.12700013 2103:0.12700013 2104:0.12700013 2105:0.12700013 2154:0.12700013 2157:0.12700013 2378:0.12700013 3132:0.12700013 3133:0.12700013 3233:0.25400025 3252:0.12700013 3305:0.12700013 3367:0.12700013 3757:0.12700013 3763:0.12700013 3801:0.12700013 3816:0.12700013 3831:0.25400025 3967:0.12700013 4055:0.12700013 4070:0.12700013 4298:0.12700013 4510:0.12700013 4549:0.12700013 
0 0 2.799487620804775 0 0 0 0 0 0 0 0 0 0 0 0 110:0.13867505 249:0.13867505 843:0.13867505 849:0.13867505 853:0.13867505 872:0.13867505 953:0.2773501 959:0.2773501 1123:0.13867505 1342:0.13867505 1352:0.13867505 1428:0.13867505 1431:0.13867505 1761:0.13867505 1790:0.13867505 2051:0.13867505 2070:0.13867505 2102:0.13867505 2103:0.13867505 2104:0.13867505 2116:0.13867505 2139:0.13867505 2154:0.13867505 2166:0.13867505 2233:0.13867505 2349:0.13867505 2360:0.13867505 2407:0.13867505 2431:0.2773501 3057:0.13867505 3372:0.41602515 3526:0.13867505 3865:0.13867505 4011:0.13867505 4513:0.13867505 
0 0 0 0 0 0 0 0.3776725804100317 0 0 0 0 0 0 0 110:0.13245324 249:0.13245324 843:0.13245324 849:0.13245324 853:0.13245324 872:0.13245324 953:0.39735971 959:0.26490647 1123:0.13245324 1342:0.13245324 1352:0.13245324 1428:0.13245324 1431:0.13245324 1761:0.13245324 1790:0.13245324 2051:0.13245324 2070:0.13245324 2102:0.13245324 2103:0.13245324 2104:0.13245324 2116:0.13245324 2139:0.13245324 2154:0.13245324 2166:0.13245324 2233:0.13245324 2349:0.13245324 2360:0.13245324 2407:0.13245324 2431:0.26490647 3057:0.13245324 3372:0.39735971 3526:0.13245324 3865:0.13245324 4011:0.13245324 4513:0.13245324 
6.352099257903235 0 1.826016639449588 0.3451070367819432 0 0.1104782543303486 1.513881140763202 0 0 0 0 0 0.1647856425183253 0 0 110:0.40824829 249:0.40824829 492:0.13608276 853:0.13608276 872:0.13608276 953:0.13608276 1032:0.13608276 1120:0.13608276 1214:0.13608276 1342:0.13608276 1428:0.13608276 1431:0.13608276 1534:0.13608276 1790:0.13608276 2051:0.13608276 2070:0.13608276 2103:0.13608276 2104:0.13608276 2124:0.13608276 2308:0.13608276 3015:0.13608276 3059:0.13608276 3783:0.13608276 3801:0.13608276 3965:0.13608276 3969:0.27216553 4059:0.27216553 4298:0.13608276 4448:0.27216553 
0.8106012933452311 0 0 1.607779648833886 0 0.1291026307293308 3.093705307617604 0 1.425344481240128 0 0 0.3325007723075524 0 0.04449764862597251 0 110:0.20965697 249:0.20965697 318:0.41931393 964:0.20965697 1342:0.10482848 1415:0.10482848 1419:0.41931393 1431:0.10482848 1475:0.10482848 1756:0.10482848 1790:0.10482848 1799:0.10482848 2051:0.10482848 2059:0.10482848 2070:0.10482848 2154:0.10482848 2216:0.10482848 2260:0.10482848 2394:0.41931393 2404:0.10482848 2408:0.20965697 2457:0.10482848 2747:0.10482848 3057:0.10482848 3090:0.10482848 3531:0.20965697 3804:0.10482848 4306:0.10482848 4363:0.10482848 4372:0.10482848 4524:0.10482848 
0 0.5833165100122234 0 1.544508447720196 0 0.8805529398521038 0 0 1.165866934929138 0 0 0.5780631056330432 0 0 0 110:0.19156526 249:0.19156526 953:0.47891314 959:0.19156526 1088:0.095782629 1120:0.095782629 1209:0.095782629 1342:0.095782629 1414:0.095782629 1428:0.095782629 1431:0.19156526 1432:0.095782629 1790:0.095782629 2051:0.095782629 2070:0.095782629 2154:0.095782629 2166:0.095782629 2167:0.095782629 2349:0.19156526 2381:0.095782629 2394:0.38313051 2399:0.38313051 2457:0.19156526 2747:0.19156526 2762:0.095782629 2921:0.095782629 3057:0.095782629 3090:0.095782629 3118:0.095782629 3135:0.095782629 3284:0.095782629 3967:0.095782629 4298:0.095782629 4478:0.095782629 
0 1.488030867212139 0.03035281592913784 0 0 0.3386608377533834 0 0.6322267920277152 0 0 0 0 0.08860027323714544 0 0.7789572658280347 110:0.1118034 249:0.1118034 853:0.1118034 953:0.2236068 1052:0.1118034 1088:0.1118034 1119:0.1118034 1120:0.3354102 1123:0.1118034 1431:0.1118034 1436:0.2236068 1790:0.1118034 2051:0.1118034 2070:0.1118034 2154:0.1118034 2228:0.1118034 2340:0.1118034 2394:0.4472136 2420:0.1118034 2807:0.1118034 2959:0.1118034 3057:0.1118034 3131:0.1118034 3520:0.1118034 3522:0.1118034 3542:0.1118034 3703:0.1118034 3706:0.2236068 3744:0.1118034 3750:0.1118034 3791:0.1118034 3803:0.1118034 3870:0.1118034 4031:0.2236068 4368:0.2236068 4372:0.1118034 4444:0.2236068 4524:0.1118034 4533:0.1118034 
0 0 2.458567990153596 0.6966467707520228 0 0.3092310114699529 0 0 0.9059860083908398 0 0 0.2706427656923509 0 0 0.01900753278878852 110:0.11867817 249:0.11867817 483:0.11867817 662:0.11867817 853:0.11867817 953:0.23735633 1052:0.11867817 1119:0.11867817 1120:0.23735633 1123:0.11867817 1416:0.11867817 1431:0.11867817 1785:0.11867817 1790:0.11867817 2051:0.11867817 2070:0.11867817 2117:0.11867817 2154:0.11867817 2228:0.11867817 2394:0.47471266 2420:0.11867817 2457:0.11867817 2747:0.11867817 2807:0.11867817 2928:0.11867817 3057:0.11867817 3131:0.11867817 3520:0.23735633 3546:0.11867817 3703:0.11867817 3706:0.11867817 3744:0.11867817 3746:0.11867817 3750:0.11867817 3752:0.11867817 3791:0.11867817 3802:0.11867817 4031:0.23735633 4306:0.11867817 4368:0.11867817 4372:0.23735633 
7.984609604743739 0 3.010374585075377 0 0 0 0 0 0 0 0 0 0 0 0 110:0.32025631 249:0.32025631 796:0.16012815 1342:0.16012815 1431:0.16012815 1790:0.16012815 1799:0.16012815 2051:0.16012815 2070:0.16012815 2103:0.32025631 2104:0.32025631 2154:0.16012815 2394:0.32025631 2408:0.16012815 2943:0.32025631 3284:0.16012815 3670:0.16012815 4454:0.32025631 
0 0 0 0 0 0 0 0 0 0 0 0.4801176513581779 0 0 0 110:0.20412415 249:0.20412415 318:0.40824829 964:0.20412415 1342:0.10206207 1415:0.10206207 1419:0.40824829 1431:0.10206207 1453:0.10206207 1475:0.10206207 1756:0.10206207 1790:0.10206207 1799:0.10206207 2051:0.10206207 2070:0.10206207 2154:0.10206207 2260:0.10206207 2394:0.40824829 2404:0.10206207 2408:0.30618622 2436:0.10206207 2457:0.10206207 2747:0.10206207 3057:0.10206207 3090:0.10206207 3368:0.10206207 3531:0.20412415 3804:0.10206207 4306:0.10206207 4372:0.10206207 4524:0.10206207 
0 0 0 0 0 0 0 0 0 0 0 0 0.2294615348571628 0 0 110:0.4472136 249:0.4472136 1120:0.2236068 1214:0.2236068 1431:0.2236068 1446:0.2236068 2154:0.2236068 2169:0.2236068 3671:0.2236068 3706:0.2236068 3870:0.2236068 4041:0.2236068 4449:0.2236068 4523:0.2236068 
0 0 0 0 0 0 0 0 0 0 0 0.2018420196909068 0.008115460957781089 0 0 110:0.32444284 249:0.32444284 953:0.32444284 959:0.16222142 1088:0.16222142 1342:0.16222142 1428:0.16222142 1431:0.16222142 1757:0.16222142 1790:0.16222142 1799:0.16222142 2051:0.16222142 2070:0.16222142 2105:0.16222142 2116:0.16222142 2139:0.16222142 2154:0.16222142 2157:0.16222142 2335:0.16222142 2381:0.16222142 2408:0.16222142 2762:0.16222142 3133:0.16222142 3592:0.16222142 3967:0.16222142 4069:0.32444284 
0 0 0.2331531474146425 0 0 0 0 0 0.4982353181356848 0 0 0 0 0 0 110:0.25197632 249:0.25197632 464:0.12598816 863:0.37796447 953:0.25197632 959:0.12598816 1032:0.12598816 1342:0.12598816 1354:0.12598816 1417:0.12598816 1428:0.12598816 1431:0.12598816 1790:0.12598816 1799:0.12598816 2051:0.12598816 2070:0.12598816 2103:0.12598816 2104:0.12598816 2105:0.12598816 2154:0.12598816 2157:0.12598816 2378:0.12598816 3132:0.12598816 3133:0.12598816 3233:0.25197632 3252:0.12598816 3305:0.12598816 3367:0.12598816 3757:0.12598816 3763:0.12598816 3801:0.12598816 3816:0.12598816 3831:0.25197632 3917:0.12598816 3967:0.12598816 4055:0.12598816 4070:0.12598816 4298:0.12598816 4510:0.12598816 4549:0.12598816 
0 0 0 0.2483457654700786 0 0 1.614353468306551 0.08069688191226426 0 0 1.157847149651861 0 0 0 0 110:0.2 249:0.2 820:0.2 853:0.2 1120:0.2 1431:0.2 2154:0.2 2228:0.2 2394:0.4 2408:0.2 2457:0.2 2747:0.2 3057:0.2 3520:0.2 3675:0.2 3703:0.2 3706:0.2 3750:0.2 3973:0.2 4012:0.2 4372:0.2 4454:0.2 
15.19065978815498 0 0.5503717912234528 0 0 0 0 0 0.6642306853219141 0 0.5839307358365535 0 0.4940904684714629 0 0 99:0.14002801 110:0.28005602 249:0.14002801 853:0.14002801 872:0.14002801 953:0.28005602 959:0.14002801 1120:0.14002801 1342:0.14002801 1403:0.14002801 1431:0.14002801 1478:0.14002801 2102:0.14002801 2154:0.14002801 2369:0.14002801 2378:0.28005602 2394:0.42008403 3118:0.28005602 3125:0.14002801 3132:0.14002801 3133:0.14002801 3744:0.14002801 3760:0.14002801 4011:0.14002801 4016:0.14002801 4454:0.14002801 4480:0.14002801 4557:0.28005602 
2.375100195398387 0.4748259298339672 0 0.8252056939065527 0 0 0.4685158672143121 0 0 0 0 0.3326696389472338 0.4165021742559431 0 0 8:0.13483997 56:0.13483997 110:0.26967994 249:0.26967994 297:0.13483997 862:0.13483997 953:0.13483997 1109:0.13483997 1429:0.13483997 1431:0.26967994 2103:0.26967994 2104:0.26967994 2154:0.26967994 2164:0.13483997 2174:0.13483997 2381:0.13483997 2394:0.13483997 2408:0.13483997 2746:0.13483997 2946:0.13483997 2956:0.13483997 3090:0.26967994 3134:0.13483997 3708:0.13483997 3742:0.26967994 4021:0.13483997 4069:0.13483997 4073:0.13483997 4075:0.13483997 4442:0.13483997 4498:0.13483997 
1.601909121687619 0 0 1.003188582986557 1.155534832304452 0 2.211959940154719 0 0.1896086807995502 0 0 0 0.01776853983528411 0 0 110:0.33333333 245:0.16666667 249:0.33333333 428:0.16666667 953:0.33333333 959:0.16666667 1342:0.16666667 1428:0.16666667 1431:0.16666667 1790:0.16666667 1799:0.16666667 2051:0.16666667 2070:0.16666667 2105:0.16666667 2154:0.16666667 2157:0.16666667 2167:0.16666667 2390:0.16666667 2393:0.16666667 3136:0.33333333 3967:0.33333333 
0 0.3293961622139754 0 1.801498265571178 0.1870649329647808 1.338047919942988 3.534307940452888 0 1.441274045011116 0.0535731609369356 0 0.326754242030679 0 0.1371143035996102 0.3121563583668562 110:0.10259784 249:0.10259784 438:0.10259784 613:0.10259784 953:0.10259784 1210:0.20519567 1341:0.10259784 1416:0.10259784 1431:0.10259784 1750:0.10259784 2103:0.30779351 2104:0.30779351 2154:0.10259784 2225:0.30779351 2260:0.10259784 2264:0.20519567 2349:0.30779351 2810:0.10259784 3066:0.10259784 3125:0.10259784 3369:0.10259784 3760:0.20519567 3972:0.10259784 3998:0.10259784 4042:0.20519567 4075:0.10259784 4269:0.30779351 4441:0.20519567 4457:0.10259784 4498:0.10259784 4521:0.10259784 4558:0.30779351 
0 0 0 0 0 0 0 0 0 0 0 0 0 0 0.2158853548902699 17:0.14433757 110:0.14433757 236:0.28867513 249:0.14433757 796:0.14433757 953:0.14433757 1031:0.14433757 1047:0.14433757 1054:0.14433757 1059:0.14433757 1431:0.14433757 1480:0.14433757 1484:0.14433757 1756:0.14433757 1790:0.14433757 2051:0.14433757 2070:0.14433757 2116:0.14433757 2139:0.14433757 2154:0.14433757 2232:0.14433757 2335:0.14433757 2360:0.28867513 2394:0.4330127 2408:0.28867513 2447:0.14433757 2892:0.14433757 3134:0.14433757 3672:0.14433757 3757:0.14433757 3785:0.14433757 
8.23085038691257 0.4168855172056846 1.015638275777648 0.9526478592523986 2.341297290200748 1.486703878799701 0.2027039069463888 0 0 0 0.1756970143348558 0.7958752540989503 0 1.409923952999556 0 110:0.20519567 249:0.20519567 853:0.20519567 872:0.20519567 1121:0.10259784 1431:0.20519567 1432:0.30779351 2102:0.20519567 2103:0.30779351 2104:0.30779351 2154:0.20519567 2260:0.10259784 2386:0.10259784 2408:0.30779351 2760:0.30779351 3090:0.10259784 3813:0.30779351 4266:0.30779351 
0 0 0 0 0 0 0 0 0 0 0 0 0 0 0.5847133299896264 17:0.1132277 110:0.1132277 236:0.22645541 249:0.1132277 953:0.1132277 1027:0.1132277 1031:0.1132277 1047:0.1132277 1054:0.1132277 1120:0.1132277 1431:0.1132277 1480:0.1132277 1484:0.1132277 1534:0.1132277 1756:0.1132277 1790:0.1132277 2051:0.1132277 2070:0.1132277 2154:0.1132277 2393:0.1132277 2394:0.22645541 2408:0.45291081 2892:0.33968311 3018:0.1132277 3069:0.1132277 3298:0.1132277 3581:0.1132277 3706:0.1132277 3826:0.22645541 3881:0.1132277 3887:0.1132277 4027:0.1132277 4309:0.33968311 4360:0.1132277 4383:0.1132277 4388:0.1132277 4458:0.1132277 4547:0.1132277 
0 0 0 0 0 0 1.194652633443171 0 0 1.625565033273607 0 0 0 0 0 17:0.13608276 18:0.27216553 110:0.13608276 236:0.27216553 249:0.13608276 953:0.13608276 967:0.13608276 1031:0.13608276 1047:0.13608276 1054:0.13608276 1120:0.27216553 1352:0.13608276 1431:0.13608276 1480:0.13608276 1484:0.13608276 1756:0.13608276 1784:0.13608276 1790:0.13608276 2051:0.13608276 2070:0.13608276 2125:0.27216553 2154:0.13608276 2394:0.27216553 2408:0.27216553 2448:0.27216553 2892:0.13608276 3295:0.13608276 3297:0.13608276 3525:0.13608276 3646:0.13608276 3752:0.13608276 3810:0.13608276 4348:0.13608276 
2.4649341296869 0 0 0 0 0 0 0 0 0 0 0.5381958085589829 0 0.5581876039968209 0 17:0.14433757 110:0.14433757 130:0.28867513 236:0.28867513 249:0.14433757 461:0.14433757 953:0.14433757 1047:0.14433757 1120:0.28867513 1431:0.14433757 1432:0.14433757 1534:0.14433757 1540:0.14433757 1550:0.14433757 1790:0.14433757 2051:0.14433757 2070:0.14433757 2154:0.14433757 2216:0.14433757 2334:0.14433757 2394:0.28867513 2408:0.14433757 2421:0.14433757 2447:0.14433757 2892:0.14433757 2905:0.14433757 3310:0.14433757 3672:0.14433757 3757:0.14433757 3785:0.14433757 3820:0.14433757 3881:0.28867513 4069:0.14433757 
1.366701331762599 0.02825296023327556 0 0 0.5849063111199435 0.338062855612176 1.042068317828562 0.9156228363301534 0 0 0 0 0 0.09342485542588033 0 17:0.15249857 110:0.15249857 236:0.30499714 249:0.15249857 853:0.15249857 872:0.15249857 953:0.15249857 1047:0.15249857 1085:0.15249857 1352:0.15249857 1431:0.15249857 1432:0.15249857 1790:0.15249857 2044:0.15249857 2051:0.15249857 2070:0.30499714 2143:0.15249857 2154:0.15249857 2394:0.30499714 2408:0.15249857 2959:0.15249857 3371:0.15249857 3532:0.15249857 3706:0.15249857 3792:0.30499714 4024:0.15249857 4388:0.30499714 4522:0.15249857 
0.5096376691137099 0 0 0 0 0 0 0 0 0 0 0.3805554189745483 0 0 1.063974326593635 17:0.13867505 110:0.13867505 236:0.2773501 249:0.13867505 660:0.41602515 953:0.13867505 1047:0.13867505 1352:0.13867505 1431:0.13867505 1475:0.13867505 1483:0.13867505 1790:0.13867505 2051:0.13867505 2070:0.13867505 2154:0.13867505 2273:0.13867505 2394:0.2773501 2408:0.41602515 2947:0.13867505 3560:0.13867505 3584:0.13867505 3690:0.13867505 3749:0.13867505 3803:0.13867505 3952:0.2773501 4069:0.13867505 4531:0.13867505 
3.80874026222134 0 0 1.732177203376212 0.01456408963958233 0.334494442785465 0.09568069676048024 0 0 0 0 0.8046264906300316 0 0.128654428305878 0 110:0.21320072 249:0.21320072 343:0.21320072 1173:0.21320072 1412:0.21320072 1431:0.21320072 2103:0.21320072 2104:0.21320072 2145:0.21320072 2154:0.21320072 2170:0.21320072 2398:0.21320072 2457:0.21320072 2747:0.21320072 2810:0.21320072 3066:0.21320072 3079:0.21320072 3878:0.21320072 4457:0.21320072 4480:0.21320072 4521:0.21320072 4557:0.21320072 
16 0 3.24781933681847 0.3256742071832079 0.8625341211809877 0.2455345675744586 5.195840500789637 0 0 0 0 0.2615139236263719 0 0 0 110:0.25400025 249:0.25400025 431:0.12700013 438:0.12700013 843:0.12700013 849:0.25400025 853:0.25400025 872:0.25400025 1120:0.25400025 1123:0.25400025 1342:0.12700013 1352:0.12700013 1431:0.12700013 1453:0.25400025 1790:0.12700013 1799:0.12700013 2051:0.12700013 2070:0.12700013 2103:0.12700013 2104:0.12700013 2116:0.12700013 2139:0.12700013 2154:0.12700013 2381:0.12700013 2386:0.12700013 2394:0.25400025 2457:0.12700013 2747:0.12700013 2986:0.12700013 3019:0.12700013 3065:0.12700013 3132:0.12700013 3133:0.12700013 3808:0.12700013 4487:0.12700013 
5.890598552707786 0 0 1.993035351559552 0.637249911925924 3.18354273376866 0 0 1.007422910391663 0.9392931140755103 0 0.367820832817191 0 0.8629708064346513 0 110:0.081923192 249:0.081923192 459:0.16384638 865:0.081923192 953:0.081923192 1085:0.16384638 1120:0.16384638 1414:0.081923192 1431:0.081923192 1474:0.081923192 1475:0.081923192 1544:0.081923192 2045:0.081923192 2057:0.081923192 2069:0.32769277 2102:0.16384638 2117:0.081923192 2154:0.081923192 2394:0.16384638 2457:0.40961596 2747:0.40961596 2998:0.24576958 3079:0.081923192 3118:0.24576958 3132:0.081923192 3133:0.081923192 3366:0.081923192 3369:0.081923192 3671:0.081923192 3744:0.081923192 3757:0.081923192 3860:0.081923192 3972:0.081923192 3974:0.081923192 4042:0.081923192 4285:0.081923192 4363:0.16384638 4444:0.16384638 4481:0.16384638 4485:0.16384638 4498:0.081923192 4529:0.081923192 4557:0.081923192 
4.273119525768297 0 0 0 0 0 2.233565288337689 0 0 0 0 0 0 0 0 110:0.18898224 249:0.094491118 483:0.094491118 1342:0.094491118 1431:0.094491118 1477:0.094491118 1790:0.094491118 1799:0.094491118 2051:0.094491118 2070:0.094491118 2116:0.094491118 2139:0.094491118 2154:0.094491118 2393:0.094491118 2394:0.56694671 2397:0.094491118 2398:0.094491118 2408:0.094491118 2810:0.094491118 2919:0.094491118 2928:0.094491118 3066:0.18898224 3136:0.094491118 4012:0.094491118 4042:0.094491118 4065:0.094491118 4454:0.56694671 4457:0.094491118 4467:0.094491118 4480:0.18898224 4483:0.094491118 4521:0.094491118 4557:0.094491118 
1.622116279040505 0 0 0.8045731104054051 0 0 3.930596815868941 0 0 0 0 0 0 0 0 110:0.20965697 249:0.20965697 853:0.10482848 871:0.10482848 872:0.10482848 947:0.10482848 953:0.10482848 1120:0.20965697 1123:0.10482848 1208:0.10482848 1210:0.10482848 1342:0.10482848 1352:0.10482848 1431:0.10482848 1790:0.10482848 1799:0.10482848 2051:0.10482848 2070:0.10482848 2117:0.10482848 2154:0.10482848 2264:0.10482848 2351:0.10482848 2394:0.41931393 2408:0.10482848 2775:0.10482848 2807:0.10482848 2959:0.10482848 3019:0.10482848 3064:0.10482848 3066:0.10482848 3079:0.20965697 3165:0.10482848 3310:0.31448545 3525:0.10482848 3571:0.10482848 3658:0.10482848 3666:0.20965697 3671:0.20965697 3756:0.10482848 3968:0.10482848 4017:0.10482848 4301:0.10482848 4399:0.10482848 4464:0.20965697 4480:0.10482848 4483:0.10482848 4484:0.10482848 
10.4238361856596 0 0 0 0 0 3.799007791824071 1.044699187073019 0 0 0 0 0 0 0 110:0.16903085 154:0.16903085 249:0.16903085 953:0.16903085 1120:0.16903085 1214:0.16903085 1395:0.16903085 1431:0.16903085 1454:0.16903085 1790:0.16903085 2051:0.16903085 2070:0.16903085 2154:0.16903085 2394:0.3380617 2408:0.16903085 2874:0.16903085 3118:0.3380617 3270:0.16903085 3560:0.16903085 3650:0.16903085 3669:0.16903085 3675:0.3380617 4454:0.3380617 
0 0 0 0 0 0 0 0 0 0 0 0.00425939277113802 0 0 0 17:0.11704115 110:0.11704115 236:0.23408229 249:0.11704115 953:0.11704115 1027:0.11704115 1047:0.11704115 1120:0.11704115 1431:0.11704115 1534:0.11704115 1790:0.11704115 2051:0.11704115 2070:0.11704115 2154:0.11704115 2393:0.11704115 2394:0.23408229 2408:0.46816459 2892:0.35112344 3018:0.11704115 3069:0.11704115 3298:0.11704115 3581:0.11704115 3706:0.11704115 3826:0.23408229 3881:0.11704115 3887:0.11704115 4027:0.11704115 4309:0.35112344 4360:0.11704115 4383:0.11704115 4388:0.11704115 4458:0.11704115 4547:0.11704115 
0.7482119701431762 0.3304980514044502 0 0 0 0 0.9632486216310727 0.3358696703316867 0 0 0 0.1936555621770811 0 0 1.056913612561844 17:0.13867505 110:0.13867505 236:0.2773501 249:0.13867505 853:0.13867505 953:0.13867505 1047:0.13867505 1431:0.13867505 1475:0.13867505 1790:0.13867505 2051:0.13867505 2070:0.2773501 2146:0.13867505 2154:0.13867505 2212:0.13867505 2394:0.41602515 2404:0.13867505 2408:0.13867505 2889:0.13867505 3085:0.2773501 3246:0.13867505 3295:0.13867505 3778:0.13867505 3785:0.13867505 3826:0.13867505 4065:0.2773501 4388:0.13867505 4458:0.2773501 4527:0.13867505 
1.542150457320256 0 0 0 0 0 0 0 0 0 0 1.091395930262966 0 0 0 110:0.24253563 249:0.12126781 953:0.24253563 1173:0.12126781 1342:0.12126781 1431:0.12126781 1446:0.12126781 1713:0.12126781 1790:0.12126781 1799:0.12126781 2051:0.12126781 2069:0.12126781 2070:0.12126781 2102:0.12126781 2154:0.12126781 2398:0.12126781 2408:0.12126781 2457:0.24253563 2747:0.24253563 2894:0.36380344 3059:0.12126781 3125:0.12126781 3130:0.12126781 3132:0.12126781 3133:0.12126781 3284:0.12126781 3369:0.12126781 3744:0.12126781 4298:0.12126781 4299:0.12126781 4363:0.36380344 4454:0.24253563 4480:0.24253563 4557:0.12126781 
0 0 0 0 0 1.528612663384448 0 0 0 0 0 0 0.3916595761299892 0 0 17:0.13483997 110:0.13483997 236:0.26967994 249:0.13483997 467:0.13483997 953:0.13483997 1047:0.13483997 1059:0.13483997 1120:0.13483997 1122:0.26967994 1431:0.13483997 1790:0.13483997 2051:0.13483997 2070:0.13483997 2144:0.13483997 2394:0.67419986 2408:0.13483997 2925:0.26967994 3013:0.13483997 3658:0.13483997 4018:0.13483997 4326:0.13483997 
16 0 3.095826596627238 0.07379180259815778 0 0 2.483974473828309 0 0 0 0 0 0 0 0 110:0.32539569 249:0.43386092 843:0.10846523 849:0.10846523 853:0.21693046 872:0.32539569 953:0.43386092 1123:0.10846523 1214:0.10846523 1342:0.10846523 1352:0.10846523 1431:0.10846523 1499:0.10846523 1513:0.21693046 1790:0.10846523 1799:0.10846523 2051:0.10846523 2070:0.10846523 2102:0.10846523 2103:0.10846523 2104:0.10846523 2154:0.10846523 2250:0.10846523 2348:0.10846523 2398:0.10846523 2922:0.10846523 3970:0.10846523 4008:0.10846523 4444:0.21693046 4456:0.10846523 
2.71498724060718 0 0.1375654798465618 0 0 0 0.2504935584488007 0 0 0.3134706631126793 0 0.6224625945377921 0 0 0.8214128778538741 17:0.15617376 110:0.15617376 249:0.15617376 953:0.15617376 1047:0.15617376 1431:0.15617376 1497:0.15617376 1790:0.15617376 1798:0.15617376 2051:0.15617376 2070:0.15617376 2144:0.15617376 2154:0.15617376 2256:0.15617376 2310:0.31234752 2394:0.15617376 2408:0.46852129 2421:0.15617376 2892:0.46852129 3123:0.15617376 4324:0.15617376 4479:0.15617376 
0 0 0 0 0 0 1.089546702787033 0 0 0 0 0 0 0 0 17:0.12803688 110:0.12803688 236:0.25607376 249:0.12803688 467:0.12803688 953:0.12803688 1031:0.12803688 1047:0.12803688 1054:0.12803688 1059:0.12803688 1120:0.12803688 1122:0.25607376 1431:0.12803688 1480:0.12803688 1484:0.12803688 1756:0.12803688 1790:0.12803688 2051:0.12803688 2070:0.12803688 2144:0.12803688 2154:0.12803688 2394:0.6401844 2408:0.12803688 2925:0.25607376 3013:0.12803688 3658:0.12803688 4018:0.12803688 4326:0.12803688 
0 0 0 0 0 0 0.4262485809422153 0 0 0 0 0 0 0.920935222618097 0 110:0.23094011 249:0.23094011 483:0.11547005 1089:0.11547005 1214:0.11547005 1431:0.11547005 1542:0.11547005 2147:0.11547005 2154:0.11547005 2172:0.11547005 2225:0.11547005 2228:0.11547005 2270:0.11547005 2311:0.11547005 2394:0.57735027 2408:0.23094011 2447:0.11547005 3234:0.11547005 3270:0.11547005 3368:0.11547005 3649:0.11547005 3658:0.11547005 3765:0.11547005 3889:0.23094011 3969:0.11547005 4316:0.11547005 4381:0.34641016 4454:0.11547005 4458:0.11547005 4460:0.11547005 4499:0.11547005 
6.777680514819416 0 0 0 0 0 0 0 0 0 0 0 0 0 0 110:0.22645541 236:0.1132277 249:0.22645541 483:0.1132277 1089:0.1132277 1120:0.1132277 1214:0.1132277 1431:0.1132277 1542:0.1132277 2102:0.1132277 2147:0.1132277 2154:0.1132277 2172:0.1132277 2225:0.1132277 2228:0.1132277 2311:0.1132277 2394:0.56613852 2408:0.22645541 2447:0.1132277 3234:0.1132277 3270:0.1132277 3368:0.1132277 3649:0.1132277 3765:0.1132277 3889:0.22645541 3969:0.1132277 4055:0.1132277 4316:0.1132277 4344:0.1132277 4381:0.33968311 4454:0.1132277 4458:0.1132277 4460:0.1132277 4499:0.1132277 
0 1.044417457028859 0 0 0 0 0.6494814259317707 0 0 0 0 0 0 0 0 110:0.27472113 249:0.27472113 483:0.13736056 1089:0.13736056 1214:0.13736056 1431:0.13736056 2147:0.13736056 2154:0.13736056 2225:0.13736056 2228:0.13736056 2311:0.13736056 2394:0.54944226 2408:0.27472113 3270:0.13736056 3649:0.13736056 3765:0.13736056 3889:0.27472113 3969:0.13736056 4316:0.13736056 4381:0.27472113 4454:0.13736056 4460:0.13736056 4499:0.13736056 
3.927675618720576 0.3432104083867368 0 0 0 0 0 0 0 0 0 0 0 0 0 110:0.18731716 249:0.18731716 483:0.093658581 1065:0.093658581 1089:0.093658581 1109:0.093658581 1211:0.18731716 1214:0.093658581 1352:0.093658581 1431:0.093658581 2147:0.093658581 2154:0.093658581 2172:0.093658581 2225:0.093658581 2228:0.093658581 2311:0.093658581 2394:0.56195149 2408:0.37463432 2447:0.18731716 2880:0.093658581 3234:0.093658581 3270:0.093658581 3368:0.093658581 3649:0.093658581 3746:0.093658581 3765:0.093658581 3882:0.093658581 3889:0.18731716 3969:0.093658581 4316:0.093658581 4381:0.37463432 4454:0.093658581 4460:0.093658581 4499:0.093658581 
9.385598923685489 0 0 0 0 0 0 0 0 0 0.005343701329855335 0 0 0 0 110:0.091287093 249:0.18257419 318:0.18257419 429:0.091287093 853:0.091287093 872:0.091287093 1051:0.091287093 1120:0.27386128 1123:0.091287093 1208:0.091287093 1431:0.091287093 1798:0.091287093 2154:0.091287093 2226:0.091287093 2249:0.091287093 2333:0.18257419 2349:0.091287093 2394:0.63900965 2398:0.091287093 2408:0.27386128 2421:0.18257419 2807:0.091287093 2898:0.091287093 3054:0.091287093 3121:0.091287093 3284:0.091287093 3643:0.091287093 3706:0.091287093 3746:0.091287093 3749:0.091287093 3765:0.091287093 3770:0.091287093 3842:0.091287093 4346:0.091287093 4400:0.091287093 4461:0.27386128 
6.709989391779699 0 0.7952791324851731 0 0 0 0 0 0 0 0 0 0 0 0 110:0.24253563 249:0.24253563 458:0.12126781 820:0.12126781 853:0.12126781 872:0.12126781 953:0.12126781 1120:0.24253563 1209:0.12126781 1342:0.12126781 1431:0.12126781 1480:0.12126781 1541:0.12126781 1790:0.12126781 1799:0.12126781 2051:0.12126781 2058:0.12126781 2070:0.12126781 2103:0.12126781 2104:0.12126781 2117:0.12126781 2154:0.12126781 2173:0.12126781 2394:0.48507125 2408:0.24253563 2413:0.12126781 2447:0.24253563 2457:0.12126781 2747:0.12126781 2807:0.12126781 3044:0.12126781 3515:0.12126781 3570:0.12126781 3706:0.12126781 3979:0.12126781 4010:0.12126781 4066:0.12126781 4311:0.12126781 
2.575487434836389 0.4022075014997095 0 0 0 0 0 0 0 0 0 1.368468776058369 0 0 0 110:0.16903085 249:0.16903085 959:0.16903085 1109:0.16903085 1414:0.16903085 1431:0.16903085 1475:0.16903085 2069:0.16903085 2154:0.16903085 2225:0.16903085 2394:0.16903085 2408:0.16903085 2414:0.16903085 2944:0.16903085 3014:0.16903085 3369:0.16903085 3519:0.16903085 3675:0.16903085 3741:0.16903085 3746:0.16903085 3747:0.16903085 3889:0.16903085 3973:0.16903085 4299:0.16903085 4367:0.16903085 4454:0.50709255 4461:0.16903085 
0 0 0 0 0 0.5780835388379794 0 0 0 0.2212837029104074 1.013341981388233 1.262642444829073 0 0 0 110:0.11704115 214:0.35112344 236:0.23408229 249:0.11704115 489:0.11704115 879:0.11704115 953:0.11704115 966:0.11704115 1053:0.35112344 1087:0.11704115 1120:0.23408229 1174:0.11704115 1352:0.11704115 1431:0.11704115 1470:0.11704115 1790:0.11704115 2051:0.11704115 2070:0.11704115 2116:0.11704115 2139:0.11704115 2154:0.11704115 2394:0.23408229 2405:0.11704115 2408:0.23408229 3131:0.35112344 3574:0.11704115 3870:0.11704115 4265:0.35112344 4353:0.11704115 
1.093427478978976 0.383773636903948 0 0 0 0.4266351608870448 0 0 0 0 0 1.542456167620052 0.2019827680305519 0 0 110:0.095782629 220:0.095782629 236:0.19156526 249:0.19156526 462:0.095782629 467:0.095782629 879:0.095782629 887:0.19156526 950:0.095782629 953:0.095782629 1087:0.095782629 1120:0.095782629 1139:0.095782629 1209:0.095782629 1406:0.095782629 1417:0.095782629 1431:0.095782629 1511:0.095782629 1790:0.095782629 1799:0.095782629 2051:0.095782629 2053:0.095782629 2070:0.095782629 2154:0.095782629 2394:0.095782629 2435:0.19156526 2446:0.19156526 2459:0.095782629 2959:0.095782629 3034:0.095782629 3565:0.095782629 3704:0.19156526 3870:0.19156526 3986:0.19156526 4008:0.095782629 4444:0.6704784 4477:0.095782629 
0.3609194897219093 0.5051101188616758 0 0 0 0 0 0 0 0 0 0 0 0 0 110:0.19611614 236:0.19611614 249:0.19611614 879:0.19611614 953:0.19611614 1087:0.19611614 1431:0.19611614 1790:0.19611614 2051:0.19611614 2070:0.19611614 2154:0.19611614 2394:0.19611614 2434:0.19611614 2455:0.19611614 2794:0.19611614 3066:0.19611614 3359:0.19611614 3567:0.19611614 3594:0.19611614 4286:0.39223227 4323:0.19611614 4325:0.19611614 4532:0.19611614 
0 0 0 0 0 0 0 0.09853428252122527 0 0 0 0 0 0 0 110:0.11547005 236:0.23094011 249:0.11547005 879:0.11547005 953:0.11547005 959:0.11547005 1053:0.23094011 1087:0.11547005 1120:0.23094011 1431:0.11547005 1790:0.11547005 2051:0.11547005 2070:0.11547005 2116:0.11547005 2139:0.11547005 2154:0.11547005 2167:0.11547005 2216:0.11547005 2382:0.23094011 2394:0.23094011 2405:0.23094011 2447:0.11547005 2459:0.23094011 2460:0.11547005 2811:0.11547005 2904:0.11547005 3170:0.11547005 3574:0.11547005 3660:0.11547005 3670:0.11547005 3706:0.11547005 3812:0.11547005 4031:0.11547005 4265:0.23094011 4268:0.11547005 4306:0.11547005 4346:0.11547005 4358:0.11547005 4366:0.11547005 4396:0.11547005 4444:0.23094011 4454:0.11547005 4490:0.11547005 4493:0.11547005 4500:0.11547005 4504:0.11547005 4507:0.11547005 4544:0.11547005 
0 0.1329670494868253 0 0 0 0 0 0 0 0 0 0 0.0272272146124265 0 0 110:0.13245324 236:0.26490647 249:0.13245324 879:0.13245324 950:0.26490647 953:0.13245324 959:0.13245324 966:0.13245324 1087:0.13245324 1120:0.26490647 1431:0.13245324 1790:0.13245324 2051:0.13245324 2070:0.13245324 2111:0.26490647 2144:0.13245324 2154:0.13245324 2312:0.13245324 2394:0.39735971 3017:0.13245324 3057:0.13245324 3064:0.13245324 3066:0.26490647 3123:0.26490647 3287:0.13245324 3527:0.13245324 3670:0.13245324 3825:0.13245324 4446:0.13245324 4499:0.13245324 4548:0.13245324 
6.89676346925218 0.6492020671854136 0.4509891440549919 0 0 0 0 0 0.5281585390433311 0 0 1.869132484896403 0.0673711221993414 0 0 110:0.25 249:0.25 871:0.25 879:0.25 953:0.25 1087:0.25 1431:0.25 1790:0.25 2051:0.25 2070:0.25 2109:0.25 2154:0.25 2216:0.25 2775:0.25 2776:0.25 3672:0.25 
0 0 0.1642799071512329 0 0.4687307914517779 0 0 0 0 0 0.1481176640137694 0 0 0 0 110:0.26940795 249:0.1796053 853:0.089802651 864:0.089802651 872:0.1796053 879:0.1796053 1120:0.089802651 1123:0.089802651 1214:0.089802651 1342:0.089802651 1431:0.089802651 1779:0.089802651 1790:0.089802651 1798:0.089802651 1799:0.089802651 2051:0.089802651 2058:0.089802651 2070:0.089802651 2102:0.089802651 2103:0.1796053 2104:0.1796053 2109:0.1796053 2116:0.089802651 2139:0.089802651 2154:0.089802651 2174:0.089802651 2216:0.26940795 2372:0.089802651 2393:0.089802651 2394:0.3592106 2408:0.1796053 2444:0.089802651 2457:0.089802651 2747:0.089802651 2776:0.26940795 2807:0.089802651 3079:0.1796053 3088:0.1796053 3171:0.089802651 3672:0.089802651 3706:0.1796053 3742:0.089802651 3887:0.089802651 4068:0.089802651 4269:0.089802651 4351:0.1796053 4444:0.089802651 4455:0.1796053 4480:0.089802651 
0 0 0 0 0 0 0 0 0 0 0 0 0 0 0.5269771328953228 110:0.12403473 236:0.24806947 249:0.12403473 319:0.12403473 879:0.12403473 940:0.12403473 953:0.12403473 1031:0.12403473 1054:0.12403473 1087:0.12403473 1120:0.24806947 1341:0.12403473 1431:0.12403473 1480:0.12403473 1484:0.12403473 1756:0.12403473 1790:0.12403473 2051:0.12403473 2070:0.12403473 2103:0.3721042 2104:0.3721042 2116:0.12403473 2139:0.12403473 2154:0.12403473 2174:0.12403473 2394:0.12403473 2408:0.24806947 2940:0.12403473 3079:0.12403473 3250:0.12403473 3367:0.12403473 3574:0.12403473 3652:0.12403473 3706:0.12403473 4072:0.12403473 4077:0.12403473 4374:0.12403473 4473:0.12403473 4491:0.12403473 4519:0.12403473 
3.566184588424243 0 0.7624562162019679 2.134999259892738 5.269596089847338 0.82225888283411 6.6435979790856 0.8617829582091128 0 0.02525447446555864 0 0.5495699453652693 0 0 0.2034436333997174 110:0.23249528 175:0.23249528 249:0.11624764 428:0.11624764 483:0.23249528 843:0.11624764 849:0.11624764 853:0.11624764 872:0.11624764 1031:0.11624764 1054:0.11624764 1123:0.11624764 1215:0.23249528 1342:0.11624764 1352:0.11624764 1416:0.23249528 1431:0.11624764 1790:0.11624764 1799:0.11624764 2051:0.11624764 2070:0.11624764 2103:0.11624764 2104:0.11624764 2116:0.23249528 2139:0.23249528 2154:0.11624764 2393:0.23249528 2394:0.11624764 2408:0.11624764 2412:0.11624764 2970:0.23249528 3132:0.11624764 3133:0.11624764 3666:0.11624764 3706:0.11624764 3740:0.11624764 3997:0.11624764 4064:0.11624764 4396:0.23249528 4480:0.11624764 4505:0.23249528 
4.233670785158156 0 0 0.2796479280282729 0 0 0.3150024795478113 0 0 0 0 1.553348693521884 0 0 0 17:0.14285714 18:0.28571429 110:0.14285714 236:0.28571429 249:0.14285714 953:0.14285714 967:0.14285714 1047:0.14285714 1120:0.28571429 1352:0.14285714 1431:0.14285714 1784:0.14285714 1790:0.14285714 2051:0.14285714 2070:0.14285714 2125:0.28571429 2154:0.14285714 2394:0.28571429 2408:0.28571429 2448:0.28571429 2892:0.14285714 3295:0.14285714 3297:0.14285714 3525:0.14285714 3646:0.14285714 3752:0.14285714 3810:0.14285714 4348:0.14285714 
2.622456802008653 0.5859000770280427 0 0 0 0 0 0 0 0 0 2.26367684741175 0 0 0.1320172717011564 17:0.12909944 110:0.12909944 249:0.12909944 953:0.12909944 1047:0.12909944 1120:0.12909944 1431:0.12909944 1475:0.12909944 1540:0.25819889 1790:0.12909944 2051:0.12909944 2070:0.12909944 2154:0.12909944 2394:0.38729833 2408:0.51639778 2987:0.12909944 3019:0.12909944 3576:0.12909944 3707:0.12909944 3746:0.12909944 3764:0.12909944 3979:0.12909944 3996:0.12909944 4046:0.12909944 4444:0.38729833 4489:0.12909944 
0 0.8113019745685722 2.727691002991178 0 0 0.7064325467934014 0 0 0 0.2622656722392327 0 0 0 0 0 110:0.087705802 249:0.1754116 318:0.1754116 429:0.1754116 853:0.087705802 872:0.087705802 1051:0.087705802 1120:0.1754116 1123:0.1754116 1208:0.087705802 1431:0.087705802 1798:0.087705802 2154:0.087705802 2226:0.087705802 2249:0.087705802 2333:0.1754116 2349:0.087705802 2394:0.61394061 2398:0.087705802 2408:0.26311741 2421:0.1754116 2807:0.1754116 2898:0.087705802 3054:0.087705802 3121:0.087705802 3643:0.087705802 3706:0.087705802 3746:0.087705802 3749:0.087705802 3765:0.087705802 3770:0.087705802 3842:0.087705802 4346:0.087705802 4400:0.087705802 4461:0.35082321 
3.024266015520825 1.216863937030068 4.808241717344157 0.1728875186710865 0 0.525779656427054 0 0 0 0 0 0.677838220600326 0 0 0.2669323730740347 110:0.1490712 216:0.1490712 249:0.1490712 853:0.1490712 872:0.1490712 1414:0.1490712 1431:0.1490712 1440:0.1490712 1475:0.1490712 2124:0.1490712 2154:0.1490712 2164:0.1490712 2386:0.1490712 2408:0.4472136 2418:0.1490712 2427:0.1490712 3071:0.1490712 3294:0.1490712 3312:0.1490712 3529:0.1490712 3561:0.1490712 3673:0.4472136 3750:0.1490712 3887:0.1490712 3889:0.1490712 4381:0.2981424 
0 0 0 0 0 0 1.067132957185777 0 0 0 0.5085324516821975 0 0 0 3.398952603173246 17:0.11952286 110:0.11952286 236:0.23904572 249:0.11952286 604:0.11952286 953:0.11952286 1047:0.11952286 1099:0.11952286 1120:0.11952286 1431:0.11952286 1790:0.11952286 2051:0.11952286 2070:0.11952286 2102:0.35856858 2116:0.11952286 2139:0.11952286 2154:0.11952286 2171:0.11952286 2394:0.35856858 2408:0.35856858 2413:0.23904572 3125:0.23904572 3261:0.11952286 3671:0.11952286 3706:0.35856858 4008:0.11952286 4267:0.11952286 4324:0.11952286 4558:0.11952286 
1.702916608608007 0 0.3279368946474345 0.09764939094121813 0 0.1935856618789638 1.367458510282519 0 0 0 0.1870966437893497 1.126008488991629 0 0 0 110:0.24253563 249:0.36380344 428:0.12126781 841:0.12126781 853:0.12126781 872:0.12126781 953:0.12126781 1120:0.12126781 1342:0.12126781 1431:0.12126781 1536:0.24253563 1784:0.24253563 1790:0.12126781 1799:0.12126781 2051:0.12126781 2070:0.12126781 2116:0.12126781 2117:0.24253563 2139:0.12126781 2154:0.12126781 2173:0.12126781 2451:0.12126781 2936:0.12126781 3031:0.24253563 3068:0.12126781 3120:0.12126781 3126:0.12126781 3295:0.24253563 3312:0.24253563 3568:0.12126781 3666:0.12126781 3670:0.12126781 3706:0.12126781 4269:0.24253563 4444:0.12126781 4480:0.12126781 
11.8198067368168 0 1.795737297520825 0.1234374503243145 0.3886789514800938 0 4.189964392643867 0 1.000547657898185 0 0 0.654735141271608 0 0 0 110:0.14142136 249:0.14142136 348:0.14142136 853:0.14142136 872:0.14142136 953:0.14142136 1120:0.28284271 1376:0.14142136 1426:0.14142136 1431:0.14142136 1475:0.28284271 1537:0.14142136 1790:0.14142136 2051:0.14142136 2070:0.14142136 2154:0.14142136 2219:0.14142136 2371:0.14142136 2394:0.42426407 2408:0.14142136 2457:0.14142136 2747:0.14142136 2789:0.14142136 2903:0.14142136 2943:0.14142136 3010:0.14142136 3366:0.14142136 3706:0.14142136 3854:0.14142136 3864:0.14142136 4070:0.28284271 4299:0.14142136 4478:0.14142136 
16 1.671222584660132 0 0 0 0 2.698362152877671 0 0 0 0 0 0 0.1320634441686294 0 110:0.26037782 249:0.13018891 1120:0.13018891 1210:0.13018891 1352:0.26037782 1431:0.13018891 1534:0.13018891 2058:0.13018891 2154:0.13018891 2260:0.13018891 2334:0.13018891 2394:0.65094455 2408:0.26037782 2422:0.26037782 2447:0.13018891 2803:0.13018891 2892:0.13018891 3135:0.13018891 3752:0.13018891 4010:0.13018891 4315:0.13018891 4367:0.13018891 4512:0.13018891 
0 0 0 0 0 0 0 0 0 0 0 0.2900397404733048 0 0 0 110:0.11624764 236:0.23249528 249:0.11624764 613:0.11624764 879:0.11624764 953:0.11624764 959:0.11624764 1031:0.11624764 1054:0.11624764 1087:0.11624764 1120:0.11624764 1431:0.11624764 1480:0.11624764 1484:0.11624764 1756:0.11624764 1790:0.11624764 2051:0.11624764 2070:0.11624764 2116:0.23249528 2125:0.23249528 2139:0.23249528 2154:0.11624764 2394:0.46499055 2408:0.11624764 2894:0.23249528 2904:0.11624764 3305:0.11624764 3359:0.34874292 3670:0.11624764 3725:0.11624764 3802:0.23249528 3807:0.11624764 3974:0.11624764 
0 0 0 0 0 0 0 0 0 0 0.7590889907916835 0 0 0.2690977519263507 0 110:0.13608276 236:0.27216553 249:0.13608276 879:0.13608276 950:0.27216553 953:0.13608276 959:0.13608276 966:0.13608276 1087:0.13608276 1120:0.27216553 1431:0.13608276 2111:0.27216553 2144:0.13608276 2154:0.13608276 2312:0.13608276 2394:0.40824829 3017:0.13608276 3057:0.13608276 3064:0.13608276 3066:0.27216553 3123:0.27216553 3287:0.13608276 3527:0.13608276 3670:0.13608276 3825:0.13608276 4446:0.13608276 4499:0.13608276 4548:0.13608276 
0 0 1.45846448029451 7.673893854119242 0 0.1151848718326945 0.04908287447911435 0.02142591557424788 0 0 0 0.7350205602971914 0 0.3805137217712459 0 110:0.20203051 220:0.10101525 249:0.20203051 465:0.10101525 820:0.20203051 849:0.10101525 853:0.10101525 861:0.10101525 872:0.10101525 953:0.30304576 955:0.10101525 1084:0.10101525 1123:0.10101525 1138:0.10101525 1342:0.10101525 1343:0.10101525 1350:0.10101525 1426:0.10101525 1431:0.10101525 1477:0.10101525 1480:0.10101525 1750:0.10101525 1762:0.10101525 1790:0.20203051 1799:0.10101525 2045:0.10101525 2051:0.20203051 2070:0.20203051 2101:0.20203051 2102:0.10101525 2103:0.20203051 2104:0.20203051 2116:0.20203051 2117:0.10101525 2139:0.10101525 2154:0.10101525 2173:0.10101525 2351:0.10101525 2394:0.20203051 2807:0.10101525 2904:0.10101525 3079:0.10101525 3132:0.20203051 3133:0.20203051 3166:0.10101525 3539:0.10101525 3706:0.10101525 3798:0.10101525 4010:0.10101525 4070:0.10101525 4462:0.10101525 
0 0 0 0 0 0 0 0 0 0 0 0 0 0 0.5200231791249276 17:0.15249857 110:0.15249857 236:0.30499714 249:0.15249857 953:0.15249857 1047:0.15249857 1099:0.15249857 1120:0.15249857 1431:0.15249857 1764:0.15249857 1790:0.15249857 2051:0.15249857 2052:0.15249857 2070:0.15249857 2107:0.15249857 2154:0.15249857 2212:0.15249857 2362:0.15249857 2394:0.30499714 2408:0.45749571 2447:0.15249857 2959:0.15249857 4046:0.15249857 4052:0.15249857 4375:0.15249857 4401:0.15249857 4444:0.15249857 4464:0.15249857 4468:0.15249857 
16 1.038447360041809 6.155004124826112 0 0.2497187450948294 0 13.00802696645689 0 0 0 0 3.097169419011186 0 0 0 110:0.22941573 249:0.22941573 853:0.22941573 872:0.22941573 1431:0.22941573 1790:0.22941573 2051:0.22941573 2070:0.22941573 2117:0.22941573 2154:0.22941573 2412:0.22941573 3132:0.22941573 3133:0.22941573 3372:0.45883147 3669:0.22941573 4290:0.22941573 
6.300369194139178 0.04236608202991762 0 0.0504228265141687 0.6969873587931343 0.7272328272506069 0 0 0 0.4219786366147218 0 0 0 0.8320680562090015 0.1645259563325826 110:0.24253563 249:0.12126781 335:0.12126781 853:0.12126781 935:0.12126781 953:0.24253563 1120:0.12126781 1342:0.12126781 1350:0.12126781 1352:0.12126781 1431:0.12126781 1549:0.12126781 1790:0.12126781 1799:0.12126781 2046:0.12126781 2051:0.12126781 2070:0.12126781 2117:0.12126781 2154:0.12126781 2219:0.12126781 2394:0.24253563 2408:0.12126781 2457:0.12126781 2747:0.12126781 3021:0.12126781 3130:0.12126781 3272:0.48507125 3312:0.12126781 3366:0.12126781 3532:0.24253563 3666:0.12126781 3704:0.12126781 3801:0.12126781 3831:0.12126781 4004:0.12126781 4075:0.12126781 4269:0.12126781 4310:0.12126781 4312:0.12126781 4356:0.12126781 4399:0.12126781 
9.630836964660954 0 8.63030173422659 0 0 0 0 0 0 0 0 0 0 0 0 110:0.11785113 236:0.23570226 249:0.11785113 843:0.11785113 849:0.11785113 953:0.35355339 1120:0.35355339 1123:0.11785113 1352:0.23570226 1409:0.11785113 1431:0.11785113 1790:0.11785113 1798:0.11785113 2051:0.11785113 2070:0.11785113 2102:0.23570226 2103:0.11785113 2104:0.11785113 2116:0.23570226 2139:0.11785113 2154:0.11785113 2169:0.11785113 2218:0.11785113 2394:0.11785113 2408:0.23570226 3066:0.11785113 3070:0.11785113 3126:0.11785113 3132:0.23570226 3133:0.23570226 3279:0.11785113 3675:0.11785113 3749:0.11785113 3871:0.11785113 4007:0.11785113 
0 0 0 0 0 0 0 0 0 0 0 0.6439055965334221 0 0 0 17:0.12803688 110:0.12803688 236:0.25607376 249:0.12803688 457:0.12803688 953:0.12803688 1047:0.12803688 1431:0.12803688 1790:0.12803688 1797:0.12803688 1799:0.12803688 2051:0.12803688 2070:0.12803688 2154:0.12803688 2161:0.12803688 2394:0.25607376 2408:0.51214752 3134:0.12803688 3246:0.25607376 3517:0.12803688 3560:0.12803688 3577:0.25607376 3578:0.12803688 3675:0.12803688 3690:0.12803688 3751:0.12803688 3760:0.12803688 4037:0.12803688 4055:0.12803688 4359:0.12803688 4454:0.25607376 
13.27466533224558 0.09107507874490499 0 0 0 0 0 0 0.3689207181217126 0 0 0.3856543264377977 0.3386647758587722 0.315169667351255 0.4841713919038899 17:0.14002801 110:0.14002801 249:0.14002801 288:0.14002801 467:0.14002801 953:0.14002801 1047:0.14002801 1120:0.14002801 1431:0.14002801 1790:0.14002801 2051:0.14002801 2070:0.14002801 2154:0.14002801 2212:0.14002801 2393:0.14002801 2394:0.28005602 2408:0.14002801 2412:0.14002801 2447:0.14002801 2874:0.14002801 3014:0.14002801 3070:0.14002801 3134:0.42008403 3372:0.28005602 3576:0.14002801 3586:0.14002801 3688:0.14002801 3764:0.14002801 3876:0.14002801 4010:0.14002801 4012:0.14002801 4055:0.14002801 4308:0.14002801 4400:0.14002801 4447:0.14002801 4532:0.14002801 4536:0.14002801 
0 0 0 0 0 0 0.1358752097490772 1.548581076561857 0 0 0 0 0.01798142440289654 0 0 17:0.17407766 110:0.17407766 236:0.34815531 249:0.17407766 953:0.17407766 1047:0.34815531 1352:0.34815531 1431:0.17407766 1540:0.17407766 1550:0.17407766 1790:0.17407766 2051:0.17407766 2070:0.17407766 2154:0.17407766 2927:0.17407766 3013:0.17407766 3134:0.17407766 3152:0.17407766 3167:0.17407766 3576:0.17407766 3706:0.17407766 3771:0.17407766 3970:0.17407766 4512:0.17407766 
0 0 0 0 0 0 0 0 0 0 0 0 0.09815755251427093 0 0 110:0.11785113 236:0.23570226 249:0.11785113 879:0.11785113 953:0.11785113 959:0.11785113 1053:0.23570226 1087:0.11785113 1120:0.23570226 1431:0.11785113 1790:0.11785113 2051:0.11785113 2070:0.11785113 2116:0.11785113 2139:0.11785113 2154:0.11785113 2167:0.11785113 2382:0.23570226 2394:0.23570226 2405:0.23570226 2447:0.11785113 2459:0.23570226 2460:0.11785113 2811:0.11785113 2904:0.11785113 3170:0.11785113 3574:0.11785113 3660:0.11785113 3670:0.11785113 3706:0.11785113 3812:0.11785113 4031:0.11785113 4265:0.23570226 4306:0.11785113 4346:0.11785113 4358:0.11785113 4366:0.11785113 4396:0.11785113 4444:0.23570226 4490:0.11785113 4493:0.11785113 4500:0.11785113 4504:0.11785113 4507:0.11785113 4544:0.11785113 
0 0 0 0.08209868585860188 0 0.09108707010139013 1.600862172142846 0 0.4596367315430545 0 0 0.5860103268374615 0.1410835890431185 0.1368806209744616 0.1846576979016061 110:0.21821789 249:0.21821789 871:0.21821789 879:0.21821789 953:0.21821789 1031:0.21821789 1054:0.21821789 1087:0.21821789 1431:0.21821789 1480:0.21821789 1484:0.21821789 1756:0.21821789 1790:0.21821789 2051:0.21821789 2070:0.21821789 2109:0.21821789 2154:0.21821789 2216:0.21821789 2775:0.21821789 2776:0.21821789 3672:0.21821789 
1.993631578685974 0 3.355044079019322 1.577953712567361 0 0.239869295129627 2.68242939183882 0 1.564298491976823 2.400491588462112 0 1.304097980340202 0 0.4599823852158411 1.920896086485843 110:0.22086305 249:0.22086305 664:0.11043153 818:0.11043153 853:0.11043153 872:0.11043153 1123:0.11043153 1124:0.11043153 1215:0.33129458 1342:0.11043153 1431:0.11043153 1446:0.11043153 1549:0.11043153 1790:0.22086305 1799:0.11043153 2051:0.22086305 2070:0.22086305 2145:0.11043153 2154:0.11043153 2351:0.11043153 2394:0.11043153 2412:0.11043153 2775:0.11043153 2781:0.22086305 2807:0.11043153 3079:0.33129458 3126:0.11043153 3130:0.11043153 3132:0.11043153 3133:0.11043153 3366:0.11043153 3666:0.33129458 3669:0.11043153 3749:0.11043153 4301:0.22086305 4399:0.11043153 4480:0.11043153 
2.524732935242035 2.355537328007598 0 0 0 0 12.39007013080586 0 0 0 0 0 0 0 0 17:0.13363062 110:0.13363062 236:0.26726124 249:0.13363062 467:0.13363062 953:0.13363062 1047:0.13363062 1059:0.13363062 1120:0.13363062 1122:0.26726124 1431:0.13363062 1790:0.13363062 2051:0.13363062 2070:0.13363062 2144:0.13363062 2154:0.13363062 2394:0.6681531 2408:0.13363062 2925:0.26726124 3013:0.13363062 3658:0.13363062 4018:0.13363062 4326:0.13363062 
14.71908397014522 0 1.498418753290582 2.1605028201108 0 3.323639428107019 5.283144920987296 0 0.02763486456929482 0 0.6289366802599886 0 0 0.5029909727340497 0.3279600661268861 110:0.21320072 216:0.10660036 249:0.10660036 456:0.10660036 659:0.21320072 1059:0.10660036 1120:0.63960215 1123:0.10660036 1342:0.10660036 1352:0.10660036 1370:0.10660036 1431:0.10660036 2102:0.10660036 2125:0.10660036 2164:0.10660036 2172:0.10660036 2258:0.21320072 2394:0.42640143 2408:0.10660036 2438:0.10660036 2807:0.10660036 2903:0.10660036 3016:0.10660036 3090:0.10660036 3130:0.10660036 3706:0.10660036 3932:0.10660036 4068:0.10660036 4489:0.10660036 
0 0 0 0 0 0 2.691728565061061 0 0 0 0 0.6812898207346799 0 0 0 110:0.11250879 249:0.11250879 342:0.11250879 438:0.22501758 659:0.33752637 959:0.11250879 1120:0.11250879 1431:0.11250879 1513:0.11250879 1798:0.11250879 2046:0.22501758 2058:0.11250879 2116:0.11250879 2124:0.11250879 2139:0.11250879 2154:0.11250879 2260:0.11250879 2394:0.33752637 2408:0.22501758 3057:0.11250879 3132:0.33752637 3133:0.33752637 3169:0.11250879 3305:0.11250879 3311:0.11250879 3657:0.11250879 3674:0.11250879 3968:0.11250879 4011:0.11250879 4024:0.11250879 4277:0.11250879 4299:0.11250879 4381:0.11250879 4444:0.22501758 4454:0.11250879 
2.387175858601951 0 1.163846569858619 1.846882656395348 0.04153163070377254 0.933770089075318 0.01465864180628744 0 0.2423534989985383 0.9898911049938709 1.274365373045048 0.8897419381436732 0.1346452410133733 1.518727135432241 0 10:0.099503719 65:0.099503719 110:0.099503719 249:0.099503719 429:0.099503719 438:0.099503719 953:0.099503719 1120:0.29851116 1123:0.19900744 1207:0.099503719 1354:0.099503719 1431:0.099503719 1475:0.099503719 1513:0.099503719 1799:0.19900744 2047:0.39801488 2102:0.19900744 2154:0.099503719 2333:0.099503719 2394:0.099503719 2408:0.099503719 2807:0.19900744 2922:0.099503719 3056:0.099503719 3126:0.099503719 3130:0.099503719 3526:0.099503719 3556:0.4975186 3855:0.099503719 3883:0.099503719 4397:0.099503719 4444:0.29851116 4451:0.099503719 4456:0.099503719 
10.02211565769711 0.2125074642062859 0.3836144636523526 0 0 0 3.162483451785017 0 0 0 0.2874479225298772 0 0 0.3064531913535008 0 110:0.10369517 241:0.10369517 249:0.10369517 858:0.10369517 1115:0.31108551 1120:0.31108551 1352:0.10369517 1431:0.10369517 2110:0.10369517 2154:0.10369517 2394:0.51847585 2408:0.20739034 3016:0.10369517 3122:0.10369517 3652:0.10369517 3706:0.20739034 3746:0.10369517 3931:0.10369517 3956:0.10369517 3962:0.10369517 4301:0.10369517 4444:0.51847585 4454:0.10369517 
0.1931977501483498 0 4.621065897200813 0 0.9368525583316578 0 0.5875956056550716 0 0 0 0 0.2495586997097695 0 0 0 110:0.24806947 239:0.12403473 249:0.24806947 818:0.12403473 843:0.12403473 849:0.12403473 1119:0.12403473 1123:0.12403473 1342:0.12403473 1352:0.12403473 1471:0.12403473 1535:0.12403473 1790:0.12403473 1799:0.12403473 2051:0.12403473 2070:0.12403473 2103:0.12403473 2104:0.12403473 2154:0.12403473 2278:0.12403473 2394:0.3721042 2397:0.12403473 2408:0.12403473 2919:0.24806947 2964:0.12403473 3066:0.12403473 3132:0.3721042 3133:0.3721042 3671:0.12403473 3706:0.12403473 4457:0.12403473 4472:0.12403473 
13.56264731250202 1.392988534439387 13.94276259040582 2.647842605445193 0.6246710728623115 0.1661670934788546 9.50085504628453 1.15055461704099 0 0 0 0 0.01968267750898742 0 0 110:0.36650833 249:0.12216944 818:0.12216944 843:0.12216944 849:0.12216944 853:0.36650833 872:0.12216944 1123:0.12216944 1342:0.12216944 1352:0.12216944 1446:0.36650833 1790:0.12216944 1798:0.12216944 1799:0.24433889 2051:0.12216944 2070:0.12216944 2103:0.12216944 2104:0.12216944 2154:0.24433889 3285:0.36650833 3960:0.36650833 
8.453318670821441 0 0 0 2.809040815331227 0.5496956440242166 1.530674399801002 0 0 0.570437533070486 0 0.5530233649461668 0 0.4223621922103307 0 110:0.26967994 249:0.26967994 309:0.13483997 605:0.26967994 818:0.13483997 843:0.13483997 849:0.13483997 853:0.13483997 872:0.26967994 953:0.13483997 1123:0.13483997 1342:0.13483997 1352:0.13483997 1432:0.13483997 1480:0.13483997 1790:0.13483997 1799:0.13483997 2051:0.13483997 2070:0.13483997 2103:0.13483997 2104:0.13483997 2116:0.26967994 2117:0.13483997 2139:0.13483997 2152:0.13483997 2154:0.13483997 2172:0.13483997 2173:0.13483997 2260:0.13483997 2441:0.13483997 2457:0.13483997 2747:0.13483997 3166:0.13483997 3310:0.13483997 3654:0.13483997 3716:0.13483997 3764:0.13483997 3946:0.13483997 4397:0.13483997 4456:0.13483997 
0 0 0 2.566660323765881 0 0.2562585316795216 0 0 0 0 1.238769327321247 0 0 0 0 110:0.20519567 249:0.20519567 663:0.10259784 818:0.10259784 820:0.20519567 822:0.10259784 853:0.10259784 872:0.20519567 950:0.10259784 1030:0.10259784 1120:0.10259784 1210:0.20519567 1342:0.20519567 1790:0.10259784 1799:0.10259784 2051:0.10259784 2070:0.10259784 2116:0.10259784 2139:0.10259784 2146:0.10259784 2154:0.10259784 2242:0.10259784 2394:0.41039134 2408:0.20519567 2460:0.10259784 2976:0.10259784 3069:0.10259784 3079:0.10259784 3230:0.10259784 3311:0.10259784 3557:0.10259784 3706:0.10259784 3745:0.20519567 3784:0.10259784 3801:0.10259784 3811:0.10259784 3980:0.10259784 4010:0.10259784 4298:0.41039134 4326:0.10259784 4471:0.10259784 
16 1.772474282636616 9.346493990807511 2.206426377933942 0 0 1.954113703874436 2.992941308050213 0 0 0 0 0 0 0 110:0.11396058 249:0.11396058 462:0.11396058 843:0.11396058 849:0.11396058 853:0.22792115 862:0.11396058 866:0.11396058 872:0.11396058 953:0.34188173 1123:0.11396058 1352:0.11396058 1431:0.11396058 1498:0.11396058 1765:0.11396058 1790:0.11396058 1799:0.11396058 2051:0.11396058 2070:0.11396058 2102:0.11396058 2103:0.34188173 2104:0.34188173 2154:0.22792115 2165:0.11396058 2394:0.45584231 2395:0.11396058 2408:0.11396058 3129:0.11396058 3292:0.11396058 3706:0.11396058 3805:0.11396058 4444:0.11396058 
2.130495777648912 0 2.676071967170455 0.3370358363070198 0 0 1.542630791345679 0 0 0 0 0 0 0 0 110:0.26261287 249:0.26261287 269:0.13130643 272:0.13130643 800:0.13130643 818:0.13130643 820:0.13130643 843:0.13130643 849:0.13130643 853:0.13130643 872:0.13130643 953:0.13130643 1051:0.13130643 1123:0.13130643 1342:0.13130643 1352:0.13130643 1712:0.13130643 1790:0.13130643 1799:0.13130643 2051:0.13130643 2070:0.13130643 2103:0.26261287 2104:0.26261287 2117:0.13130643 2154:0.13130643 2394:0.26261287 2408:0.26261287 2782:0.13130643 3131:0.13130643 3334:0.13130643 3529:0.13130643 3645:0.13130643 3666:0.13130643 3815:0.13130643 4344:0.13130643 4444:0.26261287 4519:0.13130643 
0 0 0 0.6032248812320805 0 0 0 0 0 0 0 0.3943152412103356 0 0 0 13:0.12038585 110:0.24077171 249:0.24077171 622:0.12038585 1120:0.24077171 1144:0.12038585 1214:0.12038585 1431:0.12038585 1475:0.12038585 2103:0.36115756 2104:0.36115756 2154:0.12038585 2396:0.12038585 2408:0.36115756 2457:0.12038585 2747:0.12038585 2811:0.12038585 2917:0.12038585 3132:0.12038585 3133:0.12038585 3295:0.12038585 3760:0.12038585 3779:0.24077171 3847:0.12038585 3883:0.24077171 4069:0.12038585 4444:0.24077171 
16 1.004858233081639 3.342563069094518 1.444339539582477 0.08924667458805738 0 0.7177007429260143 0.3628074362666301 0 0 0 0 0 0 0 110:0.12700013 236:0.12700013 249:0.25400025 302:0.12700013 820:0.12700013 843:0.12700013 849:0.12700013 853:0.12700013 872:0.12700013 953:0.12700013 1120:0.25400025 1123:0.12700013 1343:0.12700013 1352:0.12700013 1414:0.12700013 1431:0.12700013 1712:0.12700013 1790:0.12700013 1799:0.12700013 2051:0.12700013 2058:0.25400025 2070:0.12700013 2103:0.12700013 2104:0.12700013 2154:0.25400025 2209:0.12700013 2394:0.50800051 2408:0.12700013 3118:0.12700013 3288:0.12700013 3533:0.12700013 3648:0.12700013 3710:0.12700013 3750:0.12700013 4011:0.12700013 
0.6042710047422979 0.04808112428855105 2.482454164154392 0.796353124781012 0.02540843963554545 0.3343232035507737 2.777081035296152 0.764834386118869 0 0.03874573762813427 0.05732205435183745 0 0 0.1833173809920358 0 110:0.10599979 249:0.10599979 817:0.21199958 853:0.10599979 872:0.10599979 874:0.21199958 953:0.31799936 954:0.21199958 1085:0.21199958 1118:0.21199958 1123:0.10599979 1352:0.21199958 1428:0.10599979 1431:0.10599979 1534:0.21199958 1551:0.10599979 1762:0.10599979 1790:0.10599979 2051:0.10599979 2070:0.10599979 2116:0.21199958 2139:0.21199958 2154:0.10599979 2173:0.10599979 2408:0.21199958 2457:0.10599979 2747:0.10599979 2786:0.10599979 3132:0.10599979 3133:0.10599979 3284:0.10599979 3295:0.10599979 3706:0.10599979 3806:0.10599979 3935:0.21199958 4063:0.21199958 4065:0.21199958 4441:0.10599979 4446:0.21199958 
9.590228080953878 0.4307131045199804 0 0.4766627809465691 0 0 0 0 0 0.2524160635812512 0 0.7463259866769147 0 0 0 110:0.094072087 249:0.094072087 853:0.094072087 872:0.18814417 917:0.094072087 965:0.18814417 1120:0.18814417 1212:0.18814417 1352:0.18814417 1428:0.094072087 1431:0.094072087 1480:0.094072087 1509:0.18814417 1534:0.18814417 1790:0.18814417 2051:0.18814417 2070:0.18814417 2103:0.094072087 2104:0.094072087 2145:0.094072087 2154:0.094072087 2172:0.094072087 2173:0.094072087 2240:0.094072087 2394:0.37628835 2408:0.47036043 2417:0.094072087 2766:0.094072087 2787:0.18814417 3015:0.094072087 3134:0.094072087 3281:0.094072087 3538:0.094072087 3732:0.094072087 4320:0.094072087 4325:0.094072087 4476:0.094072087 4477:0.18814417 
2.790143648023528 0.04317040463135678 3.81696533445436 1.308651727018012 0.455321446004301 0 1.065365377645212 0 0 0 0.4293948244558204 0 0 0 0 110:0.092847669 249:0.092847669 288:0.092847669 853:0.092847669 872:0.18569534 917:0.092847669 965:0.092847669 1120:0.27854301 1212:0.18569534 1428:0.092847669 1431:0.092847669 1475:0.092847669 1509:0.092847669 1534:0.092847669 1790:0.092847669 2051:0.092847669 2070:0.092847669 2103:0.092847669 2104:0.092847669 2145:0.092847669 2154:0.092847669 2173:0.092847669 2240:0.18569534 2394:0.37139068 2408:0.46423835 2417:0.092847669 2454:0.092847669 2766:0.18569534 3015:0.092847669 3134:0.18569534 3167:0.092847669 3752:0.18569534 4055:0.092847669 4308:0.092847669 4476:0.092847669 4477:0.37139068 
3.209977039564002 0.9369653172037245 2.625806022738363 2.651949067669051 2.331624801839425 0 11.0427248347914 0 1.393791728698258 0 0.5961304414526054 0 0 0.5649347994667715 0 110:0.21442251 216:0.10721125 249:0.32163376 428:0.10721125 430:0.10721125 622:0.10721125 820:0.10721125 854:0.10721125 861:0.10721125 890:0.10721125 953:0.10721125 1120:0.10721125 1187:0.10721125 1214:0.10721125 1437:0.10721125 1799:0.10721125 2051:0.10721125 2116:0.10721125 2124:0.10721125 2139:0.10721125 2140:0.10721125 2154:0.10721125 2251:0.32163376 2383:0.10721125 2394:0.53605627 2919:0.10721125 3088:0.10721125 3126:0.21442251 3305:0.10721125 3311:0.21442251 3666:0.10721125 3759:0.21442251 3805:0.10721125 3809:0.10721125 4373:0.10721125 
0 0 0 0.5589265252858522 3.084921727339183 0.1447532885424006 0 0 0 0 0.08536171663913596 0 0 0.9187497759299723 0 110:0.25197632 118:0.25197632 249:0.25197632 1032:0.12598816 1120:0.37796447 1174:0.12598816 1214:0.12598816 1423:0.12598816 1432:0.12598816 1475:0.12598816 1799:0.12598816 2102:0.12598816 2116:0.25197632 2139:0.25197632 2154:0.12598816 2226:0.12598816 2238:0.12598816 2249:0.12598816 2364:0.12598816 2394:0.37796447 2408:0.12598816 2457:0.12598816 2747:0.12598816 2885:0.12598816 3129:0.12598816 3231:0.12598816 3555:0.12598816 3706:0.12598816 3742:0.12598816 3816:0.12598816 3887:0.12598816 4010:0.12598816 
0.9457245412613272 0.3793615714111649 1.444327955045544 0 0 0 0 0 1.459340833249026 0 0.3932553672526885 0 0 1.074382247195935 0 110:0.15523011 249:0.15523011 270:0.15523011 336:0.15523011 434:0.077615053 918:0.077615053 1071:0.077615053 1088:0.15523011 1120:0.15523011 1214:0.077615053 1352:0.077615053 1799:0.077615053 2048:0.077615053 2116:0.077615053 2139:0.077615053 2154:0.077615053 2249:0.077615053 2279:0.077615053 2366:0.077615053 2394:0.62092042 2408:0.077615053 2448:0.15523011 2457:0.077615053 2747:0.077615053 3017:0.15523011 3166:0.23284516 3167:0.077615053 3305:0.15523011 3536:0.077615053 3645:0.077615053 3764:0.077615053 3924:0.077615053 3967:0.077615053 3974:0.077615053 4397:0.31046021 4444:0.077615053 4456:0.31046021 4480:0.077615053 
0 0 0 0 0 0.5623882240697594 0 0 0 0 0 0 0 0 0 110:0.49507377 249:0.39605902 860:0.099014754 953:0.099014754 1059:0.29704426 1214:0.29704426 1341:0.099014754 1799:0.099014754 2047:0.099014754 2117:0.099014754 2154:0.19802951 2169:0.099014754 2249:0.099014754 2258:0.099014754 2349:0.099014754 2394:0.19802951 2396:0.099014754 2408:0.099014754 2448:0.099014754 3017:0.099014754 3069:0.099014754 3126:0.099014754 3129:0.19802951 3137:0.099014754 3305:0.099014754 3647:0.19802951 3967:0.099014754 3978:0.099014754 4079:0.099014754 4397:0.19802951 4456:0.099014754 4520:0.099014754 
0 0 0 0 1.288112097175135 0.5981415243115713 0.196938438735944 0 0 0 0 0 0 0 0 110:0.50767308 249:0.40613847 953:0.10153462 1059:0.30460385 1214:0.30460385 1341:0.10153462 1799:0.10153462 2047:0.10153462 2117:0.10153462 2154:0.20306923 2169:0.10153462 2249:0.10153462 2258:0.10153462 2349:0.10153462 2394:0.20306923 2396:0.10153462 2408:0.10153462 2448:0.10153462 3017:0.10153462 3069:0.10153462 3075:0.10153462 3126:0.10153462 3129:0.20306923 3137:0.10153462 3305:0.10153462 3647:0.20306923 3967:0.10153462 3978:0.10153462 4079:0.10153462 4520:0.10153462 
5.515620075060934 0 0 0 0 0 0 0 0 0 0 0 0 0 0 110:0.474579 249:0.474579 953:0.0949158 1059:0.2847474 1214:0.2847474 1341:0.0949158 1799:0.0949158 2047:0.0949158 2117:0.0949158 2154:0.1898316 2169:0.0949158 2249:0.0949158 2258:0.0949158 2349:0.0949158 2394:0.1898316 2396:0.0949158 2408:0.0949158 2447:0.0949158 2448:0.0949158 3017:0.0949158 3069:0.0949158 3075:0.0949158 3126:0.0949158 3129:0.1898316 3137:0.0949158 3305:0.0949158 3647:0.1898316 3967:0.0949158 3978:0.0949158 4055:0.0949158 4079:0.0949158 4397:0.0949158 4454:0.0949158 4456:0.0949158 4520:0.0949158 
15.89307720719913 0 3.654996994991985 0.3471860628537732 2.105485833550608 1.541820871930871 3.519650464364241 0 1.572144587342392 0 0.5136508502238761 0 0 0.4414462668607293 0 110:0.19611614 249:0.19611614 299:0.098058068 308:0.098058068 496:0.098058068 853:0.098058068 872:0.19611614 1051:0.098058068 1118:0.098058068 1120:0.2941742 1151:0.19611614 1214:0.098058068 1475:0.098058068 1549:0.098058068 1799:0.19611614 2096:0.098058068 2108:0.098058068 2154:0.098058068 2250:0.098058068 2393:0.098058068 2394:0.58834841 2404:0.098058068 2408:0.19611614 2444:0.098058068 2459:0.098058068 2746:0.098058068 2874:0.2941742 3079:0.098058068 3181:0.098058068 3300:0.098058068 3706:0.098058068 3906:0.098058068 4018:0.098058068 4325:0.098058068 4486:0.098058068 
0 0.04968382299858393 0 0 1.719887023164828 6.044302960754807 0 0 0.2944639327328271 0 0.9593243743629145 0 0 0 0 6:0.098532928 110:0.29559878 218:0.098532928 249:0.19706586 853:0.19706586 860:0.098532928 871:0.098532928 872:0.19706586 1059:0.29559878 1120:0.19706586 1214:0.098532928 1352:0.098532928 1463:0.098532928 1790:0.19706586 1799:0.098532928 2051:0.19706586 2116:0.098532928 2139:0.098532928 2152:0.098532928 2154:0.098532928 2169:0.19706586 2333:0.098532928 2391:0.098532928 2394:0.49266464 2448:0.098532928 2457:0.098532928 2747:0.098532928 2805:0.098532928 2874:0.098532928 2943:0.098532928 3017:0.098532928 3130:0.098532928 3166:0.098532928 3807:0.098532928 3967:0.098532928 3974:0.098532928 4278:0.098532928 4279:0.098532928 4282:0.098532928 4326:0.098532928 4397:0.098532928 4456:0.098532928 
2.548303881318517 0 0 3.58055315346967 1.357451328412096 1.277445613443063 2.968919998394838 0.2498010567701952 0 0 0 0 0.2251736280053439 0 1.862050669676574 110:0.39223227 118:0.19611614 236:0.39223227 449:0.19611614 803:0.19611614 818:0.19611614 946:0.19611614 1120:0.19611614 1123:0.19611614 1214:0.19611614 1798:0.19611614 2148:0.19611614 2154:0.19611614 2333:0.19611614 2393:0.19611614 2774:0.19611614 2807:0.19611614 3643:0.19611614 3660:0.19611614 3969:0.19611614 
6.048883669471218 0 2.818622721302345 0 0.8495050453379988 0.6246287830114038 12.3915963728339 0 0 0 0 0.2695072925663479 0 0 0.3419188368054693 110:0.2981424 249:0.2981424 818:0.1490712 843:0.1490712 849:0.1490712 953:0.1490712 1123:0.1490712 1214:0.1490712 1342:0.1490712 1349:0.1490712 1352:0.1490712 1790:0.1490712 2051:0.1490712 2070:0.1490712 2103:0.1490712 2104:0.1490712 2249:0.1490712 2305:0.1490712 2894:0.2981424 2943:0.1490712 2953:0.1490712 3126:0.1490712 3130:0.1490712 3132:0.1490712 3133:0.1490712 3326:0.1490712 3590:0.1490712 3717:0.1490712 3867:0.1490712 4079:0.1490712 4292:0.1490712 4347:0.1490712 4437:0.2981424 
16 0.3516737899623521 0.0577046369435496 0 1.726448058807377 2.48090155281567 8.882485686438395 0.6607967891139365 0 1.317542825077429 0 0 0.9537616247470813 0.522418863215568 2.299864202286235 65:0.0949158 110:0.2847474 249:0.0949158 429:0.3796632 438:0.1898316 818:0.0949158 843:0.0949158 849:0.0949158 853:0.0949158 872:0.0949158 953:0.0949158 1123:0.0949158 1150:0.3796632 1214:0.3796632 1342:0.0949158 1352:0.0949158 1790:0.0949158 2051:0.0949158 2070:0.2847474 2103:0.0949158 2104:0.0949158 2173:0.0949158 2374:0.1898316 2457:0.0949158 2747:0.0949158 2904:0.1898316 3029:0.0949158 3179:0.0949158 3310:0.1898316 3655:0.1898316 3751:0.1898316 3806:0.0949158 
6.473518909737974 1.702991951799198 0 0 2.228085735786913 0 2.42325480417804 0 0 0 1.086716834551088 0 0.1046324708935153 0.381314016774959 0 110:0.2236068 150:0.1118034 249:0.1118034 438:0.1118034 482:0.1118034 818:0.1118034 841:0.2236068 853:0.1118034 872:0.1118034 1051:0.1118034 1110:0.1118034 1120:0.1118034 1204:0.1118034 1214:0.1118034 1342:0.1118034 1417:0.1118034 1477:0.2236068 1763:0.1118034 1790:0.1118034 2051:0.1118034 2053:0.1118034 2070:0.1118034 2210:0.2236068 2217:0.1118034 2293:0.1118034 2394:0.2236068 2408:0.2236068 2447:0.2236068 3023:0.2236068 3028:0.1118034 3136:0.2236068 3522:0.2236068 3571:0.2236068 3588:0.1118034 3831:0.1118034 3913:0.1118034 3967:0.1118034 4056:0.1118034 4444:0.3354102 
0 0 1.169651228237283 0 0.2859177706214847 0 0.6160531650966475 0 0 0 1.189911466723084 0.3571988915417056 0 0 0.7636481391020029 110:0.23094011 249:0.11547005 818:0.11547005 853:0.11547005 872:0.11547005 1214:0.11547005 1342:0.11547005 1410:0.23094011 1477:0.34641016 1790:0.11547005 2051:0.11547005 2070:0.11547005 2116:0.11547005 2139:0.11547005 2164:0.11547005 2386:0.11547005 2394:0.34641016 2408:0.34641016 2447:0.11547005 2924:0.34641016 2933:0.11547005 3070:0.11547005 3136:0.34641016 3178:0.11547005 3369:0.11547005 3588:0.11547005 4062:0.11547005 4298:0.11547005 4483:0.11547005 
2.684332616940507 0 4.500899520643368 0.2699404967619546 0 1.606949217272676 0.7298585033168243 0 0 0 0.4752751491445733 1.09830829006101 0 0.6123395601285939 0.08485222732903493 110:0.098532928 249:0.098532928 489:0.098532928 872:0.098532928 888:0.098532928 1120:0.19706586 1365:0.098532928 1431:0.098532928 1498:0.098532928 1513:0.098532928 1523:0.098532928 1540:0.098532928 1779:0.098532928 1792:0.098532928 1798:0.098532928 2073:0.098532928 2103:0.098532928 2104:0.098532928 2147:0.098532928 2154:0.098532928 2212:0.098532928 2305:0.29559878 2394:0.19706586 2406:0.098532928 2408:0.29559878 2447:0.19706586 2454:0.19706586 2904:0.098532928 2943:0.098532928 2958:0.098532928 2959:0.098532928 3011:0.19706586 3061:0.098532928 3126:0.098532928 3130:0.098532928 3132:0.29559878 3133:0.29559878 3138:0.098532928 3235:0.098532928 3274:0.098532928 3276:0.19706586 3280:0.098532928 3295:0.098532928 3312:0.098532928 3372:0.19706586 3522:0.098532928 3548:0.098532928 3706:0.098532928 3766:0.098532928 4313:0.098532928 
0 0 2.382354246026365 0 0 0 0 0 0 0 0.5760479758025587 0 0 0 0.5453482975877452 110:0.16903085 249:0.16903085 818:0.16903085 959:0.16903085 1109:0.16903085 1414:0.16903085 1475:0.16903085 2069:0.16903085 2154:0.16903085 2225:0.16903085 2394:0.16903085 2408:0.16903085 2414:0.16903085 2944:0.16903085 3014:0.16903085 3369:0.16903085 3519:0.16903085 3675:0.16903085 3741:0.16903085 3746:0.16903085 3747:0.16903085 3889:0.16903085 3973:0.16903085 4299:0.16903085 4367:0.16903085 4454:0.50709255 4461:0.16903085 
0 0.2584571741392061 6.328881635748802 0 0 0 0 0 1.383367106233998 0 1.220686132759758 0 0 0 0 56:0.1132277 110:0.1132277 249:0.1132277 818:0.1132277 953:0.33968311 1428:0.45291081 1444:0.1132277 1790:0.1132277 1798:0.22645541 2051:0.1132277 2053:0.22645541 2070:0.1132277 2103:0.1132277 2104:0.1132277 2116:0.1132277 2139:0.1132277 2154:0.1132277 2349:0.22645541 2457:0.1132277 2747:0.1132277 2810:0.1132277 2899:0.1132277 2943:0.1132277 3066:0.1132277 3079:0.1132277 3090:0.22645541 3132:0.22645541 3133:0.22645541 3802:0.1132277 4314:0.1132277 4457:0.1132277 4486:0.22645541 4498:0.1132277 4521:0.1132277 
9.850784696437099 0 0.1081231255856355 0 0 0 0 0 0 0 0 0 0 0 0 110:0.23904572 134:0.11952286 249:0.23904572 288:0.11952286 818:0.11952286 953:0.23904572 1120:0.11952286 1124:0.11952286 1342:0.11952286 1428:0.11952286 1437:0.11952286 1711:0.11952286 2154:0.11952286 2284:0.11952286 2394:0.11952286 2943:0.11952286 3015:0.11952286 3130:0.11952286 3132:0.23904572 3133:0.23904572 3269:0.11952286 3285:0.11952286 3664:0.11952286 3726:0.11952286 3756:0.11952286 3771:0.11952286 3813:0.11952286 3967:0.11952286 4296:0.11952286 4454:0.5976143 4486:0.11952286 
0 0 0 0 0 0 0 0 0 0 0 0 0 0 0.03594605347722046 17:0.15075567 110:0.15075567 236:0.30151134 249:0.15075567 480:0.15075567 818:0.15075567 953:0.30151134 1031:0.15075567 1047:0.15075567 1054:0.15075567 1447:0.15075567 1480:0.15075567 1484:0.15075567 1756:0.15075567 1790:0.15075567 2044:0.15075567 2051:0.15075567 2070:0.15075567 2154:0.15075567 2447:0.15075567 2907:0.15075567 3305:0.15075567 3310:0.15075567 3359:0.15075567 3581:0.15075567 3672:0.15075567 3757:0.15075567 3826:0.15075567 3866:0.15075567 3872:0.15075567 3887:0.15075567 3976:0.15075567 4065:0.15075567 4069:0.15075567 4308:0.15075567 4359:0.15075567 4527:0.15075567 4553:0.15075567 
1.221382057792632 0 0 0 0 0 0 0 0 0 0 0 0 0 0 110:0.15811388 236:0.15811388 249:0.15811388 463:0.15811388 464:0.15811388 606:0.15811388 818:0.15811388 820:0.15811388 872:0.31622777 953:0.15811388 1120:0.15811388 1352:0.15811388 1551:0.15811388 1765:0.15811388 1790:0.15811388 2051:0.15811388 2070:0.15811388 2154:0.15811388 2172:0.15811388 2394:0.47434165 2408:0.31622777 2447:0.15811388 2451:0.15811388 3706:0.15811388 3814:0.15811388 4014:0.15811388 
0 0 0 0 0 0 0 0.3540396074811923 0 0 0 0.1609799468927952 0 0 0.7393415520852008 110:0.10540926 236:0.21081851 249:0.10540926 818:0.10540926 879:0.10540926 953:0.10540926 1031:0.10540926 1032:0.10540926 1054:0.10540926 1087:0.10540926 1120:0.10540926 1480:0.10540926 1484:0.10540926 1756:0.10540926 1790:0.10540926 1798:0.10540926 2051:0.10540926 2070:0.10540926 2119:0.10540926 2154:0.10540926 2393:0.10540926 2394:0.31622777 2408:0.52704628 2430:0.10540926 2772:0.10540926 2874:0.10540926 3125:0.31622777 3544:0.42163702 3664:0.10540926 3706:0.10540926 4299:0.10540926 4309:0.10540926 
6.872159910705966 0 1.256917858248415 0 0 0 0.9663794836072387 0 0 0 0 0.6374391491685614 0 0 0 110:0.28571429 249:0.28571429 818:0.14285714 867:0.14285714 872:0.14285714 953:0.28571429 1498:0.14285714 1790:0.28571429 2051:0.28571429 2070:0.28571429 2154:0.28571429 2384:0.14285714 2408:0.14285714 2409:0.14285714 2457:0.14285714 2747:0.14285714 3130:0.14285714 3132:0.14285714 3133:0.14285714 3139:0.14285714 3312:0.14285714 3327:0.14285714 4347:0.28571429 4356:0.14285714 4541:0.14285714 
0 0 0 0 0 0.54919317358445 0 0 0.1632029905298978 0.9942274336095603 0 0 0 0 0 110:0.17407766 218:0.17407766 236:0.17407766 249:0.17407766 492:0.17407766 818:0.17407766 879:0.17407766 953:0.17407766 1056:0.17407766 1087:0.17407766 1416:0.17407766 1477:0.17407766 1514:0.17407766 1790:0.17407766 1791:0.17407766 2051:0.17407766 2069:0.34815531 2070:0.17407766 2116:0.17407766 2139:0.17407766 2154:0.17407766 2304:0.17407766 2382:0.34815531 2394:0.17407766 3065:0.17407766 3725:0.17407766 3994:0.17407766 
8.301326395301032 0.3324385640531395 0 0 0.4612638641622728 0.3163998890941113 0.04701237480108639 0.783209027356622 0 0 0 0.1171499989438511 0 0 0 110:0.26490647 249:0.26490647 818:0.13245324 851:0.13245324 853:0.13245324 857:0.13245324 872:0.13245324 953:0.13245324 1031:0.26490647 1054:0.26490647 1119:0.26490647 1123:0.13245324 1342:0.13245324 1350:0.13245324 1432:0.13245324 1452:0.13245324 1790:0.13245324 2051:0.13245324 2070:0.13245324 2102:0.13245324 2154:0.13245324 2172:0.13245324 2173:0.13245324 2393:0.13245324 2810:0.13245324 3029:0.13245324 3130:0.13245324 3286:0.13245324 3310:0.13245324 3561:0.13245324 3666:0.26490647 3748:0.13245324 3800:0.13245324 3801:0.13245324 4010:0.13245324 4069:0.13245324 4352:0.13245324 4399:0.13245324 4464:0.13245324 
2.956508727825998 0 1.607354886351261 0.589738923553303 0.6064882772445084 0.009300022284609751 0 0 0 0 0.1240321006045794 0.4031847186213834 0 0 0.924065803239829 110:0.11785113 249:0.11785113 458:0.11785113 659:0.11785113 818:0.11785113 953:0.23570226 2154:0.11785113 2394:0.11785113 2919:0.82495791 2954:0.11785113 3280:0.11785113 3285:0.11785113 3886:0.11785113 4069:0.11785113 4283:0.11785113 4444:0.11785113 4454:0.11785113 4479:0.23570226 
7.277152605077538 0.2126128435248242 2.836756101765857 0.8344523438631991 1.290763947701317 2.805127695104669 2.654866435226884 0 2.079528665499246 0 2.207645358910086 0 0.01156328570901079 1.719772892514351 0 65:0.10721125 110:0.10721125 249:0.21442251 336:0.10721125 660:0.10721125 818:0.10721125 820:0.10721125 821:0.10721125 950:0.10721125 1028:0.10721125 1120:0.10721125 1540:0.10721125 2120:0.42884501 2154:0.10721125 2394:0.64326752 2447:0.10721125 2929:0.21442251 2943:0.21442251 3130:0.10721125 3230:0.10721125 3238:0.10721125 3299:0.10721125 3660:0.10721125 3706:0.10721125 3797:0.10721125 3963:0.10721125 4284:0.10721125 4287:0.10721125 
12.02813146840387 0.02665081295449173 0.6211286613652106 0 0 0 1.269819065324511 0 0 0 0 0 0 0 0 110:0.35355339 249:0.11785113 818:0.11785113 843:0.11785113 849:0.11785113 853:0.11785113 872:0.11785113 1120:0.11785113 1123:0.11785113 1214:0.11785113 1342:0.11785113 1352:0.11785113 1425:0.11785113 1428:0.11785113 1790:0.11785113 2051:0.11785113 2070:0.11785113 2103:0.11785113 2104:0.11785113 2107:0.11785113 2154:0.11785113 2394:0.23570226 2408:0.58925565 2447:0.11785113 2449:0.11785113 2759:0.11785113 3062:0.11785113 3651:0.11785113 3706:0.11785113 3749:0.11785113 3751:0.11785113 3993:0.11785113 4295:0.23570226 4398:0.11785113 
13.72405279605968 1.626262461270744 1.847975225768724 0.3349926425948349 0 3.52276032934561 9.681664742121933 0.825949950962989 0 0 0 0 0 0 0.3678746370181475 110:0.11547005 249:0.11547005 431:0.11547005 818:0.11547005 843:0.11547005 849:0.11547005 853:0.11547005 872:0.11547005 1123:0.11547005 1209:0.11547005 1214:0.11547005 1342:0.11547005 1350:0.11547005 1352:0.23094011 1468:0.11547005 1781:0.11547005 1790:0.11547005 2041:0.11547005 2051:0.11547005 2070:0.11547005 2103:0.11547005 2104:0.11547005 2244:0.11547005 2394:0.69282032 2408:0.11547005 2918:0.11547005 2921:0.11547005 2943:0.11547005 3013:0.11547005 3063:0.11547005 3118:0.11547005 3281:0.11547005 3287:0.11547005 3298:0.11547005 3526:0.11547005 3541:0.11547005 3733:0.11547005 
11.53244377798395 0 0 0 0 0 6.592810484813273 0 0 0 0 0 0 0 0 110:0.46852129 249:0.3904344 818:0.078086881 953:0.078086881 1203:0.078086881 1214:0.078086881 1342:0.078086881 1790:0.078086881 2051:0.078086881 2070:0.078086881 2154:0.46852129 2211:0.15617376 2225:0.078086881 2257:0.15617376 2448:0.15617376 2457:0.23426064 2747:0.23426064 2954:0.078086881 2968:0.078086881 3001:0.078086881 3017:0.15617376 3130:0.15617376 3235:0.15617376 3588:0.078086881 3643:0.15617376 3673:0.15617376 4347:0.15617376 
