svm_type c_svc
kernel_type rbf
gamma 0.0441942
nr_class 23
total_sv 1272
rho 0.512515 -0.331484 0.38791 0.520439 0.336567 0.231987 0.24198 -0.155367 0.45808 0.519764 -0.256568 0.304606 -0.534169 -0.249014 -0.460353 -0.201684 -0.0298623 -0.764417 -0.096458 -0.0704517 -0.245149 -0.234269 -0.575275 0.0945091 -0.305056 0.32062 -0.310964 0.0283781 -0.473887 0.349269 0.320583 -0.410325 0.126337 -0.777301 -0.373395 -0.738997 -0.42646 -0.334321 -0.799744 -0.495143 -0.236143 -0.458883 -0.334457 0.452925 0.478681 0.37021 0.388758 0.518225 0.178659 0.664832 0.707605 0.0778385 0.455629 -0.289577 0.201571 -0.137897 0.0267312 0.283081 -0.585627 0.326914 0.240202 0.0962773 0.250942 0.209576 0.13964 0.0594104 0.103849 -0.350836 0.209786 0.20937 -0.312737 0.200654 -0.656132 -0.244223 -0.440389 -0.216661 -0.128649 -0.733647 -0.0244531 -0.0270275 -0.22296 -0.0849178 -0.0999797 -0.253913 -0.00600142 -0.338622 0.126058 0.193755 -0.37707 -0.00781691 -0.60222 -0.39981 -0.571833 -0.292815 -0.29352 -0.74873 -0.221779 -0.137687 -0.36707 -0.302631 -0.165233 -0.00272726 -0.282539 0.321847 -0.0924448 -0.148876 -0.0734208 -0.805304 -0.140356 -0.570288 -0.228804 -0.173787 -0.757711 -0.0232411 0.0113071 -0.206229 -0.0821648 0.337661 -0.337515 0.610681 -0.186208 -0.320488 0.404233 -0.618246 -0.295661 -0.560157 -0.263327 -0.140148 -0.779008 -0.0965699 -0.207372 -0.300821 0.000204434 -0.502809 0.164791 0.0324688 -0.326101 -0.00017422 -0.669438 -0.368832 -0.637209 -0.277854 -0.222813 -0.732802 -0.116418 -0.26994 -0.272467 -0.362997 0.637878 0.493042 0.0608157 0.505418 -0.356292 0.0147654 -0.223458 -0.12037 0.173293 -0.610192 0.145914 0.214992 -0.0248718 0.0198087 -0.363989 -0.384383 -0.280572 -0.765063 -0.476817 -0.775718 -0.445896 -0.476578 -0.79402 -0.325536 -0.353723 -0.434825 -0.511372 -0.432883 -0.0570252 -0.835686 -0.461186 -0.761109 -0.40261 -0.409608 -0.864855 -0.443057 -0.311104 -0.491223 -0.418454 0.33668 -0.369685 -0.0129585 -0.192032 -0.0387522 0.135147 -0.624382 0.239955 0.0664742 -0.012087 0.0806284 -0.752189 -0.354514 -0.678297 -0.337666 -0.280188 -0.80791 -0.220389 -0.179568 -0.420709 -0.375177 0.380255 0.136427 0.23576 0.4895 -0.341548 0.51562 0.503227 0.355542 0.489404 -0.224494 -0.104975 0.11162 -0.605219 0.204281 0.0770089 0.0643397 0.0316676 0.206227 0.395322 -0.433461 0.412525 0.400789 0.271709 0.28011 0.0682315 -0.467832 0.1469 0.116313 0.159863 0.118731 -0.634328 0.106148 0.0838051 -0.0346061 -0.0255252 0.672184 0.69139 0.597762 0.613563 -0.0946007 -0.1976 -0.1499 -0.116874 -0.104668 -0.00101445
label 18 12 7 17 16 5 19 6 1 8 0 20 10 11 9 3 2 14 4 21 22 13 15
nr_sv 91 200 13 21 51 57 167 29 24 37 270 17 161 3 13 7 9 12 3 18 16 13 40
SV
64 3.310338267904735 9.984257509768886 0 30.83603464277624 0 0 0 0 16.3308125758032 1.724521555072645 0 0 0 0 0 0 0 0 0 0 0 31:0.060192927 160:0.54173634 318:0.36115756 360:0.54173634 607:0.060192927 965:0.060192927 1146:0.42135049 2005:0.060192927 2062:0.12038585 2232:0.060192927 2411:0.060192927 2502:0.060192927 2572:0.060192927 2586:0.18057878 2663:0.060192927 3380:0.060192927 3511:0.060192927 3539:0.060192927 3622:0.060192927 3658:0.060192927 3664:0.060192927 4537:0.060192927 
0 0 0 0 22.79626246735862 0 0 0 0 0 0 0 0 0 0 0 0 0 0 0 0 0 31:0.22501758 106:0.11250879 107:0.11250879 160:0.45003516 318:0.11250879 360:0.45003516 1056:0.22501758 1146:0.22501758 1206:0.22501758 1711:0.11250879 1712:0.11250879 1733:0.11250879 1991:0.11250879 2062:0.22501758 2087:0.11250879 2192:0.33752637 2411:0.11250879 2572:0.11250879 2586:0.11250879 3175:0.11250879 3503:0.22501758 4444:0.11250879 4445:0.11250879 
0 4.144255141362986 16.3877889896503 0 14.1714704761897 0 1.67635659199963 0 0 18.3523636191996 12.85109932386179 0 2.643789557936669 1.964724584932382 0 0 0 0 0 0 0 0 31:0.20412415 160:0.20412415 318:0.10206207 326:0.10206207 360:0.20412415 377:0.10206207 554:0.10206207 975:0.10206207 1020:0.10206207 1056:0.10206207 1146:0.51031036 1194:0.30618622 1303:0.20412415 1520:0.10206207 1526:0.10206207 1540:0.20412415 1556:0.10206207 1598:0.10206207 1631:0.10206207 1632:0.10206207 1633:0.10206207 1663:0.10206207 1741:0.10206207 1877:0.10206207 1888:0.10206207 1890:0.10206207 2008:0.10206207 2062:0.20412415 2117:0.10206207 2566:0.10206207 2572:0.10206207 2586:0.10206207 3058:0.10206207 3107:0.10206207 3151:0.20412415 3241:0.10206207 3380:0.10206207 3593:0.10206207 3597:0.10206207 3612:0.10206207 3819:0.10206207 4512:0.10206207 4537:0.10206207 
0 0 0 0 0 0 0 0 0 0 0 0 0 0 0 0 0 1.517105804820331 0 0 0 0 31:0.32444284 106:0.16222142 107:0.16222142 160:0.48666426 318:0.16222142 360:0.32444284 424:0.16222142 1146:0.32444284 1206:0.32444284 1555:0.16222142 1711:0.16222142 1712:0.16222142 1733:0.16222142 1877:0.16222142 2062:0.16222142 2572:0.16222142 2586:0.16222142 3175:0.16222142 
14.51763819328007 0 0.1256328952260677 0 0 0 1.053685559610345 0 0 16.4897496223933 9.058346841907625 10.41718662022041 2.023265808196247 0 0 0 0 0 0 0 0 0 31:0.14002801 106:0.14002801 107:0.14002801 160:0.42008403 233:0.14002801 318:0.14002801 360:0.42008403 720:0.14002801 998:0.14002801 1146:0.28005602 1206:0.28005602 1303:0.14002801 1540:0.14002801 1583:0.14002801 1711:0.14002801 1712:0.14002801 1713:0.14002801 1733:0.14002801 2062:0.14002801 2117:0.14002801 2192:0.14002801 2411:0.14002801 2572:0.14002801 2586:0.14002801 2663:0.14002801 3175:0.14002801 3462:0.14002801 3545:0.14002801 3561:0.14002801 
28.30081092382195 0 7.465114806616537 5.955115734359369 3.665781505463881 21.12250622500343 7.793958217764553 2.136012494706336 7.616923123261072 22.06264959601776 0 7.959147032528901 8.43399280131975 9.255443481864003 2.722753961132484 3.625315364626829 0 0.4087634585119603 7.327227945216075 3.845947490207793 1.832170897785124 7.291479410430348 34:0.32444284 160:0.16222142 360:0.16222142 779:0.16222142 1146:0.16222142 1583:0.32444284 1626:0.16222142 1705:0.16222142 1724:0.16222142 1744:0.16222142 2000:0.16222142 2071:0.48666426 2115:0.16222142 2117:0.16222142 3154:0.16222142 3200:0.16222142 3577:0.16222142 3589:0.16222142 3663:0.16222142 3670:0.16222142 3741:0.16222142 3747:0.16222142 3768:0.16222142 3776:0.16222142 
27.27363265111876 7.049214343779401 3.713438443562722 5.923710616971917 21.96979657162794 11.97856597565493 8.428522399352637 5.109632082111033 1.680893468442053 35.7589211294645 1.812362447224782 14.26068272948294 3.130253958001331 0.03580153150612622 3.827464865886378 2.019875028495077 2.878211963522054 0.03446983668388054 0 0 3.291624991098929 7.165068290653957 30:0.26490647 31:0.13245324 160:0.26490647 360:0.13245324 779:0.26490647 1206:0.13245324 1289:0.13245324 1296:0.13245324 1303:0.13245324 1540:0.13245324 1583:0.13245324 1632:0.13245324 1711:0.13245324 1712:0.13245324 1733:0.13245324 1877:0.13245324 2117:0.39735971 2120:0.13245324 2121:0.13245324 2506:0.26490647 2572:0.13245324 3390:0.13245324 3434:0.13245324 3670:0.26490647 3741:0.26490647 3793:0.26490647 4532:0.13245324 4547:0.13245324 
64 31.67442243288523 36.44135056911754 38.82938035713244 64 64 26.05617395494629 31.115457070776 49.01724583982682 64 0 64 18.47262043744778 23.30686391782878 15.08989005344655 2.268186017519941 24.25150125697436 0 15.87996957743224 11.77979453068704 10.45838954728396 18.2380514189657 160:0.33333333 360:0.16666667 1206:0.16666667 1289:0.16666667 1296:0.16666667 1303:0.33333333 1540:0.16666667 1583:0.16666667 1632:0.16666667 1711:0.16666667 1712:0.16666667 1733:0.16666667 2117:0.33333333 2120:0.16666667 2121:0.16666667 2506:0.16666667 2587:0.16666667 3049:0.16666667 3158:0.16666667 3741:0.33333333 3793:0.16666667 4444:0.16666667 4445:0.16666667 4537:0.16666667 
0 0 0.2511407265831648 0 0 0 0 0 0 0 0 0 0 0 0.8455184784915888 0 0 0 0 0 0 0 31:0.17407766 106:0.17407766 107:0.17407766 160:0.34815531 318:0.17407766 360:0.34815531 1020:0.17407766 1056:0.17407766 1146:0.52223297 1206:0.17407766 1711:0.17407766 1712:0.17407766 1733:0.17407766 1877:0.17407766 2062:0.17407766 3175:0.17407766 3369:0.17407766 3402:0.17407766 3664:0.17407766 
46.0531438575557 2.724716288614426 12.92517361391798 22.25185235176441 13.17882294134611 31.0701375300631 2.580008520727506 7.690347632491406 9.399899994197234 55.25568845836511 4.248622375521527 5.154879827228729 0 0 4.468055565983002 12.89642074275477 3.602807023131514 0 30.83487820076682 0.4423343129837333 4.544937659601355 2.127847298284882 4:0.13018891 119:0.13018891 160:0.26037782 183:0.13018891 360:0.26037782 525:0.13018891 779:0.13018891 1050:0.13018891 1152:0.13018891 1206:0.13018891 1303:0.26037782 1540:0.13018891 1665:0.13018891 1728:0.13018891 2117:0.39056673 2166:0.13018891 2168:0.13018891 2176:0.13018891 3175:0.13018891 3308:0.13018891 3369:0.13018891 3386:0.13018891 3388:0.13018891 3511:0.13018891 3622:0.13018891 3635:0.13018891 3741:0.52075564 
0 0 0 0 4.116066881989433 0 0 0 0 0 0 0 0 0 0 2.78757709488407 0 0 0 0 0 0 31:0.095782629 160:0.28734789 318:0.095782629 360:0.19156526 779:0.28734789 965:0.095782629 1051:0.095782629 1152:0.095782629 1303:0.19156526 1526:0.095782629 1540:0.095782629 1583:0.19156526 1631:0.19156526 1727:0.095782629 2048:0.095782629 2062:0.095782629 2071:0.19156526 2117:0.19156526 2158:0.095782629 2239:0.095782629 2409:0.095782629 2538:0.095782629 2572:0.19156526 2592:0.095782629 2594:0.095782629 2597:0.095782629 2601:0.095782629 2602:0.095782629 2609:0.095782629 2617:0.095782629 2619:0.095782629 2621:0.095782629 2663:0.19156526 3178:0.28734789 3193:0.095782629 3225:0.19156526 3381:0.095782629 3392:0.095782629 3438:0.095782629 3551:0.28734789 3664:0.095782629 3741:0.095782629 3769:0.095782629 3776:0.095782629 3808:0.19156526 4533:0.095782629 4537:0.095782629 
28.00913882342477 3.945635848655885 12.33385466865007 15.37027270115 7.813391815903656 14.96991091529725 8.594459051568842 4.042256000737734 8.301038915420511 33.20802873779845 5.462873922561529 7.198987483185605 0.533471777609868 2.926392665288754 3.775054515257053 0 7.053793317764128 0 5.875444218054393 4.475359386313289 5.224926007911333 0.2429287058700912 160:0.30304576 318:0.10101525 360:0.20203051 779:0.30304576 965:0.10101525 1051:0.10101525 1152:0.10101525 1303:0.20203051 1526:0.10101525 1540:0.10101525 1583:0.10101525 1631:0.10101525 1727:0.10101525 2062:0.10101525 2071:0.20203051 2117:0.10101525 2158:0.10101525 2239:0.10101525 2409:0.10101525 2538:0.10101525 2572:0.20203051 2592:0.10101525 2594:0.20203051 2597:0.10101525 2601:0.10101525 2602:0.10101525 2609:0.10101525 2617:0.10101525 2619:0.10101525 2621:0.10101525 2663:0.10101525 3178:0.30304576 3193:0.10101525 3225:0.20203051 3381:0.10101525 3392:0.10101525 3438:0.10101525 3551:0.30304576 3664:0.10101525 3741:0.10101525 3769:0.10101525 3776:0.10101525 3808:0.20203051 4533:0.10101525 4537:0.10101525 
12.84462429440602 1.149554774819749 0 0 9.841739008404039 0 3.419805922626352 0 6.613195943631638 4.014331909378739 0 1.141593038660997 1.620663231441601 0 0 0 3.734442606621885 0 0 1.462218344075021 0 0 31:0.16666667 106:0.16666667 107:0.16666667 160:0.33333333 318:0.16666667 360:0.33333333 1146:0.33333333 1206:0.16666667 1303:0.16666667 1442:0.16666667 1540:0.16666667 1711:0.16666667 1712:0.16666667 1733:0.16666667 1887:0.16666667 2008:0.16666667 2062:0.16666667 2117:0.16666667 2201:0.16666667 2411:0.16666667 2586:0.16666667 2593:0.16666667 3178:0.16666667 3232:0.16666667 3351:0.16666667 3478:0.16666667 3499:0.16666667 
1.142654845983955 0.581572550941966 4.498855259115503 0 1.547119115592854 0 4.844659626467809 2.166041069778469 3.021891563825478 3.994083933596435 0 7.090487438671706 2.16700624076898 1.032855200719324 0.8786290127683685 0 6.034209933768548 1.276319795598516 0 4.00906505056227 1.126256079311793 0.1366641913779579 31:0.15249857 106:0.15249857 107:0.15249857 160:0.30499714 318:0.15249857 360:0.30499714 1056:0.15249857 1146:0.30499714 1206:0.15249857 1711:0.15249857 1712:0.15249857 1733:0.15249857 2005:0.45749571 2050:0.15249857 2052:0.15249857 2053:0.15249857 2054:0.15249857 2055:0.15249857 2057:0.15249857 2062:0.15249857 2201:0.15249857 2411:0.15249857 2570:0.15249857 2586:0.15249857 3506:0.15249857 3665:0.15249857 
0 8.156888513469148 0 0 0 0 0 0 0 0 0 0 0 0 0 0 0.7085417152859095 0 0 0 0 0 31:0.1767767 106:0.1767767 107:0.1767767 160:0.35355339 318:0.1767767 360:0.35355339 1054:0.1767767 1056:0.1767767 1146:0.35355339 1206:0.1767767 1555:0.1767767 1586:0.1767767 1711:0.1767767 1712:0.1767767 1733:0.1767767 2062:0.1767767 2068:0.1767767 2072:0.1767767 2117:0.1767767 2411:0.1767767 2543:0.1767767 2586:0.1767767 3305:0.1767767 
0 7.97007366249477 0 0 14.08379091184781 1.547071863654943 1.428664048765508 0 0.9617121126378915 9.48783883351109 5.97004831303308 17.86916876893923 3.299342322510677 10.27249487103454 0 0 0.7674067329051016 0 0.9320703617096979 0 0.465448175719322 4.975349682560104 31:0.15430335 106:0.15430335 107:0.15430335 160:0.3086067 318:0.15430335 360:0.3086067 580:0.15430335 1020:0.15430335 1056:0.15430335 1146:0.46291005 1206:0.15430335 1302:0.15430335 1549:0.15430335 1711:0.15430335 1712:0.15430335 1733:0.15430335 2019:0.15430335 2062:0.15430335 2117:0.3086067 2162:0.15430335 2411:0.15430335 2586:0.15430335 3240:0.15430335 3293:0.15430335 3566:0.15430335 
20.14839901644049 0 0 11.88885079186237 12.68660589034424 10.63878027016951 0 0 0 14.54790725999386 7.551790140605375 7.427098846414033 0 0 0.08238450547968142 5.094771028592336 8.936450784132886 3.0496540582397 6.776112510248104 5.589595180921787 3.181280725564434 1.818727903048585 31:0.16903085 119:0.16903085 160:0.16903085 205:0.16903085 360:0.16903085 1030:0.16903085 1142:0.16903085 1631:0.3380617 1906:0.16903085 2007:0.16903085 2045:0.16903085 2056:0.16903085 2062:0.16903085 2111:0.16903085 2133:0.16903085 2215:0.16903085 2586:0.16903085 3057:0.16903085 3090:0.16903085 3154:0.16903085 3156:0.16903085 3208:0.16903085 3525:0.16903085 3739:0.16903085 3741:0.3380617 3744:0.16903085 3797:0.16903085 4444:0.16903085 4445:0.16903085 
0 0.9017772547705582 0 0 0 0 0.2518439950289299 0 3.592240433098767 0 0 0 1.776774221492135 9.555017217626185 0 0 0.0954735027315768 0 0 4.999768582353036 0 0 31:0.21320072 160:0.10660036 326:0.10660036 332:0.10660036 360:0.10660036 377:0.10660036 607:0.10660036 632:0.10660036 1020:0.10660036 1056:0.10660036 1146:0.31980107 1156:0.10660036 1194:0.31980107 1303:0.10660036 1520:0.31980107 1526:0.10660036 1540:0.10660036 1544:0.10660036 1556:0.10660036 1583:0.10660036 1632:0.10660036 1663:0.10660036 1741:0.10660036 1877:0.10660036 1888:0.10660036 1890:0.10660036 2008:0.10660036 2062:0.10660036 2114:0.10660036 2117:0.10660036 2566:0.10660036 2586:0.10660036 3058:0.21320072 3107:0.10660036 3151:0.21320072 3241:0.10660036 3258:0.10660036 3380:0.10660036 3402:0.31980107 3593:0.10660036 3597:0.10660036 3612:0.10660036 3663:0.10660036 3741:0.10660036 4512:0.10660036 4531:0.10660036 4537:0.10660036 
0 0 15.97825361943129 0 16.48667043480533 0.342833189650007 6.992409197164997 0 6.356351900589028 13.88316469957715 2.695260202183259 0 1.617417874237815 4.854142548946671 0.7060772774498999 1.574750198156302 0 0 7.465624052047605 0 0 4.135107053166066 31:0.12126781 106:0.12126781 107:0.12126781 160:0.24253563 318:0.12126781 360:0.24253563 643:0.12126781 1020:0.12126781 1048:0.36380344 1054:0.12126781 1056:0.12126781 1146:0.36380344 1206:0.12126781 1443:0.12126781 1444:0.12126781 1445:0.12126781 1584:0.12126781 1620:0.12126781 1629:0.12126781 1711:0.12126781 1712:0.12126781 1733:0.12126781 1877:0.12126781 1884:0.12126781 1896:0.12126781 1998:0.12126781 2060:0.12126781 2062:0.12126781 2116:0.12126781 2120:0.12126781 2121:0.12126781 2411:0.12126781 2414:0.12126781 2586:0.12126781 3048:0.12126781 3050:0.12126781 3109:0.24253563 3548:0.12126781 3659:0.12126781 3660:0.12126781 3674:0.12126781 4444:0.12126781 4445:0.12126781 
7.638874944426145 0 0 0 0 0 0 0 0 0 0 0 0 0 0 0 0 0 0 0 0 0 31:0.11111111 106:0.11111111 107:0.11111111 160:0.22222222 318:0.11111111 360:0.22222222 361:0.11111111 643:0.11111111 1020:0.11111111 1048:0.33333333 1054:0.11111111 1056:0.11111111 1146:0.22222222 1193:0.11111111 1206:0.11111111 1443:0.11111111 1444:0.11111111 1445:0.11111111 1526:0.11111111 1584:0.11111111 1620:0.11111111 1629:0.11111111 1711:0.11111111 1712:0.11111111 1733:0.11111111 1877:0.11111111 1884:0.11111111 1896:0.11111111 1998:0.11111111 2006:0.11111111 2060:0.11111111 2062:0.11111111 2071:0.33333333 2116:0.11111111 2120:0.11111111 2121:0.11111111 2411:0.11111111 2414:0.11111111 2586:0.11111111 3048:0.11111111 3050:0.11111111 3109:0.22222222 3294:0.11111111 3548:0.11111111 3659:0.11111111 3660:0.11111111 3674:0.11111111 3741:0.22222222 4444:0.11111111 4445:0.11111111 
0 0 0 0 0 0 0 0 0 0 0 2.073271650224016 0 0.9246433287306203 0 0 0 0 0 0 0 0 31:0.16666667 106:0.16666667 107:0.16666667 160:0.33333333 318:0.16666667 360:0.33333333 966:0.16666667 1020:0.16666667 1056:0.33333333 1146:0.33333333 1206:0.16666667 1711:0.16666667 1712:0.16666667 1733:0.16666667 1877:0.16666667 2062:0.16666667 2117:0.16666667 2411:0.16666667 2586:0.16666667 2632:0.16666667 3156:0.16666667 3208:0.16666667 3503:0.16666667 3620:0.16666667 
0 0 0 0 0 0 0 0 0 0 0 0 0 0 0 0 0 0.06277750736400367 0 0 1.31218213222827 0 31:0.125 106:0.125 107:0.125 160:0.25 318:0.125 360:0.25 643:0.125 1020:0.125 1048:0.375 1054:0.125 1056:0.125 1146:0.25 1206:0.125 1443:0.125 1444:0.125 1445:0.125 1584:0.125 1620:0.125 1629:0.125 1711:0.125 1712:0.125 1733:0.125 1877:0.125 1884:0.125 1896:0.125 1998:0.125 2060:0.125 2062:0.125 2116:0.125 2120:0.125 2121:0.125 2411:0.125 2414:0.125 2586:0.125 3048:0.125 3050:0.125 3109:0.25 3402:0.125 3548:0.125 3659:0.125 3660:0.125 3674:0.125 4444:0.125 4445:0.125 
0 1.900830598045926 0 4.22986114972156 0 2.956715529456322 0 0 0 0 0 0.02742834676728742 0 0 0 0 2.392661998092572 0.2426146041531934 0 2.107812473164743 0 0 31:0.12598816 106:0.12598816 107:0.12598816 160:0.25197632 318:0.12598816 360:0.25197632 643:0.12598816 1020:0.12598816 1048:0.37796447 1054:0.12598816 1056:0.12598816 1146:0.25197632 1206:0.12598816 1443:0.12598816 1444:0.12598816 1445:0.12598816 1584:0.12598816 1620:0.12598816 1629:0.12598816 1711:0.12598816 1712:0.12598816 1733:0.12598816 1877:0.12598816 1884:0.12598816 1896:0.12598816 1998:0.12598816 2060:0.12598816 2062:0.12598816 2116:0.12598816 2120:0.12598816 2121:0.12598816 2411:0.12598816 2414:0.12598816 2586:0.12598816 3048:0.12598816 3050:0.12598816 3109:0.25197632 3548:0.12598816 3659:0.12598816 3660:0.12598816 3674:0.12598816 4444:0.12598816 4445:0.12598816 
0 0 0 32.69805924733515 0 0 0 0 0 0 0 0 0.5476577170608742 0 1.979013685472307 0 0 0 0 0 0 0 31:0.14002801 106:0.14002801 107:0.14002801 160:0.28005602 318:0.14002801 324:0.14002801 360:0.28005602 380:0.14002801 533:0.14002801 1029:0.14002801 1056:0.14002801 1146:0.28005602 1206:0.14002801 1542:0.14002801 1711:0.14002801 1712:0.14002801 1733:0.14002801 1996:0.14002801 2062:0.14002801 2071:0.28005602 2120:0.28005602 2121:0.28005602 2155:0.14002801 2411:0.14002801 2586:0.14002801 3096:0.14002801 3101:0.14002801 3104:0.14002801 3154:0.14002801 3244:0.14002801 3571:0.14002801 3573:0.14002801 3607:0.14002801 
0 0 0 0 0 0 0 0 0 12.34257600408678 0 0 0 0 0 0 0 0 0 0 0 0 31:0.32539569 160:0.32539569 318:0.10846523 360:0.43386092 629:0.10846523 731:0.10846523 1020:0.21693046 1194:0.10846523 1206:0.32539569 1303:0.21693046 1526:0.10846523 1540:0.21693046 1598:0.10846523 1618:0.10846523 1877:0.21693046 2062:0.10846523 2070:0.10846523 2411:0.21693046 2572:0.21693046 2586:0.10846523 3178:0.10846523 3310:0.10846523 3382:0.10846523 3397:0.10846523 3744:0.10846523 4408:0.10846523 4444:0.10846523 4445:0.10846523 
13.5416785455673 10.14705950194047 8.453046859876428 10.07812500304888 14.59097189825778 16.96565885794238 10.86228716539084 11.20153919081736 12.84991438054868 19.45875814739535 6.83042016678638 15.364817143903 2.834418987606036 11.18890859777511 5.627359383671577 7.762658191745262 9.521349869489159 0.04304523432876159 10.87657815714612 10.47986536866119 5.346329353529696 9.031725576777287 31:0.089087081 160:0.089087081 332:0.089087081 360:0.089087081 553:0.089087081 722:0.17817416 728:0.089087081 731:0.089087081 985:0.26726124 1146:0.089087081 1194:0.089087081 1544:0.089087081 1577:0.089087081 1578:0.089087081 1631:0.089087081 1632:0.17817416 1711:0.089087081 1712:0.089087081 1726:0.17817416 1733:0.089087081 1740:0.089087081 1948:0.089087081 2062:0.089087081 2065:0.26726124 2071:0.17817416 2111:0.089087081 2117:0.26726124 2236:0.35634832 2411:0.089087081 2541:0.17817416 2572:0.26726124 2586:0.089087081 3133:0.089087081 3154:0.089087081 3156:0.17817416 3208:0.17817416 3251:0.35634832 3307:0.089087081 3528:0.089087081 3629:0.089087081 3635:0.089087081 3795:0.089087081 3803:0.089087081 
0 0 2.954036630682498 0 3.168817345665602 3.485804139360205 1.70200575039213 4.269905872441084 8.333777180041039 9.311032502049143 0 0.09702277357828949 0 0 1.532094018955695 0 2.187969446010102 0 0 9.658731504755279 1.727733155096331 0.09604168714510866 31:0.13245324 106:0.13245324 107:0.13245324 160:0.26490647 318:0.13245324 360:0.39735971 635:0.13245324 1146:0.26490647 1206:0.13245324 1584:0.13245324 1632:0.13245324 1711:0.13245324 1712:0.13245324 1733:0.13245324 1877:0.13245324 1887:0.13245324 1896:0.13245324 1998:0.13245324 2006:0.13245324 2062:0.13245324 2240:0.13245324 2411:0.26490647 2586:0.13245324 2593:0.13245324 3156:0.13245324 3208:0.13245324 3307:0.13245324 3352:0.13245324 3511:0.13245324 3568:0.13245324 3572:0.13245324 3575:0.13245324 3578:0.13245324 3581:0.13245324 3598:0.13245324 3611:0.13245324 3622:0.13245324 3674:0.13245324 3742:0.13245324 4445:0.13245324 
7.547847029592818 0 0 9.29770387859611 0 16.52751497329291 11.0172429906251 10.56258104799628 17.73444085384665 20.48806542880329 0 12.63124547803914 0 7.321773611496171 8.534141507463199 4.392300374702562 9.250835060683446 1.548784214778098 1.045458408953314 4.842984904124346 5.055602990893796 10.27041548308308 31:0.21693046 160:0.10846523 318:0.10846523 360:0.10846523 1146:0.21693046 1194:0.10846523 1206:0.10846523 1289:0.10846523 1296:0.10846523 1303:0.10846523 1540:0.10846523 1583:0.10846523 1598:0.10846523 1632:0.10846523 1711:0.10846523 1712:0.10846523 1733:0.10846523 2045:0.10846523 2056:0.10846523 2062:0.10846523 2120:0.10846523 2121:0.10846523 2122:0.10846523 2200:0.10846523 2586:0.10846523 2591:0.10846523 2603:0.32539569 2606:0.10846523 2607:0.32539569 2608:0.10846523 2623:0.10846523 2663:0.10846523 3154:0.10846523 3358:0.10846523 3511:0.21693046 3520:0.10846523 3622:0.21693046 3691:0.21693046 3763:0.43386092 
0 7.900766247335447 0 0 0 0 0 0 0 0 0 0 0 0 0 0 0 0 0 0 0 0 31:0.26967994 160:0.13483997 318:0.13483997 360:0.13483997 1146:0.26967994 1194:0.13483997 1206:0.13483997 1289:0.13483997 1296:0.13483997 1303:0.13483997 1540:0.13483997 1556:0.13483997 1583:0.13483997 1598:0.13483997 1632:0.13483997 1711:0.13483997 1712:0.13483997 1733:0.13483997 2045:0.13483997 2056:0.13483997 2062:0.13483997 2120:0.13483997 2121:0.13483997 2122:0.13483997 2200:0.13483997 2586:0.13483997 2591:0.13483997 2603:0.26967994 2606:0.13483997 2607:0.26967994 2608:0.13483997 2623:0.13483997 2663:0.13483997 3154:0.13483997 3358:0.13483997 3511:0.13483997 3520:0.13483997 3622:0.13483997 3691:0.13483997 3763:0.26967994 
0 0 21.75057720507052 0 29.4392166698516 0 3.272244306137794 0 0 0 0 0 11.10703686338105 0 0 0 0 0 0 0 0 0 31:0.25819889 160:0.12909944 318:0.12909944 360:0.12909944 1146:0.38729833 1194:0.12909944 1206:0.12909944 1289:0.12909944 1296:0.12909944 1303:0.12909944 1540:0.12909944 1556:0.12909944 1583:0.12909944 1598:0.12909944 1632:0.12909944 1711:0.12909944 1712:0.12909944 1733:0.12909944 2045:0.12909944 2056:0.12909944 2062:0.12909944 2120:0.12909944 2121:0.12909944 2122:0.12909944 2200:0.12909944 2586:0.12909944 2591:0.12909944 2603:0.25819889 2606:0.12909944 2607:0.25819889 2608:0.12909944 2623:0.12909944 2663:0.12909944 3154:0.12909944 3358:0.12909944 3511:0.12909944 3520:0.12909944 3622:0.12909944 3691:0.12909944 3763:0.25819889 
0 0 64 0 0 0 0 0 1.547638649964005 0 0 0 0 0 0 0 0 2.637820600146938 0 0 0 0 31:0.13483997 106:0.13483997 107:0.13483997 160:0.40451992 233:0.13483997 318:0.13483997 360:0.40451992 644:0.13483997 779:0.13483997 1146:0.26967994 1206:0.13483997 1303:0.13483997 1540:0.13483997 1584:0.13483997 1631:0.13483997 1711:0.13483997 1712:0.13483997 1733:0.13483997 1744:0.13483997 1877:0.13483997 2006:0.13483997 2097:0.13483997 2108:0.26967994 2120:0.13483997 2121:0.13483997 2586:0.13483997 3175:0.13483997 3225:0.26967994 3251:0.13483997 3561:0.13483997 
3.437349349424608 2.905375832725691 0 8.688816284206407 10.98033714131129 13.4818372386422 13.85255768685551 10.07044367100476 12.35024396250276 18.60528529631914 9.056732044721599 26.82422207332029 0 17.3523035262028 0 0 7.181395430693413 0 10.85582455301666 3.659797905517972 7.365540667921145 4.559480663071806 160:0.21320072 360:0.21320072 530:0.42640143 1206:0.10660036 1442:0.10660036 1520:0.21320072 1711:0.10660036 1712:0.10660036 1733:0.10660036 1986:0.10660036 2001:0.10660036 2004:0.42640143 2062:0.10660036 2111:0.10660036 2117:0.42640143 2411:0.10660036 2506:0.10660036 2586:0.10660036 2604:0.10660036 2675:0.10660036 3081:0.10660036 3156:0.10660036 3208:0.10660036 3305:0.10660036 3388:0.10660036 3397:0.10660036 3564:0.10660036 3580:0.10660036 3592:0.10660036 3599:0.10660036 3741:0.21320072 
14.04635408985013 5.019901753251471 3.983135933932642 0.05688204792005998 0 8.706490179882827 4.698475591083054 1.853381959848085 5.889775157796917 26.07009262167201 8.614335709040613 5.570332022145352 0 8.756401193221365 0 1.077648796393549 1.583454378759667 0 15.64958662660057 0 2.26932987555554 0 31:0.1898316 160:0.1898316 297:0.0949158 318:0.0949158 332:0.0949158 360:0.1898316 735:0.0949158 1056:0.0949158 1146:0.474579 1194:0.1898316 1206:0.0949158 1586:0.0949158 1598:0.0949158 1628:0.0949158 1631:0.0949158 1663:0.0949158 1711:0.0949158 1712:0.0949158 1733:0.0949158 1877:0.0949158 1986:0.0949158 2006:0.0949158 2062:0.0949158 2063:0.0949158 2114:0.0949158 2117:0.3796632 2155:0.0949158 2566:0.0949158 2586:0.1898316 3049:0.0949158 3156:0.1898316 3208:0.1898316 3257:0.0949158 3293:0.0949158 3380:0.0949158 3692:0.3796632 
25.85871245842441 15.11654852226648 2.414230381369038 9.644746458970833 23.08775715934998 18.8279699135665 9.607477274179688 9.69450100736162 8.628268951238518 16.02508274851179 8.659569661318766 18.89565572769266 6.793447953626691 8.5598854901236 0 7.391959384824984 6.048906245624564 2.978785686546246 9.071364539398726 0 3.461845679431955 0.6007973319485502 160:0.12403473 319:0.12403473 360:0.12403473 1146:0.24806947 1301:0.12403473 1442:0.12403473 1540:0.12403473 1546:0.12403473 1631:0.3721042 1632:0.12403473 1663:0.12403473 1711:0.12403473 1712:0.12403473 1733:0.12403473 1888:0.12403473 2062:0.12403473 2067:0.24806947 2068:0.12403473 2117:0.49613894 2194:0.12403473 2565:0.12403473 2586:0.12403473 3049:0.12403473 3482:0.12403473 3574:0.12403473 3585:0.12403473 3586:0.12403473 3708:0.24806947 3766:0.12403473 3767:0.12403473 3771:0.12403473 3773:0.12403473 4512:0.12403473 
16.13406261844937 1.563823731849519 24.81428924217398 9.495213184337807 20.85324858463746 25.82900971776941 12.71119818556415 10.94046012292489 16.46678899552065 25.95708331885987 7.566595650490115 20.47784701974867 3.216040862000298 10.43700096164576 7.629529934900723 5.018946479662565 9.288276202961644 0 10.20116455610689 20.44945025949788 7.372101950068084 24.46357873301506 160:0.11785113 360:0.11785113 633:0.11785113 782:0.11785113 1146:0.23570226 1301:0.11785113 1442:0.23570226 1540:0.11785113 1546:0.11785113 1631:0.23570226 1632:0.11785113 1711:0.11785113 1712:0.11785113 1733:0.11785113 1888:0.11785113 2002:0.11785113 2062:0.11785113 2068:0.11785113 2117:0.47140452 2194:0.11785113 2565:0.11785113 2577:0.11785113 2586:0.11785113 2588:0.11785113 3049:0.11785113 3156:0.11785113 3178:0.11785113 3208:0.11785113 3574:0.11785113 3585:0.11785113 3586:0.11785113 3637:0.11785113 3674:0.23570226 3708:0.23570226 3766:0.11785113 3767:0.11785113 3771:0.23570226 3773:0.11785113 3802:0.11785113 
54.27804628036959 10.39946610446658 35.69848547041907 39.36479205901837 38.92022442045796 43.48032176104211 0.7972457989385864 3.851002559411012 3.225160769416437 64 0 22.86034042589456 0.7669673451569854 0 0 0 4.064693168567039 0 0 1.064039399749696 0 0.996795151879135 160:0.34299717 360:0.34299717 966:0.17149859 1206:0.17149859 1711:0.17149859 1712:0.17149859 1733:0.17149859 2062:0.17149859 2071:0.34299717 2117:0.34299717 2120:0.34299717 2121:0.34299717 2411:0.17149859 2586:0.17149859 3402:0.17149859 3741:0.17149859 
38.73335389121912 6.443178593057853 12.00146194054374 7.856015698296719 3.312865208308228 14.01349091976456 1.615532416871517 0 0 15.89441701027709 0.4805145178881929 0.1739242371292924 0 0 3.980767079301419 6.030674488520841 4.562204212050648 0 5.429184836584531 5.190861205186052 0 7.577908001871547 160:0.20628425 360:0.20628425 530:0.4125685 1206:0.10314212 1442:0.10314212 1520:0.20628425 1711:0.10314212 1712:0.10314212 1733:0.10314212 1986:0.10314212 2001:0.10314212 2004:0.4125685 2062:0.10314212 2086:0.10314212 2111:0.10314212 2117:0.4125685 2411:0.10314212 2506:0.10314212 2586:0.10314212 3156:0.10314212 3208:0.10314212 3388:0.10314212 3397:0.10314212 3564:0.20628425 3580:0.10314212 3592:0.10314212 3599:0.10314212 3655:0.10314212 3741:0.30942637 
0 0 0 0 0 0 0 0 0 0 0 0 0 0 3.439883229874404 0 1.222397399430411 0 0 0 0 0 31:0.17407766 106:0.17407766 107:0.17407766 160:0.34815531 318:0.17407766 360:0.34815531 1056:0.17407766 1146:0.34815531 1206:0.17407766 1663:0.17407766 1711:0.17407766 1712:0.17407766 1733:0.17407766 1889:0.17407766 2062:0.17407766 2411:0.17407766 2566:0.17407766 2586:0.17407766 3380:0.17407766 3472:0.17407766 3511:0.17407766 3622:0.17407766 3741:0.17407766 4445:0.17407766 
5.185879700329727 1.856327413942311 0 4.22986114972049 0 3.568738546364211 0 0 0 0 0 0.275708542956069 0 0 0 0.1297240944505375 2.660345228252047 0.5267909524129432 0 2.124756871329515 1.254116234252201 0 31:0.12598816 106:0.12598816 107:0.12598816 160:0.25197632 318:0.12598816 360:0.25197632 643:0.12598816 1020:0.12598816 1048:0.37796447 1054:0.12598816 1056:0.12598816 1146:0.25197632 1206:0.12598816 1443:0.12598816 1444:0.12598816 1445:0.12598816 1584:0.12598816 1620:0.12598816 1629:0.12598816 1711:0.12598816 1712:0.12598816 1733:0.12598816 1877:0.12598816 1884:0.12598816 1896:0.12598816 1998:0.12598816 2062:0.12598816 2116:0.12598816 2120:0.12598816 2121:0.12598816 2411:0.12598816 2414:0.12598816 2586:0.12598816 3048:0.12598816 3050:0.12598816 3109:0.25197632 3548:0.12598816 3569:0.12598816 3659:0.12598816 3660:0.12598816 3674:0.12598816 4444:0.12598816 4445:0.12598816 
0 0 0 0 0 0 0 0 0 0 0 0 0 0 0 0 0 0 0 2.869408470203756 0 0 31:0.14285714 106:0.14285714 107:0.14285714 160:0.28571429 318:0.14285714 324:0.14285714 360:0.28571429 532:0.14285714 1020:0.14285714 1146:0.28571429 1206:0.14285714 1296:0.14285714 1542:0.14285714 1628:0.14285714 1633:0.14285714 1711:0.14285714 1712:0.14285714 1733:0.14285714 2014:0.14285714 2046:0.14285714 2047:0.14285714 2049:0.14285714 2062:0.14285714 2122:0.14285714 2199:0.14285714 2202:0.14285714 2411:0.14285714 2568:0.14285714 2569:0.14285714 2586:0.14285714 2674:0.14285714 3158:0.14285714 3226:0.14285714 3228:0.14285714 3508:0.14285714 3511:0.14285714 3551:0.14285714 3561:0.14285714 3622:0.14285714 3770:0.14285714 
9.212018343505806 0 5.866716353935188 7.730821959290453 0 1.691605491106657 1.419610680826433 0 0 5.843015375444895 5.79511727867715 4.975745398073667 0.3006816523559918 0 0 0 0 0 0 7.069475647720021 0.3215498496822255 0 160:0.17149859 360:0.17149859 1008:0.17149859 1442:0.17149859 1540:0.17149859 1631:0.17149859 1708:0.17149859 2062:0.17149859 2071:0.17149859 2117:0.34299717 2194:0.17149859 2565:0.17149859 2586:0.17149859 3049:0.17149859 3156:0.17149859 3208:0.17149859 3386:0.17149859 3563:0.34299717 3602:0.34299717 3674:0.17149859 3741:0.17149859 3766:0.17149859 3767:0.17149859 3771:0.17149859 3773:0.17149859 
9.157857682446368 0 0 0 0 0 0 0 0 24.69561786299146 0 0 0 0 0 0 0 0 0 0 0 0 31:0.13018891 106:0.13018891 107:0.13018891 160:0.52075564 318:0.13018891 360:0.26037782 526:0.13018891 966:0.13018891 1056:0.13018891 1146:0.26037782 1206:0.13018891 1526:0.13018891 1555:0.13018891 1666:0.13018891 1711:0.13018891 1712:0.13018891 1733:0.13018891 1744:0.13018891 1877:0.26037782 2062:0.13018891 2071:0.26037782 2112:0.13018891 2411:0.13018891 2543:0.13018891 2586:0.13018891 3156:0.13018891 3175:0.13018891 3208:0.13018891 3566:0.13018891 3741:0.13018891 4444:0.13018891 4445:0.13018891 
8.055908685393067 0 15.01233494882992 0 0 0 5.440726137083552 7.478360976704279 1.787552616240892 0 0 8.619963205885073 2.850865213535974 0 0 0 4.37217969078272 0.719374027413494 0 0 0 0 31:0.17407766 106:0.17407766 107:0.17407766 160:0.34815531 318:0.17407766 328:0.17407766 360:0.34815531 577:0.17407766 1056:0.34815531 1146:0.34815531 1206:0.17407766 1711:0.17407766 1712:0.17407766 1733:0.17407766 2062:0.17407766 2411:0.17407766 2586:0.17407766 3293:0.17407766 3661:0.17407766 3665:0.17407766 3697:0.17407766 
0 4.631324714912924 8.152433091255084 64 0 0 0 0 0 10.10150476298524 0 0 4.56494777370133 0 0.2057192798404393 0 0 0.1041773643907925 0 0 0 0 31:0.18898224 106:0.18898224 107:0.18898224 160:0.37796447 318:0.18898224 324:0.18898224 360:0.18898224 533:0.18898224 1146:0.37796447 1206:0.18898224 1595:0.18898224 1711:0.18898224 1712:0.18898224 1733:0.18898224 2062:0.18898224 2120:0.18898224 2121:0.18898224 2586:0.18898224 3156:0.18898224 3208:0.18898224 3534:0.18898224 3690:0.18898224 
0 4.012817429474921 2.38277821763125 0 0 0 2.904144423884646 0 0 0 0 0 0.2145433380258666 0 2.806879941249337 0 5.536152102202695 0 0 7.082747439759523 1.5942228365227 0.6629992651413308 31:0.14433757 106:0.14433757 107:0.14433757 160:0.28867513 318:0.14433757 324:0.14433757 360:0.28867513 532:0.14433757 1020:0.14433757 1146:0.28867513 1206:0.14433757 1296:0.14433757 1542:0.14433757 1628:0.14433757 1711:0.14433757 1712:0.14433757 1733:0.14433757 2014:0.14433757 2046:0.14433757 2047:0.14433757 2049:0.14433757 2062:0.14433757 2122:0.14433757 2199:0.14433757 2202:0.14433757 2411:0.14433757 2568:0.14433757 2569:0.14433757 2586:0.14433757 2674:0.14433757 3226:0.14433757 3228:0.14433757 3402:0.14433757 3508:0.14433757 3511:0.14433757 3551:0.14433757 3561:0.14433757 3622:0.14433757 3770:0.14433757 
5.59004086635104 0 0 3.010651355953753 9.187719296068323 8.339972591959926 5.509532741042523 6.458169467162619 7.729446943394397 10.0058620799634 4.726519850407757 7.314436409024316 0 4.545342485268847 0.21638528464834 2.167663594887268 0 1.125309248048617 0 0 0 0 31:0.14285714 106:0.14285714 107:0.14285714 160:0.28571429 318:0.14285714 324:0.14285714 360:0.28571429 532:0.14285714 1020:0.14285714 1146:0.28571429 1206:0.14285714 1296:0.14285714 1542:0.14285714 1628:0.14285714 1631:0.14285714 1711:0.14285714 1712:0.14285714 1733:0.14285714 2014:0.14285714 2046:0.14285714 2047:0.14285714 2049:0.14285714 2062:0.14285714 2122:0.14285714 2199:0.14285714 2202:0.14285714 2411:0.14285714 2568:0.14285714 2569:0.14285714 2586:0.14285714 2674:0.14285714 3056:0.14285714 3226:0.14285714 3228:0.14285714 3508:0.14285714 3511:0.14285714 3551:0.14285714 3561:0.14285714 3622:0.14285714 3770:0.14285714 
41.0279304061587 9.094291663080405 8.959160292403151 12.2330538052424 15.6623903865129 35.08080514647478 3.94344893971203 5.758872891636405 3.650527170837951 23.99282330310389 2.979742752902657 25.60251584306493 6.847197558897067 9.656066868298183 4.390684383213495 2.644308271513321 8.883813874024538 1.641330926347434 20.55841383765973 3.438894316280979 3.50971788145321 10.59010224436362 160:0.17149859 214:0.17149859 360:0.17149859 1146:0.17149859 1631:0.17149859 1708:0.34299717 1711:0.17149859 1712:0.17149859 1733:0.17149859 1744:0.17149859 1970:0.17149859 2062:0.17149859 2071:0.34299717 2087:0.17149859 2117:0.34299717 2155:0.34299717 2239:0.17149859 2586:0.17149859 2637:0.17149859 3741:0.17149859 3768:0.17149859 4537:0.17149859 
0 0.6728659118962744 0 0 0 0 0 0 0 0 0.7077269205603112 0 0 0 0 0 0 0 0 0 0 0 31:0.16222142 160:0.16222142 164:0.16222142 360:0.16222142 1629:0.16222142 1705:0.16222142 1708:0.16222142 1726:0.16222142 2000:0.16222142 2062:0.16222142 2071:0.48666426 2111:0.16222142 2114:0.16222142 2117:0.16222142 2586:0.16222142 3096:0.16222142 3330:0.16222142 3390:0.32444284 3550:0.16222142 3567:0.16222142 3583:0.16222142 3588:0.16222142 3615:0.16222142 3670:0.16222142 3741:0.16222142 3743:0.16222142 3745:0.16222142 
64 14.72055993879222 6.234633278402213 30.43852178571755 37.10399865148012 60.42672446872636 17.11206107510912 17.89619055488603 15.4986031289464 64 26.87861990755338 51.35540727264015 0 12.0760117544441 0.2099880106472389 20.3895054125472 10.35775816424204 0 18.12099383008733 16.99987748824832 16.68868160094682 18.26150485315768 160:0.12598816 322:0.12598816 332:0.12598816 360:0.12598816 377:0.12598816 606:0.12598816 1045:0.12598816 1583:0.12598816 1618:0.37796447 1631:0.37796447 2062:0.12598816 2071:0.12598816 2112:0.12598816 2117:0.62994079 2586:0.12598816 2614:0.12598816 2667:0.12598816 3379:0.12598816 3565:0.12598816 3741:0.25197632 
64 0 47.63206288941734 60.03355546130044 41.23104644768515 34.02557896905055 29.52702935570105 18.94222059275521 20.58870821591488 64 16.31140855265877 30.05950636887534 0 3.23465589723347 2.300086832068098 2.453881172025749 10.89881889123019 0.5256538202332081 0 10.68967932160953 2.424866465244731 6.382219198235585 26:0.13736056 160:0.27472113 360:0.27472113 742:0.13736056 1539:0.13736056 1631:0.27472113 1674:0.13736056 1744:0.13736056 2062:0.13736056 2111:0.13736056 2120:0.41208169 2121:0.41208169 2586:0.13736056 3156:0.13736056 3208:0.13736056 3668:0.13736056 3741:0.41208169 4444:0.13736056 4445:0.13736056 4446:0.13736056 
10.47897677141061 0 0 3.167217946076437 0.6208989678832207 7.687131577532242 0 0 0.3062343942633614 9.462712490177015 1.568386297087939 0 0 0 1.415320093862908 0.9481665919810802 3.437127676639765 0 0 0 0 0 31:0.16222142 160:0.16222142 164:0.16222142 360:0.16222142 992:0.16222142 1629:0.16222142 1705:0.16222142 1708:0.16222142 1726:0.16222142 2000:0.16222142 2062:0.16222142 2071:0.48666426 2111:0.16222142 2114:0.16222142 2117:0.16222142 3096:0.16222142 3330:0.16222142 3390:0.32444284 3550:0.16222142 3567:0.16222142 3583:0.16222142 3588:0.16222142 3615:0.16222142 3670:0.16222142 3741:0.16222142 3743:0.16222142 3745:0.16222142 
64 0 6.524558183304306 20.68892967443226 35.778017004296 24.17203285089122 0 0 0 64 0.8458344471542121 0.653078169752771 0 0 0 4.044274105619156 0 0 20.64272898433026 0 0.1955197671079898 0 160:0.24433889 196:0.12216944 318:0.12216944 360:0.24433889 407:0.12216944 992:0.12216944 1056:0.12216944 1146:0.24433889 1206:0.12216944 1631:0.12216944 1633:0.12216944 1634:0.12216944 1887:0.12216944 2062:0.12216944 2070:0.12216944 2071:0.61084722 2117:0.12216944 2410:0.12216944 3164:0.12216944 3233:0.12216944 3419:0.12216944 3589:0.24433889 3606:0.12216944 4444:0.24433889 4445:0.24433889 
60.59649448939256 9.73307591622425 6.792521358909831 0 22.45351882635616 0 5.144928146145866 11.03539272065451 11.81810390279569 38.76273977299672 0 17.69154817653324 0 0 0 0 0 0.495955183373623 0 13.06561523578959 1.181715512553311 0 31:0.16222142 160:0.48666426 318:0.16222142 360:0.32444284 1031:0.16222142 1206:0.16222142 1303:0.32444284 1540:0.32444284 1580:0.16222142 1708:0.16222142 1728:0.16222142 1744:0.16222142 2117:0.32444284 3047:0.16222142 3070:0.16222142 3629:0.16222142 3792:0.16222142 3806:0.16222142 
0 0 0 0 4.116472303610265 0 0 0 0 0 0 0 0 0 0 0 0 0 0 0 0 2.313291619264525 31:0.46291005 160:0.3086067 232:0.15430335 318:0.15430335 360:0.3086067 417:0.15430335 418:0.15430335 728:0.15430335 982:0.15430335 1146:0.3086067 1610:0.15430335 1711:0.15430335 1712:0.15430335 1733:0.15430335 1744:0.15430335 2062:0.15430335 2071:0.15430335 2117:0.15430335 2171:0.15430335 2515:0.15430335 3070:0.15430335 3156:0.15430335 3208:0.15430335 3330:0.15430335 3768:0.15430335 
0 0 1.014371807495877 0 1.645696654116425 0 0 0 2.629338193961225 13.64968249514281 0 3.652713331666372 0 0 1.095934295970695 0 0 0 0 6.822729649036499 0 2.2923788406568 31:0.30151134 160:0.40201513 318:0.10050378 360:0.30151134 532:0.30151134 1020:0.10050378 1146:0.30151134 1147:0.10050378 1206:0.10050378 1711:0.10050378 1712:0.10050378 1733:0.10050378 1744:0.10050378 1877:0.10050378 1959:0.30151134 2014:0.10050378 2062:0.10050378 2202:0.10050378 2647:0.20100756 3070:0.10050378 3096:0.30151134 3156:0.10050378 3193:0.10050378 3208:0.10050378 3510:0.10050378 3775:0.20100756 3806:0.20100756 
13.58204001163544 0 6.845148675468948 1.193442804174732 0 0 1.978908724480067 0 5.474703775430948 3.015093975174145 0 0 0.2550605744994488 0 1.280043757457099 0 0 0 0 3.240868346230506 0 0.313068493879001 160:0.32444284 199:0.16222142 287:0.16222142 289:0.16222142 300:0.16222142 360:0.32444284 361:0.16222142 376:0.16222142 554:0.16222142 728:0.16222142 729:0.16222142 1007:0.16222142 1194:0.16222142 1554:0.16222142 1632:0.16222142 1669:0.16222142 1736:0.16222142 1744:0.16222142 1888:0.16222142 2062:0.16222142 2245:0.16222142 3057:0.16222142 3070:0.16222142 3107:0.16222142 3380:0.16222142 3387:0.16222142 3527:0.16222142 3595:0.16222142 3608:0.16222142 3614:0.16222142 3629:0.16222142 3664:0.16222142 
0 2.11133194405585 2.492233601677788 0.1287447029260287 0 0 2.433603016608856 0.6997087784404822 0 0 0 5.71422277913167 0 0 0 0 4.139604865953849 0.09596769710472029 0 3.641245714100133 2.638332391211151 0 160:0.32444284 199:0.16222142 287:0.16222142 289:0.16222142 300:0.16222142 360:0.32444284 361:0.16222142 376:0.16222142 554:0.16222142 728:0.16222142 729:0.16222142 1007:0.16222142 1194:0.16222142 1554:0.16222142 1632:0.16222142 1669:0.16222142 1736:0.16222142 1744:0.16222142 1888:0.16222142 2062:0.16222142 2187:0.16222142 2245:0.16222142 3070:0.16222142 3107:0.16222142 3380:0.16222142 3387:0.16222142 3595:0.16222142 3608:0.16222142 3614:0.16222142 3629:0.16222142 3664:0.16222142 3690:0.16222142 
0 0 0 0 10.11517751958485 0 4.97612182310576 9.19360310434068 0 0 0 9.163344840604603 0 5.529387420512338 0 0 0 0 0 0 0 0 160:0.32879797 199:0.16439899 289:0.16439899 300:0.16439899 360:0.32879797 361:0.16439899 376:0.16439899 521:0.16439899 554:0.16439899 729:0.16439899 1007:0.16439899 1194:0.16439899 1554:0.16439899 1575:0.16439899 1631:0.16439899 1632:0.16439899 1744:0.16439899 1888:0.16439899 2062:0.16439899 2117:0.32879797 2411:0.16439899 2572:0.16439899 2599:0.16439899 3070:0.16439899 3257:0.16439899 3604:0.16439899 3629:0.16439899 3809:0.16439899 
24.93130306677413 5.445781159210038 0 0.784606159089189 10.94727976630174 23.780830567931 0 1.24741174725966 0.3179933998983717 8.2309854396556 4.068968890981362 7.306912144062379 0 8.454485791537469 0 1.954815236809229 0 0 12.82995220539559 0 4.38042398915279 6.423409052850271 31:0.13483997 160:0.26967994 199:0.13483997 289:0.13483997 300:0.13483997 360:0.26967994 361:0.13483997 376:0.13483997 554:0.13483997 729:0.13483997 1007:0.13483997 1141:0.13483997 1194:0.13483997 1554:0.13483997 1632:0.13483997 1744:0.13483997 1888:0.13483997 2062:0.13483997 2117:0.53935989 2541:0.13483997 2596:0.13483997 2599:0.13483997 3070:0.13483997 3201:0.13483997 3227:0.13483997 3377:0.13483997 3378:0.13483997 3438:0.13483997 3629:0.13483997 3776:0.26967994 3805:0.13483997 
41.83005344098397 0 0 0 0 14.18450670158384 0 0 0 17.56553373382036 0 8.440182569224575 0 0 0 0 0 0 0 0 0 0.4804398185271409 160:0.32879797 199:0.16439899 289:0.16439899 300:0.16439899 360:0.32879797 361:0.16439899 376:0.16439899 554:0.16439899 728:0.16439899 729:0.16439899 1007:0.16439899 1194:0.16439899 1554:0.32879797 1632:0.16439899 1726:0.16439899 1744:0.16439899 1888:0.16439899 2062:0.16439899 2117:0.32879797 2618:0.16439899 3070:0.16439899 3359:0.16439899 3629:0.16439899 3741:0.16439899 3750:0.16439899 
54.80569364965501 0 0 0 4.197401761175244 25.3775227468617 5.615196983868397 0.9636347155164942 12.97053280177407 31.41239079665496 4.291514663628702 0.4195171256032355 0 0 2.597812036693149 0 0 0.5967851555361261 0 1.320613691040466 3.044981309023816 2.933068092648175 160:0.30151134 199:0.15075567 289:0.15075567 300:0.15075567 360:0.30151134 361:0.15075567 376:0.15075567 521:0.15075567 554:0.15075567 729:0.15075567 1007:0.15075567 1194:0.15075567 1526:0.15075567 1554:0.15075567 1575:0.15075567 1631:0.30151134 1632:0.30151134 1744:0.15075567 1888:0.30151134 2062:0.15075567 2117:0.15075567 2171:0.15075567 2187:0.15075567 3070:0.15075567 3257:0.15075567 3509:0.15075567 3604:0.15075567 3629:0.15075567 3690:0.15075567 
16.1551076099746 0 0 15.51406701157118 0 5.046998228762901 0 0 0 24.97629301527225 0 0 0 0 0 7.316138691391465 0 0 0 0 1.538177491897472 3.061407954714921 31:0.088045091 160:0.17609018 199:0.088045091 289:0.088045091 300:0.088045091 360:0.17609018 361:0.088045091 376:0.088045091 554:0.088045091 729:0.088045091 1007:0.088045091 1194:0.088045091 1554:0.088045091 1626:0.088045091 1631:0.17609018 1632:0.088045091 1633:0.26413527 1726:0.088045091 1744:0.088045091 1888:0.088045091 2007:0.17609018 2062:0.088045091 2117:0.35218036 2599:0.088045091 3070:0.088045091 3379:0.088045091 3402:0.088045091 3591:0.088045091 3601:0.088045091 3617:0.088045091 3629:0.088045091 3741:0.61631563 3776:0.088045091 3793:0.26413527 3804:0.17609018 
0 0 0 0 0 15.70760496815377 0 0 0 8.987931922554152 0 0 0 0 0 0 0 0 0 0 0 0 31:0.21952852 160:0.21952852 199:0.10976426 289:0.10976426 300:0.10976426 360:0.21952852 361:0.10976426 376:0.10976426 554:0.10976426 729:0.10976426 1007:0.10976426 1194:0.10976426 1418:0.10976426 1554:0.10976426 1632:0.10976426 1726:0.21952852 1744:0.10976426 1888:0.10976426 2007:0.10976426 2062:0.10976426 2071:0.10976426 2117:0.5488213 3070:0.10976426 3331:0.21952852 3370:0.21952852 3377:0.10976426 3509:0.21952852 3562:0.10976426 3629:0.10976426 3741:0.32929278 
5.869284313016981 0 0 0 0 0 0 0 0 0 0 0 4.155100275657039 0 2.191493409447948 0 0 0 0 0 0 0 160:0.28284271 199:0.14142136 289:0.14142136 300:0.14142136 360:0.28284271 361:0.14142136 376:0.14142136 554:0.14142136 729:0.14142136 1007:0.14142136 1194:0.14142136 1554:0.14142136 1631:0.14142136 1632:0.28284271 1708:0.14142136 1744:0.14142136 1888:0.28284271 2062:0.14142136 2071:0.28284271 2596:0.14142136 2614:0.14142136 3070:0.14142136 3099:0.14142136 3202:0.14142136 3239:0.14142136 3377:0.14142136 3379:0.14142136 3438:0.14142136 3587:0.14142136 3629:0.14142136 3663:0.14142136 3665:0.14142136 3802:0.14142136 3805:0.14142136 3809:0.14142136 
6.483787415703106 0 0 0 0 0 0 0 0 15.34180386326444 0 0 0 0 0 0 0 0 0 0 0 0 31:0.16222142 160:0.32444284 199:0.16222142 233:0.16222142 289:0.16222142 300:0.16222142 360:0.32444284 361:0.16222142 376:0.16222142 554:0.16222142 729:0.16222142 1007:0.16222142 1194:0.16222142 1554:0.16222142 1583:0.16222142 1631:0.16222142 1632:0.16222142 1744:0.16222142 1888:0.16222142 2062:0.16222142 2117:0.16222142 2411:0.16222142 2572:0.16222142 2596:0.16222142 3070:0.16222142 3257:0.16222142 3438:0.16222142 3590:0.16222142 3610:0.16222142 3629:0.16222142 3741:0.16222142 3805:0.16222142 
0 0 0 0 0 0 0 0 0 0 0 0 0 0 0 0 0 1.452351982392083 0 0 0 0 31:0.12216944 160:0.24433889 199:0.12216944 289:0.12216944 360:0.24433889 361:0.12216944 376:0.12216944 533:0.12216944 554:0.12216944 613:0.12216944 729:0.12216944 1007:0.12216944 1194:0.12216944 1540:0.12216944 1554:0.12216944 1624:0.12216944 1625:0.12216944 1631:0.12216944 1632:0.12216944 1633:0.12216944 1737:0.12216944 1744:0.12216944 1888:0.12216944 2051:0.12216944 2058:0.12216944 2059:0.12216944 2061:0.12216944 2062:0.12216944 2071:0.36650833 2112:0.12216944 2117:0.12216944 2541:0.12216944 2564:0.12216944 2571:0.12216944 2605:0.12216944 3070:0.12216944 3151:0.12216944 3158:0.12216944 3233:0.12216944 3378:0.12216944 3402:0.12216944 3605:0.12216944 3613:0.12216944 3629:0.12216944 3691:0.12216944 3741:0.24433889 3764:0.12216944 3772:0.12216944 4371:0.12216944 4536:0.12216944 
0.05071550791683969 0 0 0 0 0 0 0 0 0 0 0 0 0 0 0 0 0 0 0 0 0 31:0.12309149 160:0.24618298 199:0.12309149 289:0.12309149 295:0.24618298 300:0.12309149 360:0.24618298 361:0.12309149 376:0.12309149 423:0.12309149 554:0.12309149 729:0.12309149 1007:0.12309149 1194:0.12309149 1554:0.12309149 1624:0.12309149 1625:0.12309149 1632:0.12309149 1737:0.12309149 1744:0.12309149 1888:0.12309149 2061:0.12309149 2062:0.12309149 2071:0.49236596 2117:0.12309149 2171:0.12309149 2611:0.12309149 2612:0.12309149 2622:0.12309149 2625:0.12309149 3070:0.12309149 3099:0.12309149 3151:0.12309149 3201:0.12309149 3239:0.12309149 3605:0.12309149 3613:0.12309149 3629:0.12309149 3663:0.12309149 3691:0.12309149 3739:0.12309149 3775:0.12309149 
34.78017782225935 0 6.581365516781195 0.6657039090645256 0 0 1.328374249351091 3.190641078931713 0.7126221461184807 10.00948151113002 0 0.9553159572556107 0 0 0 0 1.527900794063155 0.9329144308710257 0 6.720089744067181 0 0 160:0.34815531 199:0.17407766 289:0.17407766 300:0.17407766 360:0.34815531 361:0.17407766 376:0.17407766 554:0.17407766 729:0.17407766 998:0.17407766 1007:0.17407766 1194:0.17407766 1554:0.17407766 1624:0.17407766 1625:0.17407766 1631:0.17407766 1632:0.17407766 1710:0.17407766 1744:0.17407766 1888:0.17407766 2062:0.17407766 2620:0.17407766 3070:0.17407766 3151:0.17407766 3305:0.17407766 3577:0.17407766 3629:0.17407766 
11.83191250672714 0 5.311328391719468 1.772958185341462 0 0 0 0 0 0 0 0 0 0 0.7161545669341307 0 0 0 0 2.77852384993477 0 0 160:0.29488391 199:0.14744196 289:0.14744196 360:0.29488391 361:0.14744196 376:0.14744196 533:0.14744196 554:0.14744196 729:0.14744196 1007:0.14744196 1194:0.14744196 1554:0.14744196 1624:0.14744196 1625:0.14744196 1632:0.14744196 1744:0.14744196 1888:0.14744196 2059:0.14744196 2062:0.14744196 2071:0.14744196 2073:0.14744196 2571:0.14744196 2615:0.14744196 2616:0.14744196 2624:0.14744196 3070:0.14744196 3099:0.14744196 3151:0.14744196 3257:0.14744196 3377:0.14744196 3385:0.14744196 3576:0.14744196 3594:0.14744196 3603:0.14744196 3629:0.14744196 3663:0.14744196 3741:0.14744196 3772:0.14744196 4371:0.14744196 4536:0.14744196 
5.560810646194223 8.994019404531761 0 11.85383174580817 13.21748579921224 18.24541317806759 8.211016594289401 10.86297781359395 8.639824937053072 26.79777095335177 10.07142725998003 19.00807210792118 0 9.36150131544084 0 4.696518461325691 3.766074664263827 0 13.04365964962436 3.130575622429275 6.876652064026585 12.00064941377167 160:0.24077171 199:0.12038585 289:0.12038585 360:0.24077171 361:0.12038585 376:0.12038585 533:0.12038585 554:0.12038585 729:0.12038585 998:0.12038585 1007:0.12038585 1194:0.12038585 1554:0.12038585 1632:0.12038585 1710:0.12038585 1744:0.12038585 1888:0.12038585 2000:0.12038585 2059:0.12038585 2062:0.12038585 2073:0.12038585 2117:0.48154341 2567:0.12038585 2571:0.12038585 2595:0.12038585 2600:0.12038585 2611:0.12038585 2618:0.12038585 2620:0.12038585 2622:0.12038585 2624:0.12038585 3070:0.12038585 3099:0.12038585 3151:0.12038585 3509:0.12038585 3562:0.12038585 3576:0.12038585 3594:0.12038585 3603:0.12038585 3606:0.12038585 3629:0.12038585 3642:0.12038585 3669:0.12038585 3690:0.12038585 3741:0.12038585 3772:0.12038585 4371:0.12038585 4536:0.12038585 
0 0 0 0 0 0 0 0 0 0 0 0 0 0 1.836293451358587 0 0 0 0 0 0 0 31:0.14744196 160:0.29488391 199:0.14744196 289:0.14744196 300:0.14744196 360:0.29488391 361:0.14744196 376:0.14744196 423:0.14744196 554:0.14744196 578:0.14744196 728:0.14744196 729:0.14744196 998:0.14744196 1007:0.14744196 1194:0.14744196 1554:0.14744196 1632:0.14744196 1710:0.14744196 1726:0.14744196 1744:0.14744196 1888:0.14744196 2062:0.14744196 2071:0.14744196 2117:0.14744196 2567:0.14744196 2595:0.14744196 2600:0.14744196 2612:0.14744196 2620:0.14744196 2625:0.14744196 3070:0.14744196 3151:0.14744196 3377:0.29488391 3629:0.14744196 3739:0.14744196 3775:0.14744196 
0 0.2812107692223703 0 0 0 0 0 0 0 3.752640991952832 0 1.260900095812783 0 0 0 0 0 0.04875668878418576 0 0 0.4111796018447043 3.476220653070262 31:0.125 160:0.25 199:0.125 289:0.125 300:0.125 360:0.25 361:0.125 376:0.125 554:0.125 613:0.125 729:0.125 1007:0.125 1194:0.125 1554:0.125 1632:0.125 1633:0.25 1744:0.125 1888:0.125 2051:0.125 2058:0.125 2061:0.125 2062:0.125 2071:0.125 2117:0.5 2564:0.125 2605:0.125 2615:0.125 2616:0.125 3070:0.125 3099:0.125 3151:0.125 3227:0.125 3233:0.125 3377:0.125 3385:0.125 3570:0.125 3579:0.125 3616:0.125 3629:0.125 3741:0.125 
3.262020520692372 0 0 7.329800881374758 0 0 0 0 0 9.766748926093293 0 0 0 0 2.133696541828056 2.445745518006619 2.5535056897135 0 0 1.913679887673736 0.5022511535463298 0 31:0.082760589 160:0.16552118 199:0.082760589 289:0.082760589 360:0.16552118 361:0.082760589 376:0.082760589 533:0.082760589 554:0.082760589 613:0.082760589 729:0.082760589 1007:0.082760589 1194:0.082760589 1554:0.082760589 1631:0.16552118 1632:0.082760589 1633:0.24828177 1726:0.082760589 1744:0.082760589 1888:0.082760589 2007:0.16552118 2051:0.082760589 2058:0.082760589 2059:0.082760589 2062:0.082760589 2117:0.33104236 2564:0.082760589 2567:0.082760589 2571:0.082760589 2595:0.082760589 2598:0.082760589 2600:0.082760589 2605:0.082760589 2615:0.082760589 2616:0.082760589 3070:0.082760589 3151:0.082760589 3233:0.082760589 3379:0.082760589 3385:0.082760589 3402:0.082760589 3591:0.082760589 3601:0.082760589 3617:0.082760589 3629:0.082760589 3741:0.57932412 3772:0.082760589 3776:0.082760589 3793:0.24828177 3804:0.16552118 4371:0.082760589 4536:0.082760589 
0 0 0 0 0 8.523295127325282 0 0 0 5.331787184460207 0 0 0 0 0 0 0 0 0 0 0 2.179707961193848 31:0.12309149 160:0.24618298 199:0.12309149 289:0.12309149 300:0.12309149 360:0.24618298 361:0.12309149 376:0.12309149 554:0.12309149 729:0.12309149 1007:0.12309149 1194:0.12309149 1554:0.12309149 1624:0.12309149 1625:0.12309149 1632:0.12309149 1633:0.24618298 1744:0.12309149 1888:0.12309149 2061:0.12309149 2062:0.12309149 2071:0.12309149 2117:0.49236596 2598:0.12309149 2612:0.12309149 2625:0.12309149 3070:0.12309149 3099:0.12309149 3151:0.12309149 3227:0.12309149 3257:0.12309149 3377:0.12309149 3570:0.12309149 3579:0.12309149 3616:0.12309149 3629:0.12309149 3739:0.12309149 3741:0.24618298 3775:0.12309149 
19.24604227812522 0.7878984961858769 8.967149528870138 3.578400412613188 4.363530892768588 1.643121477006292 0.6444045395063923 0 2.620376481547392 0.8196347995595457 0 6.193824920574207 0 0 1.015164562936572 0 0 0 0 3.058887038283578 0 0.5927432601648498 160:0.31234752 199:0.15617376 289:0.15617376 300:0.15617376 360:0.31234752 361:0.15617376 376:0.15617376 520:0.15617376 554:0.15617376 581:0.15617376 729:0.15617376 1007:0.15617376 1194:0.15617376 1296:0.15617376 1554:0.15617376 1561:0.15617376 1632:0.15617376 1726:0.15617376 1744:0.15617376 1888:0.15617376 2062:0.15617376 2073:0.15617376 2117:0.15617376 2176:0.15617376 2611:0.15617376 2622:0.15617376 2624:0.15617376 3070:0.15617376 3151:0.15617376 3331:0.15617376 3382:0.15617376 3523:0.15617376 3629:0.15617376 3670:0.15617376 3769:0.15617376 
5.333305362299361 0 0 0 0 0 0 0 0 0 0 0 0 0 0 0 0 0 0 0 0 0 31:0.13483997 160:0.26967994 199:0.13483997 289:0.13483997 300:0.13483997 360:0.26967994 361:0.13483997 376:0.13483997 554:0.13483997 633:0.13483997 729:0.13483997 1007:0.13483997 1194:0.13483997 1554:0.13483997 1631:0.13483997 1632:0.26967994 1744:0.13483997 1888:0.26967994 2000:0.13483997 2051:0.13483997 2058:0.13483997 2062:0.13483997 2071:0.13483997 2117:0.13483997 2504:0.13483997 2564:0.13483997 2598:0.13483997 3070:0.13483997 3099:0.26967994 3151:0.13483997 3229:0.13483997 3233:0.13483997 3239:0.13483997 3378:0.13483997 3509:0.13483997 3629:0.13483997 3690:0.13483997 3764:0.13483997 3809:0.13483997 4399:0.13483997 
64 0 0 0 0 0 0 0 0 64 0 0 0 0 0 0 0 0 0 0 0 0 160:0.63372425 360:0.63372425 779:0.063372425 965:0.063372425 1575:0.063372425 1631:0.12674485 1744:0.12674485 2048:0.063372425 2062:0.12674485 2117:0.063372425 2239:0.063372425 2411:0.12674485 2502:0.12674485 2572:0.12674485 2610:0.063372425 2613:0.063372425 3241:0.063372425 3389:0.063372425 3391:0.063372425 3507:0.12674485 3510:0.063372425 3664:0.12674485 3807:0.063372425 4537:0.12674485 
64 6.505078020829113 4.381264947013333 33.87999095418298 0 0 0.4489330519699413 0 4.292210427345029 40.39765639232789 0 0 0 0 0 0 5.025442663735877 0 18.22810370935482 59.20489138157875 0 0 160:0.6401844 360:0.6401844 779:0.06401844 965:0.06401844 1575:0.06401844 1744:0.12803688 2048:0.06401844 2062:0.12803688 2239:0.06401844 2411:0.12803688 2502:0.12803688 2572:0.12803688 2610:0.06401844 2613:0.06401844 3241:0.06401844 3389:0.06401844 3391:0.06401844 3507:0.12803688 3510:0.06401844 3664:0.12803688 3807:0.06401844 4537:0.12803688 
14.54820143123504 0.8967177022794561 7.466364249937296 4.185258151920904 4.243733552998727 10.14413292854537 2.481214190420063 3.967622380579826 2.28598070107918 21.57184321996541 0 10.57438496153717 0.03037248450039482 0 2.409880420618272 0 3.780069321099839 3.398712152450634 2.695519120974077 0 0 0 31:0.10369517 119:0.20739034 160:0.31108551 360:0.20739034 742:0.10369517 965:0.10369517 981:0.31108551 1146:0.20739034 1152:0.10369517 1303:0.20739034 1540:0.10369517 1631:0.20739034 1711:0.10369517 1712:0.10369517 1728:0.10369517 1733:0.10369517 2062:0.10369517 2071:0.10369517 2117:0.10369517 2124:0.31108551 2128:0.20739034 2155:0.10369517 2572:0.10369517 3156:0.20739034 3193:0.10369517 3208:0.20739034 3369:0.10369517 3507:0.31108551 3741:0.31108551 
64 0 0 0 58.42396453841302 16.34913893541247 0 18.55750839604165 0 64 0.568615964722645 61.10314209425136 0 0.8151577394624315 0 0 0 0 0 0 5.801842681238983 0 160:0.63372425 360:0.63372425 779:0.063372425 965:0.063372425 1575:0.063372425 1631:0.12674485 1744:0.12674485 2048:0.063372425 2062:0.12674485 2117:0.063372425 2239:0.063372425 2411:0.12674485 2502:0.12674485 2572:0.12674485 2610:0.063372425 2613:0.063372425 3241:0.063372425 3389:0.063372425 3391:0.063372425 3507:0.12674485 3510:0.063372425 3664:0.12674485 3807:0.063372425 4537:0.12674485 
0 0.02479918516393672 0 0 0 0 0.03237518155825012 0.009898392950832365 0.0554335669026035 50.87195143502785 0 0 0 0 0 0 0 0 0.008439610730558215 0.01432133162516997 0 0 31:0.11704115 160:0.35112344 183:0.23408229 360:0.11704115 992:0.11704115 1050:0.11704115 1152:0.11704115 1206:0.11704115 1295:0.11704115 1303:0.35112344 1419:0.11704115 1540:0.23408229 1631:0.35112344 1728:0.11704115 1733:0.11704115 2111:0.11704115 2114:0.11704115 2117:0.35112344 2172:0.11704115 2197:0.11704115 2200:0.11704115 3060:0.11704115 3154:0.11704115 3175:0.23408229 3178:0.11704115 3229:0.11704115 3664:0.11704115 3744:0.23408229 4391:0.11704115 
44.95374571082899 12.11200219208303 11.85073325950332 0 29.26593733787434 16.28926488223565 20.11881575361367 18.45712103577737 28.781270874534 63.9690927335045 7.5910939539952 49.9140173213012 0.3338045719616855 11.11363470902123 4.150027999788676 4.097005637764387 4.526780083925869 2.994579690638351 27.74294738724789 12.72440762430088 6.426122485909276 12.22447883609857 31:0.11704115 160:0.35112344 183:0.23408229 360:0.11704115 992:0.11704115 1050:0.11704115 1152:0.11704115 1206:0.11704115 1295:0.11704115 1303:0.35112344 1419:0.11704115 1540:0.23408229 1631:0.35112344 1728:0.11704115 1733:0.11704115 2111:0.11704115 2114:0.11704115 2117:0.35112344 2172:0.11704115 2197:0.11704115 2200:0.11704115 3060:0.11704115 3154:0.11704115 3175:0.23408229 3178:0.11704115 3229:0.11704115 3664:0.11704115 3744:0.23408229 4391:0.11704115 
14.96838863089089 0 0 0 0 4.530325632538959 0 0 0 2.359337026282705 0 0 0 0 0 0 0 0 0 0 0 1.085758835430981 160:0.3086067 199:0.15430335 289:0.15430335 300:0.15430335 360:0.3086067 361:0.15430335 376:0.15430335 554:0.15430335 728:0.15430335 729:0.15430335 1007:0.15430335 1194:0.15430335 1631:0.15430335 1632:0.15430335 1708:0.15430335 1726:0.15430335 1744:0.15430335 1888:0.15430335 2062:0.15430335 2071:0.15430335 2117:0.15430335 2604:0.3086067 3070:0.15430335 3582:0.15430335 3584:0.15430335 3596:0.15430335 3600:0.15430335 3609:0.15430335 3619:0.15430335 3629:0.15430335 3665:0.15430335 3691:0.15430335 4372:0.15430335 
0 1.516827361181554 0 1.360326279475604 0 0 1.38536162533335 1.688143674539614 5.30752087760844 7.353015713028699 0 3.890345363594868 0.7359763531552593 5.34765824244276 0 0.4658428380866251 1.435067864906868 4.430542445402055 10.18734583784588 0 4.626571462882714 0 9:0.096225045 31:0.19245009 119:0.19245009 160:0.28867513 169:0.096225045 360:0.19245009 965:0.096225045 1146:0.096225045 1149:0.096225045 1152:0.096225045 1194:0.096225045 1303:0.096225045 1540:0.096225045 1573:0.096225045 1618:0.28867513 1626:0.096225045 1728:0.096225045 1744:0.096225045 1885:0.096225045 1904:0.096225045 2117:0.38490018 2155:0.096225045 2199:0.28867513 2502:0.096225045 3096:0.096225045 3156:0.096225045 3193:0.19245009 3208:0.096225045 3308:0.096225045 3369:0.096225045 3618:0.096225045 3806:0.48112522 4532:0.096225045 
64 4.919633172621921 3.411403860830459 8.84633637697627 22.87379052100673 19.18120994978435 7.106379558954353 4.133955470037495 6.802679961659844 11.61197550555745 13.24841398526075 5.9003002919341 0.03855589044841123 5.729984383250985 0 4.781695155694608 0.7036759191486856 0 22.26414907209871 0 5.981959723202962 8.781465933100705 160:0.38851434 232:0.19425717 360:0.38851434 965:0.097128586 1146:0.38851434 1303:0.097128586 1540:0.097128586 1555:0.19425717 1586:0.097128586 1631:0.097128586 1663:0.19425717 1681:0.097128586 1728:0.19425717 2117:0.19425717 2411:0.097128586 2502:0.097128586 2572:0.097128586 3160:0.19425717 3178:0.19425717 3369:0.19425717 3421:0.097128586 3561:0.097128586 3691:0.19425717 3744:0.19425717 3793:0.097128586 4534:0.097128586 4537:0.19425717 4541:0.097128586 
0 0 0 0 0.2629027700891696 0 0.1105442716765551 0 0.04139863564043134 0 0 0 0 0 0 0 0 0 0 0.01252009240083619 0 0 160:0.37139068 360:0.18569534 635:0.18569534 965:0.18569534 1147:0.18569534 1152:0.18569534 1303:0.37139068 1540:0.18569534 1542:0.18569534 1631:0.18569534 1663:0.18569534 1709:0.18569534 2117:0.18569534 2192:0.18569534 2194:0.18569534 3241:0.18569534 3330:0.37139068 3380:0.18569534 3384:0.18569534 3742:0.18569534 
57.0394114488827 4.259800876331808 12.79294405172162 17.88612419809659 11.07714149353876 19.07785940110427 13.01020437673646 7.234697502533442 14.89043296647737 58.98204468839418 4.313298272644549 14.61891806544456 0 3.147456308073797 0 0 0 1.415307133880895 1.090354522787704 26.17509162206262 12.95488756592699 0 160:0.37139068 360:0.18569534 635:0.18569534 965:0.18569534 1147:0.18569534 1152:0.18569534 1303:0.37139068 1540:0.18569534 1542:0.18569534 1631:0.18569534 1663:0.18569534 1709:0.18569534 2117:0.18569534 2192:0.18569534 2194:0.18569534 3241:0.18569534 3330:0.37139068 3380:0.18569534 3384:0.18569534 3742:0.18569534 
7.785629450204313 7.707623735288454 10.9101031741836 15.1407618748979 14.64664747364069 9.254591044672285 0.361530167979493 5.34597909455001 3.57015144467733 19.20035212098815 3.509173788013298 4.626907254097494 1.519580349325001 7.672283841653854 2.095857739972792 1.894267568854964 3.606505275136329 0.6868802002563481 20.29958386953382 0 2.430507426576322 3.311978851559028 160:0.33333333 360:0.16666667 635:0.16666667 965:0.16666667 1147:0.16666667 1152:0.16666667 1303:0.33333333 1540:0.16666667 1542:0.16666667 1631:0.16666667 1663:0.16666667 1667:0.16666667 1709:0.16666667 2010:0.16666667 2111:0.16666667 2117:0.16666667 2176:0.16666667 2192:0.16666667 2194:0.16666667 3058:0.16666667 3080:0.16666667 3241:0.16666667 3330:0.33333333 3380:0.16666667 3382:0.16666667 3384:0.16666667 3742:0.16666667 
25.15677654673111 0 0 51.31717946401086 16.90698317205368 19.72778883315027 1.545990284885671 1.546573704618153 1.456974958121126 46.63067511843998 0 0 0 4.005744735547849 0.9928802026855841 0 2.795367922270039 0 21.43128372074763 8.703285763075511 3.270154613424017 12.54661847872463 22:0.13608276 31:0.13608276 106:0.13608276 107:0.13608276 160:0.40824829 318:0.13608276 360:0.40824829 742:0.13608276 965:0.27216553 1146:0.27216553 1547:0.13608276 1556:0.40824829 1711:0.13608276 1712:0.13608276 1733:0.13608276 2120:0.13608276 2121:0.13608276 2160:0.13608276 2165:0.13608276 3175:0.13608276 3497:0.13608276 3561:0.13608276 3665:0.13608276 3671:0.13608276 
64 0 0 5.401056867082799 0 0 0 0 0 30.69606201864526 0 0 0 1.926085745609832 0 0 0 0 13.68433983780311 0 0 0 160:0.48795004 318:0.097590007 360:0.48795004 965:0.19518001 1146:0.29277002 1303:0.097590007 1540:0.097590007 1728:0.29277002 2117:0.097590007 2411:0.19518001 2502:0.097590007 2572:0.097590007 3055:0.097590007 3160:0.29277002 3369:0.19518001 3741:0.097590007 3744:0.19518001 4537:0.19518001 
5.925962201822078 2.602216289635158 0 10.63719962044997 0 7.334326378988071 0.8062139290716487 0 3.166108447148662 13.79735906457109 0 0 0 0 0.39560392382696 0 0 1.980105612463453 6.272864183893154 1.847501201011629 2.775525644410304 0 24:0.1490712 31:0.2981424 160:0.4472136 360:0.1490712 519:0.1490712 604:0.1490712 965:0.2981424 1017:0.1490712 1303:0.1490712 1632:0.1490712 1726:0.1490712 1888:0.1490712 2075:0.1490712 2114:0.1490712 2509:0.1490712 3100:0.1490712 3362:0.1490712 3387:0.1490712 3618:0.2981424 3664:0.1490712 3698:0.1490712 3768:0.2981424 4391:0.1490712 4535:0.1490712 4542:0.1490712 
-0 0 0 0 0 0 0 0 0 47.49942164600809 0 0 0 0 0 0 0 0 0 0 0 0 160:0.64051262 360:0.48038446 992:0.16012815 1147:0.16012815 1194:0.16012815 1575:0.16012815 1631:0.16012815 1744:0.16012815 2062:0.16012815 2117:0.16012815 3175:0.16012815 3370:0.32025631 4537:0.16012815 
-0 0 0 0 0 0 0 0 0 64 0 0 0 0 0 0 0 0 0 0 0 0 160:0.64051262 360:0.48038446 992:0.16012815 1147:0.16012815 1194:0.16012815 1575:0.16012815 1631:0.16012815 1744:0.16012815 2062:0.16012815 2117:0.16012815 3175:0.16012815 3370:0.32025631 4537:0.16012815 
-36.96101187275285 0 7.544731510935195 0.6220404988854724 40.269711565605 13.88931470964753 0 0.7106677981211957 0 64 0 14.93459638285646 0 0 0 0 0 0 8.860316186116537 0.4361263039591561 0 0 160:0.64051262 360:0.48038446 992:0.16012815 1147:0.16012815 1194:0.16012815 1575:0.16012815 1631:0.16012815 1744:0.16012815 2062:0.16012815 2117:0.16012815 3175:0.16012815 3370:0.32025631 4537:0.16012815 
-0 0 0 0 15.25526621697828 36.40221567234969 0 13.19387148219879 0 64 0 32.10990526177277 0 18.25807093706743 0 0 0 0 0 0 0 0 109:0.12909944 160:0.25819889 360:0.25819889 550:0.12909944 1206:0.12909944 1289:0.12909944 1296:0.12909944 1303:0.12909944 1540:0.12909944 1583:0.12909944 1631:0.25819889 1632:0.12909944 1703:0.12909944 1711:0.12909944 1712:0.12909944 1733:0.12909944 1738:0.12909944 2117:0.64549722 2120:0.12909944 2121:0.12909944 3119:0.12909944 3294:0.12909944 3665:0.12909944 3690:0.12909944 3698:0.12909944 3715:0.12909944 3741:0.12909944 
-0 0 0 0 8.745288052406625 0 0 0 0 0 0 0 0 0 0 0 0 0 0 0 0 0 160:0.30151134 360:0.30151134 720:0.15075567 1193:0.15075567 1206:0.15075567 1289:0.15075567 1296:0.15075567 1303:0.15075567 1540:0.15075567 1583:0.45226702 1632:0.15075567 1711:0.15075567 1712:0.15075567 1733:0.15075567 1939:0.15075567 2062:0.15075567 2087:0.15075567 2120:0.15075567 2121:0.15075567 2176:0.15075567 2572:0.15075567 2586:0.15075567 3066:0.15075567 3331:0.15075567 3665:0.15075567 3671:0.15075567 3741:0.30151134 
-0 0 0 0 0.8174137884364697 0 0 0 0 45.07962246145308 0 0 0 0 0 0 0 0 0 0 0 0 160:0.24618298 360:0.24618298 719:0.12309149 1206:0.12309149 1289:0.12309149 1296:0.12309149 1303:0.12309149 1540:0.12309149 1583:0.12309149 1631:0.24618298 1632:0.12309149 1711:0.12309149 1712:0.12309149 1733:0.12309149 1973:0.12309149 2062:0.12309149 2063:0.12309149 2091:0.12309149 2117:0.49236596 2120:0.12309149 2121:0.12309149 2572:0.12309149 2586:0.12309149 3667:0.12309149 3735:0.12309149 3741:0.36927447 3793:0.24618298 4401:0.12309149 4438:0.12309149 4444:0.12309149 4445:0.12309149 
-0 1.397988623184009 0 0 0 0 0 0 0 0 3.521356737607905 9.759610087388074 0 0 0 0 0 0.2052726748893475 0 0 0 0 8:0.13245324 160:0.26490647 360:0.26490647 579:0.13245324 998:0.13245324 1146:0.13245324 1303:0.26490647 1540:0.26490647 1573:0.13245324 1602:0.13245324 1631:0.13245324 2062:0.26490647 2117:0.39735971 2198:0.13245324 2543:0.13245324 2586:0.13245324 3063:0.13245324 3087:0.39735971 3370:0.13245324 3474:0.13245324 3743:0.26490647 4536:0.13245324 4539:0.13245324 
-0 0 7.530449918024743 0 33.76898666595379 0 23.93890267268245 0 32.9379320375383 21.3707314543658 0 64 5.474530991972405 0 11.69244926587983 0 0.3361521163899694 0.0789421546521546 0 9.725508792306632 0 0 160:0.26261287 360:0.26261287 611:0.13130643 633:0.13130643 1206:0.26261287 1289:0.13130643 1296:0.13130643 1303:0.3939193 1540:0.3939193 1552:0.13130643 1583:0.13130643 1630:0.13130643 1632:0.13130643 1711:0.26261287 1712:0.26261287 1733:0.26261287 1743:0.26261287 1744:0.13130643 2120:0.13130643 2121:0.13130643 2586:0.13130643 
-23.96864808816594 0 0 0 0 0 0 0 0 0 0 0 0 0 0 0 0 0 0 0 0 0 160:0.49319696 360:0.49319696 1206:0.16439899 1303:0.16439899 1540:0.16439899 1711:0.16439899 1712:0.16439899 1733:0.16439899 2062:0.32879797 2572:0.32879797 2586:0.16439899 3156:0.16439899 3208:0.16439899 3359:0.16439899 3741:0.16439899 
-17.97168910353149 0 0 1.081020840525316 0 0 0 0.2937710154515099 0 47.12463811257676 5.802921844019489 0 0 0 0 0 0 0 0 0 0 3.122258274586597 160:0.375 360:0.375 407:0.125 633:0.125 729:0.125 992:0.125 1050:0.25 1159:0.125 1206:0.125 1526:0.125 1626:0.125 1631:0.125 1711:0.125 1712:0.125 1733:0.125 2062:0.25 2111:0.125 2117:0.375 2572:0.25 3156:0.125 3208:0.125 3294:0.125 3310:0.125 3629:0.125 3631:0.125 3741:0.25 3798:0.125 4372:0.125 
-0 0 0 0 0 0 0 0 0 14.98475373933742 0 0 0 0 0 0 0 0 0 0 0 0 160:0.26261287 232:0.13130643 360:0.26261287 634:0.13130643 1145:0.13130643 1206:0.13130643 1289:0.13130643 1296:0.13130643 1303:0.26261287 1540:0.26261287 1583:0.26261287 1632:0.13130643 1711:0.13130643 1712:0.13130643 1733:0.13130643 2117:0.3939193 2120:0.13130643 2121:0.13130643 2176:0.13130643 2572:0.13130643 3201:0.13130643 3406:0.13130643 3535:0.13130643 3690:0.13130643 3741:0.3939193 3793:0.13130643 4372:0.13130643 
-3.298242827575423 3.042772906299967 17.77573926802864 0 44.75454288002374 14.22906472365055 1.102057373159557 0 0 29.79237996193886 3.579485273181337 0 4.288461484426704 5.680072936604159 0 0 0 0 0 0 0 0 160:0.20851441 194:0.10425721 318:0.10425721 360:0.10425721 581:0.10425721 781:0.10425721 992:0.10425721 1146:0.31277162 1206:0.10425721 1303:0.10425721 1540:0.10425721 1549:0.10425721 1573:0.10425721 1583:0.10425721 1588:0.10425721 1595:0.10425721 1631:0.20851441 1665:0.10425721 1711:0.10425721 1712:0.10425721 1733:0.10425721 1877:0.10425721 2062:0.20851441 2117:0.62554324 2119:0.10425721 2572:0.10425721 2591:0.10425721 3063:0.10425721 3298:0.10425721 3476:0.10425721 3629:0.20851441 3746:0.10425721 3766:0.20851441 3767:0.10425721 
-0.8418512774341281 0 0.07077985887714898 0 31.69874190360409 6.105934179926931 0 0 0 22.27130843741972 0 0 0 0 0 0 0 0 0 0 0 0 160:0.20965697 333:0.10482848 360:0.10482848 1194:0.10482848 1206:0.10482848 1289:0.10482848 1296:0.10482848 1303:0.10482848 1540:0.10482848 1583:0.20965697 1632:0.10482848 1711:0.10482848 1712:0.10482848 1733:0.10482848 1744:0.10482848 1877:0.10482848 2063:0.10482848 2071:0.31448545 2083:0.10482848 2087:0.10482848 2117:0.52414242 2120:0.10482848 2121:0.10482848 3124:0.10482848 3311:0.31448545 3741:0.41931393 3747:0.10482848 3793:0.10482848 4372:0.10482848 4528:0.10482848 
-0 5.491990797257958 0 0 1.420486273880135 0 5.531003020044182 11.63959636692049 11.20752134723601 40.26013679279993 0 0 4.331872282544238 0 3.220787347273804 0 0.5098323627011763 0 0 7.922709449557497 18.11272710893888 0 2:0.1118034 10:0.1118034 160:0.3354102 165:0.1118034 360:0.3354102 646:0.1118034 1146:0.1118034 1206:0.2236068 1289:0.1118034 1296:0.1118034 1303:0.2236068 1526:0.1118034 1540:0.2236068 1583:0.1118034 1632:0.3354102 1702:0.1118034 1707:0.1118034 1711:0.1118034 1712:0.1118034 1733:0.1118034 1743:0.2236068 1879:0.1118034 1888:0.2236068 1894:0.1118034 1984:0.1118034 1988:0.1118034 2062:0.1118034 2063:0.1118034 2117:0.1118034 2120:0.1118034 2121:0.1118034 2123:0.1118034 2192:0.1118034 2502:0.1118034 2572:0.1118034 2586:0.1118034 3675:0.2236068 4531:0.1118034 
-24.38243074110479 8.929212437298272 0 0 61.72659882592649 64 17.53547603699497 8.663032629188447 0 64 16.42360783932319 24.72900269872773 0 6.712268509963471 0 15.91252699822952 5.682766800924927 0 32.17540944747612 8.492861549564708 7.426065856229105 13.23700273599703 24:0.08247861 160:0.08247861 172:0.08247861 183:0.08247861 360:0.08247861 1008:0.08247861 1583:0.08247861 1631:0.24743583 2062:0.16495722 2117:0.8247861 2239:0.08247861 3037:0.08247861 3062:0.08247861 3154:0.16495722 3232:0.08247861 3378:0.08247861 3438:0.08247861 3500:0.08247861 3620:0.08247861 3690:0.08247861 3741:0.24743583 3791:0.08247861 4444:0.08247861 4445:0.08247861 4446:0.08247861 4449:0.08247861 
-0 0 7.05454915887604 10.49685129681715 0 0 0 0 0 0 1.657590659188034 0 0 0 0 0 0 0 1.240249657604851 0 0 0 160:0.33333333 233:0.33333333 360:0.33333333 2062:0.33333333 3438:0.33333333 3548:0.33333333 3741:0.33333333 3744:0.33333333 3793:0.33333333 
-21.831574623448 0 0 13.72192279257018 0 34.52109445265041 16.72039494471904 16.03731046149877 0 64 1.08442514005118 18.99978753655202 0 16.92295696060351 0 2.112374642448235 7.058164140966776 0 6.613201137764821 0 0 4.222305284586306 26:0.23904572 34:0.11952286 109:0.11952286 160:0.23904572 180:0.11952286 360:0.23904572 633:0.11952286 1004:0.11952286 1050:0.11952286 1303:0.11952286 1520:0.11952286 1631:0.47809144 1706:0.11952286 1707:0.11952286 2062:0.11952286 2111:0.11952286 2117:0.35856858 2502:0.11952286 2504:0.11952286 2572:0.11952286 3342:0.11952286 3376:0.11952286 3381:0.11952286 3661:0.11952286 3665:0.23904572 3741:0.35856858 4374:0.11952286 
-0 0 22.33579345743427 0 0 0 0.8505063272994199 0 0 36.93633180886993 0 0 2.3355775014491 0 0 0 0 0 0 0 0 0 160:0.30779351 360:0.30779351 613:0.10259784 965:0.10259784 1146:0.51298918 1158:0.10259784 1289:0.10259784 1296:0.10259784 1303:0.30779351 1540:0.30779351 1583:0.10259784 1632:0.10259784 1711:0.10259784 1712:0.10259784 1733:0.10259784 1877:0.20519567 2062:0.20519567 2117:0.10259784 2120:0.10259784 2121:0.10259784 2199:0.10259784 2568:0.10259784 2572:0.20519567 3376:0.20519567 3548:0.10259784 3744:0.10259784 3819:0.10259784 
-0 0 0 0 0 6.080258943186705 2.621434108518026 0 14.32037024461572 26.38001170743625 0 24.61292883941749 0.7227257113173582 0 5.563522681672426 0 4.732613285029705 0 0 4.420566994263852 1.078962490002577 1.032042592431838 160:0.25607376 360:0.25607376 644:0.25607376 1146:0.25607376 1206:0.12803688 1289:0.12803688 1296:0.12803688 1303:0.12803688 1540:0.12803688 1583:0.25607376 1588:0.12803688 1632:0.12803688 1711:0.12803688 1712:0.12803688 1733:0.12803688 1743:0.25607376 1744:0.12803688 1986:0.12803688 2011:0.12803688 2117:0.25607376 2120:0.12803688 2121:0.12803688 2413:0.12803688 2503:0.12803688 2583:0.12803688 3178:0.12803688 3294:0.25607376 3298:0.12803688 3307:0.25607376 3741:0.25607376 3750:0.12803688 
-0 0 0 0 20.26464916622975 0 0 1.772059073952212 0 1.406585621072563 0 30.18809250873144 0 0 0 0 0 0 0 0 1.850167980459704 0 108:0.19245009 160:0.38490018 360:0.38490018 729:0.19245009 971:0.19245009 1303:0.19245009 1540:0.19245009 1631:0.19245009 1632:0.19245009 1711:0.19245009 1712:0.19245009 1733:0.19245009 2062:0.19245009 2117:0.19245009 2572:0.19245009 3178:0.19245009 3690:0.19245009 3738:0.19245009 4444:0.19245009 4445:0.19245009 4537:0.19245009 
-8.081822190007507 0 0 0 0 0 0 0 0 0 11.44610249652453 0.6472883055305087 0 0 0 0 0 0 0 0 0 0 160:0.34815531 360:0.34815531 729:0.17407766 1526:0.17407766 1557:0.17407766 1583:0.17407766 1631:0.52223297 1713:0.17407766 2062:0.17407766 2071:0.17407766 2117:0.34815531 2508:0.17407766 2572:0.17407766 3294:0.17407766 3775:0.17407766 4537:0.17407766 
-0 19.11488059283067 0 0 29.70981275374987 0 5.161782832045806 0 0 0 0 19.84788436070844 0 0 0 0 0 0 0 0 0 0 160:0.23570226 360:0.23570226 1289:0.23570226 1296:0.23570226 1303:0.23570226 1540:0.23570226 1583:0.23570226 1632:0.23570226 1711:0.23570226 1712:0.23570226 1733:0.23570226 1995:0.23570226 2062:0.23570226 2120:0.23570226 2121:0.23570226 2249:0.23570226 2572:0.23570226 3300:0.23570226 
-0 0 0 0 58.59771871243383 0 0 6.363800304733237 0 44.86797531674262 0 0 0 0 0 0 0 0 5.296691144781061 0 0 0 160:0.22941573 360:0.6882472 1146:0.22941573 1303:0.22941573 1540:0.22941573 1711:0.22941573 1712:0.22941573 1733:0.22941573 2062:0.22941573 2572:0.22941573 3690:0.22941573 
-8.379965116010377 0 0 0 0 0 0 0 0 30.73834152469365 0 0 0 0 0 0 0 0 0 0 0 0 160:0.4868645 187:0.060858062 238:0.060858062 360:0.24343225 965:0.060858062 1035:0.060858062 1303:0.54772256 1526:0.060858062 1540:0.24343225 1631:0.18257419 1887:0.060858062 2062:0.060858062 2117:0.36514837 2196:0.060858062 2220:0.060858062 2502:0.060858062 2572:0.18257419 2587:0.12171612 3156:0.060858062 3208:0.060858062 3294:0.060858062 3664:0.18257419 3741:0.18257419 3776:0.060858062 3793:0.060858062 4371:0.060858062 4517:0.060858062 
-18.03019600838702 0 11.85340331094523 27.90000039541183 30.05506361180689 25.99609667392226 0.7600235250085149 10.3997999218827 14.22728485758655 64 0 24.12210385673298 0 0 0 0 3.122519193633389 0 7.538258653260816 4.509997179163795 3.440007368270746 0 160:0.17149859 233:0.17149859 235:0.17149859 360:0.34299717 994:0.17149859 1303:0.17149859 1540:0.17149859 1632:0.17149859 1711:0.17149859 1712:0.17149859 1733:0.17149859 2017:0.17149859 2062:0.17149859 2111:0.17149859 2117:0.34299717 2120:0.17149859 2121:0.17149859 2572:0.17149859 3068:0.17149859 3156:0.17149859 3208:0.17149859 3294:0.17149859 3738:0.17149859 3741:0.34299717 3797:0.17149859 
-0 0 0 0 26.284293919278 0 0 0 0 0 0 0 0 0 0 0 0 0 0 0 0 0 160:0.5 360:0.66666667 1206:0.083333333 1289:0.083333333 1296:0.083333333 1303:0.083333333 1417:0.083333333 1540:0.083333333 1583:0.083333333 1632:0.083333333 1711:0.083333333 1712:0.083333333 1733:0.083333333 1744:0.16666667 2062:0.25 2117:0.25 2120:0.083333333 2121:0.083333333 2249:0.16666667 2411:0.083333333 3151:0.083333333 3629:0.083333333 3744:0.083333333 4537:0.083333333 
-57.49036285569692 0 14.93181975516941 0 32.85062989365594 0 5.320073948804811 8.51634851357796 14.95327543029299 64 0 17.12106506806078 0 4.058351419073481 0 0 3.634314445416781 2.466187282740818 8.084794942118666 3.790117197180613 0.1924290983151305 0 160:0.56254395 360:0.56254395 530:0.11250879 637:0.11250879 729:0.11250879 1194:0.11250879 1727:0.11250879 1744:0.45003516 1894:0.11250879 2004:0.11250879 2062:0.11250879 2155:0.11250879 2586:0.11250879 3256:0.11250879 4444:0.11250879 4445:0.11250879 
-15.30196714684347 5.790884525140068 3.966011813026678 5.443524805560264 9.126603002178262 6.064855343812238 10.85216175728309 0 9.549960052616076 11.7418325004964 5.456146319935139 12.03797746435883 0 0.1099581359664218 3.220517827852279 8.902935802365127 5.770533203595222 0.472091651702749 22.55866135342908 10.58373839717998 2.59003945012633 0.4043946714997109 4:0.2236068 160:0.2236068 168:0.2236068 183:0.2236068 189:0.2236068 293:0.2236068 360:0.2236068 1419:0.2236068 1446:0.4472136 1542:0.2236068 2062:0.2236068 2117:0.2236068 2155:0.2236068 2586:0.2236068 2654:0.2236068 3060:0.2236068 3178:0.2236068 
-0.09371248094200692 0 0 0 0 0 0 0 0 0 0 0 0 0 0 0 0 0 0 0 0 0 160:0.20851441 360:0.20851441 579:0.20851441 742:0.20851441 1302:0.41702883 1583:0.20851441 1888:0.20851441 2062:0.20851441 2071:0.20851441 2117:0.20851441 2146:0.20851441 2147:0.20851441 2191:0.20851441 2539:0.20851441 2586:0.20851441 3098:0.20851441 3670:0.20851441 3714:0.20851441 3741:0.20851441 3776:0.20851441 
-3.272578500590377 4.541492750097373 9.816133762985617 0 0 0 0 0 0 0 0 0 0 0.0660480415193092 0 0 2.877249742285102 0.1521127673004784 6.344996094631231 0 0.6087496344837707 5.35871995315035 160:0.5 360:0.25 1146:0.25 1206:0.25 1632:0.25 1711:0.25 1712:0.25 1733:0.25 2062:0.25 2063:0.25 2586:0.25 3109:0.25 3233:0.25 
-38.26912896609533 2.687673275808812 7.991970467536931 0 0 11.59542416310358 4.759206714510035 5.458529881556639 0 13.32598538684445 0.4306088564001526 9.803593924577275 0 6.922971901779143 4.465567544121487 0 0 0 0 6.21109198392277 0 2.808038118367076 160:0.45883147 360:0.22941573 1031:0.22941573 1146:0.22941573 1206:0.22941573 1632:0.22941573 1711:0.22941573 1712:0.22941573 1733:0.22941573 2062:0.22941573 2586:0.22941573 3156:0.22941573 3208:0.22941573 3233:0.22941573 3471:0.22941573 3629:0.22941573 
-0 0 0 0 0 14.64508233094619 0 0 0 0 0 12.059254718945 0 0 0 0 0 0 0 0 0 0 160:0.24433889 360:0.12216944 1206:0.12216944 1289:0.12216944 1296:0.12216944 1303:0.12216944 1526:0.12216944 1540:0.12216944 1583:0.12216944 1631:0.48867778 1632:0.12216944 1711:0.12216944 1712:0.12216944 1733:0.12216944 2062:0.12216944 2117:0.36650833 2120:0.12216944 2121:0.12216944 2176:0.12216944 2502:0.24433889 2572:0.12216944 2586:0.12216944 3055:0.12216944 3059:0.24433889 3232:0.12216944 3336:0.12216944 3741:0.24433889 3793:0.24433889 4444:0.12216944 
-0 0 8.237830426035067 0.5030577636784542 27.90096390621472 0 9.346733213958569 0 0 64 1.611140909871065 0 3.016949479384598 3.23964207188353 0 0 0 2.432936366088043 0 0.9968628091815219 0 0 160:0.25400025 360:0.25400025 613:0.12700013 981:0.12700013 1146:0.50800051 1206:0.12700013 1289:0.12700013 1296:0.12700013 1303:0.25400025 1540:0.25400025 1583:0.12700013 1585:0.12700013 1632:0.12700013 1711:0.12700013 1712:0.12700013 1733:0.12700013 1938:0.12700013 2062:0.12700013 2120:0.12700013 2121:0.12700013 2411:0.12700013 2586:0.12700013 3156:0.25400025 3198:0.12700013 3208:0.25400025 3233:0.12700013 3643:0.12700013 4444:0.12700013 4445:0.12700013 
-0 0 11.88310997674934 0 30.40303003606426 0 0 0 0 0 0 1.37826087936478 4.948651919865041 0 0 0 0 0 0 0 0 0 160:0.32444284 360:0.16222142 644:0.16222142 1206:0.16222142 1289:0.16222142 1296:0.16222142 1303:0.32444284 1540:0.32444284 1583:0.16222142 1632:0.16222142 1711:0.32444284 1712:0.32444284 1733:0.32444284 1994:0.16222142 2062:0.16222142 2120:0.16222142 2121:0.16222142 2411:0.16222142 2586:0.16222142 3629:0.16222142 
-12.16058922393954 0 11.36561129783168 5.982596629751416 10.21691955295092 19.14560173372676 2.654931244301806 0.1642927091330375 5.001049363370105 32.98285169059364 7.626607944875262 0 0 3.111236065100605 0.5805028621911388 0 1.444887493708558 0 3.210804296505449 2.195472566934407 0 3.336918187021129 82:0.32444284 160:0.16222142 360:0.16222142 633:0.16222142 727:0.16222142 779:0.16222142 1193:0.16222142 1631:0.16222142 1632:0.16222142 1726:0.16222142 1888:0.16222142 1989:0.16222142 2010:0.16222142 2062:0.16222142 2071:0.16222142 2117:0.32444284 2195:0.16222142 2586:0.16222142 3106:0.16222142 3156:0.16222142 3208:0.16222142 3232:0.16222142 3660:0.32444284 3755:0.32444284 3776:0.16222142 4547:0.16222142 
-0 0 0 0 0 18.88701018429097 0 0 0 39.13665795827242 0 0 0 0 0 0 0 4.362830935990481 0 0 0 0 9:0.14744196 160:0.29488391 360:0.14744196 1206:0.14744196 1289:0.14744196 1296:0.14744196 1303:0.14744196 1418:0.14744196 1540:0.14744196 1562:0.14744196 1567:0.14744196 1583:0.29488391 1631:0.29488391 1632:0.14744196 1711:0.14744196 1712:0.14744196 1733:0.14744196 1744:0.14744196 2117:0.44232587 2120:0.14744196 2121:0.14744196 2586:0.14744196 3438:0.14744196 3548:0.14744196 3741:0.29488391 4376:0.14744196 
-0 0 0 0 16.83290760939809 0 0 0 5.737137638283743 6.851851822212547 0 32.83573755616867 0 0 0 0 0 0 0 0 0 0 160:0.26037782 360:0.26037782 522:0.13018891 583:0.13018891 1206:0.13018891 1289:0.13018891 1296:0.26037782 1303:0.26037782 1540:0.26037782 1583:0.13018891 1631:0.26037782 1632:0.26037782 1711:0.13018891 1712:0.13018891 1733:0.13018891 2062:0.13018891 2086:0.26037782 2117:0.26037782 2120:0.13018891 2121:0.13018891 2411:0.13018891 2586:0.13018891 2640:0.13018891 3058:0.13018891 3156:0.13018891 3208:0.13018891 3380:0.13018891 3511:0.13018891 3622:0.13018891 3643:0.13018891 4444:0.13018891 4445:0.13018891 
-0 0 0 0 0 0 0 2.041283161681484 0 0 12.78909394555496 0 0 0 0 0 0 0 0 7.246486030710338 0 0 160:0.33333333 360:0.33333333 1303:0.33333333 1540:0.33333333 2062:0.33333333 2586:0.33333333 3052:0.33333333 3156:0.33333333 3208:0.33333333 
-6.9926860699617 2.69121342504737 1.275616656912276 8.887838304698898 14.41747540668117 1.591491685314793 1.829882661575678 0 11.12141454114015 14.9308633335777 15.30184626917166 0 0 0.3299012855855252 0.6243308523155374 0 2.497753230325028 0 2.443506199986549 6.785121946291948 1.529903043116009 0 74:0.17149859 160:0.17149859 360:0.51449576 1526:0.34299717 1631:0.17149859 1711:0.17149859 1712:0.17149859 1733:0.17149859 2062:0.17149859 2114:0.17149859 2172:0.17149859 2586:0.17149859 3096:0.51449576 3196:0.17149859 3742:0.17149859 
-0 8.077775419741657 0 2.636720579040773 0 64 0 0 0 64 0 0 0 2.272113053638437 0 0 5.796995061972779 0 7.063432192448513 0 1.356889484241298 22.44583297240444 32:0.14002801 160:0.14002801 163:0.28005602 178:0.14002801 360:0.14002801 1146:0.14002801 1711:0.14002801 1712:0.14002801 1733:0.14002801 1926:0.14002801 2062:0.14002801 2117:0.70014004 2156:0.14002801 2191:0.14002801 2509:0.14002801 2586:0.14002801 3239:0.14002801 3698:0.14002801 3741:0.28005602 3793:0.14002801 4399:0.14002801 
-27.2171776485139 0 8.118405980120505 0 17.02824738664506 21.80077142595392 0 0 0 45.1256313691691 0 0 0 0 0 0 0 0 0 0 0 0 160:0.46816459 360:0.11704115 603:0.11704115 1206:0.11704115 1289:0.11704115 1296:0.11704115 1303:0.11704115 1540:0.11704115 1583:0.11704115 1631:0.58520574 1632:0.11704115 1711:0.11704115 1712:0.11704115 1729:0.23408229 1733:0.11704115 2117:0.11704115 2120:0.11704115 2121:0.11704115 2586:0.11704115 3156:0.11704115 3483:0.11704115 3629:0.11704115 3741:0.35112344 
-0 12.46075628833838 0 0 0 0 0 0 0 0 0 0 0 0 0 0 0 0.09687395059587836 0 19.66874325737576 0 0 160:0.33333333 360:0.33333333 532:0.33333333 1303:0.33333333 1540:0.33333333 1663:0.33333333 2062:0.33333333 2586:0.33333333 3049:0.33333333 
-0 0 0 0 6.615425768997483 22.33318299428394 0 0 0 11.14805293980207 0 18.32531007040125 0 0 0 0 0 0 0 0 0 0 70:0.12216944 160:0.24433889 360:0.24433889 985:0.12216944 1206:0.12216944 1289:0.12216944 1296:0.12216944 1303:0.12216944 1540:0.12216944 1567:0.12216944 1583:0.24433889 1631:0.36650833 1632:0.12216944 1711:0.12216944 1712:0.12216944 1733:0.12216944 2062:0.12216944 2086:0.12216944 2111:0.12216944 2117:0.48867778 2120:0.12216944 2121:0.12216944 2411:0.12216944 2503:0.12216944 2586:0.12216944 2588:0.12216944 3037:0.12216944 3193:0.12216944 3438:0.12216944 3511:0.12216944 3622:0.12216944 3741:0.12216944 3750:0.12216944 3793:0.12216944 4448:0.12216944 
-0 0 0 0 0 12.18378742134257 0 0 0 0 0 0 0 0 0 0 0 0 0 0 0 0 160:0.14433757 360:0.14433757 1583:0.4330127 1586:0.14433757 1631:0.14433757 2062:0.14433757 2117:0.72168784 2176:0.14433757 2586:0.14433757 3059:0.14433757 3400:0.14433757 3690:0.14433757 3741:0.28867513 
-8.675275122326186 0 0 0 0 0 0 0 0 16.50079794596525 0 0 0 0 0 0 0 0 0 0 0 0 160:0.2773501 318:0.13867505 360:0.13867505 719:0.13867505 1206:0.13867505 1289:0.13867505 1296:0.13867505 1303:0.2773501 1527:0.13867505 1540:0.13867505 1583:0.2773501 1631:0.13867505 1632:0.13867505 1711:0.13867505 1712:0.13867505 1733:0.13867505 1744:0.13867505 1895:0.13867505 1999:0.13867505 2117:0.41602515 2120:0.13867505 2121:0.13867505 2586:0.13867505 3049:0.13867505 3096:0.13867505 3154:0.13867505 3235:0.13867505 3437:0.13867505 3544:0.2773501 3741:0.13867505 3793:0.13867505 4408:0.13867505 
-0 0 0 0 0 8.188278872517397 0 0 0 0 6.581734812928386 0.148544748453238 0 0 0 0 0 0 0 0 0 0 160:0.23904572 360:0.11952286 720:0.11952286 791:0.11952286 994:0.11952286 1206:0.11952286 1289:0.11952286 1296:0.11952286 1303:0.11952286 1540:0.11952286 1583:0.23904572 1609:0.11952286 1629:0.11952286 1631:0.5976143 1632:0.11952286 1711:0.11952286 1712:0.11952286 1733:0.11952286 2062:0.23904572 2117:0.35856858 2120:0.11952286 2121:0.11952286 2586:0.11952286 2656:0.11952286 3741:0.23904572 4518:0.11952286 
-0.8182122466260566 4.782819359572231 6.636676028739078 0 26.15462229840707 0.6711032106021597 3.247339299419582 9.649465875880534 10.18484293729807 23.62790087312724 0 21.82759960574919 3.273920823586261 0 0 2.87689799690522 3.252620257034077 0 0 0 3.208417675534007 0 160:0.13867505 238:0.13867505 360:0.13867505 553:0.13867505 1206:0.13867505 1289:0.13867505 1296:0.13867505 1303:0.13867505 1540:0.2773501 1544:0.13867505 1549:0.13867505 1573:0.13867505 1583:0.13867505 1632:0.13867505 1711:0.13867505 1712:0.13867505 1733:0.13867505 1744:0.13867505 1898:0.13867505 2117:0.41602515 2120:0.13867505 2121:0.13867505 2191:0.13867505 2577:0.13867505 2586:0.13867505 2587:0.13867505 3069:0.13867505 3225:0.13867505 3380:0.13867505 3395:0.13867505 3503:0.13867505 3696:0.13867505 3741:0.2773501 4372:0.13867505 4404:0.13867505 4439:0.13867505 4444:0.13867505 4445:0.13867505 
-14.02558033157025 0 0 0 0 27.46346891655163 0 1.127435010721661 0 28.88710003579177 0 29.01791574214463 0 0 0 0 0 0 0 0 0 0 160:0.22792115 360:0.22792115 731:0.11396058 779:0.22792115 1206:0.11396058 1289:0.11396058 1296:0.11396058 1303:0.22792115 1526:0.11396058 1540:0.22792115 1583:0.11396058 1618:0.22792115 1631:0.22792115 1632:0.11396058 1711:0.11396058 1712:0.11396058 1733:0.11396058 2062:0.11396058 2117:0.56980288 2120:0.11396058 2121:0.11396058 2411:0.11396058 2586:0.11396058 3071:0.11396058 3294:0.11396058 3438:0.11396058 3511:0.11396058 3622:0.11396058 4449:0.22792115 
-18.73092693958304 9.879909282535863 2.397650836939033 16.49024969544896 4.546667583788159 48.66981961232848 1.379078730777255 5.627202801254688 5.985020844510052 64 9.390198665970392 1.615765786953141 0 14.60144088942936 0 2.698486995016657 2.609782924896264 0 7.64483767914949 0 5.162818401988037 0 160:0.12803688 360:0.12803688 731:0.12803688 1520:0.25607376 1619:0.25607376 1631:0.12803688 1663:0.25607376 1912:0.12803688 2062:0.12803688 2071:0.25607376 2114:0.12803688 2117:0.51214752 2172:0.12803688 2509:0.12803688 2586:0.12803688 3150:0.12803688 3156:0.25607376 3208:0.25607376 3337:0.12803688 3464:0.12803688 3640:0.12803688 3691:0.12803688 3741:0.25607376 3743:0.12803688 3755:0.12803688 
-0 0 0 0 0 0 0 0 0 0 0 0 0 0 0 0 0 0 0 0 2.953884055674203 0 160:0.26037782 360:0.26037782 729:0.13018891 1206:0.13018891 1289:0.13018891 1296:0.13018891 1303:0.26037782 1540:0.26037782 1583:0.26037782 1632:0.13018891 1711:0.13018891 1712:0.13018891 1733:0.13018891 2062:0.13018891 2120:0.13018891 2121:0.13018891 2171:0.13018891 2411:0.13018891 2586:0.13018891 3051:0.13018891 3059:0.39056673 3128:0.13018891 3173:0.13018891 3239:0.13018891 3294:0.26037782 3438:0.13018891 3690:0.13018891 3741:0.26037782 3793:0.13018891 4376:0.13018891 
-5.645458775841672 8.756544662591761 16.91353268767092 0 0 0 5.780194667021664 0 9.164996029815791 0 0 0 0.6432904797361415 0 0 0 0 0.53836679109992 0 0 0 0 160:0.41702883 360:0.20851441 729:0.20851441 985:0.20851441 1206:0.20851441 1289:0.20851441 1296:0.20851441 1303:0.20851441 1540:0.20851441 1583:0.20851441 1632:0.20851441 1711:0.20851441 1712:0.20851441 1733:0.20851441 1744:0.20851441 2120:0.20851441 2121:0.20851441 2586:0.20851441 3550:0.20851441 3690:0.20851441 
-0 1.921464173248658 0 0 2.155105829285542 0 0 0 0 0 0 0 0 0 0 0 0 0 0 0 0 0 160:0.21693046 360:0.21693046 1164:0.10846523 1206:0.10846523 1289:0.10846523 1296:0.10846523 1303:0.21693046 1417:0.21693046 1540:0.21693046 1575:0.10846523 1583:0.21693046 1631:0.10846523 1632:0.10846523 1711:0.10846523 1712:0.10846523 1733:0.10846523 2062:0.10846523 2117:0.65079137 2120:0.10846523 2121:0.10846523 2176:0.10846523 2247:0.10846523 2411:0.10846523 2509:0.10846523 2586:0.10846523 2591:0.10846523 3311:0.10846523 3690:0.10846523 3715:0.10846523 3741:0.10846523 3743:0.10846523 3793:0.10846523 
-0 0 0 0 0 0.4259098486896159 3.661673776076501 0 0 46.12657579850277 0 17.68738281190892 1.843283921027192 0 0 0 0 0 0 0 0 0 160:0.15811388 360:0.15811388 1151:0.15811388 1206:0.15811388 1289:0.15811388 1296:0.15811388 1303:0.15811388 1540:0.15811388 1583:0.47434165 1632:0.15811388 1711:0.15811388 1712:0.15811388 1733:0.15811388 2120:0.15811388 2121:0.15811388 2508:0.15811388 2586:0.15811388 3037:0.15811388 3666:0.15811388 3741:0.47434165 3744:0.15811388 3750:0.15811388 4388:0.15811388 4416:0.15811388 
-14.41944270239657 6.75344175210154 8.041329485432186 0 0.3478960991281945 1.348389438116576 0.05623575310195097 0 3.372662623425235 35.71433719599349 6.020604956886509 1.739365566938445 0 0 0 0 4.462418514775832 0 0.6575437011369721 3.850891332021682 0 0 160:0.18257419 290:0.18257419 360:0.18257419 985:0.18257419 1156:0.18257419 1303:0.18257419 1539:0.18257419 1540:0.18257419 1726:0.18257419 2062:0.18257419 2075:0.18257419 2111:0.18257419 2114:0.18257419 2151:0.18257419 2586:0.18257419 3058:0.18257419 3069:0.18257419 3175:0.18257419 3239:0.18257419 3741:0.54772256 3759:0.18257419 3776:0.18257419 
-2.841538855835709 0.8493360174519936 27.3273688469196 55.92005186525993 7.030371478147036 64 2.612253878984123 3.590006505320376 16.84370654395135 64 5.508782301237759 29.2617580809874 4.792954257566112 3.820679253906141 3.001526162009312 4.963267989199047 8.516610148677041 1.397370763861373 9.186815035177256 5.208805428753568 5.125501059030595 29.02918640303324 160:0.040096347 163:0.96231233 360:0.040096347 1711:0.040096347 1712:0.040096347 1733:0.040096347 2062:0.040096347 2066:0.040096347 2109:0.040096347 2117:0.12028904 2141:0.040096347 2155:0.040096347 2171:0.080192694 2195:0.040096347 2411:0.040096347 2586:0.040096347 3059:0.040096347 3156:0.080192694 3208:0.080192694 3331:0.040096347 3629:0.040096347 3741:0.12028904 
-0 0 0 0 0 1.676433550845614 0 0 0 64 0 0 0 0 0 0 0 0 0 0 0 0 160:0.088388348 360:0.088388348 578:0.088388348 965:0.088388348 1033:0.088388348 1289:0.088388348 1296:0.088388348 1303:0.088388348 1583:0.26516504 1631:0.088388348 1632:0.088388348 1711:0.088388348 1712:0.088388348 1733:0.088388348 1989:0.088388348 2062:0.088388348 2111:0.088388348 2117:0.79549513 2120:0.088388348 2121:0.088388348 2586:0.088388348 3378:0.088388348 3438:0.088388348 3632:0.088388348 3741:0.35355339 
-0 0 0 0 0 0 0 0 0 0 0 12.22738020037983 0 0 0 0 0 0 0 0 0 0 160:0.28867513 360:0.14433757 758:0.14433757 1206:0.14433757 1289:0.14433757 1296:0.14433757 1303:0.28867513 1540:0.28867513 1583:0.28867513 1631:0.28867513 1632:0.14433757 1711:0.14433757 1712:0.14433757 1733:0.14433757 1744:0.14433757 2111:0.14433757 2117:0.28867513 2120:0.14433757 2121:0.14433757 2191:0.14433757 2586:0.14433757 3244:0.14433757 3331:0.14433757 3652:0.14433757 3741:0.28867513 4372:0.14433757 4538:0.14433757 
-0 0 15.14922362538321 0 0 0 0 0 0 0 19.24751247088917 0 0 0 0 0 0 0.5285047307952842 0 0 0 0 160:0.33333333 360:0.33333333 1146:0.33333333 1303:0.33333333 1540:0.33333333 2062:0.33333333 2586:0.33333333 3059:0.33333333 4448:0.33333333 
-0.8384964892144764 3.634041881814617 4.119361429738429 0 0 0 13.87603527206091 3.231083321142037 3.215161931629628 0 0 14.92697490430276 0 5.251827053763061 0 0 4.99599331439832 0.08424590883462821 0 4.037389324904021 0 0 160:0.23570226 360:0.23570226 1303:0.23570226 1540:0.23570226 1711:0.23570226 1712:0.23570226 1733:0.23570226 1878:0.23570226 2062:0.23570226 2411:0.23570226 2572:0.23570226 2586:0.23570226 3495:0.23570226 3692:0.47140452 3738:0.23570226 
-0 12.41992992577913 2.600317883241428 0 0 0 3.660298105360985 0.2076038588039816 0 46.70957583491988 0 19.4148321709025 0 0 0 0 0 0 0 0 0 0 160:0.24077171 161:0.12038585 233:0.12038585 359:0.12038585 360:0.12038585 1206:0.12038585 1289:0.12038585 1292:0.12038585 1296:0.12038585 1303:0.24077171 1418:0.12038585 1540:0.24077171 1583:0.12038585 1609:0.12038585 1631:0.24077171 1632:0.12038585 1711:0.12038585 1712:0.12038585 1733:0.12038585 1744:0.12038585 1956:0.12038585 2117:0.60192927 2120:0.12038585 2121:0.12038585 2512:0.12038585 2586:0.12038585 3138:0.12038585 3201:0.12038585 3302:0.12038585 3741:0.24077171 
-0 0 0 0 0 0 0 0 0 8.306431722276557 0 0 0 0 0 0 0 0 0 0 0 0 160:0.25197632 360:0.25197632 1146:0.12598816 1206:0.12598816 1289:0.12598816 1296:0.12598816 1303:0.12598816 1540:0.12598816 1583:0.25197632 1631:0.25197632 1632:0.12598816 1711:0.12598816 1712:0.12598816 1733:0.12598816 2062:0.12598816 2117:0.62994079 2120:0.12598816 2121:0.12598816 2411:0.12598816 2521:0.12598816 2586:0.12598816 3665:0.12598816 3741:0.25197632 3793:0.12598816 
-0 0 0 0 29.54081559297622 0 10.47104554571205 0 0 0 0 0 4.362739700953204 0 0 4.962412959942506 0 0.6234527260072303 0 0 0 0 160:0.11111111 318:0.11111111 360:0.11111111 407:0.11111111 1145:0.11111111 1206:0.11111111 1289:0.11111111 1296:0.11111111 1303:0.11111111 1540:0.11111111 1583:0.33333333 1631:0.77777778 1632:0.11111111 1711:0.11111111 1712:0.11111111 1733:0.11111111 2062:0.11111111 2120:0.11111111 2121:0.11111111 2586:0.11111111 2657:0.11111111 3202:0.11111111 3822:0.11111111 4388:0.11111111 4448:0.11111111 
-0 1.385561677715152 8.259178201002152 2.610297154110582 3.519259437946032 2.377272159774254 7.905686788743099 4.626939799304586 6.850452491750227 28.98722076934811 64 7.490591033508825 0 6.266583064998632 0.53559758896386 2.760953320442691 3.372169162138649 0.3934096946789686 3.061396627669231 4.281042864220229 5.926501430678578 0 83:0.13130643 87:0.26261287 110:0.13130643 111:0.13130643 138:0.13130643 139:0.13130643 160:0.13130643 164:0.13130643 177:0.13130643 292:0.13130643 360:0.13130643 577:0.26261287 729:0.13130643 784:0.13130643 787:0.13130643 788:0.13130643 965:0.13130643 1052:0.13130643 1146:0.13130643 1515:0.13130643 1526:0.13130643 1539:0.13130643 1573:0.13130643 1585:0.13130643 1631:0.26261287 1710:0.13130643 1999:0.13130643 2062:0.13130643 2111:0.13130643 2114:0.13130643 2117:0.13130643 2243:0.13130643 2414:0.13130643 2520:0.26261287 2522:0.13130643 2545:0.13130643 2586:0.13130643 3156:0.13130643 3159:0.13130643 3208:0.13130643 3295:0.13130643 3438:0.13130643 3741:0.13130643 3795:0.13130643 4542:0.13130643 4545:0.13130643 
-0 0.9865206913475155 4.95482690989399 0 0 5.181316058042249 0 0 0.832154696364574 0 0 38.64583654871932 0.4059442747608966 2.118806254860569 0 0 0 0.7629981169618343 0 8.163874751943286 2.136240234529574 0 160:0.20851441 360:0.20851441 1299:0.41702883 1303:0.20851441 1519:0.41702883 1540:0.20851441 1576:0.20851441 1605:0.20851441 1711:0.20851441 1712:0.20851441 1733:0.20851441 1893:0.20851441 2062:0.20851441 2586:0.20851441 3176:0.20851441 3629:0.20851441 4439:0.20851441 
-0 0 0 0 0 9.330726799641868 0 0 0 3.96818606210809 0 0 0 0 0 0 0 0 0 0 0 0 160:0.21320072 163:0.42640143 360:0.21320072 601:0.21320072 1303:0.21320072 1540:0.21320072 2062:0.21320072 2155:0.21320072 2411:0.21320072 2412:0.21320072 2509:0.21320072 2586:0.21320072 3156:0.21320072 3208:0.21320072 3690:0.21320072 3741:0.42640143 
-0 0 0 0 25.9081018397568 21.03621023424934 0 0 4.902482591321024 0 0 64 0 0 0 0 1.485441815640545 0 0 1.194258144430312 1.946511391240706 0 160:0.26726124 360:0.26726124 1303:0.26726124 1540:0.26726124 1711:0.26726124 1712:0.26726124 1733:0.26726124 2062:0.26726124 2586:0.26726124 3178:0.26726124 3738:0.26726124 4444:0.26726124 4445:0.26726124 4544:0.26726124 
-0 0 17.39244212537878 0 0 0 2.985242512197137 0.7082823585800809 0 64 0 24.44836995841272 0 0 0 0 0 0 0 6.803450881558598 0 0 160:0.26261287 360:0.3939193 992:0.26261287 1146:0.26261287 1206:0.26261287 1289:0.13130643 1296:0.13130643 1303:0.26261287 1540:0.3939193 1583:0.13130643 1632:0.13130643 1711:0.13130643 1712:0.13130643 1733:0.13130643 2009:0.13130643 2062:0.26261287 2120:0.13130643 2121:0.13130643 2411:0.13130643 3151:0.13130643 3156:0.13130643 3208:0.13130643 3256:0.13130643 3305:0.13130643 
-32.23724988033486 1.612412615860632 23.08829670575283 14.61684432807287 31.25231968255373 10.67872116272979 21.45971852021224 4.151731136280868 14.18700181500193 41.00048051069678 14.25507746231306 13.90186786145971 2.044750945372564 6.34295373064611 0 0 2.848966943730066 0.7842828762138503 0 1.458566721750685 6.415245534371075 0 160:0.28284271 318:0.14142136 360:0.28284271 1146:0.56568542 1206:0.14142136 1303:0.14142136 1539:0.14142136 1540:0.14142136 1574:0.14142136 1588:0.14142136 1707:0.14142136 1887:0.14142136 2062:0.14142136 2084:0.14142136 2123:0.14142136 2193:0.14142136 2411:0.14142136 2586:0.14142136 3178:0.14142136 3298:0.14142136 3503:0.14142136 3529:0.14142136 3665:0.14142136 3668:0.28284271 4444:0.14142136 4445:0.14142136 
