svm_type c_svc
kernel_type rbf
gamma 0.353553
nr_class 16
total_sv 1159
rho 0.0686968 -0.930151 -0.229445 -0.400745 -0.740166 -0.248857 -0.0892507 -0.959681 -0.73164 -0.912278 -0.531622 -0.745945 -0.914115 -0.681524 -0.552034 -0.875941 -0.156565 -0.332064 -0.68189 -0.163728 0.0210306 -0.884147 -0.656288 -0.795468 -0.49354 -0.634041 -0.900461 -0.622843 -0.438539 0.643096 0.60276 0.351066 0.762831 0.776066 -0.302282 0.264357 -0.0938371 0.222904 0.332833 -0.544659 0.182367 0.408752 -0.13487 -0.359892 0.215554 0.281238 -0.866994 -0.340427 -0.65259 -0.244162 -0.369995 -0.797935 -0.328343 -0.157401 -0.385072 0.178578 0.346399 -0.736912 -0.373118 -0.618715 -0.231719 -0.283 -0.756412 -0.308196 -0.165017 0.600697 0.665884 -0.492889 -0.0806998 -0.324204 -0.0529495 0.0350032 -0.652232 -0.0925147 0.142496 0.054385 -0.814248 -0.511327 -0.757138 -0.347014 -0.506015 -0.799989 -0.450194 -0.298491 -0.880218 -0.617882 -0.813019 -0.452225 -0.533713 -0.862732 -0.538938 -0.457891 0.430622 0.184744 0.401628 0.505749 -0.317774 0.396527 0.58783 -0.255456 0.0583615 0.0706702 -0.62052 0.0202948 0.185669 0.305595 0.374929 -0.438314 0.270878 0.390097 -0.0226526 -0.589137 -0.0269956 0.1213 -0.642631 -0.0399731 0.128203 0.604444 0.670762 0.141717
label 0 12 7 5 6 1 8 10 11 9 3 2 14 4 13 15
nr_sv 472 262 12 59 29 24 34 170 3 12 7 10 12 3 13 37
SV
9.59456455063461 0 4.27429824337828 0 0 0 0 0 0 0 0 0 0 0 0 61:0.47108153 216:0.47108153 986:0.052342392 998:0.36639675 1446:0.31405435 1449:0.15702718 1482:0.052342392 2007:0.052342392 2081:0.052342392 2103:0.052342392 2216:0.052342392 2332:0.052342392 2343:0.10468478 2344:0.052342392 2377:0.052342392 2405:0.052342392 2774:0.052342392 3018:0.10468478 3035:0.31405435 3082:0.052342392 3087:0.052342392 3099:0.052342392 3262:0.052342392 3270:0.052342392 3333:0.15702718 3488:0.052342392 3836:0.052342392 4297:0.052342392 4387:0.31405435 4493:0.052342392 
0 0 5.687422675609258 0 0 0 0 0 0 0 0 0 0 0.1198228277183892 0 61:0.43905704 216:0.43905704 986:0.21952852 998:0.21952852 1335:0.21952852 1427:0.10976426 1446:0.10976426 1449:0.10976426 1472:0.10976426 1540:0.32929278 1981:0.10976426 2007:0.10976426 2017:0.10976426 2030:0.10976426 2072:0.10976426 2090:0.10976426 2122:0.10976426 2311:0.21952852 2343:0.21952852 3082:0.10976426 3088:0.10976426 3089:0.10976426 3192:0.10976426 3728:0.10976426 3918:0.21952852 4297:0.10976426 4387:0.10976426 
5.109222420964578 0.5963794275520182 1.897248199646259 0.3387146685257235 0 0 0 0.2997903722856954 1.474982763105874 0 0 0 0 0 0 61:0.21199958 216:0.21199958 248:0.10599979 805:0.10599979 850:0.21199958 877:0.21199958 986:0.21199958 998:0.52999894 1012:0.10599979 1085:0.10599979 1116:0.10599979 1121:0.10599979 1344:0.10599979 1434:0.10599979 1437:0.10599979 1446:0.10599979 1449:0.10599979 2034:0.10599979 2130:0.10599979 2310:0.31799936 2343:0.21199958 2344:0.10599979 2352:0.10599979 2359:0.10599979 2376:0.10599979 2731:0.10599979 2774:0.10599979 3082:0.10599979 3137:0.10599979 3706:0.10599979 3918:0.10599979 3948:0.10599979 3949:0.10599979 3978:0.10599979 4238:0.10599979 4243:0.10599979 4244:0.10599979 4253:0.10599979 4272:0.10599979 
8.428477976151291 1.098678086576174 0 0 0 0 0 0 0.1184127562318828 0 0 0 0 0 0 61:0.4 216:0.2 323:0.1 850:0.3 877:0.3 998:0.1 1116:0.1 1335:0.3 1342:0.1 1449:0.1 1981:0.2 2017:0.2 2019:0.1 2026:0.1 2030:0.2 2310:0.2 2343:0.1 2376:0.1 2915:0.2 2929:0.1 3019:0.1 3022:0.1 3024:0.1 3088:0.1 3089:0.1 3333:0.2 3494:0.1 3647:0.1 3659:0.2 3711:0.1 3713:0.1 3748:0.1 3982:0.1 4265:0.1 4293:0.1 4297:0.1 4317:0.1 
0 0.8617595401858719 0 0 0 0 0 0 0 0 0 0 0.2370848185190795 0 0 61:0.45226702 216:0.30151134 986:0.30151134 998:0.30151134 1335:0.30151134 1446:0.15075567 1449:0.15075567 1713:0.15075567 1981:0.15075567 2017:0.15075567 2030:0.15075567 2072:0.15075567 2090:0.15075567 2122:0.15075567 2343:0.15075567 2777:0.15075567 2869:0.15075567 3082:0.15075567 4243:0.15075567 4297:0.15075567 4439:0.30151134 
5.706176540205147 0 0.7839938879721348 0 0.5545309804173473 0.3091228586147906 3.608483277141418 0 0 0 0 1.353103866600255 0 0 0.1298012169251316 61:0.4472136 216:0.4472136 889:0.2236068 1213:0.2236068 1335:0.2236068 1981:0.2236068 2017:0.2236068 2030:0.2236068 2360:0.2236068 2375:0.2236068 3920:0.2236068 4297:0.2236068 4423:0.2236068 4450:0.2236068 
2.368875656357343 0 0 0 0.2992775613001414 0 0.1733921794567814 0 0 0 0 0 0 0 0 61:0.40451992 216:0.40451992 797:0.13483997 850:0.13483997 877:0.13483997 986:0.13483997 998:0.26967994 1335:0.26967994 1349:0.13483997 1446:0.13483997 1449:0.13483997 1540:0.13483997 1981:0.13483997 2007:0.13483997 2017:0.13483997 2030:0.13483997 2072:0.13483997 2090:0.13483997 2122:0.13483997 2294:0.13483997 2337:0.13483997 2343:0.13483997 2359:0.13483997 2377:0.13483997 2915:0.13483997 3015:0.13483997 3082:0.13483997 3123:0.13483997 3239:0.13483997 3575:0.13483997 3839:0.13483997 4297:0.13483997 4439:0.13483997 
0.5815650400508456 0 0 0.8049034427914182 0.3252634882598433 2.504055070358974 0 0.4651599311965866 0.8475348468545032 0.2043298153199204 0.1515923765408696 0.8862426051220372 0 0.3918570708106595 0.9530505594745983 61:0.092450033 216:0.092450033 877:0.092450033 889:0.092450033 998:0.64715023 1429:0.092450033 1445:0.18490007 1446:0.092450033 1482:0.092450033 1483:0.092450033 1504:0.092450033 1981:0.092450033 2017:0.092450033 2030:0.092450033 2130:0.092450033 2192:0.092450033 2216:0.092450033 2375:0.092450033 2915:0.092450033 2918:0.092450033 2968:0.092450033 2969:0.36980013 2996:0.36980013 3128:0.092450033 3333:0.18490007 3651:0.092450033 3918:0.092450033 3919:0.092450033 3973:0.092450033 3985:0.092450033 4043:0.092450033 4297:0.092450033 4387:0.092450033 
2.979724593595439 0 0.3044504894250261 0.2826223654240371 0 0 0.04454232296571574 0.3505926256287056 1.064053042251893 0 0.2387996084100046 0 0 0 0 20:0.29172998 61:0.14586499 216:0.14586499 998:0.14586499 1106:0.14586499 1205:0.14586499 1213:0.14586499 1349:0.29172998 1476:0.14586499 1538:0.14586499 2068:0.14586499 2351:0.14586499 2359:0.14586499 2363:0.14586499 2375:0.14586499 2952:0.14586499 3086:0.14586499 3241:0.14586499 3638:0.14586499 3729:0.14586499 3835:0.14586499 3836:0.14586499 3866:0.14586499 3987:0.14586499 4032:0.14586499 4037:0.29172998 4268:0.14586499 4276:0.14586499 4386:0.43759497 4404:0.14586499 
0 0 3.656585481856636 0 0 0 0 0 0 0.2274688536152446 0 0.4637256035908283 0 0 0 61:0.23408229 216:0.23408229 287:0.11704115 1105:0.11704115 1121:0.23408229 1446:0.11704115 1449:0.11704115 1475:0.11704115 1959:0.11704115 1981:0.11704115 2017:0.11704115 2030:0.11704115 2031:0.11704115 2065:0.35112344 2066:0.35112344 2080:0.11704115 2186:0.11704115 2325:0.11704115 2343:0.23408229 2375:0.23408229 2411:0.11704115 2741:0.11704115 3035:0.11704115 3254:0.11704115 3266:0.11704115 3328:0.11704115 3688:0.23408229 3696:0.11704115 3781:0.11704115 3924:0.11704115 3928:0.23408229 4293:0.23408229 4297:0.11704115 
8.479463518560939 0 0.71056697829117 0 0.009458809094933013 0 2.309322002915617 0 0 0 0 0 0 0 0 61:0.30618622 216:0.30618622 448:0.10206207 809:0.10206207 844:0.10206207 847:0.10206207 850:0.30618622 877:0.30618622 1116:0.10206207 1121:0.10206207 1213:0.20412415 1335:0.10206207 1349:0.10206207 1540:0.10206207 1958:0.10206207 1981:0.10206207 2017:0.10206207 2030:0.10206207 2065:0.10206207 2066:0.10206207 2068:0.10206207 2081:0.10206207 2091:0.10206207 2103:0.10206207 2129:0.10206207 2211:0.10206207 2224:0.10206207 2359:0.40824829 2375:0.20412415 2774:0.10206207 2915:0.30618622 3033:0.10206207 3266:0.10206207 3534:0.10206207 4297:0.10206207 
2.279849311460613 0.2161283741824869 2.427398710955821 0.4803387231580319 0.4488332503861959 0 0.06315344798183167 0 0 0.3285635157138582 0 0 0 0 0.2906136592591336 61:0.23570226 216:0.11785113 844:0.11785113 847:0.11785113 850:0.11785113 877:0.11785113 986:0.11785113 1116:0.11785113 1335:0.11785113 1349:0.11785113 1538:0.23570226 1954:0.23570226 1981:0.11785113 2017:0.11785113 2030:0.11785113 2065:0.11785113 2066:0.11785113 2264:0.11785113 2359:0.35355339 2375:0.23570226 2411:0.23570226 2905:0.11785113 2914:0.11785113 2930:0.23570226 2952:0.23570226 3035:0.11785113 3082:0.11785113 3241:0.11785113 3252:0.11785113 3689:0.11785113 3699:0.23570226 3717:0.11785113 3930:0.11785113 4243:0.11785113 4267:0.11785113 4297:0.11785113 4424:0.23570226 
10.0849372267932 0.9650046258224221 3.557284194461562 0 0 0 0.6504380441806726 0 0 0 0 0 0 0 0 61:0.31622777 216:0.15811388 844:0.15811388 847:0.15811388 850:0.15811388 877:0.31622777 1116:0.15811388 1335:0.15811388 1349:0.15811388 1954:0.15811388 1981:0.15811388 2017:0.15811388 2030:0.15811388 2065:0.15811388 2066:0.15811388 2071:0.15811388 2359:0.31622777 2375:0.31622777 2411:0.15811388 2714:0.15811388 2774:0.15811388 2968:0.15811388 3088:0.15811388 3089:0.15811388 3728:0.15811388 3820:0.15811388 3914:0.15811388 4297:0.15811388 
0 0 0.5518730093841581 0 0.01423078730870765 0.1251521411943197 0 0 0 0.2358297084129566 0 0 0 0 0 61:0.19425717 216:0.29138576 663:0.097128586 841:0.097128586 850:0.097128586 877:0.097128586 887:0.19425717 986:0.097128586 1069:0.097128586 1121:0.097128586 1152:0.097128586 1213:0.097128586 1214:0.19425717 1335:0.097128586 1349:0.097128586 1381:0.097128586 1470:0.097128586 1482:0.097128586 1546:0.097128586 1981:0.097128586 2017:0.097128586 2030:0.097128586 2065:0.097128586 2066:0.097128586 2081:0.19425717 2083:0.097128586 2103:0.19425717 2294:0.097128586 2359:0.29138576 2375:0.38851434 2376:0.097128586 2929:0.097128586 3019:0.097128586 3022:0.19425717 3024:0.097128586 3082:0.097128586 3192:0.097128586 3536:0.097128586 3623:0.097128586 3688:0.097128586 3741:0.19425717 3913:0.097128586 3926:0.097128586 3948:0.097128586 4033:0.097128586 4043:0.097128586 4249:0.097128586 4289:0.097128586 4297:0.19425717 4423:0.097128586 4439:0.097128586 
5.11274854133574 0.0830201107621527 0 0 0 0 0.1098754402387337 0 0 0 0.01342867684785776 0 0 0 0 61:0.20412415 216:0.10206207 487:0.10206207 637:0.10206207 986:0.20412415 998:0.10206207 1335:0.10206207 1349:0.20412415 1449:0.10206207 1470:0.10206207 1498:0.20412415 1980:0.10206207 2029:0.10206207 2032:0.10206207 2086:0.10206207 2123:0.10206207 2139:0.10206207 2140:0.10206207 2268:0.10206207 2343:0.10206207 2357:0.10206207 2359:0.61237244 2366:0.10206207 2375:0.10206207 2387:0.10206207 2397:0.10206207 2777:0.10206207 2967:0.10206207 3015:0.10206207 3020:0.10206207 3189:0.10206207 3332:0.10206207 3638:0.10206207 3644:0.10206207 3670:0.10206207 3689:0.10206207 3698:0.10206207 4037:0.10206207 4386:0.20412415 4400:0.20412415 4420:0.10206207 4423:0.10206207 4473:0.10206207 
1.020717963773896 0.2475148926123882 0.7425893162649342 0 0 1.439138851140268 1.481802016090808 0 0 0.2189659046029149 0 0.02620857151462979 0 0 0 61:0.26261287 216:0.13130643 806:0.13130643 844:0.13130643 847:0.13130643 850:0.13130643 877:0.26261287 887:0.13130643 1030:0.13130643 1055:0.13130643 1057:0.13130643 1116:0.13130643 1335:0.13130643 1349:0.13130643 1483:0.13130643 1981:0.13130643 2017:0.13130643 2030:0.13130643 2036:0.13130643 2065:0.13130643 2066:0.13130643 2221:0.13130643 2359:0.3939193 2375:0.26261287 2422:0.26261287 2969:0.26261287 3018:0.13130643 3019:0.13130643 3244:0.13130643 3265:0.13130643 3717:0.13130643 4238:0.13130643 4248:0.13130643 4297:0.13130643 4436:0.13130643 
0 0 1.294689716529796 0 1.921825610024387 0.7633900773676977 0.8929750893447759 0 0.7567255413034234 0 0.4882436507485181 0 0 0.2022878708070588 0 61:0.2 216:0.2 428:0.1 797:0.2 850:0.1 862:0.1 877:0.1 998:0.1 1121:0.2 1207:0.1 1210:0.1 1335:0.1 1353:0.1 1449:0.1 1981:0.1 2017:0.1 2030:0.1 2031:0.1 2065:0.1 2066:0.1 2080:0.1 2081:0.4 2103:0.4 2141:0.1 2343:0.1 2359:0.4 2375:0.1 2376:0.1 2382:0.2 2398:0.1 3019:0.1 3024:0.1 3082:0.1 3236:0.1 3525:0.1 3688:0.1 3733:0.1 3743:0.1 3948:0.1 4033:0.1 
0.7005576697581885 0 0.4300368373388397 0 0 0 0 0 0 0 0 0 0 0 0 61:0.40613847 134:0.10153462 216:0.20306923 242:0.20306923 488:0.10153462 887:0.10153462 998:0.10153462 1053:0.10153462 1088:0.10153462 1150:0.10153462 1471:0.10153462 1981:0.10153462 1994:0.10153462 2007:0.10153462 2017:0.10153462 2030:0.10153462 2065:0.10153462 2066:0.10153462 2343:0.30460385 2359:0.30460385 2375:0.10153462 2405:0.10153462 2715:0.10153462 2953:0.10153462 2970:0.10153462 3022:0.10153462 3035:0.10153462 3087:0.10153462 3088:0.10153462 3089:0.10153462 3132:0.10153462 3139:0.10153462 3263:0.10153462 3265:0.20306923 3520:0.20306923 3680:0.10153462 3688:0.10153462 3696:0.10153462 3760:0.10153462 3787:0.20306923 4040:0.20306923 4271:0.10153462 4297:0.10153462 4416:0.10153462 4471:0.20306923 
6.900031827530655 0.1365728993120662 0 0.7319740744919561 0 0.6034334352493257 0.384008800340329 0 0 0 0 0 0 0 0 61:0.2773501 216:0.2773501 850:0.2773501 877:0.2773501 998:0.2773501 1335:0.2773501 1449:0.2773501 2375:0.2773501 3482:0.2773501 3648:0.2773501 3652:0.2773501 3665:0.2773501 4387:0.2773501 
1.754854371413751 0.1359326479516296 1.439899878781307 0.3508149789002904 0 1.095629646267752 1.583856125254447 0 0 0 0.2023928456895225 0.8472442452993174 0 0.3072492291345054 0 61:0.2236068 216:0.2236068 850:0.2236068 877:0.1118034 1121:0.2236068 1208:0.1118034 1335:0.1118034 1449:0.1118034 1981:0.1118034 1988:0.2236068 2017:0.1118034 2030:0.1118034 2080:0.3354102 2113:0.1118034 2340:0.2236068 2343:0.1118034 2347:0.2236068 2359:0.3354102 2374:0.2236068 2375:0.1118034 2915:0.1118034 2969:0.2236068 3040:0.2236068 3082:0.1118034 3115:0.2236068 3738:0.1118034 4423:0.1118034 4457:0.2236068 
4.473810020814761 0.5325325588536337 0 0 0 0 0 0 0.1651568495812287 0 0 0 0 0.1139714891044437 0 61:0.25197632 216:0.25197632 242:0.12598816 850:0.25197632 877:0.12598816 1014:0.12598816 1121:0.12598816 1335:0.12598816 1449:0.12598816 1515:0.12598816 1981:0.12598816 2017:0.12598816 2030:0.12598816 2195:0.25197632 2343:0.12598816 2347:0.12598816 2359:0.37796447 2374:0.12598816 2427:0.12598816 2915:0.12598816 3022:0.12598816 3040:0.12598816 3041:0.12598816 3082:0.12598816 3115:0.12598816 3749:0.12598816 3762:0.25197632 4041:0.25197632 4234:0.25197632 4387:0.25197632 4423:0.12598816 
1.639376767239495 0 0 0 0.2871796559434159 0 1.347167395479868 0 0.49558220964676 0 0 0 0 0.08138324364658933 0 18:0.13483997 61:0.26967994 216:0.26967994 850:0.26967994 877:0.13483997 1335:0.13483997 1449:0.13483997 1981:0.13483997 2017:0.13483997 2030:0.13483997 2080:0.13483997 2195:0.13483997 2343:0.13483997 2347:0.13483997 2359:0.40451992 2360:0.13483997 2374:0.13483997 2426:0.13483997 2915:0.13483997 3019:0.13483997 3022:0.13483997 3024:0.13483997 3040:0.13483997 3082:0.13483997 3115:0.13483997 3265:0.13483997 3749:0.26967994 3762:0.13483997 3775:0.26967994 4041:0.13483997 4234:0.13483997 4423:0.13483997 
6.827855006821775 0 0.7463981241020904 0 0 0 0 0.004058474918757776 0 0 0 0 0 0 0 61:0.29488391 216:0.29488391 820:0.14744196 844:0.14744196 847:0.14744196 850:0.14744196 877:0.14744196 998:0.14744196 1116:0.14744196 1121:0.14744196 1335:0.14744196 1349:0.14744196 1981:0.14744196 2017:0.14744196 2030:0.14744196 2065:0.14744196 2066:0.14744196 2110:0.14744196 2343:0.14744196 2359:0.14744196 2375:0.44232587 2383:0.14744196 2999:0.14744196 3082:0.14744196 3201:0.14744196 3253:0.14744196 3636:0.14744196 3688:0.14744196 3760:0.14744196 3982:0.14744196 4293:0.14744196 4306:0.14744196 
0 0.2869139622143579 0.0759385267360765 0 0 0 0.5001573843952577 0 0 0 0 0.05238730871191354 0 0 0 61:0.21081851 216:0.21081851 1036:0.31622777 1084:0.10540926 1121:0.10540926 1335:0.10540926 1349:0.10540926 1352:0.21081851 1449:0.10540926 1981:0.10540926 2017:0.10540926 2030:0.10540926 2065:0.21081851 2066:0.21081851 2186:0.10540926 2324:0.10540926 2343:0.10540926 2359:0.31622777 2375:0.10540926 2733:0.10540926 2860:0.10540926 2927:0.10540926 3019:0.10540926 3024:0.10540926 3082:0.10540926 3088:0.10540926 3089:0.10540926 3248:0.10540926 3265:0.21081851 3538:0.10540926 3651:0.10540926 3688:0.21081851 3766:0.31622777 3889:0.21081851 3941:0.10540926 3943:0.10540926 4313:0.21081851 4410:0.10540926 4423:0.10540926 
0.7332534937279491 0 0 0 0 0 0 0.1218662723244487 0 0 0 0 0 0 0 61:0.17407766 216:0.17407766 242:0.17407766 820:0.087038828 850:0.17407766 877:0.087038828 887:0.087038828 998:0.087038828 1088:0.087038828 1121:0.087038828 1174:0.087038828 1981:0.087038828 2017:0.087038828 2030:0.087038828 2069:0.087038828 2123:0.087038828 2131:0.17407766 2343:0.17407766 2347:0.087038828 2358:0.087038828 2359:0.34815531 2374:0.087038828 2426:0.087038828 2905:0.087038828 2915:0.087038828 2969:0.26111648 3040:0.087038828 3045:0.17407766 3082:0.087038828 3115:0.087038828 3201:0.087038828 3224:0.52223297 3658:0.087038828 3729:0.087038828 3818:0.087038828 3819:0.087038828 3823:0.087038828 3824:0.17407766 3825:0.087038828 3829:0.17407766 3830:0.087038828 4290:0.17407766 4393:0.087038828 4423:0.087038828 
0 0.2239744237651788 0.5825578032958431 0 0 0 0 0 0 0 0.06014620131083437 0.04383642041809881 0 0 0 61:0.13363062 216:0.13363062 626:0.26726124 887:0.26726124 1030:0.13363062 1055:0.13363062 1088:0.13363062 1121:0.13363062 1470:0.13363062 1981:0.13363062 2017:0.13363062 2030:0.13363062 2343:0.13363062 2359:0.53452248 2375:0.13363062 2400:0.26726124 3688:0.13363062 3733:0.26726124 3775:0.26726124 4289:0.26726124 4297:0.13363062 4423:0.13363062 4502:0.13363062 
0 0.2030024843229503 0 0 0 0 0 0 0 0 0 0 0 0 0.01198710871319254 61:0.3380617 216:0.3380617 986:0.16903085 998:0.50709255 1335:0.16903085 1434:0.16903085 1446:0.16903085 1981:0.16903085 2017:0.16903085 2030:0.16903085 2072:0.16903085 2090:0.16903085 2122:0.16903085 2209:0.16903085 2216:0.16903085 2343:0.16903085 3496:0.16903085 3656:0.16903085 3918:0.16903085 4243:0.16903085 4297:0.16903085 
1.095099714557815 0 1.038792013779547 0 0.1365360285867995 0 0 0 0 0 0.6197393614109689 0 0 0 0 6:0.12700013 61:0.25400025 100:0.12700013 216:0.25400025 434:0.12700013 850:0.12700013 866:0.12700013 877:0.25400025 1135:0.12700013 1335:0.12700013 1519:0.12700013 1538:0.12700013 2081:0.12700013 2090:0.12700013 2103:0.12700013 2209:0.12700013 2359:0.38100038 2375:0.50800051 3025:0.12700013 3190:0.12700013 3521:0.12700013 3691:0.12700013 3835:0.12700013 4268:0.12700013 4297:0.25400025 4304:0.12700013 4481:0.12700013 
0 0 0.9002561037634206 0 1.185077467453434 0 0.7658442220526104 0 0 0 0 0 0 0 0 61:0.17888544 216:0.26832816 334:0.089442719 850:0.089442719 898:0.089442719 1059:0.17888544 1121:0.17888544 1211:0.089442719 1213:0.089442719 1440:0.089442719 2007:0.089442719 2010:0.089442719 2065:0.35777088 2066:0.35777088 2068:0.089442719 2069:0.089442719 2080:0.17888544 2081:0.089442719 2103:0.089442719 2110:0.089442719 2131:0.089442719 2179:0.089442719 2192:0.089442719 2211:0.089442719 2266:0.089442719 2343:0.089442719 2359:0.26832816 2360:0.17888544 2375:0.17888544 2969:0.17888544 2970:0.089442719 3082:0.17888544 3087:0.089442719 3092:0.089442719 3254:0.089442719 3488:0.089442719 3738:0.26832816 3948:0.089442719 4346:0.089442719 4386:0.17888544 4403:0.17888544 
0 0 0 0 0 0 0 0 0 0 0 0.07171207136818469 0 0 0 61:0.17609018 216:0.26413527 334:0.088045091 850:0.088045091 898:0.088045091 1059:0.17609018 1121:0.17609018 1211:0.088045091 1213:0.088045091 1440:0.088045091 2007:0.088045091 2010:0.088045091 2065:0.35218036 2066:0.35218036 2068:0.088045091 2069:0.088045091 2080:0.17609018 2081:0.088045091 2103:0.088045091 2110:0.088045091 2131:0.088045091 2179:0.088045091 2192:0.088045091 2211:0.088045091 2266:0.088045091 2343:0.088045091 2359:0.26413527 2360:0.17609018 2375:0.17609018 2969:0.17609018 2970:0.088045091 3082:0.17609018 3087:0.088045091 3092:0.088045091 3254:0.088045091 3333:0.17609018 3488:0.088045091 3738:0.26413527 3948:0.088045091 4346:0.088045091 4386:0.17609018 4403:0.17609018 
0 0 0.7325587811001446 0.9783918235722218 0.3872727470347722 0.5420623372992171 1.396987342988897 0 0 0 0 0 0 0 0.1843747664613626 61:0.22086305 216:0.33129458 1083:0.11043153 1121:0.22086305 1174:0.11043153 1213:0.22086305 1446:0.11043153 1464:0.11043153 1470:0.11043153 1976:0.22086305 2006:0.22086305 2007:0.11043153 2061:0.11043153 2065:0.11043153 2066:0.11043153 2080:0.11043153 2208:0.22086305 2216:0.11043153 2340:0.11043153 2343:0.33129458 2359:0.11043153 2385:0.11043153 2912:0.11043153 3013:0.22086305 3018:0.11043153 3019:0.11043153 3024:0.11043153 3082:0.11043153 3086:0.11043153 3258:0.11043153 3657:0.11043153 3688:0.33129458 3751:0.11043153 3931:0.11043153 3950:0.11043153 3964:0.11043153 4387:0.11043153 
2.727452274811073 0.0845429882378214 3.577556247755756 0.2472144655852802 0 0.6208418334170249 0.3612222746484714 0 0 0 0 0.7039576812371727 0.005531903033772006 0 0 61:0.2773501 216:0.2773501 1352:0.2773501 1449:0.2773501 1472:0.2773501 2065:0.2773501 2066:0.2773501 2083:0.2773501 2139:0.2773501 2303:0.2773501 2343:0.2773501 3688:0.2773501 3759:0.2773501 
2.32493942645262 0 0.26879486283293 0 0 0.2117380232563879 0 0 0 0 0 0 0 0 0 61:0.34299717 216:0.34299717 850:0.17149859 877:0.17149859 986:0.17149859 998:0.34299717 1335:0.17149859 1437:0.17149859 1446:0.17149859 1449:0.17149859 1981:0.17149859 2007:0.17149859 2017:0.17149859 2030:0.17149859 2072:0.17149859 2080:0.17149859 2122:0.17149859 2123:0.17149859 2343:0.17149859 2359:0.17149859 3252:0.17149859 3329:0.17149859 3968:0.17149859 4245:0.17149859 4317:0.17149859 
0 0 0 0 0 0 0 0 0 0 0 0.19095768810738 0 0 0 61:0.39223227 216:0.39223227 986:0.19611614 998:0.39223227 1335:0.19611614 1446:0.19611614 1449:0.19611614 1981:0.19611614 2007:0.19611614 2017:0.19611614 2030:0.19611614 2072:0.19611614 2122:0.19611614 2343:0.19611614 2360:0.19611614 3918:0.19611614 3995:0.19611614 
0 0 0 0 0 0 0 0.01564632794057732 0 0 0 0 0 0 0 61:0.37796447 216:0.37796447 986:0.18898224 998:0.37796447 1335:0.18898224 1446:0.18898224 1449:0.18898224 1981:0.18898224 2007:0.18898224 2017:0.18898224 2030:0.18898224 2072:0.18898224 2122:0.18898224 2343:0.18898224 2360:0.18898224 3224:0.18898224 3918:0.18898224 3995:0.18898224 4386:0.18898224 
0 0.8145759273456155 0 0 0 0 0 0 0 0 0 0 0 0 0 61:0.35355339 216:0.35355339 986:0.1767767 998:0.35355339 1335:0.1767767 1446:0.1767767 1449:0.1767767 1713:0.1767767 1963:0.1767767 1981:0.1767767 2007:0.1767767 2017:0.1767767 2030:0.1767767 2072:0.1767767 2122:0.1767767 2183:0.1767767 2343:0.1767767 2359:0.1767767 2385:0.1767767 3918:0.1767767 3944:0.1767767 4439:0.1767767 4462:0.1767767 
0 0.2121137684828991 0 0 0 0 0.3949691488896857 0.4887997835680317 0 0 0 0 0 0 0 61:0.3086067 216:0.3086067 435:0.15430335 986:0.15430335 997:0.15430335 998:0.46291005 1054:0.15430335 1335:0.15430335 1434:0.15430335 1446:0.15430335 1448:0.15430335 1449:0.15430335 1981:0.15430335 2007:0.15430335 2017:0.15430335 2030:0.15430335 2062:0.15430335 2072:0.15430335 2122:0.15430335 2131:0.15430335 2343:0.15430335 2359:0.3086067 3331:0.15430335 3688:0.15430335 3918:0.15430335 
0 0 0 0.3522187280928797 0 0 0 0 0 0 0 0 0 0 0 61:0.24433889 216:0.24433889 469:0.12216944 864:0.36650833 986:0.12216944 998:0.36650833 1036:0.12216944 1335:0.12216944 1352:0.12216944 1434:0.12216944 1446:0.12216944 1449:0.12216944 1981:0.12216944 2007:0.12216944 2017:0.12216944 2030:0.12216944 2065:0.12216944 2066:0.12216944 2072:0.12216944 2122:0.12216944 2340:0.12216944 2343:0.12216944 3083:0.24433889 3088:0.12216944 3089:0.12216944 3207:0.12216944 3265:0.12216944 3330:0.12216944 3630:0.12216944 3707:0.12216944 3751:0.12216944 3766:0.12216944 3782:0.24433889 3839:0.12216944 3918:0.12216944 4038:0.12216944 4243:0.12216944 4462:0.12216944 4501:0.12216944 
0 0 0 0 0 0 0 0 0 0 0 0 0 0 0.06816742384524621 61:0.2236068 216:0.2236068 469:0.1118034 864:0.3354102 922:0.1118034 986:0.1118034 998:0.2236068 1036:0.1118034 1335:0.1118034 1352:0.1118034 1434:0.1118034 1446:0.1118034 1449:0.1118034 1981:0.1118034 2007:0.1118034 2017:0.1118034 2030:0.1118034 2065:0.1118034 2066:0.1118034 2072:0.1118034 2122:0.1118034 2179:0.1118034 2340:0.1118034 2343:0.1118034 2375:0.2236068 2973:0.1118034 3083:0.2236068 3088:0.1118034 3089:0.1118034 3207:0.1118034 3265:0.1118034 3330:0.1118034 3630:0.1118034 3707:0.1118034 3751:0.1118034 3766:0.1118034 3782:0.2236068 3839:0.1118034 3918:0.1118034 3948:0.1118034 4038:0.1118034 4243:0.1118034 4296:0.1118034 4386:0.3354102 4462:0.1118034 4501:0.1118034 
0.8072940097315855 0 0 0 0 0 0 0 0 0 0 0 0 0 0 61:0.29488391 216:0.29488391 795:0.14744196 986:0.14744196 998:0.29488391 1335:0.14744196 1434:0.14744196 1446:0.14744196 1449:0.14744196 1981:0.14744196 2007:0.14744196 2017:0.14744196 2030:0.14744196 2072:0.14744196 2122:0.14744196 2311:0.14744196 2341:0.14744196 2343:0.14744196 2359:0.14744196 3019:0.14744196 3024:0.14744196 3333:0.44232587 3782:0.14744196 3817:0.14744196 3918:0.29488391 4243:0.14744196 
0 0 0.3228390158159242 0 0 0 0 0 0.06730677061212727 0 0 0 0 0 0 61:0.25197632 216:0.25197632 469:0.12598816 864:0.37796447 986:0.12598816 998:0.25197632 1036:0.12598816 1335:0.12598816 1352:0.12598816 1434:0.12598816 1446:0.12598816 1449:0.12598816 1981:0.12598816 2007:0.12598816 2017:0.12598816 2030:0.12598816 2065:0.12598816 2066:0.12598816 2072:0.12598816 2122:0.12598816 2340:0.12598816 2343:0.12598816 3083:0.25197632 3088:0.12598816 3089:0.12598816 3207:0.12598816 3265:0.12598816 3330:0.12598816 3630:0.12598816 3656:0.12598816 3707:0.12598816 3751:0.12598816 3766:0.12598816 3782:0.25197632 3839:0.12598816 3918:0.12598816 4038:0.12598816 4243:0.12598816 4462:0.12598816 4501:0.12598816 
4.858688151874111 0.5070215562331991 0 0.6800087088704719 0 0 2.005956025489132 0 0.2177070013295312 0 0.4220576292850787 0.3527359255531835 0.1163377607760855 0.1566962347552769 0.4693501515415679 10:0.33333333 61:0.33333333 324:0.33333333 998:0.33333333 1449:0.33333333 2039:0.33333333 2343:0.33333333 2352:0.33333333 3087:0.33333333 
0 0 0.5669967052381723 0.1059226259864848 0 0.6161040252241894 0.5386780992789082 0.02315330788514774 0.1778912730596974 0 0 0 0 0.01302760797299113 0.07610036174989623 61:0.22645541 216:0.22645541 469:0.1132277 864:0.33968311 986:0.1132277 998:0.22645541 1036:0.1132277 1335:0.1132277 1352:0.1132277 1434:0.1132277 1446:0.1132277 1449:0.1132277 1981:0.1132277 2007:0.1132277 2017:0.1132277 2030:0.1132277 2065:0.1132277 2066:0.1132277 2072:0.1132277 2122:0.1132277 2340:0.1132277 2343:0.1132277 2951:0.45291081 3083:0.22645541 3088:0.1132277 3089:0.1132277 3207:0.1132277 3265:0.1132277 3330:0.1132277 3630:0.1132277 3707:0.1132277 3751:0.1132277 3766:0.1132277 3782:0.22645541 3839:0.1132277 3918:0.1132277 4038:0.1132277 4243:0.1132277 4462:0.1132277 4501:0.1132277 
1.632615299529838 0 1.152493334121767 0.3735941971829833 0 0.4322271843394965 0 0 0 0 0.501081670583346 0 0 0 0 61:0.31108551 216:0.41478068 486:0.10369517 850:0.20739034 877:0.20739034 986:0.31108551 1114:0.10369517 1335:0.31108551 1353:0.10369517 1434:0.20739034 1446:0.10369517 1449:0.10369517 2007:0.20739034 2080:0.10369517 2130:0.10369517 2186:0.10369517 2214:0.10369517 2222:0.10369517 2310:0.10369517 2343:0.10369517 2366:0.10369517 2744:0.10369517 3075:0.10369517 3082:0.20739034 3088:0.10369517 3089:0.10369517 3270:0.10369517 3333:0.10369517 3488:0.10369517 3555:0.10369517 3796:0.10369517 3948:0.10369517 3967:0.10369517 4243:0.20739034 4297:0.10369517 4412:0.10369517 
0 0 0 0 0 0 0 0 0 0 0 0 0.1414285495595087 0 0 61:0.4472136 216:0.4472136 1121:0.2236068 1174:0.2236068 1213:0.2236068 1449:0.2236068 1463:0.2236068 2132:0.2236068 2343:0.2236068 3688:0.2236068 4009:0.2236068 4253:0.2236068 4475:0.2236068 4485:0.2236068 
0 0.3090475077550959 0.877003007120445 0.07227750289303313 0.3753181454704908 0.1397613375079067 0 0 0.8240582810935598 0.09689308081514569 0.05565151502054543 0.6046509848895635 0 0.2806206441506583 0.07256747667387938 61:0.089087081 216:0.089087081 334:0.089087081 986:0.089087081 991:0.089087081 998:0.089087081 1116:0.17817416 1121:0.089087081 1195:0.089087081 1449:0.089087081 1451:0.26726124 1470:0.089087081 1962:0.17817416 1981:0.089087081 2007:0.089087081 2017:0.089087081 2030:0.089087081 2052:0.089087081 2068:0.089087081 2195:0.089087081 2269:0.35634832 2310:0.089087081 2343:0.089087081 2359:0.26726124 2366:0.089087081 2939:0.089087081 2940:0.089087081 2970:0.089087081 3019:0.17817416 3022:0.089087081 3024:0.17817416 3082:0.26726124 3087:0.17817416 3270:0.26726124 3331:0.089087081 3523:0.26726124 3626:0.089087081 3711:0.089087081 3837:0.17817416 3838:0.089087081 3946:0.17817416 4004:0.089087081 4260:0.089087081 4386:0.17817416 4390:0.089087081 4407:0.089087081 4438:0.089087081 
0 0 0 0 0 0 0 0 0 0 0 0.3450852988766099 0.02346877216268483 0 0 61:0.12309149 216:0.12309149 844:0.12309149 847:0.12309149 850:0.12309149 877:0.12309149 986:0.24618298 998:0.24618298 1116:0.12309149 1335:0.12309149 1349:0.12309149 1446:0.12309149 1449:0.12309149 1959:0.12309149 1981:0.12309149 2017:0.12309149 2030:0.12309149 2065:0.12309149 2066:0.12309149 2068:0.12309149 2081:0.24618298 2103:0.24618298 2130:0.12309149 2199:0.12309149 2310:0.12309149 2320:0.12309149 2343:0.12309149 2377:0.12309149 2396:0.49236596 3333:0.24618298 3488:0.12309149 3817:0.24618298 4465:0.12309149 
0 0 0 0 0 0 0 0 0.06260266864198953 0 0 0 0 0 0 61:0.25400025 216:0.25400025 469:0.12700013 864:0.38100038 986:0.12700013 998:0.25400025 1036:0.12700013 1335:0.12700013 1352:0.12700013 1434:0.12700013 1446:0.12700013 1449:0.12700013 1981:0.12700013 2007:0.12700013 2017:0.12700013 2030:0.12700013 2065:0.12700013 2066:0.12700013 2072:0.12700013 2122:0.12700013 2340:0.12700013 2343:0.12700013 3083:0.25400025 3088:0.12700013 3089:0.12700013 3207:0.12700013 3265:0.12700013 3330:0.12700013 3630:0.12700013 3707:0.12700013 3751:0.12700013 3766:0.12700013 3782:0.25400025 3839:0.12700013 3918:0.12700013 4038:0.12700013 4243:0.12700013 4462:0.12700013 4501:0.12700013 
0 0 1.516079147951419 0.07243598307065964 0 0 0 0.2384582612568238 0 0 0 0 0 0 0 61:0.13245324 216:0.13245324 844:0.13245324 847:0.13245324 850:0.13245324 877:0.13245324 986:0.26490647 998:0.39735971 1116:0.13245324 1335:0.13245324 1349:0.13245324 1446:0.13245324 1449:0.13245324 1959:0.13245324 1981:0.13245324 2017:0.13245324 2030:0.13245324 2065:0.13245324 2066:0.13245324 2068:0.13245324 2081:0.13245324 2103:0.13245324 2130:0.13245324 2199:0.13245324 2310:0.13245324 2320:0.13245324 2343:0.13245324 2377:0.13245324 2396:0.26490647 3013:0.13245324 3333:0.39735971 3488:0.13245324 3817:0.13245324 3978:0.13245324 4465:0.13245324 
0 0 0 0 0 0 0 0 0 0 0 0 0.0249900522430095 0 0 61:0.38100038 216:0.38100038 514:0.12700013 850:0.12700013 877:0.12700013 986:0.12700013 998:0.25400025 1036:0.12700013 1121:0.12700013 1213:0.12700013 1335:0.12700013 1446:0.12700013 1449:0.12700013 1538:0.12700013 1981:0.12700013 2017:0.12700013 2030:0.12700013 2065:0.12700013 2066:0.12700013 2072:0.12700013 2090:0.12700013 2122:0.12700013 2269:0.12700013 2915:0.12700013 2973:0.12700013 3015:0.12700013 3732:0.12700013 3751:0.12700013 3916:0.12700013 3920:0.25400025 4026:0.25400025 4243:0.12700013 4394:0.25400025 4424:0.12700013 
3.627431247542645 0.01223113298550705 0.8113217068747108 0.2468149143434295 0 0.1907848521951795 1.044817957939666 0 0 0 0 0 0.08169577527100254 0 0 61:0.40451992 216:0.40451992 514:0.13483997 850:0.13483997 877:0.13483997 998:0.13483997 1036:0.13483997 1121:0.13483997 1213:0.13483997 1335:0.13483997 1446:0.13483997 1449:0.13483997 1538:0.13483997 1981:0.13483997 2017:0.13483997 2030:0.13483997 2065:0.13483997 2066:0.13483997 2090:0.13483997 2269:0.13483997 2973:0.13483997 3015:0.13483997 3732:0.13483997 3751:0.13483997 3916:0.13483997 3920:0.26967994 4026:0.26967994 4243:0.13483997 4394:0.26967994 4424:0.13483997 
1.259583286279121 0 0 0.8804256018859733 0 0.05879128449138626 1.677985329892654 0 0.7862574286976003 0 0 0.1517890011898973 0 0.04544133353977584 0 61:0.20965697 216:0.20965697 323:0.41931393 1012:0.20965697 1335:0.10482848 1432:0.10482848 1436:0.41931393 1449:0.10482848 1470:0.10482848 1954:0.10482848 1981:0.10482848 1982:0.10482848 2007:0.10482848 2017:0.10482848 2030:0.10482848 2183:0.10482848 2222:0.10482848 2343:0.10482848 2359:0.41931393 2373:0.10482848 2375:0.20965697 3013:0.10482848 3019:0.10482848 3023:0.10482848 3024:0.10482848 3496:0.20965697 3753:0.10482848 4249:0.10482848 4308:0.10482848 4317:0.10482848 4476:0.10482848 
0 0.3833222251106387 0 0.5417606911230124 0 0.2897827581545117 0 0 0.6525032112898013 0 0 0.2499794695306475 0 0 0 61:0.19156526 216:0.19156526 986:0.19156526 998:0.47891314 1085:0.095782629 1121:0.095782629 1210:0.095782629 1335:0.095782629 1350:0.095782629 1445:0.095782629 1446:0.095782629 1449:0.19156526 1981:0.095782629 2017:0.095782629 2030:0.095782629 2130:0.095782629 2131:0.095782629 2310:0.19156526 2343:0.095782629 2344:0.095782629 2359:0.38313051 2365:0.38313051 2731:0.095782629 2931:0.095782629 2972:0.095782629 3013:0.095782629 3019:0.19156526 3023:0.095782629 3024:0.19156526 3044:0.095782629 3241:0.095782629 3918:0.095782629 4243:0.095782629 4421:0.095782629 
0 0.7441186132853145 0.2978423127320864 0 0 0.2840776131216463 0 0.3045900280027515 0 0 0 0 0.05757608678730891 0 0.3557305851284533 61:0.1118034 216:0.1118034 850:0.1118034 998:0.2236068 1053:0.1118034 1085:0.1118034 1116:0.1118034 1119:0.1118034 1121:0.3354102 1449:0.1118034 1453:0.2236068 1981:0.1118034 2017:0.1118034 2030:0.1118034 2208:0.1118034 2300:0.1118034 2343:0.1118034 2359:0.4472136 2376:0.1118034 2385:0.1118034 2969:0.1118034 3013:0.1118034 3258:0.1118034 3482:0.1118034 3484:0.1118034 3504:0.1118034 3688:0.2236068 3690:0.1118034 3698:0.1118034 3702:0.1118034 3740:0.1118034 3759:0.1118034 3820:0.1118034 3999:0.2236068 4313:0.2236068 4317:0.1118034 4387:0.2236068 4476:0.1118034 4485:0.1118034 
0.1938967918107227 0 1.173132087581777 0.3901077375423584 0 0.2751423817154475 0 0 0.4855581618398771 0 0 0.1826385271558281 0 0.0204808007931095 0.1494930125277652 61:0.11867817 216:0.11867817 488:0.11867817 661:0.11867817 850:0.11867817 998:0.23735633 1053:0.11867817 1116:0.11867817 1119:0.11867817 1121:0.23735633 1433:0.11867817 1449:0.11867817 1981:0.11867817 1994:0.11867817 2017:0.11867817 2030:0.11867817 2080:0.11867817 2208:0.11867817 2343:0.11867817 2359:0.47471266 2376:0.11867817 2385:0.11867817 2938:0.11867817 2969:0.11867817 3013:0.11867817 3019:0.11867817 3024:0.11867817 3482:0.23735633 3508:0.11867817 3688:0.11867817 3690:0.11867817 3698:0.11867817 3699:0.11867817 3702:0.11867817 3710:0.11867817 3740:0.11867817 3752:0.11867817 3999:0.23735633 4249:0.11867817 4313:0.11867817 4317:0.23735633 
4.51715927302637 0 1.297350604912646 0 0 0 0 0 0 0 0 0 0 0 0 61:0.32025631 216:0.32025631 795:0.16012815 1335:0.16012815 1449:0.16012815 1981:0.16012815 2007:0.16012815 2017:0.16012815 2030:0.16012815 2065:0.32025631 2066:0.32025631 2343:0.16012815 2359:0.32025631 2375:0.16012815 2953:0.32025631 3241:0.16012815 3656:0.16012815 4386:0.32025631 
0 0.008721217235702704 0 0 0 0 0 0 0 0 0 0.2803158917145208 0 0 0 61:0.20412415 216:0.20412415 323:0.40824829 1012:0.20412415 1335:0.10206207 1432:0.10206207 1436:0.40824829 1449:0.10206207 1470:0.10206207 1471:0.10206207 1954:0.10206207 1981:0.10206207 2007:0.10206207 2017:0.10206207 2030:0.10206207 2222:0.10206207 2343:0.10206207 2359:0.40824829 2373:0.10206207 2375:0.30618622 2402:0.10206207 3013:0.10206207 3019:0.10206207 3023:0.10206207 3024:0.10206207 3331:0.10206207 3496:0.20412415 3753:0.10206207 4249:0.10206207 4317:0.10206207 4476:0.10206207 
0 0 0 0 0 0 0 0 0 0 0 0 0.1221782533162105 0 0 61:0.4472136 216:0.4472136 1121:0.2236068 1213:0.2236068 1449:0.2236068 1463:0.2236068 2132:0.2236068 2343:0.2236068 3657:0.2236068 3688:0.2236068 3820:0.2236068 4009:0.2236068 4392:0.2236068 4475:0.2236068 
0 0 0 0 0 0 0 0 0 0 0 0.2078320950767928 0.01186390910035669 0 0 61:0.32444284 216:0.32444284 986:0.16222142 998:0.32444284 1085:0.16222142 1335:0.16222142 1446:0.16222142 1449:0.16222142 1955:0.16222142 1981:0.16222142 2007:0.16222142 2017:0.16222142 2030:0.16222142 2072:0.16222142 2081:0.16222142 2103:0.16222142 2122:0.16222142 2295:0.16222142 2343:0.16222142 2344:0.16222142 2375:0.16222142 2731:0.16222142 3089:0.16222142 3272:0.16222142 3918:0.16222142 4037:0.32444284 
0 0 0 0 0 0 0 0.085739614297745 0 0 0 0 0 0 0 61:0.3086067 216:0.15430335 986:0.15430335 998:0.3086067 1097:0.15430335 1335:0.15430335 1446:0.15430335 1449:0.15430335 1981:0.15430335 2017:0.15430335 2030:0.15430335 2065:0.15430335 2066:0.15430335 2072:0.15430335 2122:0.15430335 2140:0.15430335 2201:0.15430335 2266:0.15430335 2343:0.15430335 2375:0.15430335 3019:0.15430335 3024:0.15430335 3085:0.15430335 3333:0.3086067 4386:0.46291005 
0 0 0.1202957213320839 0 0 0 0 0 0.2663975551323684 0 0 0 0 0 0 61:0.25197632 216:0.25197632 469:0.12598816 864:0.37796447 986:0.12598816 998:0.25197632 1036:0.12598816 1335:0.12598816 1352:0.12598816 1434:0.12598816 1446:0.12598816 1449:0.12598816 1981:0.12598816 2007:0.12598816 2017:0.12598816 2030:0.12598816 2065:0.12598816 2066:0.12598816 2072:0.12598816 2122:0.12598816 2340:0.12598816 2343:0.12598816 3083:0.25197632 3088:0.12598816 3089:0.12598816 3207:0.12598816 3265:0.12598816 3330:0.12598816 3630:0.12598816 3707:0.12598816 3751:0.12598816 3766:0.12598816 3782:0.25197632 3839:0.12598816 3867:0.12598816 3918:0.12598816 4038:0.12598816 4243:0.12598816 4462:0.12598816 4501:0.12598816 
0.03870402366586245 0 0 0 0 0 0 0 0 0 0 0 0 0 0 61:0.20412415 216:0.20412415 850:0.20412415 1121:0.20412415 1449:0.20412415 2208:0.20412415 2343:0.20412415 2359:0.40824829 2375:0.20412415 3013:0.20412415 3019:0.20412415 3024:0.20412415 3482:0.20412415 3670:0.20412415 3688:0.20412415 3690:0.20412415 3702:0.20412415 3924:0.20412415 3979:0.20412415 4317:0.20412415 4386:0.20412415 
0 0 0 0.1751026977951129 0 0 0.8241202537271087 0.08433947692089763 0 0 0.5808747559091276 0 0 0 0 61:0.2 216:0.2 821:0.2 850:0.2 1121:0.2 1449:0.2 2208:0.2 2343:0.2 2359:0.4 2375:0.2 3013:0.2 3019:0.2 3024:0.2 3482:0.2 3670:0.2 3688:0.2 3690:0.2 3702:0.2 3924:0.2 3979:0.2 4317:0.2 4386:0.2 
7.168352548911116 0 0.2340546835853197 0 0 0 0 0 0.4101057520449425 0 0.2561191670759966 0 0.2777318505161592 0 0 61:0.29172998 100:0.14586499 216:0.14586499 850:0.14586499 877:0.14586499 986:0.14586499 998:0.29172998 1121:0.14586499 1335:0.14586499 1421:0.14586499 1449:0.14586499 1477:0.14586499 2068:0.14586499 2330:0.14586499 2340:0.29172998 2343:0.14586499 2359:0.43759497 3044:0.29172998 3085:0.14586499 3088:0.14586499 3089:0.14586499 3698:0.14586499 3711:0.14586499 3978:0.14586499 3986:0.14586499 4386:0.14586499 4423:0.14586499 
1.538006301015985 0.2719812246365118 0 0.4168158406196682 0 0 0.310259607150003 0 0 0 0 0.2001813726045952 0.2178281546992319 0 0 8:0.13483997 17:0.13483997 61:0.26967994 216:0.26967994 302:0.13483997 863:0.13483997 998:0.13483997 1106:0.13483997 1447:0.13483997 1449:0.26967994 2065:0.26967994 2066:0.26967994 2083:0.13483997 2128:0.13483997 2343:0.26967994 2344:0.13483997 2359:0.13483997 2375:0.13483997 2716:0.13483997 2954:0.13483997 2963:0.13483997 3023:0.26967994 3092:0.13483997 3694:0.13483997 3696:0.26967994 3989:0.13483997 4037:0.13483997 4041:0.13483997 4043:0.13483997 4389:0.13483997 4450:0.13483997 
1.094160923548462 0 0 0.6291579519405688 0.6669221191689426 0 1.389209745595585 0 0.15242455427454 0 0 0 0.0215550559008358 0 0 61:0.33333333 216:0.33333333 250:0.16666667 428:0.16666667 986:0.16666667 998:0.33333333 1335:0.16666667 1446:0.16666667 1449:0.16666667 1981:0.16666667 2007:0.16666667 2017:0.16666667 2030:0.16666667 2072:0.16666667 2122:0.16666667 2131:0.16666667 2343:0.16666667 2357:0.16666667 2360:0.16666667 3090:0.33333333 3918:0.33333333 
0 0.005932557393958817 0 0 0 0 0 0 0 0 0 0 0 0 0 61:0.21199958 216:0.21199958 850:0.10599979 877:0.21199958 1121:0.10599979 1335:0.10599979 1449:0.10599979 1713:0.10599979 1981:0.10599979 1984:0.10599979 2007:0.10599979 2017:0.10599979 2029:0.10599979 2030:0.10599979 2065:0.21199958 2066:0.21199958 2139:0.10599979 2269:0.10599979 2343:0.10599979 2359:0.42399915 2364:0.10599979 2366:0.10599979 2375:0.31799936 2410:0.10599979 2777:0.10599979 2905:0.10599979 2912:0.10599979 2929:0.10599979 2938:0.10599979 2963:0.10599979 3020:0.21199958 3088:0.10599979 3089:0.10599979 3197:0.10599979 3539:0.10599979 3544:0.10599979 3746:0.10599979 4010:0.10599979 4379:0.10599979 4386:0.10599979 4400:0.10599979 4409:0.10599979 4423:0.10599979 4427:0.21199958 4473:0.10599979 
0 0.2939321449168024 0 0.9572053072369312 0.323368878652428 0.6899931579089115 1.642235730022635 0 0.7058386716365621 0.1065798333080413 0 0.2464995972430779 0 0.2122281424221931 0.2066784665496926 61:0.10783277 216:0.10783277 447:0.10783277 632:0.10783277 998:0.10783277 1123:0.10783277 1211:0.21566555 1433:0.10783277 1449:0.10783277 1482:0.10783277 2065:0.32349832 2066:0.32349832 2192:0.32349832 2216:0.21566555 2222:0.10783277 2310:0.32349832 2343:0.10783277 2777:0.10783277 3020:0.10783277 3085:0.10783277 3332:0.10783277 3711:0.21566555 3923:0.10783277 3949:0.10783277 3985:0.32349832 4010:0.21566555 4043:0.10783277 4388:0.21566555 4400:0.10783277 4450:0.10783277 4473:0.10783277 
0 0 0 0 0 0 0 0 0.02435482807155507 0 0 0 0 0 0 61:0.31622777 216:0.31622777 847:0.15811388 986:0.15811388 998:0.31622777 1210:0.15811388 1335:0.15811388 1434:0.15811388 1441:0.15811388 1446:0.15811388 1449:0.15811388 1463:0.15811388 1981:0.15811388 2007:0.15811388 2017:0.15811388 2030:0.15811388 2072:0.15811388 2081:0.15811388 2103:0.15811388 2122:0.15811388 2343:0.15811388 2915:0.15811388 2936:0.15811388 3085:0.15811388 3656:0.15811388 3917:0.15811388 3982:0.15811388 4269:0.15811388 4290:0.15811388 4324:0.15811388 4508:0.15811388 
0 0 0 0 0 0 0 0 0 0 0 0 0 0 0.1143310229299523 18:0.14433757 61:0.14433757 216:0.14433757 242:0.28867513 795:0.14433757 998:0.14433757 1030:0.14433757 1046:0.14433757 1055:0.14433757 1449:0.14433757 1475:0.14433757 1483:0.14433757 1484:0.14433757 1954:0.14433757 1981:0.14433757 2017:0.14433757 2030:0.14433757 2081:0.14433757 2103:0.14433757 2198:0.14433757 2295:0.14433757 2320:0.28867513 2343:0.14433757 2359:0.4330127 2375:0.28867513 2411:0.14433757 2860:0.14433757 3092:0.14433757 3658:0.14433757 3707:0.14433757 3734:0.14433757 
3.769563272870838 0.2709508480920483 0.603874242640369 0.5418305724109367 1.091403825337828 0.5907839144088299 0.2909669303491575 0 0 0 0.1400081513283825 0.4364287687216501 0 0.7219101236094241 0 61:0.20519567 216:0.20519567 850:0.20519567 877:0.20519567 1120:0.10259784 1445:0.30779351 1449:0.20519567 2065:0.30779351 2066:0.30779351 2068:0.20519567 2222:0.10259784 2343:0.20519567 2352:0.10259784 2375:0.30779351 2729:0.30779351 3023:0.10259784 3763:0.30779351 4235:0.30779351 
0 0 0 0 0 0 0 0 0 0 0 0 0 0 0.3023580045441882 18:0.1132277 61:0.1132277 216:0.1132277 242:0.22645541 998:0.1132277 1026:0.1132277 1030:0.1132277 1046:0.1132277 1055:0.1132277 1121:0.1132277 1449:0.1132277 1475:0.1132277 1484:0.1132277 1538:0.1132277 1954:0.1132277 1981:0.1132277 2017:0.1132277 2030:0.1132277 2343:0.1132277 2359:0.22645541 2360:0.1132277 2375:0.45291081 2860:0.33968311 2932:0.1132277 2976:0.1132277 3257:0.1132277 3545:0.1132277 3688:0.1132277 3776:0.22645541 3831:0.1132277 3838:0.1132277 3995:0.1132277 4248:0.33968311 4305:0.1132277 4328:0.1132277 4333:0.1132277 4401:0.1132277 4499:0.1132277 
0 0 0 0.05146294934152787 0 0 0.5310695149384372 0 0 0.8136365072334394 0 0 0 0 0 18:0.13608276 19:0.27216553 61:0.13608276 216:0.13608276 242:0.27216553 998:0.13608276 1015:0.13608276 1030:0.13608276 1046:0.13608276 1055:0.13608276 1121:0.27216553 1349:0.13608276 1449:0.13608276 1475:0.13608276 1484:0.13608276 1954:0.13608276 1981:0.13608276 1993:0.13608276 2017:0.13608276 2030:0.13608276 2091:0.27216553 2343:0.13608276 2359:0.27216553 2375:0.27216553 2417:0.27216553 2860:0.13608276 3252:0.13608276 3255:0.13608276 3487:0.13608276 3634:0.13608276 3710:0.13608276 3760:0.13608276 4296:0.13608276 
1.051064791232834 0 0 0 0 0 0 0 0.07994901226420995 0 0 0.2917090105049597 0 0.3531745238065102 0 18:0.14433757 61:0.14433757 132:0.28867513 216:0.14433757 242:0.28867513 466:0.14433757 998:0.14433757 1046:0.14433757 1121:0.28867513 1445:0.14433757 1449:0.14433757 1513:0.14433757 1538:0.14433757 1549:0.14433757 1981:0.14433757 2017:0.14433757 2030:0.14433757 2183:0.14433757 2294:0.14433757 2343:0.14433757 2359:0.28867513 2375:0.14433757 2384:0.14433757 2411:0.14433757 2860:0.14433757 2914:0.14433757 3269:0.14433757 3658:0.14433757 3707:0.14433757 3734:0.14433757 3770:0.14433757 3831:0.28867513 4037:0.14433757 
0.9799943378678572 0.06184930341220636 0 0 0.3873588203112625 0.239478437617156 0.46043647134903 0.4805789571008405 0 0 0 0 0 0.06214748878767616 0.133880412007496 18:0.15249857 61:0.15249857 216:0.15249857 242:0.30499714 850:0.15249857 877:0.15249857 998:0.15249857 1046:0.15249857 1086:0.15249857 1349:0.15249857 1445:0.15249857 1449:0.15249857 1981:0.15249857 2017:0.15249857 2018:0.15249857 2030:0.30499714 2109:0.15249857 2343:0.15249857 2359:0.30499714 2375:0.15249857 3258:0.15249857 3335:0.15249857 3497:0.15249857 3688:0.15249857 3741:0.30499714 3992:0.15249857 4333:0.30499714 4474:0.15249857 
0.8533026577724171 0 0 0 0 0 0 0 0 0 0 0.236753325521323 0 0 0.5964228690814104 18:0.13867505 61:0.13867505 216:0.13867505 242:0.2773501 659:0.41602515 998:0.13867505 1046:0.13867505 1349:0.13867505 1449:0.13867505 1470:0.13867505 1481:0.13867505 1981:0.13867505 2017:0.13867505 2030:0.13867505 2235:0.13867505 2343:0.13867505 2359:0.2773501 2375:0.41602515 2955:0.13867505 3522:0.13867505 3536:0.13867505 3676:0.13867505 3695:0.13867505 3759:0.13867505 3903:0.2773501 4037:0.13867505 4483:0.13867505 
1.747759966482852 0 0 0.8914896877703781 0.03168068867734687 0.1441162942803106 0.456830829372584 0 0 0 0 0.4287844038911174 0 0.102835606663748 0 61:0.21821789 216:0.21821789 342:0.21821789 1173:0.21821789 1430:0.21821789 1449:0.21821789 2065:0.21821789 2066:0.21821789 2112:0.21821789 2139:0.21821789 2343:0.21821789 2366:0.21821789 2777:0.21821789 3019:0.21821789 3020:0.21821789 3022:0.21821789 3024:0.21821789 3828:0.21821789 4400:0.21821789 4423:0.21821789 4473:0.21821789 
9.301353822471004 0 1.6831181043691 0.1527996935508917 0.4567707846679541 0.2297696722335481 2.566947260833846 0 0 0 0 0.1453736432335432 0 0 0 61:0.25400025 216:0.25400025 431:0.12700013 447:0.12700013 844:0.12700013 847:0.25400025 850:0.25400025 877:0.25400025 1116:0.25400025 1121:0.25400025 1335:0.12700013 1349:0.12700013 1449:0.12700013 1471:0.25400025 1981:0.12700013 2007:0.12700013 2017:0.12700013 2030:0.12700013 2065:0.12700013 2066:0.12700013 2081:0.12700013 2103:0.12700013 2343:0.12700013 2344:0.12700013 2352:0.12700013 2359:0.25400025 2880:0.12700013 2970:0.12700013 3017:0.12700013 3019:0.12700013 3024:0.12700013 3088:0.12700013 3089:0.12700013 3757:0.12700013 4439:0.12700013 
3.120799376874163 0.002478845807768889 0 1.025975769800077 0.3872170880423888 1.400031177913258 0.3923527643489036 0 0.5255169342291201 0.4715203221405261 0 0.2444861538134973 0 0.5078133925395769 0 61:0.084515425 216:0.084515425 460:0.16903085 866:0.084515425 998:0.084515425 1086:0.16903085 1121:0.16903085 1350:0.084515425 1372:0.084515425 1449:0.084515425 1470:0.084515425 1474:0.084515425 2019:0.084515425 2029:0.084515425 2032:0.3380617 2068:0.16903085 2080:0.084515425 2343:0.084515425 2359:0.16903085 3019:0.42257713 3022:0.084515425 3024:0.42257713 3044:0.25354628 3088:0.084515425 3089:0.084515425 3328:0.084515425 3332:0.084515425 3657:0.084515425 3698:0.084515425 3707:0.084515425 3758:0.084515425 3810:0.084515425 3923:0.084515425 3970:0.084515425 4010:0.084515425 4308:0.16903085 4387:0.16903085 4425:0.16903085 4429:0.16903085 4433:0.084515425 4450:0.084515425 4481:0.084515425 
1.808001320003961 0 0 0 0 0 0.9423512815895305 0 0 0 0 0 0 0 0 61:0.1898316 216:0.0949158 488:0.0949158 1335:0.0949158 1449:0.0949158 1476:0.0949158 1981:0.0949158 2007:0.0949158 2017:0.0949158 2030:0.0949158 2081:0.0949158 2103:0.0949158 2343:0.0949158 2359:0.5694948 2360:0.0949158 2364:0.0949158 2366:0.0949158 2375:0.0949158 2777:0.0949158 2929:0.0949158 2938:0.0949158 3020:0.1898316 3090:0.0949158 3979:0.0949158 4010:0.0949158 4032:0.0949158 4386:0.5694948 4400:0.0949158 4409:0.0949158 4423:0.1898316 4427:0.0949158 4473:0.0949158 
0.8407209728138636 0.04313979064606899 0 0.400548425385136 0 0 1.89354305169789 0 0 0 0 0 0 0 0 61:0.20965697 216:0.20965697 841:0.10482848 850:0.10482848 877:0.10482848 997:0.10482848 998:0.10482848 1116:0.10482848 1121:0.20965697 1209:0.10482848 1211:0.10482848 1335:0.10482848 1349:0.10482848 1449:0.10482848 1981:0.10482848 2007:0.10482848 2017:0.10482848 2030:0.10482848 2080:0.10482848 2216:0.10482848 2221:0.10482848 2343:0.10482848 2359:0.41931393 2375:0.10482848 2376:0.10482848 2742:0.10482848 2919:0.10482848 2970:0.10482848 3020:0.10482848 3022:0.20965697 3121:0.10482848 3258:0.10482848 3269:0.31448545 3487:0.10482848 3534:0.10482848 3645:0.10482848 3653:0.20965697 3657:0.20965697 3706:0.10482848 3815:0.10482848 3919:0.10482848 4253:0.10482848 4343:0.10482848 4407:0.20965697 4423:0.10482848 4427:0.10482848 4428:0.10482848 
4.617295173886522 0 0 0 0 0 1.964128676320023 0.4954545257764136 0 0 0 0 0 0 0 61:0.16903085 156:0.16903085 216:0.16903085 998:0.16903085 1121:0.16903085 1213:0.16903085 1413:0.16903085 1449:0.16903085 1472:0.16903085 1981:0.16903085 2017:0.16903085 2030:0.16903085 2343:0.16903085 2359:0.3380617 2375:0.16903085 2774:0.16903085 3018:0.16903085 3044:0.3380617 3329:0.16903085 3522:0.16903085 3638:0.16903085 3670:0.3380617 4386:0.3380617 
0 0 0 0 0 0 0.03014246416581504 0 0 0 0 0.0164442973611296 0 0 0 18:0.11704115 61:0.11704115 216:0.11704115 242:0.23408229 998:0.11704115 1026:0.11704115 1046:0.11704115 1121:0.11704115 1449:0.11704115 1538:0.11704115 1981:0.11704115 2017:0.11704115 2030:0.11704115 2343:0.11704115 2359:0.23408229 2360:0.11704115 2375:0.46816459 2860:0.35112344 2932:0.11704115 2976:0.11704115 3257:0.11704115 3545:0.11704115 3688:0.11704115 3776:0.23408229 3831:0.11704115 3838:0.11704115 3995:0.11704115 4248:0.35112344 4305:0.11704115 4328:0.11704115 4333:0.11704115 4401:0.11704115 4499:0.11704115 
0.8046370509398911 0.1604698508134168 0 0 0 0 0.6126554844565051 0.1875358152605887 0 0 0 0.1520058793511466 0 0 0.5790818827517197 18:0.13736056 61:0.13736056 216:0.13736056 242:0.27472113 850:0.13736056 998:0.13736056 1046:0.13736056 1449:0.13736056 1470:0.13736056 1981:0.13736056 2017:0.13736056 2030:0.27472113 2111:0.13736056 2179:0.13736056 2343:0.13736056 2359:0.41208169 2373:0.13736056 2375:0.13736056 2856:0.13736056 3041:0.27472113 3201:0.13736056 3252:0.13736056 3727:0.13736056 3734:0.13736056 3776:0.13736056 4032:0.27472113 4333:0.13736056 4401:0.27472113 4432:0.13736056 4479:0.13736056 
0.7638291869980673 0 0 0 0 0 0.2441889056732778 0.005315463173623961 0 0 0 0.5649844622428046 0 0 0 61:0.24433889 216:0.12216944 998:0.24433889 1173:0.12216944 1335:0.12216944 1449:0.12216944 1463:0.12216944 1713:0.12216944 1981:0.12216944 2007:0.12216944 2017:0.12216944 2030:0.12216944 2032:0.12216944 2068:0.12216944 2343:0.12216944 2366:0.12216944 2375:0.12216944 2905:0.36650833 3015:0.12216944 3019:0.24433889 3024:0.24433889 3085:0.12216944 3087:0.12216944 3088:0.12216944 3089:0.12216944 3241:0.12216944 3332:0.12216944 3698:0.12216944 4243:0.12216944 4247:0.12216944 4308:0.36650833 4386:0.24433889 4423:0.24433889 
0 0 0 0 0 0.6272247542060185 0 0 0 0 0 0 0.1781799728386798 0 0 18:0.13483997 61:0.13483997 216:0.13483997 242:0.26967994 457:0.13483997 998:0.13483997 1046:0.13483997 1121:0.13483997 1122:0.26967994 1449:0.13483997 1483:0.13483997 1981:0.13483997 2017:0.13483997 2030:0.13483997 2110:0.13483997 2359:0.67419986 2375:0.13483997 2935:0.26967994 2971:0.13483997 3645:0.13483997 3816:0.13483997 3981:0.13483997 
11.313708499 0.09610656615579655 1.116561788398667 0.3085763526094614 0 0 1.606145449402149 0 0 0 0 0 0 0 0 61:0.32539569 216:0.43386092 844:0.10846523 847:0.10846523 850:0.21693046 877:0.32539569 998:0.43386092 1116:0.10846523 1213:0.10846523 1335:0.10846523 1349:0.10846523 1449:0.10846523 1499:0.10846523 1514:0.21693046 1981:0.10846523 2007:0.10846523 2017:0.10846523 2030:0.10846523 2065:0.10846523 2066:0.10846523 2068:0.10846523 2210:0.10846523 2309:0.10846523 2343:0.10846523 2366:0.10846523 2940:0.10846523 3921:0.10846523 3959:0.10846523 4387:0.21693046 4399:0.10846523 
1.649136152547209 0.008661310472075419 0.301909835930239 0 0 0 0.3576627057004482 0 0 0.1738111792720847 0 0.39708230789346 0 0 0.5780519374564275 18:0.15617376 61:0.15617376 216:0.15617376 998:0.15617376 1046:0.15617376 1449:0.15617376 1497:0.15617376 1981:0.15617376 2005:0.15617376 2017:0.15617376 2030:0.15617376 2110:0.15617376 2217:0.15617376 2271:0.31234752 2343:0.15617376 2359:0.15617376 2375:0.46852129 2384:0.15617376 2860:0.46852129 3079:0.15617376 4271:0.15617376 4422:0.15617376 
0 0 0 0 0 0 0.7713757331186637 0 0 0 0 0 0 0 0 18:0.12803688 61:0.12803688 216:0.12803688 242:0.25607376 457:0.12803688 998:0.12803688 1030:0.12803688 1046:0.12803688 1055:0.12803688 1121:0.12803688 1122:0.25607376 1449:0.12803688 1475:0.12803688 1483:0.12803688 1484:0.12803688 1954:0.12803688 1981:0.12803688 2017:0.12803688 2030:0.12803688 2110:0.12803688 2343:0.12803688 2359:0.6401844 2375:0.12803688 2935:0.25607376 2971:0.12803688 3645:0.12803688 3816:0.12803688 3981:0.12803688 
0 0 0 0 0 0 0.4465891872160158 0 0 0 0 0 0 0.4565443010845895 0 61:0.23094011 216:0.23094011 488:0.11547005 1089:0.11547005 1213:0.11547005 1449:0.11547005 1540:0.11547005 2113:0.11547005 2140:0.11547005 2192:0.11547005 2208:0.11547005 2232:0.11547005 2272:0.11547005 2343:0.11547005 2359:0.57735027 2375:0.23094011 2411:0.11547005 3018:0.11547005 3072:0.11547005 3331:0.11547005 3637:0.11547005 3645:0.11547005 3715:0.11547005 3837:0.23094011 3920:0.11547005 4263:0.11547005 4326:0.34641016 4386:0.11547005 4401:0.11547005 4403:0.11547005 4451:0.11547005 
3.221932496121314 0 0 0 0 0 0 0 0 0 0 0 0 0 0 61:0.22645541 216:0.22645541 242:0.1132277 488:0.1132277 1089:0.1132277 1121:0.1132277 1213:0.1132277 1449:0.1132277 1540:0.1132277 2068:0.1132277 2113:0.1132277 2140:0.1132277 2192:0.1132277 2208:0.1132277 2272:0.1132277 2343:0.1132277 2359:0.56613852 2375:0.22645541 2411:0.1132277 3018:0.1132277 3072:0.1132277 3331:0.1132277 3637:0.1132277 3715:0.1132277 3837:0.22645541 3839:0.1132277 3920:0.1132277 4263:0.1132277 4289:0.1132277 4326:0.33968311 4386:0.1132277 4401:0.1132277 4403:0.1132277 4451:0.1132277 
0 0.5607551171950921 0 0 0 0 0.4394020528489551 0 0 0 0 0 0 0 0 61:0.27472113 216:0.27472113 488:0.13736056 1089:0.13736056 1213:0.13736056 1449:0.13736056 2113:0.13736056 2192:0.13736056 2208:0.13736056 2272:0.13736056 2343:0.13736056 2359:0.54944226 2375:0.27472113 3018:0.13736056 3637:0.13736056 3715:0.13736056 3837:0.27472113 3920:0.13736056 4263:0.13736056 4326:0.27472113 4386:0.13736056 4403:0.13736056 4451:0.13736056 
2.007176469773264 0.171101073905012 0 0 0 0 0 0 0 0 0 0 0 0 0 61:0.18731716 216:0.18731716 488:0.093658581 1065:0.093658581 1089:0.093658581 1106:0.093658581 1212:0.18731716 1213:0.093658581 1349:0.093658581 1449:0.093658581 2113:0.093658581 2140:0.093658581 2192:0.093658581 2208:0.093658581 2272:0.093658581 2343:0.093658581 2359:0.56195149 2375:0.37463432 2411:0.18731716 2847:0.093658581 3018:0.093658581 3072:0.093658581 3331:0.093658581 3637:0.093658581 3699:0.093658581 3715:0.093658581 3835:0.093658581 3837:0.18731716 3920:0.093658581 4263:0.093658581 4326:0.37463432 4386:0.093658581 4403:0.093658581 4451:0.093658581 
4.373157547960681 0 0 0 0 0 0.1021933248890096 0 0 0 0.06667062736894509 0 0 0 0 61:0.089802651 216:0.1796053 323:0.1796053 429:0.089802651 850:0.089802651 877:0.089802651 1013:0.089802651 1116:0.089802651 1121:0.26940795 1209:0.089802651 1449:0.089802651 2005:0.089802651 2193:0.089802651 2209:0.089802651 2266:0.1796053 2310:0.089802651 2343:0.089802651 2359:0.62861856 2366:0.089802651 2375:0.26940795 2376:0.089802651 2384:0.1796053 2406:0.089802651 3010:0.089802651 3077:0.089802651 3241:0.089802651 3626:0.089802651 3688:0.089802651 3695:0.089802651 3699:0.089802651 3715:0.089802651 3719:0.089802651 3793:0.089802651 4290:0.089802651 4344:0.089802651 4404:0.26940795 4435:0.1796053 
2.6979780721661 0 0.7900325878662193 0 0 0 0 0 0 0 0 0.01010404386326834 0 0 0 61:0.24253563 216:0.24253563 459:0.12126781 821:0.12126781 850:0.12126781 877:0.12126781 998:0.12126781 1121:0.24253563 1210:0.12126781 1335:0.12126781 1449:0.12126781 1475:0.12126781 1542:0.12126781 1981:0.12126781 2007:0.12126781 2017:0.12126781 2030:0.12126781 2031:0.12126781 2065:0.12126781 2066:0.12126781 2080:0.12126781 2141:0.12126781 2343:0.12126781 2359:0.48507125 2375:0.24253563 2376:0.12126781 2382:0.12126781 2411:0.24253563 3000:0.12126781 3019:0.12126781 3024:0.12126781 3477:0.12126781 3533:0.12126781 3688:0.12126781 3929:0.12126781 3948:0.12126781 4033:0.12126781 4259:0.12126781 
1.924634532953192 0.2301944786319493 0 0 0 0 0 0 0 0 0 0.6685180103427471 0 0 0 61:0.16903085 216:0.16903085 986:0.16903085 1106:0.16903085 1350:0.16903085 1449:0.16903085 1470:0.16903085 2032:0.16903085 2192:0.16903085 2343:0.16903085 2349:0.16903085 2359:0.16903085 2375:0.16903085 2952:0.16903085 2967:0.16903085 3332:0.16903085 3481:0.16903085 3627:0.16903085 3670:0.16903085 3699:0.16903085 3700:0.16903085 3837:0.16903085 3924:0.16903085 4247:0.16903085 4312:0.16903085 4386:0.50709255 4404:0.16903085 
0 0 0 0 0 0.3073056314203778 0 0 0 0.1371071449820555 0.5890718445193217 0.6528976872964769 0 0 0 61:0.11704115 216:0.11704115 217:0.35112344 242:0.23408229 887:0.11704115 992:0.11704115 998:0.11704115 1014:0.11704115 1054:0.35112344 1088:0.11704115 1121:0.23408229 1174:0.11704115 1349:0.11704115 1368:0.11704115 1449:0.11704115 1981:0.11704115 2017:0.11704115 2030:0.11704115 2081:0.11704115 2103:0.11704115 2343:0.11704115 2359:0.23408229 2374:0.11704115 2375:0.23408229 2969:0.35112344 3538:0.11704115 3820:0.11704115 4234:0.35112344 4298:0.11704115 
1.200513520149071 0.2274280935097512 0 0.01055254758741017 0 0.2756960054197595 0 0 0 0 0.01415015740047722 0.8073400612793691 0.1053195516341577 0 0 61:0.095782629 216:0.19156526 227:0.095782629 242:0.19156526 457:0.095782629 467:0.095782629 887:0.095782629 893:0.19156526 991:0.095782629 998:0.095782629 1088:0.095782629 1121:0.095782629 1139:0.095782629 1210:0.095782629 1424:0.095782629 1434:0.095782629 1449:0.095782629 1511:0.095782629 1981:0.095782629 2007:0.095782629 2017:0.095782629 2025:0.095782629 2030:0.095782629 2343:0.095782629 2359:0.095782629 2401:0.19156526 2413:0.19156526 2426:0.095782629 2990:0.095782629 3258:0.095782629 3528:0.095782629 3692:0.19156526 3820:0.19156526 3935:0.19156526 3959:0.095782629 4387:0.6704784 4419:0.095782629 
0.3918774162242583 0.2481052366370794 0 0 0.0631627812345147 0 0 0 0.006291371517692109 0 0 0.06384405440790089 0 0 0 61:0.19611614 216:0.19611614 242:0.19611614 887:0.19611614 998:0.19611614 1088:0.19611614 1449:0.19611614 1981:0.19611614 2017:0.19611614 2030:0.19611614 2343:0.19611614 2359:0.19611614 2400:0.19611614 2421:0.19611614 2761:0.19611614 3020:0.19611614 3276:0.19611614 3321:0.19611614 3530:0.19611614 3971:0.39223227 3980:0.19611614 4270:0.19611614 4484:0.19611614 
0 0 0 0 0 0 0 0.07660108514700406 0 0 0 0 0 0 0 61:0.11547005 216:0.11547005 242:0.23094011 887:0.11547005 986:0.11547005 998:0.11547005 1054:0.23094011 1088:0.11547005 1121:0.23094011 1449:0.11547005 1981:0.11547005 2017:0.11547005 2030:0.11547005 2081:0.11547005 2103:0.11547005 2131:0.11547005 2183:0.11547005 2343:0.11547005 2347:0.23094011 2359:0.23094011 2374:0.23094011 2411:0.11547005 2426:0.23094011 2427:0.11547005 2778:0.11547005 2915:0.11547005 3127:0.11547005 3538:0.11547005 3647:0.11547005 3656:0.11547005 3688:0.11547005 3762:0.11547005 3999:0.11547005 4234:0.23094011 4237:0.11547005 4249:0.11547005 4290:0.11547005 4303:0.11547005 4311:0.11547005 4341:0.11547005 4386:0.11547005 4387:0.23094011 4442:0.11547005 4445:0.11547005 4452:0.11547005 4456:0.11547005 4459:0.11547005 4496:0.11547005 
0 0.123928893455397 0 0 0 0 0 0 0 0 0 0 0.034303517115742 0 0 61:0.13245324 216:0.13245324 242:0.26490647 887:0.13245324 986:0.13245324 991:0.26490647 998:0.13245324 1014:0.13245324 1088:0.13245324 1121:0.26490647 1449:0.13245324 1981:0.13245324 2017:0.13245324 2030:0.13245324 2075:0.26490647 2110:0.13245324 2273:0.13245324 2343:0.13245324 2359:0.39735971 2919:0.13245324 2975:0.13245324 3013:0.13245324 3020:0.26490647 3079:0.26490647 3244:0.13245324 3489:0.13245324 3656:0.13245324 3775:0.13245324 4391:0.13245324 4451:0.13245324 4500:0.13245324 
2.882742585778075 0.3780324121527345 0.286553538292934 0 0 0 0.1317729007587876 0 0.2941177731351901 0 0 1.013888186907588 0.03067225091488127 0 0 61:0.25 216:0.25 841:0.25 887:0.25 998:0.25 1088:0.25 1449:0.25 1981:0.25 2017:0.25 2030:0.25 2073:0.25 2183:0.25 2343:0.25 2742:0.25 2743:0.25 3658:0.25 
0 0 0.2784211422634859 0 0.3266169139964881 0 0 0 0 0 0.1173950674406374 0 0 0 0 61:0.26832816 216:0.17888544 850:0.089442719 865:0.089442719 877:0.17888544 887:0.17888544 1116:0.089442719 1121:0.089442719 1213:0.089442719 1335:0.089442719 1449:0.089442719 1976:0.089442719 1981:0.089442719 2005:0.089442719 2007:0.089442719 2017:0.089442719 2030:0.089442719 2031:0.089442719 2065:0.17888544 2066:0.17888544 2068:0.089442719 2073:0.17888544 2081:0.089442719 2083:0.089442719 2103:0.089442719 2183:0.26832816 2333:0.089442719 2343:0.089442719 2359:0.35777088 2360:0.089442719 2375:0.17888544 2376:0.089442719 2410:0.089442719 2743:0.26832816 3019:0.089442719 3022:0.17888544 3024:0.089442719 3035:0.17888544 3128:0.089442719 3658:0.089442719 3688:0.17888544 3696:0.089442719 3838:0.089442719 3985:0.089442719 4035:0.17888544 4036:0.089442719 4295:0.17888544 4387:0.089442719 4423:0.089442719 4436:0.089442719 
0 0 0 0 0 0 0 0 0 0 0 0 0 0 0.2351277131019588 61:0.12309149 216:0.12309149 242:0.24618298 324:0.12309149 887:0.12309149 988:0.12309149 998:0.12309149 1030:0.12309149 1055:0.12309149 1088:0.12309149 1121:0.24618298 1123:0.12309149 1449:0.12309149 1475:0.12309149 1484:0.12309149 1954:0.12309149 1981:0.12309149 2017:0.12309149 2030:0.12309149 2065:0.36927447 2066:0.36927447 2081:0.12309149 2083:0.12309149 2103:0.12309149 2343:0.12309149 2359:0.12309149 2375:0.24618298 2949:0.12309149 3022:0.12309149 3205:0.12309149 3330:0.12309149 3538:0.12309149 3639:0.12309149 3688:0.12309149 3947:0.12309149 4040:0.12309149 4319:0.12309149 4414:0.12309149 4437:0.12309149 4443:0.12309149 4471:0.12309149 
1.91664417225537 0 0.4937740045917281 1.160472748404657 2.613474150196575 0.5800294125430812 3.324669964483384 0.4162273993822628 0 0.1035512965218039 0 0.3152656733204285 0 0 0.137016741982698 61:0.23249528 178:0.23249528 216:0.11624764 428:0.11624764 488:0.23249528 844:0.11624764 847:0.11624764 850:0.11624764 877:0.11624764 1030:0.11624764 1055:0.11624764 1116:0.11624764 1214:0.23249528 1335:0.11624764 1349:0.11624764 1433:0.23249528 1449:0.11624764 1981:0.11624764 2007:0.11624764 2017:0.11624764 2030:0.11624764 2065:0.11624764 2066:0.11624764 2081:0.23249528 2103:0.23249528 2343:0.11624764 2359:0.11624764 2360:0.23249528 2375:0.11624764 2381:0.11624764 2870:0.23249528 3088:0.11624764 3089:0.11624764 3572:0.11624764 3653:0.11624764 3688:0.11624764 3946:0.11624764 4031:0.11624764 4341:0.23249528 4423:0.11624764 4457:0.23249528 
2.127986561107611 0 0 0.1722127298431491 0 0 0.2192008722068564 0 0 0 0 0.7345211817974438 0 0 0 18:0.14285714 19:0.28571429 61:0.14285714 216:0.14285714 242:0.28571429 998:0.14285714 1015:0.14285714 1046:0.14285714 1121:0.28571429 1349:0.14285714 1449:0.14285714 1981:0.14285714 1993:0.14285714 2017:0.14285714 2030:0.14285714 2091:0.28571429 2343:0.14285714 2359:0.28571429 2375:0.28571429 2417:0.28571429 2860:0.14285714 3252:0.14285714 3255:0.14285714 3487:0.14285714 3634:0.14285714 3710:0.14285714 3760:0.14285714 4296:0.14285714 
1.731657734503221 0.2707121748601736 0.1235944693480982 0 0 0 0 0 0 0 0 1.133317332327188 0 0 0.09618419686337548 18:0.12803688 61:0.12803688 216:0.12803688 998:0.12803688 1046:0.12803688 1121:0.12803688 1449:0.12803688 1470:0.12803688 1513:0.25607376 1981:0.12803688 2017:0.12803688 2030:0.12803688 2343:0.12803688 2359:0.38411064 2375:0.51214752 2881:0.12803688 2970:0.12803688 3226:0.12803688 3540:0.12803688 3699:0.12803688 3714:0.12803688 3929:0.12803688 3945:0.12803688 4014:0.12803688 4387:0.38411064 4430:0.12803688 4441:0.12803688 
0 0.3591773146027291 1.423811732627914 0.1672411469520082 0 0.6024457628623805 0 0 0 0.1998599678623459 0 0 0 0 0 61:0.084818893 216:0.16963779 323:0.16963779 429:0.16963779 850:0.084818893 877:0.084818893 1013:0.084818893 1116:0.16963779 1121:0.16963779 1209:0.084818893 1449:0.084818893 2005:0.084818893 2193:0.084818893 2209:0.084818893 2266:0.16963779 2310:0.084818893 2343:0.084818893 2359:0.59373225 2366:0.084818893 2375:0.25445668 2376:0.16963779 2384:0.16963779 2406:0.084818893 3010:0.084818893 3077:0.084818893 3626:0.084818893 3688:0.084818893 3695:0.084818893 3699:0.084818893 3715:0.084818893 3719:0.084818893 3793:0.084818893 4290:0.084818893 4344:0.084818893 4404:0.33927557 4435:0.25445668 
2.053958221986467 0.6248820266751105 2.328513564102348 0.1331989982745447 0 0.2543594950770623 0 0 0 0 0 0.4115941806625724 0 0 0.263594254847219 61:0.1490712 216:0.1490712 219:0.1490712 850:0.1490712 877:0.1490712 1350:0.1490712 1449:0.1490712 1456:0.1490712 1470:0.1490712 2090:0.1490712 2128:0.1490712 2343:0.1490712 2352:0.1490712 2363:0.1490712 2375:0.4472136 2392:0.1490712 3026:0.1490712 3251:0.1490712 3270:0.1490712 3336:0.1490712 3523:0.1490712 3659:0.4472136 3702:0.1490712 3837:0.1490712 3838:0.1490712 4326:0.2981424 
0 0 0 0 0 0 0.4611626877579634 0 0 0 0.3844334706571405 0 0 0 1.559010431185218 18:0.12038585 61:0.12038585 216:0.12038585 242:0.24077171 623:0.12038585 998:0.12038585 1046:0.12038585 1099:0.12038585 1121:0.12038585 1449:0.12038585 1981:0.12038585 2017:0.12038585 2030:0.12038585 2068:0.36115756 2081:0.12038585 2082:0.12038585 2103:0.12038585 2343:0.12038585 2359:0.36115756 2375:0.36115756 2382:0.24077171 3085:0.24077171 3216:0.12038585 3657:0.12038585 3688:0.36115756 3959:0.12038585 4236:0.12038585 4271:0.12038585 
0.7609904357113453 0 0.5113815298439745 0.1639150226521216 0.02988070544103716 0.244728154371882 0.7748428537382024 0 0 0 0.06785555117543593 0.7066465876256458 0 0 0 61:0.24253563 216:0.36380344 428:0.12126781 842:0.12126781 850:0.12126781 877:0.12126781 998:0.12126781 1121:0.12126781 1335:0.12126781 1449:0.12126781 1535:0.24253563 1981:0.12126781 1993:0.24253563 2007:0.12126781 2017:0.12126781 2030:0.12126781 2080:0.24253563 2081:0.12126781 2103:0.12126781 2141:0.12126781 2343:0.12126781 2416:0.12126781 2947:0.12126781 2987:0.24253563 3021:0.12126781 3076:0.12126781 3082:0.12126781 3252:0.24253563 3270:0.24253563 3531:0.12126781 3653:0.12126781 3656:0.12126781 3688:0.12126781 3985:0.24253563 4387:0.12126781 4423:0.12126781 
6.790730500122862 0 1.216514871761373 0 0.2556226022466183 0 1.881979797552161 0 0.510365424634638 0 0 0.3536872132900474 0.006762152747460435 0 0 61:0.14285714 216:0.14285714 347:0.14285714 850:0.14285714 877:0.14285714 998:0.14285714 1121:0.28571429 1394:0.14285714 1443:0.14285714 1449:0.14285714 1470:0.28571429 1536:0.14285714 1981:0.14285714 2017:0.14285714 2030:0.14285714 2186:0.14285714 2332:0.14285714 2343:0.14285714 2359:0.42857143 2375:0.14285714 2756:0.14285714 2902:0.14285714 2913:0.14285714 2953:0.14285714 3019:0.14285714 3024:0.14285714 3328:0.14285714 3688:0.14285714 3814:0.14285714 4038:0.28571429 4247:0.14285714 4421:0.14285714 
11.313708499 0.872240519232671 0 0 0 0 1.242291584944965 0 0 0 0 0 0 0.03138298423287308 0 61:0.26037782 216:0.13018891 1121:0.13018891 1211:0.13018891 1349:0.26037782 1449:0.13018891 1538:0.13018891 2031:0.13018891 2222:0.13018891 2294:0.13018891 2343:0.13018891 2359:0.65094455 2375:0.26037782 2386:0.26037782 2411:0.13018891 2770:0.13018891 2860:0.13018891 2972:0.13018891 3710:0.13018891 3948:0.13018891 4262:0.13018891 4312:0.13018891 4464:0.13018891 
0 0 0 0 0 0 0 0 0 0 0 0.15367582410594 0 0 0 61:0.11704115 216:0.11704115 242:0.23408229 632:0.11704115 887:0.11704115 986:0.11704115 998:0.11704115 1030:0.11704115 1055:0.11704115 1088:0.11704115 1121:0.11704115 1449:0.11704115 1475:0.11704115 1484:0.11704115 1954:0.11704115 1981:0.11704115 2017:0.11704115 2030:0.11704115 2081:0.23408229 2091:0.23408229 2103:0.23408229 2343:0.11704115 2359:0.46816459 2375:0.11704115 2905:0.23408229 2915:0.11704115 3265:0.11704115 3321:0.35112344 3656:0.11704115 3752:0.23408229 3756:0.11704115 3758:0.11704115 
0.2618227428834694 0 0 0 0 0 0 0 0 0 0.3950203674785437 0 0 0.1877023977961431 0 61:0.13608276 216:0.13608276 242:0.27216553 887:0.13608276 986:0.13608276 991:0.27216553 998:0.13608276 1014:0.13608276 1088:0.13608276 1121:0.27216553 1449:0.13608276 2075:0.27216553 2110:0.13608276 2273:0.13608276 2343:0.13608276 2359:0.40824829 2919:0.13608276 2975:0.13608276 3013:0.13608276 3020:0.27216553 3079:0.27216553 3244:0.13608276 3489:0.13608276 3656:0.13608276 3775:0.13608276 4391:0.13608276 4451:0.13608276 4500:0.13608276 
0 0 0.8428730733208862 3.699372009591637 0 0.345342942090501 0.1347302867276908 0.08557212242152099 0.01818223695598548 0 0 0.4164508174817654 0 0.2396279564735336 0 61:0.20203051 216:0.20203051 227:0.10101525 470:0.10101525 821:0.20203051 847:0.10101525 850:0.10101525 862:0.10101525 877:0.10101525 998:0.30304576 1004:0.10101525 1084:0.10101525 1116:0.10101525 1138:0.10101525 1335:0.10101525 1336:0.10101525 1342:0.10101525 1443:0.10101525 1449:0.10101525 1475:0.10101525 1476:0.10101525 1482:0.10101525 1960:0.10101525 1981:0.20203051 2007:0.10101525 2017:0.20203051 2019:0.10101525 2030:0.20203051 2065:0.20203051 2066:0.20203051 2067:0.20203051 2068:0.10101525 2080:0.10101525 2081:0.20203051 2103:0.10101525 2141:0.10101525 2221:0.10101525 2343:0.10101525 2359:0.20203051 2376:0.10101525 2915:0.10101525 3022:0.10101525 3088:0.20203051 3089:0.20203051 3122:0.10101525 3494:0.10101525 3688:0.10101525 3748:0.10101525 3948:0.10101525 4038:0.10101525 4405:0.10101525 
0.05993357130671792 0 0 0 0 0 0 0 0 0 0 0.03681183249215183 0 0 0.2572299106062364 18:0.15249857 61:0.15249857 216:0.15249857 242:0.30499714 998:0.15249857 1046:0.15249857 1099:0.15249857 1121:0.15249857 1449:0.15249857 1962:0.15249857 1981:0.15249857 2017:0.15249857 2024:0.15249857 2030:0.15249857 2071:0.15249857 2179:0.15249857 2322:0.15249857 2343:0.15249857 2359:0.30499714 2375:0.45749571 2411:0.15249857 3258:0.15249857 4014:0.15249857 4020:0.15249857 4320:0.15249857 4345:0.15249857 4387:0.15249857 4407:0.15249857 4420:0.15249857 
11.313708499 0.5636866617008983 2.661564164458306 0 0.1626884320785816 0.1169592703568997 6.137106476764438 0 0 0 0 1.491173240236751 0.001740736503267798 0 0 61:0.22941573 216:0.22941573 850:0.22941573 877:0.22941573 1449:0.22941573 1981:0.22941573 2017:0.22941573 2030:0.22941573 2080:0.22941573 2343:0.22941573 2381:0.22941573 3088:0.22941573 3089:0.22941573 3329:0.22941573 3333:0.45883147 3974:0.22941573 
0 0 0 0 0 0 0 0 0 0 0 0 0.0026110385536008 0 0 61:0.14744196 216:0.14744196 242:0.29488391 324:0.14744196 488:0.14744196 887:0.14744196 998:0.14744196 1088:0.14744196 1121:0.29488391 1174:0.14744196 1449:0.14744196 1981:0.14744196 2017:0.14744196 2030:0.14744196 2081:0.14744196 2103:0.14744196 2341:0.44232587 2343:0.14744196 2359:0.29488391 3087:0.14744196 3265:0.14744196 3527:0.14744196 3637:0.14744196 3688:0.14744196 3700:0.14744196 4251:0.14744196 4266:0.14744196 4424:0.14744196 4439:0.14744196 
3.264291214175283 0.07260665554724072 0 0.1351675507397949 0.4455327722235962 0.2744684986501885 0.2396984963818554 0 0 0.2131145254889265 0 0 0 0.4394287571169792 0.1224356834787592 61:0.24253563 216:0.12126781 334:0.12126781 850:0.12126781 932:0.12126781 998:0.24253563 1121:0.12126781 1335:0.12126781 1336:0.12126781 1349:0.12126781 1449:0.12126781 1548:0.12126781 1981:0.12126781 2006:0.12126781 2007:0.12126781 2017:0.12126781 2030:0.12126781 2080:0.12126781 2186:0.12126781 2343:0.12126781 2359:0.24253563 2375:0.12126781 2978:0.12126781 3019:0.12126781 3024:0.12126781 3073:0.48507125 3087:0.12126781 3270:0.12126781 3328:0.12126781 3497:0.24253563 3653:0.12126781 3692:0.12126781 3751:0.12126781 3782:0.12126781 3956:0.12126781 3985:0.12126781 4043:0.12126781 4238:0.12126781 4260:0.12126781 4301:0.12126781 4343:0.12126781 
4.571421680574265 0 4.26431907713328 0 0 0 0 0 0 0 0 0 0 0 0 61:0.11785113 216:0.11785113 242:0.23570226 844:0.11785113 847:0.11785113 998:0.35355339 1116:0.11785113 1121:0.35355339 1349:0.23570226 1427:0.11785113 1449:0.11785113 1981:0.11785113 2005:0.11785113 2017:0.11785113 2030:0.11785113 2065:0.11785113 2066:0.11785113 2068:0.23570226 2081:0.23570226 2103:0.11785113 2132:0.11785113 2185:0.11785113 2343:0.11785113 2359:0.11785113 2375:0.23570226 3020:0.11785113 3025:0.11785113 3082:0.11785113 3088:0.23570226 3089:0.23570226 3234:0.11785113 3670:0.11785113 3695:0.11785113 3821:0.11785113 3958:0.11785113 
0.1782379574107249 0 0 0 0 0 0 0 0 0 0 0.386704303168446 0 0 0.005768313674648547 18:0.12803688 61:0.12803688 216:0.12803688 242:0.25607376 458:0.12803688 998:0.12803688 1046:0.12803688 1449:0.12803688 1981:0.12803688 2004:0.12803688 2007:0.12803688 2017:0.12803688 2030:0.12803688 2126:0.12803688 2343:0.12803688 2359:0.25607376 2375:0.51214752 3092:0.12803688 3201:0.25607376 3479:0.12803688 3522:0.12803688 3541:0.25607376 3542:0.12803688 3547:0.12803688 3670:0.12803688 3676:0.12803688 3711:0.12803688 3839:0.12803688 4005:0.12803688 4304:0.12803688 4386:0.25607376 
5.755155893070601 0.1197177773531898 0 0.02526347696931079 0 0 0 0 0.2157548982958914 0 0 0.2533560841672434 0.1908479105210638 0.1776454033275866 0.3531781169912949 18:0.14002801 61:0.14002801 216:0.14002801 287:0.14002801 457:0.14002801 998:0.14002801 1046:0.14002801 1121:0.14002801 1449:0.14002801 1981:0.14002801 2017:0.14002801 2030:0.14002801 2179:0.14002801 2343:0.14002801 2359:0.28005602 2360:0.14002801 2375:0.14002801 2381:0.14002801 2411:0.14002801 2774:0.14002801 2967:0.14002801 3025:0.14002801 3092:0.42008403 3333:0.28005602 3540:0.14002801 3575:0.14002801 3674:0.14002801 3714:0.14002801 3826:0.14002801 3839:0.14002801 3948:0.14002801 3979:0.14002801 4251:0.14002801 4344:0.14002801 4393:0.14002801 4484:0.14002801 4488:0.14002801 
0 0 0 0.06927959584070306 0 0 0.3023785592455768 0.7522575266576248 0 0 0 0 0.03522503222266938 0 0 18:0.17407766 61:0.17407766 216:0.17407766 242:0.34815531 998:0.17407766 1046:0.34815531 1349:0.34815531 1449:0.17407766 1513:0.17407766 1549:0.17407766 1981:0.17407766 2017:0.17407766 2030:0.17407766 2343:0.17407766 2937:0.17407766 2971:0.17407766 3092:0.17407766 3108:0.17407766 3123:0.17407766 3540:0.17407766 3688:0.17407766 3720:0.17407766 3921:0.17407766 4464:0.17407766 
0 0 0 0 0 0 0 0 0 0 0 0 0.0646042075236216 0 0 61:0.11785113 216:0.11785113 242:0.23570226 887:0.11785113 986:0.11785113 998:0.11785113 1054:0.23570226 1088:0.11785113 1121:0.23570226 1449:0.11785113 1981:0.11785113 2017:0.11785113 2030:0.11785113 2081:0.11785113 2103:0.11785113 2131:0.11785113 2343:0.11785113 2347:0.23570226 2359:0.23570226 2374:0.23570226 2411:0.11785113 2426:0.23570226 2427:0.11785113 2778:0.11785113 2915:0.11785113 3127:0.11785113 3538:0.11785113 3647:0.11785113 3656:0.11785113 3688:0.11785113 3762:0.11785113 3999:0.11785113 4234:0.23570226 4249:0.11785113 4290:0.11785113 4303:0.11785113 4311:0.11785113 4341:0.11785113 4387:0.23570226 4442:0.11785113 4445:0.11785113 4452:0.11785113 4456:0.11785113 4459:0.11785113 4496:0.11785113 
0 0 0 0.1832002012033921 0 0.1534320843909468 1.174729309113382 0 0.2265012080738693 0.0148026789981964 0 0.2802971659167363 0.08216667455388683 0.1349723543751425 0.1733215729363596 61:0.21821789 216:0.21821789 841:0.21821789 887:0.21821789 998:0.21821789 1030:0.21821789 1055:0.21821789 1088:0.21821789 1449:0.21821789 1475:0.21821789 1484:0.21821789 1954:0.21821789 1981:0.21821789 2017:0.21821789 2030:0.21821789 2073:0.21821789 2183:0.21821789 2343:0.21821789 2742:0.21821789 2743:0.21821789 3658:0.21821789 
2.130808777351497 0 1.588580116472861 0.9521653188144097 0.0408724296353285 0.1504814939861997 1.699491665901516 0 0.8117755759578696 1.284416372460024 0 0.6966539150322675 0 0.2736353379832063 1.13724483366514 61:0.22086305 216:0.22086305 663:0.11043153 820:0.11043153 850:0.11043153 877:0.11043153 1116:0.11043153 1124:0.11043153 1214:0.33129458 1335:0.11043153 1449:0.11043153 1463:0.11043153 1548:0.11043153 1981:0.22086305 2007:0.11043153 2017:0.22086305 2030:0.22086305 2112:0.11043153 2221:0.11043153 2343:0.11043153 2359:0.11043153 2376:0.11043153 2381:0.11043153 2742:0.11043153 2748:0.22086305 3022:0.33129458 3082:0.11043153 3087:0.11043153 3088:0.11043153 3089:0.11043153 3328:0.11043153 3329:0.11043153 3653:0.33129458 3695:0.11043153 4253:0.22086305 4343:0.11043153 4423:0.11043153 
2.034556304811364 1.159548816132018 0 0 0 0 9.689420199207607 0 0 0 0 0 0 0 0 18:0.13363062 61:0.13363062 216:0.13363062 242:0.26726124 457:0.13363062 998:0.13363062 1046:0.13363062 1121:0.13363062 1122:0.26726124 1449:0.13363062 1483:0.13363062 1981:0.13363062 2017:0.13363062 2030:0.13363062 2110:0.13363062 2343:0.13363062 2359:0.6681531 2375:0.13363062 2935:0.26726124 2971:0.13363062 3645:0.13363062 3816:0.13363062 3981:0.13363062 
7.044603740706662 0 0.5950187274180326 1.153635078702696 0 1.445461816642466 2.671114044574412 0 0.09709520951391711 0 0.3718224375473879 0 0.02584130937663496 0.3104880601345541 0.1492845504423346 61:0.21320072 216:0.10660036 219:0.10660036 456:0.10660036 658:0.21320072 1116:0.10660036 1121:0.63960215 1335:0.10660036 1349:0.10660036 1388:0.10660036 1449:0.10660036 1483:0.10660036 2068:0.10660036 2091:0.10660036 2128:0.10660036 2140:0.10660036 2219:0.21320072 2359:0.42640143 2375:0.10660036 2376:0.10660036 2404:0.10660036 2913:0.10660036 2974:0.10660036 3023:0.10660036 3087:0.10660036 3688:0.10660036 3883:0.10660036 4036:0.10660036 4441:0.10660036 
0 0 0 0 0 0 0.3295493388322153 0 0 0 0 0.3906258601557714 0 0 0 61:0.11250879 216:0.11250879 341:0.11250879 447:0.22501758 658:0.33752637 986:0.11250879 1121:0.11250879 1449:0.11250879 1514:0.11250879 2005:0.11250879 2006:0.22501758 2031:0.11250879 2081:0.11250879 2090:0.11250879 2103:0.11250879 2222:0.11250879 2343:0.11250879 2359:0.33752637 2375:0.22501758 3013:0.11250879 3088:0.33752637 3089:0.33752637 3126:0.11250879 3256:0.11250879 3265:0.11250879 3644:0.11250879 3669:0.11250879 3919:0.11250879 3965:0.11250879 3978:0.11250879 3992:0.11250879 4247:0.11250879 4326:0.11250879 4386:0.11250879 4387:0.22501758 
1.232312521412913 0 0.748478677085724 0.9340528386360317 0.1643860182529538 0.5298684640728781 0.5038491131571676 0 0.1887172172567222 0.5181043015829385 0.6701546363877133 0.4765264625369803 0.0893002321164012 0.7934319656131501 0.09202857050296068 10:0.099503719 61:0.099503719 66:0.099503719 216:0.099503719 429:0.099503719 447:0.099503719 998:0.099503719 1116:0.19900744 1121:0.29851116 1208:0.099503719 1352:0.099503719 1449:0.099503719 1470:0.099503719 1514:0.099503719 2007:0.19900744 2020:0.39801488 2068:0.19900744 2266:0.099503719 2343:0.099503719 2359:0.099503719 2375:0.099503719 2376:0.19900744 2940:0.099503719 3012:0.099503719 3082:0.099503719 3087:0.099503719 3488:0.099503719 3518:0.4975186 3805:0.099503719 3832:0.099503719 4342:0.099503719 4387:0.29851116 4396:0.099503719 4399:0.099503719 
5.417930810729828 0.09588845023574882 0.3040406554432882 0 0 0 1.487458470391239 0 0 0 0.1629121474465436 0 0 0.2109964197405728 0 61:0.10369517 216:0.10369517 246:0.10369517 858:0.10369517 1114:0.31108551 1121:0.31108551 1349:0.10369517 1449:0.10369517 2074:0.10369517 2343:0.10369517 2359:0.51847585 2375:0.20739034 2974:0.10369517 3078:0.10369517 3639:0.10369517 3688:0.20739034 3699:0.10369517 3882:0.10369517 3907:0.10369517 3913:0.10369517 4253:0.10369517 4386:0.10369517 4387:0.51847585 
0.0823090300280611 0 2.664455127027614 0 0.5751696549557487 0 0.4640573794294634 0 0 0 0 0.1349390818756138 0 0 0 61:0.24806947 130:0.12403473 216:0.24806947 820:0.12403473 844:0.12403473 847:0.12403473 1116:0.12403473 1119:0.12403473 1335:0.12403473 1349:0.12403473 1369:0.12403473 1534:0.12403473 1981:0.12403473 2007:0.12403473 2017:0.12403473 2030:0.12403473 2065:0.12403473 2066:0.12403473 2240:0.12403473 2343:0.12403473 2359:0.3721042 2364:0.12403473 2375:0.12403473 2864:0.12403473 2929:0.24806947 3020:0.12403473 3088:0.3721042 3089:0.3721042 3657:0.12403473 3688:0.12403473 4400:0.12403473 4413:0.12403473 
6.060597955422428 0.7731576098980548 6.828117503577549 1.45313357685731 0.3586909029636466 0.1574395883107628 4.739378890589075 0.6024330854846747 0 0 0 0 0.01823940881500727 0 0 61:0.36650833 216:0.12216944 820:0.12216944 844:0.12216944 847:0.12216944 850:0.36650833 877:0.12216944 1116:0.12216944 1335:0.12216944 1349:0.12216944 1463:0.36650833 1981:0.12216944 2005:0.12216944 2007:0.24433889 2017:0.12216944 2030:0.12216944 2065:0.12216944 2066:0.12216944 2343:0.24433889 3242:0.36650833 3911:0.36650833 
3.951018057816498 0 0 0.07090755906942668 1.472762915311267 0.5481343366658017 0.729210963440328 0 0 0.3189291127143795 0 0.3244651519066929 0 0.3152586849460538 0 61:0.26967994 216:0.26967994 314:0.13483997 624:0.26967994 820:0.13483997 844:0.13483997 847:0.13483997 850:0.13483997 877:0.26967994 998:0.13483997 1116:0.13483997 1335:0.13483997 1349:0.13483997 1445:0.13483997 1475:0.13483997 1981:0.13483997 2007:0.13483997 2017:0.13483997 2030:0.13483997 2065:0.13483997 2066:0.13483997 2080:0.13483997 2081:0.26967994 2103:0.13483997 2118:0.13483997 2140:0.13483997 2141:0.13483997 2222:0.13483997 2343:0.13483997 2399:0.13483997 3019:0.13483997 3024:0.13483997 3122:0.13483997 3269:0.13483997 3553:0.13483997 3641:0.13483997 3714:0.13483997 3897:0.13483997 4342:0.13483997 4399:0.13483997 
0 0 0 1.284028945259 0 0.2808840312370489 0 0 0 0 0.6252686806162479 0 0 0 0 61:0.20519567 216:0.20519567 662:0.10259784 820:0.10259784 821:0.20519567 823:0.10259784 850:0.10259784 877:0.20519567 991:0.10259784 1029:0.10259784 1121:0.10259784 1211:0.20519567 1335:0.20519567 1981:0.10259784 2007:0.10259784 2017:0.10259784 2030:0.10259784 2081:0.10259784 2103:0.10259784 2111:0.10259784 2133:0.10259784 2343:0.10259784 2359:0.41039134 2375:0.20519567 2427:0.10259784 2872:0.10259784 2932:0.10259784 3022:0.10259784 3189:0.10259784 3256:0.10259784 3519:0.10259784 3688:0.10259784 3697:0.20519567 3733:0.10259784 3746:0.10259784 3751:0.10259784 3761:0.10259784 3948:0.10259784 3981:0.10259784 4243:0.41039134 4412:0.10259784 
8.929564011266724 0.844993054711916 4.973922577550781 1.044265417198898 0 0 1.277010719340672 1.470269134358234 0 0 0 0 0 0 0 61:0.11396058 216:0.11396058 467:0.11396058 844:0.11396058 847:0.11396058 850:0.22792115 863:0.11396058 867:0.11396058 877:0.11396058 998:0.34188173 1116:0.11396058 1349:0.11396058 1449:0.11396058 1498:0.11396058 1552:0.11396058 1981:0.11396058 2007:0.11396058 2017:0.11396058 2030:0.11396058 2065:0.34188173 2066:0.34188173 2068:0.11396058 2129:0.11396058 2343:0.22792115 2359:0.45584231 2361:0.11396058 2375:0.11396058 3086:0.11396058 3249:0.11396058 3688:0.11396058 3754:0.11396058 4387:0.11396058 
0.5151309744607444 0 1.385315313718112 0.2718931106492819 0 0 0.948613869952207 0 0 0 0 0 0 0 0 61:0.26261287 216:0.26261287 268:0.13130643 271:0.13130643 801:0.13130643 820:0.13130643 821:0.13130643 844:0.13130643 847:0.13130643 850:0.13130643 877:0.13130643 998:0.13130643 1013:0.13130643 1116:0.13130643 1335:0.13130643 1349:0.13130643 1712:0.13130643 1981:0.13130643 2007:0.13130643 2017:0.13130643 2030:0.13130643 2065:0.26261287 2066:0.26261287 2080:0.13130643 2343:0.13130643 2359:0.26261287 2375:0.26261287 2749:0.13130643 2969:0.13130643 3296:0.13130643 3336:0.13130643 3633:0.13130643 3653:0.13130643 3765:0.13130643 4289:0.13130643 4387:0.26261287 4471:0.13130643 
0 0 0 0.3634164321948087 0 0 0 0 0 0 0 0.1661573053633193 0 0 0 13:0.12038585 61:0.24077171 216:0.24077171 637:0.12038585 1121:0.24077171 1144:0.12038585 1213:0.12038585 1449:0.12038585 1470:0.12038585 2065:0.36115756 2066:0.36115756 2307:0.12038585 2343:0.12038585 2362:0.12038585 2375:0.36115756 2778:0.12038585 3019:0.12038585 3024:0.12038585 3088:0.12038585 3089:0.12038585 3252:0.12038585 3711:0.12038585 3728:0.24077171 3798:0.12038585 3832:0.24077171 4037:0.12038585 4387:0.24077171 
9.990769250405604 0.5659772684333715 2.101675723596384 0.6186399982140775 0.1599671638207321 0 0.4542209143263241 0.2087107466115373 0 0 0 0 0 0 0 61:0.12803688 216:0.25607376 242:0.12803688 307:0.12803688 821:0.12803688 844:0.12803688 847:0.12803688 850:0.12803688 877:0.12803688 998:0.12803688 1116:0.12803688 1121:0.25607376 1342:0.12803688 1349:0.12803688 1350:0.12803688 1449:0.12803688 1712:0.12803688 1981:0.12803688 2007:0.12803688 2017:0.12803688 2030:0.12803688 2031:0.25607376 2065:0.12803688 2066:0.12803688 2176:0.12803688 2343:0.25607376 2359:0.51214752 2375:0.12803688 3044:0.12803688 3245:0.12803688 3498:0.12803688 3636:0.12803688 3702:0.12803688 3978:0.12803688 
0.7354299800227154 0.07585799984845904 1.31491276179445 0.5058933908666577 0.05506875363370889 0.2943708450828151 1.327230419679122 0.4053242998127598 0 0.04814789559872312 0.086105301004043 0 0 0.1250338948418739 0 61:0.10599979 216:0.10599979 819:0.21199958 850:0.10599979 877:0.10599979 882:0.21199958 998:0.31799936 1003:0.21199958 1086:0.21199958 1116:0.10599979 1118:0.21199958 1349:0.21199958 1446:0.10599979 1449:0.10599979 1538:0.21199958 1551:0.10599979 1960:0.10599979 1981:0.10599979 2017:0.10599979 2030:0.10599979 2081:0.21199958 2103:0.21199958 2141:0.10599979 2343:0.10599979 2375:0.21199958 2753:0.10599979 3019:0.10599979 3024:0.10599979 3088:0.10599979 3089:0.10599979 3241:0.10599979 3252:0.10599979 3688:0.10599979 3755:0.10599979 3886:0.21199958 4030:0.21199958 4032:0.21199958 4388:0.10599979 4391:0.21199958 
4.598150746172567 0.2136709272797203 0 0.2347813865091631 0.00308495811588787 0 0 0 0 0.129717472803726 0 0.3720294664228479 0 0 0 61:0.094491118 216:0.094491118 850:0.094491118 877:0.18898224 922:0.094491118 923:0.18898224 1107:0.18898224 1121:0.18898224 1349:0.18898224 1446:0.094491118 1449:0.094491118 1475:0.094491118 1509:0.18898224 1538:0.18898224 1981:0.18898224 2017:0.18898224 2030:0.18898224 2065:0.094491118 2066:0.094491118 2112:0.094491118 2140:0.094491118 2141:0.094491118 2206:0.094491118 2343:0.094491118 2359:0.37796447 2375:0.47245559 2735:0.094491118 2754:0.18898224 2973:0.094491118 3092:0.094491118 3235:0.094491118 3493:0.094491118 3980:0.094491118 4267:0.094491118 4417:0.094491118 4418:0.094491118 4419:0.18898224 
1.441553509175988 0.05333228945180128 2.076754659576294 0.6495608912169375 0.2362847332882179 0 0.6338750271037325 0 0 0 0.2698767504441365 0 0 0 0 61:0.092847669 216:0.092847669 287:0.092847669 850:0.092847669 877:0.18569534 922:0.092847669 923:0.092847669 1107:0.18569534 1121:0.27854301 1446:0.092847669 1449:0.092847669 1470:0.092847669 1509:0.092847669 1538:0.092847669 1981:0.092847669 2017:0.092847669 2030:0.092847669 2065:0.092847669 2066:0.092847669 2112:0.092847669 2141:0.092847669 2206:0.18569534 2343:0.092847669 2359:0.37139068 2375:0.46423835 2420:0.092847669 2735:0.18569534 2973:0.092847669 3092:0.18569534 3123:0.092847669 3710:0.18569534 3839:0.092847669 4251:0.092847669 4417:0.092847669 4418:0.092847669 4419:0.37139068 
1.561476965845898 0.5429517016119849 1.497550735547849 1.252059893167142 1.191192427901813 0 5.422970177283879 0 0.8274469583132138 0 0.361944306724283 0 0 0.3226946352666607 0 61:0.21442251 216:0.32163376 219:0.10721125 428:0.10721125 430:0.10721125 637:0.10721125 821:0.10721125 859:0.10721125 862:0.10721125 896:0.10721125 998:0.10721125 1121:0.10721125 1188:0.10721125 1213:0.10721125 1353:0.10721125 2007:0.10721125 2017:0.10721125 2081:0.10721125 2090:0.10721125 2103:0.10721125 2106:0.10721125 2211:0.32163376 2343:0.10721125 2345:0.10721125 2359:0.53605627 2929:0.10721125 3035:0.10721125 3082:0.21442251 3256:0.21442251 3265:0.10721125 3653:0.10721125 3709:0.21442251 3754:0.10721125 3781:0.10721125 4318:0.10721125 
0 0 0 0.6346751770725682 1.521703045046212 0.07098292110898384 0 0 0.0591004106647499 0 0.01448645324263403 0 0 0.5203909371873048 0 61:0.25197632 119:0.25197632 216:0.25197632 1036:0.12598816 1121:0.37796447 1174:0.12598816 1213:0.12598816 1440:0.12598816 1445:0.12598816 1470:0.12598816 2007:0.12598816 2068:0.12598816 2081:0.25197632 2103:0.25197632 2193:0.12598816 2204:0.12598816 2209:0.12598816 2324:0.12598816 2343:0.12598816 2359:0.37796447 2375:0.12598816 2852:0.12598816 3019:0.12598816 3024:0.12598816 3086:0.12598816 3187:0.12598816 3517:0.12598816 3688:0.12598816 3696:0.12598816 3766:0.12598816 3838:0.12598816 3948:0.12598816 
0.7193621843416508 0.2890643036774473 0.7362294602067067 0.1180646992030843 0 0.1025934170497152 0.2511436362657957 0 0.7684553916564241 0 0.2468365451560282 0 0 0.6224556198476279 0 61:0.15523011 216:0.15523011 269:0.15523011 335:0.15523011 434:0.077615053 868:0.077615053 1071:0.077615053 1085:0.15523011 1121:0.15523011 1213:0.077615053 1349:0.077615053 2007:0.077615053 2021:0.077615053 2081:0.077615053 2103:0.077615053 2209:0.077615053 2241:0.077615053 2326:0.077615053 2343:0.077615053 2359:0.62092042 2375:0.077615053 2417:0.15523011 2975:0.15523011 3019:0.077615053 3024:0.077615053 3122:0.23284516 3123:0.077615053 3265:0.15523011 3491:0.077615053 3633:0.077615053 3714:0.077615053 3758:0.077615053 3874:0.077615053 3918:0.077615053 4342:0.31046021 4387:0.077615053 4399:0.31046021 4423:0.077615053 
0 0 0 0 0 0.03359231346164051 0 0 0 0 0 0 0 0 0 61:0.49507377 216:0.39605902 861:0.099014754 998:0.099014754 1123:0.099014754 1213:0.29704426 1483:0.29704426 2007:0.099014754 2020:0.099014754 2080:0.099014754 2132:0.099014754 2209:0.099014754 2219:0.099014754 2310:0.099014754 2343:0.19802951 2359:0.19802951 2362:0.099014754 2375:0.099014754 2417:0.099014754 2932:0.099014754 2975:0.099014754 3082:0.099014754 3086:0.19802951 3091:0.099014754 3265:0.099014754 3635:0.19802951 3918:0.099014754 3928:0.099014754 4047:0.099014754 4342:0.19802951 4399:0.099014754 4472:0.099014754 
0 0 0 0 0.6030059227768116 0.4561931305280419 0.3236711135782963 0 0 0 0 0 0 0 0 61:0.50767308 216:0.40613847 998:0.10153462 1123:0.10153462 1213:0.30460385 1483:0.30460385 2007:0.10153462 2020:0.10153462 2080:0.10153462 2132:0.10153462 2209:0.10153462 2219:0.10153462 2310:0.10153462 2343:0.20306923 2359:0.20306923 2362:0.10153462 2375:0.10153462 2417:0.10153462 2932:0.10153462 2975:0.10153462 3031:0.10153462 3082:0.10153462 3086:0.20306923 3091:0.10153462 3265:0.10153462 3635:0.20306923 3918:0.10153462 3928:0.10153462 4047:0.10153462 4472:0.10153462 
3.074147852531514 0 0.2402082209763679 0 0 0 0 0 0 0 0 0 0 0 0 61:0.474579 216:0.474579 998:0.0949158 1123:0.0949158 1213:0.2847474 1483:0.2847474 2007:0.0949158 2020:0.0949158 2080:0.0949158 2132:0.0949158 2209:0.0949158 2219:0.0949158 2310:0.0949158 2343:0.1898316 2359:0.1898316 2362:0.0949158 2375:0.0949158 2411:0.0949158 2417:0.0949158 2932:0.0949158 2975:0.0949158 3031:0.0949158 3082:0.0949158 3086:0.1898316 3091:0.0949158 3265:0.0949158 3635:0.1898316 3839:0.0949158 3918:0.0949158 3928:0.0949158 4047:0.0949158 4342:0.0949158 4386:0.0949158 4399:0.0949158 4472:0.0949158 
7.949526412023744 0 1.818180350473717 0.24117213792734 1.026275885853732 0.9259000262338598 2.24259674687449 0 0.8704353240788368 0 0.2781714521571801 0 0 0.3088933091774374 0 61:0.19611614 216:0.19611614 304:0.098058068 313:0.098058068 464:0.098058068 850:0.098058068 877:0.19611614 1013:0.098058068 1118:0.098058068 1121:0.2941742 1151:0.19611614 1213:0.098058068 1470:0.098058068 1548:0.098058068 2007:0.19611614 2013:0.098058068 2059:0.098058068 2210:0.098058068 2343:0.098058068 2359:0.58834841 2360:0.098058068 2373:0.098058068 2375:0.19611614 2410:0.098058068 2426:0.098058068 2716:0.098058068 2774:0.2941742 3022:0.098058068 3105:0.098058068 3139:0.098058068 3688:0.098058068 3816:0.098058068 3856:0.098058068 3980:0.098058068 4438:0.098058068 
0 0.005974146842033626 0 0 0.9168273308256393 3.176074875952855 0 0 0.2431238289144538 0 0.5294785103474811 0 0 0 0 6:0.099503719 61:0.29851116 176:0.099503719 216:0.19900744 841:0.099503719 850:0.19900744 861:0.099503719 877:0.19900744 1121:0.19900744 1213:0.099503719 1349:0.099503719 1362:0.099503719 1483:0.29851116 1981:0.19900744 2007:0.099503719 2017:0.19900744 2081:0.099503719 2103:0.099503719 2118:0.099503719 2132:0.19900744 2266:0.099503719 2343:0.099503719 2356:0.099503719 2359:0.4975186 2417:0.099503719 2772:0.099503719 2774:0.099503719 2953:0.099503719 2975:0.099503719 3019:0.099503719 3024:0.099503719 3087:0.099503719 3122:0.099503719 3756:0.099503719 3758:0.099503719 3918:0.099503719 3966:0.099503719 3981:0.099503719 4342:0.099503719 4399:0.099503719 
1.399608730852662 0 0 1.726143899828414 0.7153588693547514 0.66137525312412 1.822410034489292 0.154167443122688 0.02925678839367029 0 0 0 0.1358396384095792 0 0.9450490722363064 61:0.39223227 119:0.19611614 242:0.39223227 449:0.19611614 805:0.19611614 820:0.19611614 996:0.19611614 1116:0.19611614 1121:0.19611614 1213:0.19611614 2005:0.19611614 2114:0.19611614 2266:0.19611614 2343:0.19611614 2360:0.19611614 2376:0.19611614 2741:0.19611614 3626:0.19611614 3647:0.19611614 3920:0.19611614 
3.487835987723645 0 1.50500343965622 0 0.455841181604181 0.6046800274352003 6.131510815486705 0 0 0 0 0.1509470742179273 0 0 0.2057011201199391 61:0.2981424 216:0.2981424 820:0.1490712 844:0.1490712 847:0.1490712 998:0.1490712 1116:0.1490712 1213:0.1490712 1335:0.1490712 1348:0.1490712 1349:0.1490712 1981:0.1490712 2017:0.1490712 2030:0.1490712 2065:0.1490712 2066:0.1490712 2209:0.1490712 2905:0.2981424 2953:0.1490712 2961:0.1490712 3082:0.1490712 3087:0.1490712 3088:0.1490712 3089:0.1490712 3275:0.1490712 3288:0.1490712 3554:0.1490712 3577:0.1490712 3713:0.1490712 3975:0.1490712 4047:0.1490712 4293:0.1490712 4382:0.2981424 
11.313708499 0.1931051403207893 0.1542156125216475 0.03243016405136923 0.8176701971339362 1.26643692850537 4.705358398895432 0.3797355843499806 0.08689118533535098 0.7243138599565704 0 0.04951873790239313 0.4851513917730556 0.2754433300041587 1.172328361958941 61:0.2847474 66:0.0949158 216:0.0949158 429:0.3796632 447:0.1898316 820:0.0949158 844:0.0949158 847:0.0949158 850:0.0949158 877:0.0949158 998:0.0949158 1116:0.0949158 1150:0.3796632 1213:0.3796632 1335:0.0949158 1349:0.0949158 1981:0.0949158 2017:0.0949158 2030:0.2847474 2065:0.0949158 2066:0.0949158 2141:0.0949158 2335:0.1898316 2915:0.1898316 2985:0.0949158 3019:0.0949158 3024:0.0949158 3137:0.0949158 3269:0.1898316 3547:0.1898316 3642:0.1898316 3755:0.0949158 
2.762250713809296 0.8669176123451243 0 0 1.109664669588105 0.007942833045821846 1.506336663685974 0 0 0 0.5949684994792308 0 0.07126506376612878 0.242704969206083 0 61:0.2236068 152:0.1118034 216:0.1118034 447:0.1118034 487:0.1118034 820:0.1118034 842:0.2236068 850:0.1118034 877:0.1118034 1013:0.1118034 1109:0.1118034 1121:0.1118034 1205:0.1118034 1213:0.1118034 1335:0.1118034 1434:0.1118034 1476:0.2236068 1961:0.1118034 1981:0.1118034 2017:0.1118034 2025:0.1118034 2030:0.1118034 2177:0.2236068 2184:0.1118034 2255:0.1118034 2359:0.2236068 2375:0.2236068 2411:0.2236068 2980:0.2236068 2984:0.1118034 3090:0.2236068 3484:0.2236068 3534:0.2236068 3574:0.1118034 3782:0.1118034 3863:0.1118034 3918:0.1118034 4023:0.1118034 4387:0.3354102 
0 0 0.526572796430705 0 0.2629322843692653 0 0.503379533247845 0 0 0.03041704703794286 0.6206033176597932 0.2145157509284371 0 0 0.4049971904209952 61:0.22941573 216:0.11470787 820:0.11470787 850:0.11470787 877:0.11470787 1213:0.11470787 1335:0.11470787 1428:0.22941573 1476:0.3441236 1981:0.11470787 2017:0.11470787 2030:0.11470787 2081:0.11470787 2103:0.11470787 2128:0.11470787 2352:0.11470787 2359:0.3441236 2375:0.3441236 2411:0.11470787 2934:0.3441236 2944:0.11470787 3025:0.11470787 3090:0.3441236 3135:0.11470787 3332:0.11470787 3574:0.11470787 4029:0.11470787 4243:0.11470787 4427:0.11470787 4434:0.11470787 
1.628233670573089 0 2.529533672679946 0.2182123490860507 0 0.6128648340898052 0.5348148491127227 0 0 0 0.2989367047904738 0.5471492641275989 0 0.3864613640895222 0.1177000859246198 61:0.098058068 216:0.098058068 877:0.098058068 894:0.098058068 992:0.098058068 1121:0.19611614 1383:0.098058068 1449:0.098058068 1498:0.098058068 1513:0.098058068 1514:0.098058068 1523:0.098058068 1976:0.098058068 1999:0.098058068 2005:0.098058068 2035:0.098058068 2065:0.098058068 2066:0.098058068 2113:0.098058068 2179:0.098058068 2343:0.098058068 2359:0.19611614 2372:0.098058068 2375:0.2941742 2411:0.19611614 2420:0.19611614 2903:0.19611614 2915:0.098058068 2953:0.098058068 2965:0.098058068 3016:0.098058068 3082:0.098058068 3087:0.098058068 3088:0.2941742 3089:0.2941742 3093:0.098058068 3191:0.098058068 3228:0.098058068 3230:0.19611614 3239:0.098058068 3252:0.098058068 3258:0.098058068 3270:0.098058068 3275:0.2941742 3333:0.19611614 3484:0.098058068 3501:0.098058068 3510:0.098058068 3688:0.098058068 3808:0.098058068 4292:0.098058068 
0 0 1.105926144634577 0 0 0 0 0 0 0 0.2738866827465079 0 0 0 0.304010754570671 61:0.16903085 216:0.16903085 820:0.16903085 986:0.16903085 1106:0.16903085 1350:0.16903085 1470:0.16903085 2032:0.16903085 2192:0.16903085 2343:0.16903085 2349:0.16903085 2359:0.16903085 2375:0.16903085 2952:0.16903085 2967:0.16903085 3332:0.16903085 3481:0.16903085 3627:0.16903085 3670:0.16903085 3699:0.16903085 3700:0.16903085 3837:0.16903085 3924:0.16903085 4247:0.16903085 4312:0.16903085 4386:0.50709255 4404:0.16903085 
0 0.1588113774236995 2.575494635536924 0 0 0.06267556692138669 0 0 0.6879701289476105 0 0.6005681280015051 0 0 0 0 17:0.1132277 61:0.1132277 216:0.1132277 820:0.1132277 998:0.33968311 1446:0.45291081 1460:0.1132277 1981:0.1132277 2005:0.22645541 2017:0.1132277 2025:0.22645541 2030:0.1132277 2065:0.1132277 2066:0.1132277 2081:0.1132277 2103:0.1132277 2310:0.22645541 2343:0.1132277 2777:0.1132277 2908:0.1132277 2953:0.1132277 3019:0.1132277 3020:0.1132277 3022:0.1132277 3023:0.22645541 3024:0.1132277 3088:0.22645541 3089:0.22645541 3752:0.1132277 4261:0.1132277 4400:0.1132277 4438:0.22645541 4450:0.1132277 4473:0.1132277 
4.599389622514723 0 0.4454476758706345 0 0 0 0 0 0 0 0 0 0 0 0 61:0.23904572 136:0.11952286 216:0.23904572 287:0.11952286 820:0.11952286 998:0.23904572 1121:0.11952286 1124:0.11952286 1335:0.11952286 1353:0.11952286 1446:0.11952286 1711:0.11952286 2246:0.11952286 2343:0.11952286 2359:0.11952286 2953:0.11952286 2973:0.11952286 3087:0.11952286 3088:0.23904572 3089:0.23904572 3224:0.11952286 3242:0.11952286 3560:0.11952286 3651:0.11952286 3706:0.11952286 3720:0.11952286 3763:0.11952286 3918:0.11952286 4245:0.11952286 4386:0.5976143 4438:0.11952286 
0 0 0 0 0 0 0 0 0 0 0 0 0 0 0.2553137343963525 18:0.15075567 61:0.15075567 216:0.15075567 242:0.30151134 485:0.15075567 820:0.15075567 998:0.30151134 1030:0.15075567 1046:0.15075567 1055:0.15075567 1464:0.15075567 1475:0.15075567 1484:0.15075567 1954:0.15075567 1981:0.15075567 2017:0.15075567 2018:0.15075567 2030:0.15075567 2343:0.15075567 2411:0.15075567 2423:0.15075567 3265:0.15075567 3269:0.15075567 3321:0.15075567 3545:0.15075567 3658:0.15075567 3707:0.15075567 3712:0.15075567 3776:0.15075567 3822:0.15075567 3838:0.15075567 3926:0.15075567 4032:0.15075567 4037:0.15075567 4251:0.15075567 4304:0.15075567 4479:0.15075567 4505:0.15075567 
11.313708499 0 0 0 0 0 0 0 0 0 0 0 0 0 0 61:0.15811388 216:0.15811388 242:0.15811388 468:0.15811388 469:0.15811388 626:0.15811388 820:0.15811388 821:0.15811388 877:0.31622777 998:0.15811388 1121:0.15811388 1349:0.15811388 1551:0.15811388 1552:0.15811388 1981:0.15811388 2017:0.15811388 2030:0.15811388 2140:0.15811388 2343:0.15811388 2359:0.47434165 2375:0.31622777 2411:0.15811388 2416:0.15811388 3688:0.15811388 3764:0.15811388 3983:0.15811388 
0 0 0 0 0 0 0 0.2117540997296932 0 0 0 0.1073933591369007 0 0 0.4535724303380914 61:0.10540926 216:0.10540926 242:0.21081851 820:0.10540926 887:0.10540926 998:0.10540926 1030:0.10540926 1036:0.10540926 1055:0.10540926 1088:0.10540926 1121:0.10540926 1475:0.10540926 1484:0.10540926 1954:0.10540926 1981:0.10540926 2005:0.10540926 2017:0.10540926 2030:0.10540926 2085:0.10540926 2343:0.10540926 2359:0.31622777 2360:0.10540926 2375:0.52704628 2395:0.10540926 2740:0.10540926 2774:0.10540926 3085:0.31622777 3506:0.42163702 3651:0.10540926 3688:0.10540926 4247:0.10540926 4248:0.10540926 
