svm_type c_svc
kernel_type rbf
gamma 0.125
nr_class 3
total_sv 147
rho 0.750595 0.692118 -0.00965488
label 2 1 0
nr_sv 55 50 42
SV
6.690235357733951 2.399347563431035 1:0.47699905 2:0.47699905 3:0.10599979 5:0.052999894 15:0.052999894 19:0.052999894 69:0.052999894 70:0.15899968 74:0.31799936 77:0.052999894 100:0.052999894 107:0.37099926 153:0.10599979 295:0.15899968 365:0.052999894 430:0.31799936 904:0.31799936 1008:0.052999894 1011:0.052999894 1029:0.052999894 1037:0.052999894 
5.357896270656862 2.433995137457135 1:0.38411064 2:0.51214752 3:0.12803688 5:0.12803688 15:0.12803688 16:0.12803688 64:0.12803688 70:0.25607376 96:0.12803688 305:0.12803688 430:0.38411064 431:0.25607376 937:0.12803688 970:0.25607376 982:0.25607376 988:0.12803688 1014:0.12803688 1022:0.12803688 
0 1.953159006377517 1:0.22086305 2:0.22086305 3:0.22086305 6:0.22086305 8:0.22086305 15:0.11043153 19:0.11043153 64:0.33129458 74:0.11043153 75:0.11043153 107:0.55215763 295:0.11043153 312:0.11043153 323:0.11043153 327:0.11043153 369:0.22086305 378:0.11043153 434:0.11043153 902:0.33129458 937:0.11043153 1037:0.22086305 
1.789316827196281 0 1:0.45883147 2:0.45883147 3:0.22941573 5:0.22941573 16:0.22941573 22:0.22941573 107:0.22941573 161:0.22941573 177:0.22941573 357:0.22941573 378:0.22941573 438:0.22941573 938:0.22941573 
0 0.3555094809537085 1:0.3086067 2:0.46291005 3:0.15430335 5:0.15430335 11:0.15430335 12:0.15430335 17:0.15430335 18:0.3086067 19:0.15430335 74:0.15430335 96:0.15430335 107:0.3086067 295:0.15430335 323:0.15430335 392:0.15430335 406:0.15430335 972:0.15430335 996:0.3086067 1037:0.3086067 
0 0.4946387082830506 1:0.43759497 2:0.43759497 3:0.14586499 5:0.14586499 6:0.14586499 8:0.14586499 11:0.14586499 12:0.14586499 17:0.14586499 18:0.29172998 19:0.14586499 71:0.14586499 73:0.14586499 74:0.14586499 77:0.14586499 96:0.14586499 107:0.29172998 160:0.14586499 295:0.14586499 357:0.14586499 392:0.14586499 972:0.14586499 996:0.14586499 1008:0.14586499 1037:0.14586499 
3.061298029217761 0 1:0.23094011 2:0.11547005 3:0.11547005 5:0.11547005 6:0.11547005 70:0.11547005 76:0.11547005 107:0.34641016 158:0.34641016 160:0.11547005 171:0.11547005 172:0.11547005 295:0.11547005 298:0.11547005 310:0.23094011 311:0.11547005 319:0.11547005 322:0.11547005 355:0.11547005 373:0.23094011 376:0.11547005 379:0.23094011 383:0.11547005 386:0.23094011 397:0.11547005 398:0.11547005 405:0.11547005 410:0.11547005 416:0.11547005 419:0.11547005 433:0.11547005 904:0.11547005 937:0.11547005 963:0.11547005 966:0.11547005 968:0.11547005 973:0.11547005 987:0.11547005 993:0.11547005 1002:0.11547005 1006:0.11547005 1016:0.11547005 1019:0.11547005 1021:0.11547005 
0 1.142896843473915 1:0.22222222 2:0.11111111 3:0.11111111 5:0.11111111 6:0.11111111 70:0.11111111 76:0.11111111 107:0.44444444 158:0.33333333 160:0.11111111 171:0.11111111 172:0.11111111 295:0.11111111 298:0.11111111 310:0.22222222 319:0.11111111 322:0.11111111 355:0.11111111 373:0.22222222 376:0.11111111 379:0.22222222 383:0.11111111 386:0.22222222 397:0.11111111 398:0.11111111 405:0.11111111 410:0.11111111 416:0.11111111 419:0.11111111 433:0.11111111 904:0.11111111 937:0.11111111 963:0.11111111 966:0.11111111 968:0.11111111 973:0.11111111 987:0.11111111 993:0.11111111 1002:0.11111111 1006:0.11111111 1016:0.11111111 1019:0.11111111 1021:0.11111111 
9.275193910908307 19.10002121242856 1:0.20412415 2:0.20412415 7:0.61237244 16:0.20412415 21:0.20412415 22:0.20412415 107:0.20412415 169:0.20412415 296:0.20412415 338:0.20412415 363:0.40824829 912:0.20412415 934:0.20412415 
0.2839918524790017 0 1:0.43643578 2:0.43643578 3:0.43643578 5:0.21821789 6:0.21821789 11:0.21821789 12:0.21821789 17:0.21821789 42:0.21821789 57:0.21821789 295:0.21821789 407:0.21821789 
5.227829408923267 1.699898461905907 1:0.26726124 2:0.26726124 3:0.26726124 5:0.13363062 11:0.13363062 12:0.13363062 17:0.13363062 22:0.26726124 38:0.13363062 45:0.13363062 74:0.13363062 167:0.13363062 171:0.40089186 172:0.40089186 295:0.13363062 336:0.13363062 354:0.13363062 356:0.13363062 430:0.13363062 937:0.26726124 1017:0.13363062 1030:0.26726124 
0 0.863839170295199 1:0.22941573 2:0.11470787 3:0.11470787 5:0.11470787 6:0.11470787 7:0.11470787 70:0.11470787 76:0.11470787 107:0.22941573 158:0.3441236 160:0.11470787 171:0.11470787 172:0.11470787 295:0.11470787 298:0.11470787 310:0.22941573 319:0.11470787 322:0.11470787 355:0.11470787 373:0.22941573 376:0.11470787 379:0.22941573 383:0.11470787 386:0.22941573 397:0.22941573 398:0.11470787 405:0.11470787 410:0.11470787 416:0.11470787 419:0.11470787 433:0.11470787 904:0.11470787 937:0.22941573 963:0.11470787 966:0.11470787 968:0.11470787 973:0.11470787 987:0.11470787 993:0.11470787 1002:0.11470787 1006:0.11470787 1016:0.11470787 1019:0.11470787 1021:0.11470787 
1.121288116806999 2.299761298111076 1:0.25607376 2:0.12803688 3:0.12803688 5:0.12803688 70:0.12803688 76:0.25607376 107:0.38411064 158:0.38411064 160:0.12803688 171:0.12803688 172:0.12803688 295:0.12803688 298:0.25607376 310:0.12803688 311:0.12803688 319:0.12803688 322:0.12803688 373:0.25607376 376:0.25607376 379:0.12803688 383:0.12803688 386:0.12803688 397:0.12803688 398:0.12803688 405:0.12803688 410:0.12803688 416:0.12803688 419:0.12803688 904:0.12803688 937:0.12803688 
0 0.3150396787964837 1:0.38490018 2:0.38490018 3:0.38490018 5:0.19245009 6:0.19245009 7:0.19245009 8:0.19245009 21:0.19245009 68:0.19245009 107:0.38490018 295:0.19245009 306:0.19245009 323:0.19245009 358:0.19245009 1018:0.19245009 
0.06417024871890117 0 1:0.21320072 2:0.42640143 5:0.21320072 6:0.21320072 8:0.21320072 11:0.21320072 12:0.21320072 16:0.21320072 17:0.21320072 18:0.21320072 22:0.21320072 75:0.21320072 171:0.21320072 172:0.21320072 174:0.21320072 325:0.21320072 364:0.21320072 1012:0.21320072 1023:0.21320072 
2.633115228890644 0 1:0.12126781 2:0.24253563 5:0.12126781 16:0.12126781 18:0.12126781 45:0.12126781 65:0.12126781 70:0.12126781 71:0.12126781 100:0.12126781 107:0.12126781 161:0.24253563 177:0.12126781 306:0.36380344 313:0.12126781 430:0.12126781 434:0.24253563 904:0.12126781 936:0.48507125 937:0.48507125 1018:0.12126781 
8.400581249500585 5.760892321744683 1:0.16666667 2:0.33333333 5:0.16666667 6:0.16666667 8:0.16666667 11:0.16666667 12:0.16666667 17:0.16666667 18:0.16666667 19:0.16666667 21:0.16666667 22:0.33333333 75:0.16666667 171:0.16666667 172:0.16666667 174:0.16666667 296:0.33333333 323:0.16666667 338:0.16666667 340:0.33333333 364:0.16666667 430:0.16666667 1036:0.16666667 1037:0.16666667 
0 0.02242568663153522 1:0.15811388 2:0.31622777 5:0.15811388 6:0.15811388 8:0.31622777 16:0.15811388 18:0.15811388 22:0.47434165 38:0.15811388 64:0.15811388 68:0.31622777 74:0.15811388 107:0.31622777 162:0.15811388 168:0.15811388 179:0.15811388 384:0.15811388 974:0.15811388 1030:0.15811388 1032:0.15811388 
12.12709652934453 14.01850748274477 1:0.35355339 2:0.53033009 3:0.1767767 6:0.35355339 7:0.1767767 8:0.35355339 22:0.35355339 149:0.1767767 153:0.1767767 430:0.1767767 432:0.1767767 1029:0.1767767 
0 4.364633718433377 1:0.42426407 2:0.42426407 3:0.28284271 6:0.28284271 8:0.42426407 16:0.14142136 22:0.14142136 77:0.28284271 149:0.14142136 371:0.14142136 433:0.14142136 937:0.28284271 1017:0.14142136 1030:0.14142136 
6.784884528848415 5.2869425523146 1:0.56694671 2:0.18898224 3:0.18898224 6:0.18898224 8:0.18898224 11:0.18898224 12:0.18898224 17:0.18898224 107:0.18898224 149:0.18898224 335:0.56694671 956:0.18898224 
5.41134442727593 1.244605218864887 1:0.28284271 2:0.42426407 8:0.28284271 18:0.14142136 22:0.42426407 42:0.14142136 43:0.28284271 45:0.14142136 57:0.14142136 107:0.14142136 155:0.14142136 356:0.28284271 368:0.14142136 384:0.14142136 421:0.14142136 430:0.14142136 436:0.14142136 923:0.14142136 956:0.14142136 1009:0.14142136 1033:0.14142136 1035:0.14142136 
0 0.4735857503633235 1:0.2236068 2:0.2236068 3:0.1118034 6:0.1118034 11:0.2236068 12:0.2236068 17:0.2236068 42:0.2236068 57:0.2236068 64:0.1118034 69:0.1118034 71:0.1118034 74:0.2236068 107:0.4472136 155:0.1118034 171:0.3354102 172:0.3354102 177:0.1118034 295:0.1118034 355:0.1118034 365:0.1118034 369:0.1118034 938:0.1118034 1009:0.1118034 1013:0.1118034 
0 4.39443094312153 1:0.22222222 2:0.22222222 3:0.11111111 5:0.11111111 8:0.11111111 38:0.44444444 68:0.44444444 94:0.11111111 155:0.11111111 164:0.11111111 167:0.11111111 327:0.22222222 340:0.11111111 366:0.11111111 388:0.11111111 390:0.11111111 393:0.11111111 401:0.11111111 422:0.44444444 432:0.11111111 437:0.11111111 937:0.22222222 1030:0.11111111 1034:0.11111111 
4.213153464774763 0 1:0.21693046 2:0.21693046 3:0.10846523 5:0.10846523 8:0.10846523 22:0.10846523 38:0.43386092 68:0.32539569 94:0.10846523 155:0.10846523 164:0.10846523 167:0.10846523 327:0.10846523 339:0.10846523 366:0.10846523 388:0.10846523 390:0.10846523 393:0.10846523 401:0.10846523 422:0.43386092 432:0.10846523 437:0.10846523 937:0.43386092 950:0.10846523 1030:0.10846523 1034:0.10846523 
15.12428123191911 12.38709271228069 1:0.36650833 2:0.36650833 5:0.24433889 6:0.12216944 8:0.36650833 10:0.24433889 18:0.12216944 43:0.61084722 69:0.12216944 155:0.12216944 164:0.12216944 428:0.12216944 951:0.12216944 
6.867351609580005 2.541132740522695 1:0.15249857 2:0.30499714 3:0.15249857 11:0.15249857 12:0.15249857 17:0.15249857 22:0.45749571 42:0.15249857 57:0.15249857 66:0.15249857 69:0.15249857 75:0.15249857 95:0.15249857 152:0.30499714 155:0.15249857 171:0.15249857 172:0.15249857 174:0.15249857 176:0.15249857 305:0.15249857 364:0.15249857 406:0.15249857 427:0.15249857 937:0.15249857 958:0.30499714 1030:0.15249857 
4.832411875889453 2.89019800966858 11:0.1767767 12:0.1767767 17:0.1767767 22:0.1767767 45:0.1767767 74:0.1767767 107:0.1767767 173:0.35355339 354:0.1767767 412:0.35355339 913:0.1767767 936:0.35355339 937:0.53033009 1000:0.1767767 1030:0.1767767 
2.237111840415176 3.842739962403448 1:0.093250481 15:0.093250481 19:0.093250481 37:0.093250481 39:0.093250481 45:0.093250481 151:0.18650096 154:0.093250481 176:0.093250481 317:0.18650096 425:0.093250481 427:0.18650096 902:0.093250481 903:0.093250481 904:0.18650096 929:0.18650096 937:0.093250481 938:0.83925433 962:0.093250481 977:0.093250481 
0.4392765338701434 0 1:0.53994925 2:0.32396955 6:0.053994925 8:0.16198477 14:0.053994925 15:0.053994925 19:0.053994925 39:0.053994925 42:0.32396955 57:0.32396955 64:0.053994925 71:0.053994925 74:0.053994925 100:0.053994925 149:0.053994925 153:0.053994925 170:0.053994925 177:0.10798985 178:0.053994925 356:0.053994925 365:0.053994925 375:0.10798985 381:0.053994925 395:0.053994925 412:0.10798985 415:0.053994925 437:0.053994925 902:0.053994925 903:0.053994925 904:0.4319594 951:0.053994925 954:0.053994925 957:0.053994925 964:0.10798985 967:0.053994925 969:0.053994925 989:0.053994925 994:0.10798985 997:0.053994925 999:0.053994925 1003:0.053994925 1020:0.053994925 1024:0.053994925 1026:0.053994925 1029:0.16198477 
11.45139959913152 10.07848881368484 1:0.12598816 2:0.25197632 3:0.12598816 14:0.12598816 22:0.50395263 65:0.12598816 100:0.12598816 153:0.12598816 170:0.12598816 173:0.12598816 307:0.12598816 365:0.12598816 901:0.37796447 937:0.50395263 938:0.12598816 974:0.12598816 977:0.12598816 1010:0.12598816 1030:0.25197632 
3.385923144685424 3.526520818814046 22:0.2773501 68:0.2773501 76:0.2773501 316:0.2773501 371:0.2773501 935:0.2773501 952:0.2773501 962:0.2773501 990:0.2773501 1004:0.2773501 1013:0.2773501 1027:0.2773501 1030:0.2773501 
13.07595099753978 8.981181499286189 22:0.70710678 45:0.23570226 352:0.23570226 371:0.23570226 905:0.23570226 935:0.23570226 952:0.23570226 986:0.23570226 1004:0.23570226 1027:0.23570226 
4.34506752902992 0.1550156429356503 1:0.4 2:0.2 38:0.2 68:0.2 171:0.2 172:0.2 354:0.2 430:0.2 935:0.4 937:0.2 952:0.4 961:0.2 971:0.2 991:0.2 1011:0.2 1030:0.2 
3.228339108413889 7.224927819237173 7:0.41208169 42:0.54944226 45:0.13736056 57:0.54944226 76:0.13736056 107:0.13736056 170:0.13736056 312:0.13736056 357:0.13736056 904:0.13736056 935:0.13736056 937:0.13736056 952:0.13736056 991:0.13736056 1030:0.13736056 
0.3631133722579675 1.229861398450292 3:0.14285714 19:0.14285714 37:0.14285714 39:0.14285714 107:0.14285714 316:0.28571429 320:0.14285714 368:0.14285714 430:0.28571429 436:0.28571429 937:0.28571429 938:0.57142857 953:0.14285714 979:0.28571429 981:0.14285714 1015:0.28571429 
2.346169787835983 0.4998836528971748 7:0.11624764 19:0.23249528 22:0.23249528 37:0.11624764 39:0.11624764 153:0.11624764 154:0.11624764 320:0.34874292 358:0.11624764 427:0.11624764 430:0.11624764 432:0.11624764 436:0.11624764 904:0.23249528 937:0.46499055 938:0.23249528 953:0.11624764 979:0.46499055 986:0.23249528 1025:0.11624764 1031:0.11624764 
0 0.6597843093549983 1:0.20965697 2:0.10482848 3:0.20965697 14:0.31448545 37:0.10482848 39:0.10482848 45:0.10482848 69:0.10482848 77:0.10482848 100:0.20965697 148:0.10482848 150:0.10482848 152:0.10482848 170:0.10482848 173:0.10482848 316:0.52414242 317:0.10482848 320:0.20965697 368:0.10482848 407:0.10482848 420:0.10482848 904:0.10482848 937:0.31448545 938:0.20965697 961:0.10482848 971:0.10482848 979:0.31448545 986:0.10482848 
2.734816747370231 0 1:0.13867505 2:0.13867505 3:0.2773501 16:0.13867505 22:0.13867505 37:0.13867505 39:0.13867505 72:0.2773501 104:0.13867505 152:0.13867505 317:0.2773501 320:0.2773501 356:0.13867505 426:0.13867505 911:0.13867505 937:0.41602515 938:0.41602515 959:0.2773501 962:0.13867505 1023:0.13867505 1033:0.13867505 
4.505706559853984 5.827716494889627 7:0.1490712 11:0.1490712 12:0.1490712 17:0.1490712 22:0.2981424 37:0.1490712 39:0.1490712 69:0.1490712 149:0.1490712 161:0.1490712 375:0.1490712 378:0.1490712 436:0.2981424 438:0.1490712 918:0.1490712 934:0.1490712 937:0.1490712 955:0.59628479 980:0.2981424 981:0.1490712 1007:0.1490712 
22.627416998 22.627416998 22:0.75592895 37:0.18898224 39:0.18898224 936:0.18898224 937:0.56694671 
0.7450131958228353 4.646109290253532 1:0.25819889 2:0.25819889 3:0.12909944 6:0.12909944 8:0.12909944 14:0.12909944 69:0.12909944 107:0.12909944 175:0.38729833 355:0.12909944 360:0.12909944 372:0.12909944 384:0.12909944 414:0.12909944 425:0.12909944 427:0.51639778 430:0.12909944 937:0.38729833 959:0.25819889 1018:0.12909944 
1.800368088156147 2.799883712289813 1:0.4472136 2:0.4472136 3:0.2236068 14:0.4472136 16:0.2236068 22:0.2236068 70:0.2236068 75:0.2236068 312:0.2236068 323:0.2236068 937:0.2236068 
2.081778726541752 4.262679149288887 1:0.24576958 2:0.32769277 3:0.081923192 14:0.24576958 16:0.24576958 22:0.24576958 37:0.081923192 39:0.081923192 68:0.081923192 77:0.081923192 94:0.081923192 152:0.081923192 154:0.081923192 163:0.24576958 165:0.081923192 166:0.081923192 175:0.081923192 179:0.081923192 307:0.16384638 313:0.081923192 324:0.081923192 325:0.16384638 367:0.16384638 370:0.16384638 374:0.16384638 377:0.081923192 380:0.081923192 382:0.081923192 385:0.081923192 387:0.081923192 389:0.081923192 391:0.081923192 394:0.16384638 396:0.081923192 399:0.081923192 400:0.32769277 402:0.081923192 403:0.16384638 404:0.081923192 408:0.081923192 411:0.081923192 413:0.081923192 417:0.081923192 418:0.081923192 423:0.081923192 434:0.16384638 937:0.24576958 
3.516615547563526 4.714906663024309 1:0.26967994 2:0.26967994 3:0.13483997 14:0.26967994 15:0.13483997 16:0.13483997 22:0.13483997 77:0.13483997 96:0.53935989 106:0.13483997 176:0.13483997 311:0.26967994 372:0.13483997 902:0.13483997 936:0.26967994 937:0.40451992 998:0.13483997 
4.322231663857543 0 1:0.33129458 2:0.33129458 3:0.22086305 14:0.22086305 22:0.11043153 37:0.11043153 39:0.11043153 77:0.11043153 100:0.33129458 152:0.11043153 154:0.11043153 157:0.11043153 165:0.11043153 166:0.11043153 177:0.11043153 368:0.11043153 427:0.11043153 904:0.4417261 937:0.4417261 958:0.11043153 975:0.11043153 1029:0.11043153 
2.514584428876251 1.703409888681433 1:0.15249857 2:0.30499714 3:0.15249857 8:0.15249857 14:0.15249857 42:0.15249857 57:0.15249857 68:0.30499714 106:0.15249857 158:0.15249857 163:0.60999428 363:0.15249857 407:0.15249857 414:0.30499714 937:0.15249857 1010:0.15249857 1015:0.15249857 1029:0.15249857 1030:0.15249857 
0 6.453956992974623 1:0.3939193 2:0.3939193 3:0.13130643 8:0.13130643 11:0.13130643 12:0.13130643 14:0.13130643 16:0.13130643 17:0.13130643 22:0.3939193 37:0.13130643 39:0.13130643 76:0.13130643 96:0.26261287 153:0.13130643 173:0.13130643 175:0.13130643 901:0.13130643 937:0.3939193 983:0.13130643 985:0.13130643 992:0.13130643 1030:0.13130643 
0 0.03358499234575473 1:0.19900744 2:0.19900744 3:0.19900744 6:0.099503719 8:0.099503719 11:0.099503719 12:0.099503719 14:0.19900744 15:0.099503719 17:0.099503719 19:0.099503719 37:0.099503719 39:0.099503719 45:0.099503719 65:0.099503719 69:0.099503719 72:0.099503719 77:0.099503719 95:0.19900744 100:0.099503719 148:0.099503719 153:0.099503719 156:0.099503719 157:0.099503719 159:0.099503719 162:0.099503719 168:0.099503719 176:0.099503719 178:0.099503719 299:0.099503719 300:0.099503719 301:0.099503719 302:0.19900744 303:0.099503719 304:0.29851116 308:0.099503719 309:0.19900744 314:0.19900744 318:0.19900744 321:0.19900744 326:0.19900744 328:0.099503719 329:0.099503719 330:0.099503719 331:0.19900744 332:0.099503719 333:0.099503719 334:0.099503719 353:0.099503719 363:0.099503719 431:0.099503719 435:0.099503719 995:0.099503719 1036:0.19900744 
5.306438264878524 3.303376291887907 1:0.15617376 2:0.31234752 3:0.15617376 6:0.31234752 8:0.15617376 14:0.15617376 22:0.31234752 64:0.15617376 68:0.31234752 77:0.15617376 100:0.15617376 153:0.15617376 154:0.15617376 156:0.15617376 170:0.31234752 356:0.15617376 902:0.15617376 904:0.31234752 937:0.15617376 960:0.15617376 978:0.15617376 1025:0.15617376 1030:0.15617376 
2.375475588757408 1.982146653741212 1:0.19900744 2:0.19900744 3:0.19900744 6:0.099503719 8:0.099503719 11:0.099503719 12:0.099503719 14:0.19900744 15:0.099503719 17:0.099503719 19:0.099503719 37:0.099503719 39:0.099503719 45:0.099503719 65:0.099503719 69:0.099503719 72:0.099503719 77:0.099503719 95:0.19900744 100:0.099503719 148:0.099503719 153:0.099503719 156:0.099503719 157:0.099503719 159:0.099503719 162:0.099503719 168:0.099503719 176:0.099503719 178:0.099503719 299:0.099503719 300:0.099503719 301:0.099503719 302:0.19900744 303:0.099503719 304:0.29851116 308:0.099503719 309:0.19900744 314:0.19900744 318:0.19900744 321:0.19900744 326:0.19900744 328:0.099503719 329:0.099503719 330:0.099503719 331:0.19900744 332:0.099503719 333:0.099503719 334:0.099503719 353:0.099503719 363:0.099503719 431:0.099503719 435:0.099503719 995:0.099503719 1036:0.19900744 
1.132157877263291 0 1:0.14586499 2:0.14586499 3:0.29172998 8:0.14586499 14:0.14586499 15:0.14586499 16:0.29172998 22:0.29172998 45:0.14586499 64:0.14586499 153:0.14586499 365:0.14586499 369:0.29172998 432:0.14586499 901:0.14586499 915:0.29172998 937:0.58345997 
12.52771890899678 21.9506016652552 1:0.22742941 2:0.15161961 7:0.83390785 15:0.15161961 19:0.075809804 42:0.075809804 57:0.075809804 71:0.075809804 77:0.15161961 161:0.075809804 306:0.075809804 429:0.075809804 904:0.075809804 924:0.075809804 932:0.22742941 934:0.075809804 937:0.22742941 938:0.075809804 1008:0.075809804 1028:0.075809804 1029:0.075809804 
6.163019690956573 22.627416998 1:0.30499714 2:0.30499714 7:0.45749571 8:0.30499714 22:0.15249857 69:0.15249857 77:0.30499714 425:0.15249857 904:0.45749571 914:0.30499714 1028:0.15249857 1029:0.15249857 
1.255383076377858 4.730391608543805 1:0.3592106 2:0.3592106 15:0.1796053 21:0.1796053 37:0.1796053 39:0.1796053 45:0.1796053 72:0.1796053 77:0.3592106 173:0.1796053 353:0.1796053 908:0.1796053 937:0.3592106 998:0.3592106 1028:0.1796053 1029:0.1796053 
-14.93201365738949 8.940574382449011 1:0.52075564 2:0.52075564 3:0.26037782 5:0.13018891 66:0.13018891 73:0.13018891 100:0.13018891 169:0.13018891 177:0.13018891 295:0.13018891 338:0.13018891 950:0.13018891 1029:0.13018891 1081:0.13018891 1085:0.26037782 1101:0.13018891 1116:0.13018891 1131:0.13018891 1197:0.13018891 1201:0.13018891 1208:0.13018891 1232:0.13018891 1321:0.13018891 
-0 0.6305047711516111 33:0.2 35:0.2 36:0.2 40:0.2 47:0.2 51:0.2 52:0.2 53:0.2 67:0.4 87:0.4 103:0.2 227:0.2 241:0.2 255:0.2 290:0.2 296:0.2 342:0.2 426:0.2 1120:0.2 
-1.584468054047385 0.6724236676884147 22:0.19611614 33:0.19611614 35:0.19611614 36:0.19611614 40:0.19611614 47:0.19611614 51:0.19611614 52:0.19611614 53:0.19611614 67:0.39223227 87:0.19611614 103:0.39223227 227:0.19611614 241:0.19611614 255:0.19611614 296:0.19611614 342:0.19611614 426:0.19611614 937:0.19611614 1211:0.19611614 
-0 1.697682393260961 33:0.26726124 35:0.26726124 36:0.26726124 40:0.26726124 47:0.26726124 51:0.26726124 52:0.26726124 53:0.26726124 67:0.26726124 103:0.26726124 169:0.26726124 296:0.26726124 426:0.26726124 1140:0.26726124 
-0 2.431304728187884 10:0.25819889 33:0.25819889 35:0.25819889 36:0.25819889 40:0.25819889 47:0.25819889 50:0.25819889 51:0.25819889 52:0.25819889 53:0.25819889 67:0.25819889 103:0.25819889 296:0.25819889 349:0.25819889 426:0.25819889 
-0.7904830705327147 4.531551959096092 22:0.5 55:0.5 1093:0.5 1191:0.5 
-0.4420384681176679 1.939145086330222 24:0.5 86:0.5 337:0.5 1333:0.5 
-0 2.050167767748507 13:0.57735027 67:0.57735027 357:0.57735027 
-0 2.949778341904313 10:0.30151134 13:0.30151134 22:0.30151134 85:0.30151134 105:0.30151134 176:0.30151134 429:0.30151134 1108:0.30151134 1238:0.30151134 1245:0.30151134 1305:0.30151134 
-0.7159773408687468 2.676870926312585 13:0.14433757 22:0.72168784 32:0.14433757 34:0.14433757 56:0.14433757 92:0.14433757 192:0.14433757 199:0.14433757 201:0.14433757 216:0.28867513 260:0.14433757 940:0.14433757 1044:0.14433757 1045:0.14433757 1086:0.14433757 1107:0.14433757 1182:0.14433757 1332:0.28867513 
-5.91138944611814 2.713320704058659 13:0.12700013 22:0.25400025 25:0.12700013 37:0.12700013 39:0.12700013 45:0.12700013 74:0.12700013 81:0.12700013 106:0.12700013 191:0.12700013 194:0.12700013 254:0.12700013 260:0.12700013 278:0.12700013 296:0.12700013 340:0.12700013 347:0.12700013 936:0.50800051 937:0.12700013 941:0.12700013 942:0.12700013 1030:0.12700013 1031:0.12700013 1032:0.25400025 1047:0.12700013 1056:0.12700013 1113:0.12700013 1117:0.12700013 1124:0.12700013 1159:0.12700013 1195:0.12700013 1204:0.12700013 1247:0.12700013 1282:0.12700013 1284:0.12700013 1295:0.12700013 1299:0.12700013 1304:0.12700013 1313:0.12700013 1320:0.12700013 1357:0.12700013 
-0 2.909863788131041 13:0.10259784 22:0.41039134 25:0.20519567 37:0.10259784 39:0.10259784 41:0.10259784 45:0.10259784 48:0.10259784 50:0.10259784 54:0.30779351 107:0.10259784 211:0.10259784 238:0.10259784 341:0.20519567 348:0.10259784 352:0.10259784 938:0.10259784 939:0.10259784 943:0.10259784 1031:0.20519567 1051:0.30779351 1065:0.10259784 1071:0.10259784 1078:0.20519567 1082:0.10259784 1105:0.10259784 1109:0.10259784 1133:0.10259784 1150:0.20519567 1161:0.10259784 1164:0.10259784 1179:0.10259784 1203:0.10259784 1248:0.10259784 1257:0.10259784 1286:0.10259784 1291:0.10259784 1307:0.10259784 1336:0.10259784 1347:0.10259784 1349:0.30779351 
-9.277583192909516 6.653230336867684 10:0.11952286 13:0.11952286 22:0.23904572 43:0.35856858 105:0.11952286 171:0.11952286 172:0.11952286 189:0.11952286 204:0.11952286 265:0.11952286 271:0.11952286 338:0.11952286 346:0.11952286 937:0.71713717 947:0.11952286 1030:0.11952286 1063:0.11952286 1099:0.11952286 1100:0.11952286 1202:0.11952286 1214:0.11952286 1261:0.11952286 1346:0.11952286 1360:0.11952286 
-0 2.366039375094307 7:0.15075567 10:0.15075567 11:0.15075567 12:0.15075567 13:0.15075567 17:0.15075567 22:0.30151134 41:0.15075567 50:0.15075567 55:0.15075567 80:0.15075567 184:0.15075567 192:0.15075567 220:0.15075567 240:0.15075567 284:0.15075567 288:0.15075567 294:0.15075567 339:0.15075567 340:0.15075567 348:0.15075567 349:0.15075567 429:0.30151134 937:0.30151134 946:0.15075567 950:0.15075567 1034:0.15075567 1127:0.15075567 1137:0.15075567 1190:0.15075567 1199:0.15075567 1244:0.15075567 1262:0.15075567 1274:0.15075567 1324:0.15075567 
-0 3.368900540518093 13:0.37796447 78:0.37796447 226:0.37796447 910:0.37796447 925:0.37796447 1043:0.37796447 1090:0.37796447 
-2.6927300058749 3.918520330027791 22:0.51214752 73:0.12803688 79:0.12803688 98:0.12803688 99:0.12803688 191:0.25607376 203:0.12803688 207:0.12803688 284:0.12803688 335:0.12803688 340:0.12803688 428:0.12803688 936:0.38411064 937:0.12803688 941:0.12803688 1030:0.12803688 1035:0.12803688 1052:0.12803688 1062:0.12803688 1066:0.12803688 1079:0.12803688 1084:0.12803688 1089:0.12803688 1169:0.12803688 1176:0.12803688 1186:0.12803688 1215:0.25607376 1246:0.12803688 1317:0.12803688 1319:0.12803688 1327:0.12803688 1329:0.12803688 
-6.622674726397253 5.807773793411829 1:0.13018891 2:0.13018891 3:0.13018891 11:0.13018891 12:0.13018891 17:0.13018891 22:0.52075564 41:0.13018891 49:0.39056673 107:0.13018891 295:0.13018891 296:0.13018891 937:0.13018891 949:0.26037782 1030:0.13018891 1068:0.13018891 1134:0.13018891 1144:0.13018891 1145:0.26037782 1147:0.13018891 1162:0.13018891 1189:0.13018891 1218:0.13018891 1224:0.13018891 1241:0.13018891 1243:0.13018891 1258:0.13018891 1267:0.13018891 1278:0.13018891 1340:0.13018891 
-8.878074919113947 3.659388832587523 1:0.23904572 2:0.23904572 6:0.11952286 8:0.11952286 11:0.11952286 12:0.11952286 17:0.11952286 18:0.11952286 22:0.11952286 54:0.11952286 68:0.11952286 75:0.11952286 100:0.11952286 107:0.11952286 149:0.11952286 153:0.11952286 155:0.11952286 171:0.11952286 172:0.11952286 174:0.11952286 203:0.35856858 345:0.11952286 364:0.11952286 432:0.11952286 937:0.11952286 938:0.11952286 946:0.11952286 1042:0.35856858 1069:0.35856858 1132:0.11952286 1153:0.11952286 1188:0.11952286 1264:0.11952286 1266:0.11952286 1269:0.23904572 1331:0.11952286 1344:0.11952286 
-7.358006311774056 5.835408296812787 1:0.41039134 2:0.41039134 3:0.10259784 6:0.10259784 16:0.10259784 22:0.41039134 40:0.20519567 41:0.10259784 55:0.10259784 84:0.10259784 98:0.10259784 99:0.10259784 100:0.10259784 206:0.10259784 211:0.10259784 250:0.10259784 363:0.10259784 365:0.10259784 430:0.10259784 922:0.10259784 1033:0.10259784 1048:0.10259784 1049:0.10259784 1058:0.10259784 1095:0.10259784 1121:0.10259784 1125:0.10259784 1139:0.10259784 1156:0.10259784 1170:0.10259784 1200:0.10259784 1213:0.10259784 1222:0.10259784 1223:0.10259784 1228:0.10259784 1234:0.10259784 1236:0.20519567 1271:0.10259784 1289:0.10259784 1328:0.20519567 1350:0.10259784 
-8.298754403617428 2.252392386757641 1:0.11867817 2:0.3560345 3:0.23735633 6:0.11867817 7:0.11867817 8:0.11867817 10:0.11867817 16:0.11867817 22:0.3560345 44:0.11867817 55:0.11867817 77:0.11867817 107:0.11867817 153:0.11867817 170:0.11867817 186:0.11867817 190:0.23735633 206:0.11867817 225:0.11867817 250:0.11867817 266:0.11867817 338:0.11867817 936:0.3560345 944:0.11867817 1029:0.11867817 1031:0.11867817 1059:0.11867817 1061:0.11867817 1064:0.11867817 1097:0.11867817 1122:0.11867817 1149:0.11867817 1168:0.11867817 1192:0.11867817 1193:0.11867817 1196:0.11867817 1217:0.11867817 1253:0.11867817 1260:0.11867817 1283:0.11867817 1358:0.11867817 
-3.756319870618428 2.120614506834749 1:0.37139068 2:0.37139068 3:0.18569534 22:0.18569534 84:0.18569534 91:0.18569534 97:0.18569534 100:0.18569534 106:0.18569534 233:0.18569534 341:0.18569534 937:0.18569534 1091:0.18569534 1118:0.18569534 1205:0.18569534 1240:0.18569534 1281:0.37139068 1314:0.18569534 1322:0.18569534 1326:0.18569534 
-10.04491508476739 3.872253195989551 1:0.18898224 2:0.28347335 3:0.18898224 22:0.28347335 25:0.094491118 37:0.094491118 39:0.094491118 42:0.094491118 45:0.094491118 49:0.094491118 54:0.37796447 57:0.094491118 64:0.094491118 78:0.18898224 80:0.094491118 181:0.094491118 182:0.094491118 185:0.094491118 193:0.18898224 200:0.094491118 202:0.094491118 208:0.18898224 218:0.094491118 221:0.094491118 232:0.094491118 235:0.094491118 236:0.094491118 238:0.094491118 239:0.094491118 246:0.094491118 248:0.094491118 249:0.094491118 256:0.094491118 258:0.094491118 263:0.094491118 269:0.094491118 273:0.094491118 279:0.094491118 283:0.094491118 287:0.094491118 289:0.094491118 335:0.094491118 345:0.094491118 425:0.094491118 430:0.094491118 904:0.094491118 926:0.094491118 937:0.37796447 1067:0.094491118 1152:0.094491118 1323:0.094491118 
-13.03459474639148 3.119617654664788 1:0.25819889 2:0.25819889 6:0.12909944 8:0.12909944 10:0.12909944 11:0.12909944 12:0.12909944 17:0.12909944 19:0.12909944 22:0.51639778 42:0.12909944 44:0.12909944 57:0.12909944 69:0.12909944 75:0.12909944 84:0.12909944 91:0.12909944 100:0.12909944 105:0.12909944 171:0.12909944 172:0.12909944 174:0.12909944 215:0.12909944 349:0.25819889 356:0.25819889 364:0.12909944 937:0.12909944 945:0.12909944 1074:0.12909944 1087:0.12909944 1172:0.12909944 1210:0.12909944 1330:0.12909944 
-0.003273064953967544 0 22:0.31622777 89:0.31622777 106:0.31622777 188:0.31622777 195:0.31622777 242:0.31622777 244:0.31622777 286:0.31622777 343:0.31622777 937:0.31622777 
-0.01916852441473879 0 11:0.095782629 12:0.095782629 17:0.095782629 22:0.47891314 25:0.28734789 44:0.095782629 46:0.095782629 82:0.095782629 90:0.095782629 97:0.095782629 101:0.095782629 104:0.095782629 107:0.095782629 183:0.095782629 197:0.095782629 205:0.095782629 209:0.095782629 212:0.19156526 217:0.095782629 223:0.095782629 229:0.095782629 230:0.095782629 231:0.095782629 234:0.095782629 237:0.095782629 245:0.095782629 247:0.095782629 253:0.19156526 259:0.095782629 262:0.095782629 267:0.095782629 270:0.095782629 272:0.095782629 274:0.095782629 275:0.095782629 276:0.095782629 280:0.095782629 281:0.095782629 292:0.19156526 336:0.095782629 337:0.095782629 362:0.095782629 425:0.095782629 904:0.095782629 934:0.095782629 935:0.095782629 937:0.38313051 952:0.095782629 1030:0.095782629 1032:0.19156526 
-7.601547702514003 7.178400419585684 1:0.21566555 2:0.21566555 3:0.10783277 8:0.21566555 9:0.10783277 22:0.43133109 43:0.43133109 44:0.10783277 56:0.10783277 75:0.21566555 87:0.10783277 149:0.10783277 152:0.10783277 153:0.10783277 240:0.10783277 285:0.10783277 291:0.10783277 294:0.21566555 341:0.10783277 342:0.10783277 343:0.10783277 356:0.10783277 360:0.10783277 365:0.21566555 906:0.10783277 920:0.21566555 937:0.10783277 1072:0.10783277 1229:0.10783277 1231:0.10783277 1235:0.10783277 1242:0.10783277 1252:0.10783277 1254:0.10783277 1316:0.10783277 
-4.866178863126569 8.744990463088646 1:0.21566555 2:0.10783277 3:0.10783277 6:0.10783277 7:0.21566555 8:0.10783277 10:0.32349832 22:0.43133109 79:0.10783277 81:0.10783277 85:0.10783277 149:0.10783277 186:0.10783277 257:0.10783277 296:0.10783277 297:0.21566555 346:0.10783277 357:0.10783277 426:0.10783277 429:0.10783277 431:0.10783277 934:0.10783277 937:0.10783277 942:0.10783277 944:0.10783277 945:0.10783277 948:0.10783277 950:0.10783277 1036:0.10783277 1038:0.10783277 1103:0.10783277 1111:0.21566555 1138:0.21566555 1143:0.10783277 1165:0.10783277 1216:0.10783277 1220:0.10783277 1226:0.10783277 1237:0.10783277 1239:0.10783277 1259:0.21566555 1275:0.10783277 1285:0.10783277 1297:0.10783277 1351:0.10783277 
-9.481502289905855 8.945915429991668 22:0.21938173 44:0.14625448 70:0.14625448 93:0.073127242 171:0.073127242 172:0.073127242 215:0.073127242 216:0.14625448 219:0.073127242 266:0.073127242 361:0.073127242 904:0.73127242 937:0.21938173 948:0.073127242 1034:0.43876345 1055:0.073127242 1088:0.073127242 1119:0.073127242 1141:0.073127242 1167:0.073127242 1198:0.073127242 1225:0.073127242 1256:0.073127242 1265:0.073127242 1273:0.073127242 1279:0.073127242 1342:0.073127242 1361:0.073127242 
-4.068630746753249 3.668659525344131 11:0.095782629 12:0.095782629 17:0.095782629 22:0.47891314 25:0.28734789 44:0.095782629 46:0.095782629 82:0.095782629 90:0.095782629 97:0.095782629 101:0.095782629 104:0.095782629 107:0.095782629 183:0.095782629 197:0.095782629 205:0.095782629 209:0.095782629 212:0.19156526 217:0.095782629 223:0.095782629 229:0.095782629 230:0.095782629 231:0.095782629 234:0.095782629 237:0.095782629 245:0.095782629 247:0.095782629 253:0.19156526 259:0.095782629 262:0.095782629 267:0.095782629 270:0.095782629 272:0.095782629 274:0.095782629 275:0.095782629 276:0.095782629 280:0.095782629 281:0.095782629 292:0.19156526 336:0.095782629 337:0.095782629 362:0.095782629 425:0.095782629 904:0.095782629 934:0.095782629 935:0.095782629 937:0.38313051 952:0.095782629 1030:0.095782629 1032:0.19156526 
-11.65716918689738 4.406714129246955 1:0.22941573 2:0.22941573 22:0.22941573 46:0.22941573 68:0.22941573 101:0.22941573 104:0.22941573 187:0.22941573 222:0.22941573 268:0.22941573 282:0.22941573 344:0.22941573 430:0.45883147 935:0.22941573 937:0.22941573 952:0.22941573 
-1.002915675794437 3.934964294534246 22:0.31622777 89:0.31622777 106:0.31622777 188:0.31622777 195:0.31622777 242:0.31622777 244:0.31622777 286:0.31622777 343:0.31622777 937:0.31622777 
-3.504360540784087 4.158288072408124 22:0.30151134 25:0.15075567 56:0.15075567 82:0.15075567 204:0.15075567 213:0.15075567 254:0.15075567 354:0.15075567 357:0.15075567 425:0.15075567 429:0.15075567 432:0.15075567 937:0.30151134 938:0.15075567 939:0.15075567 1037:0.15075567 1046:0.15075567 1070:0.15075567 1083:0.15075567 1094:0.15075567 1135:0.30151134 1148:0.15075567 1160:0.15075567 1180:0.15075567 1181:0.15075567 1206:0.15075567 1209:0.15075567 1255:0.15075567 1287:0.30151134 1296:0.15075567 1301:0.15075567 1354:0.15075567 
-1.088642940618269 2.870337753063026 22:0.3086067 34:0.15430335 36:0.15430335 41:0.15430335 43:0.3086067 74:0.15430335 93:0.15430335 214:0.15430335 288:0.15430335 293:0.15430335 339:0.3086067 344:0.15430335 350:0.15430335 357:0.15430335 931:0.15430335 937:0.3086067 940:0.15430335 1075:0.15430335 1115:0.15430335 1177:0.3086067 1184:0.15430335 1219:0.15430335 1272:0.15430335 1276:0.15430335 1277:0.15430335 1303:0.15430335 1356:0.15430335 
-0 0.8564511457745954 22:0.38490018 43:0.38490018 180:0.19245009 224:0.19245009 277:0.19245009 297:0.38490018 350:0.19245009 351:0.38490018 936:0.38490018 1034:0.19245009 1039:0.19245009 1178:0.19245009 
-0 5.080345676888703 10:0.14142136 22:0.28284271 41:0.14142136 43:0.42426407 79:0.14142136 86:0.14142136 88:0.14142136 97:0.14142136 184:0.14142136 214:0.14142136 294:0.14142136 336:0.14142136 346:0.14142136 428:0.42426407 917:0.14142136 928:0.14142136 1092:0.14142136 1098:0.14142136 1106:0.14142136 1146:0.14142136 1174:0.14142136 1207:0.14142136 1280:0.14142136 1292:0.14142136 1293:0.14142136 1309:0.14142136 1310:0.14142136 1315:0.14142136 1334:0.14142136 1335:0.14142136 1362:0.14142136 
-3.438437372420808 3.474743936649551 10:0.19156526 22:0.095782629 33:0.095782629 35:0.095782629 43:0.47891314 48:0.095782629 50:0.095782629 88:0.095782629 264:0.19156526 428:0.095782629 937:0.6704784 938:0.095782629 1030:0.095782629 1080:0.095782629 1263:0.095782629 1338:0.38313051 
-7.563481401743317 2.456750173826626 1:0.29172998 2:0.29172998 3:0.14586499 14:0.14586499 15:0.14586499 22:0.14586499 98:0.14586499 106:0.14586499 153:0.14586499 190:0.14586499 201:0.14586499 210:0.14586499 251:0.14586499 261:0.14586499 278:0.14586499 352:0.14586499 431:0.14586499 433:0.14586499 434:0.14586499 438:0.14586499 916:0.14586499 930:0.14586499 937:0.29172998 1030:0.14586499 1033:0.14586499 1050:0.14586499 1054:0.14586499 1104:0.14586499 1163:0.14586499 1173:0.14586499 1250:0.14586499 1308:0.29172998 1312:0.14586499 1352:0.14586499 1355:0.14586499 
-20.85831038237839 17.60490829294409 1:0.23570226 2:0.23570226 6:0.11785113 7:0.70710678 8:0.23570226 22:0.11785113 43:0.11785113 48:0.11785113 88:0.23570226 89:0.11785113 100:0.11785113 264:0.23570226 348:0.11785113 365:0.11785113 430:0.11785113 1036:0.11785113 1076:0.11785113 1221:0.11785113 1251:0.11785113 1311:0.11785113 1348:0.11785113 1353:0.11785113 
-6.031136727210329 6.611470212555572 2:0.2236068 7:0.2236068 8:0.2236068 10:0.2236068 22:0.4472136 153:0.2236068 169:0.2236068 243:0.2236068 290:0.2236068 335:0.2236068 339:0.2236068 934:0.2236068 1102:0.2236068 1128:0.2236068 1151:0.2236068 1227:0.2236068 1337:0.2236068 
-1.142251887432851 7.04238352682528 7:0.16222142 10:0.16222142 22:0.64888568 24:0.16222142 32:0.16222142 34:0.16222142 90:0.16222142 99:0.16222142 102:0.16222142 196:0.16222142 198:0.16222142 224:0.16222142 252:0.16222142 257:0.16222142 337:0.16222142 338:0.16222142 907:0.16222142 927:0.16222142 938:0.16222142 950:0.16222142 1073:0.16222142 1154:0.16222142 1270:0.16222142 
-3.681926973280604 3.010088398698684 22:0.19245009 24:0.19245009 48:0.19245009 171:0.19245009 172:0.19245009 210:0.38490018 219:0.19245009 220:0.19245009 336:0.19245009 937:0.57735027 1035:0.19245009 1339:0.19245009 1359:0.38490018 
-0 3.404367161419329 10:0.23735633 22:0.71206899 24:0.11867817 32:0.3560345 43:0.11867817 56:0.11867817 86:0.11867817 92:0.23735633 102:0.11867817 189:0.11867817 196:0.11867817 228:0.11867817 233:0.11867817 271:0.11867817 339:0.11867817 350:0.11867817 904:0.11867817 1077:0.11867817 1129:0.11867817 1166:0.11867817 1298:0.11867817 1341:0.11867817 
-0 5.857359613114342 22:0.56568542 23:0.14142136 24:0.14142136 32:0.14142136 81:0.14142136 102:0.14142136 105:0.14142136 207:0.14142136 213:0.14142136 341:0.56568542 428:0.14142136 949:0.14142136 1035:0.14142136 1053:0.14142136 1136:0.14142136 1185:0.14142136 1212:0.14142136 1268:0.14142136 1325:0.14142136 1345:0.14142136 
-0.3591825522121019 0.5940969351813461 10:0.19245009 22:0.38490018 24:0.19245009 32:0.19245009 34:0.19245009 85:0.19245009 92:0.19245009 102:0.19245009 252:0.38490018 265:0.19245009 291:0.19245009 937:0.38490018 947:0.19245009 1033:0.19245009 1114:0.19245009 1158:0.19245009 1187:0.19245009 1318:0.19245009 
-2.835600497589211 7.244891181436459 22:0.40824829 83:0.40824829 170:0.40824829 340:0.40824829 361:0.40824829 1041:0.40824829 
-5.634475596936751 6.13309442319688 19:0.18569534 22:0.37139068 34:0.18569534 198:0.18569534 351:0.18569534 937:0.18569534 1030:0.55708601 1110:0.18569534 1126:0.18569534 1130:0.18569534 1171:0.18569534 1183:0.18569534 1230:0.18569534 1233:0.18569534 1290:0.37139068 
-2.314919703454065 4.465231227040603 22:0.62469505 45:0.15617376 83:0.15617376 93:0.15617376 99:0.15617376 170:0.15617376 180:0.15617376 194:0.15617376 199:0.15617376 228:0.15617376 277:0.31234752 285:0.15617376 347:0.15617376 351:0.15617376 1057:0.15617376 1060:0.31234752 1123:0.15617376 1142:0.15617376 1155:0.15617376 1302:0.15617376 
-6.991272413801212 11.79611450885287 7:0.20306923 10:0.10153462 17:0.20306923 22:0.20306923 44:0.20306923 49:0.10153462 73:0.10153462 91:0.10153462 98:0.10153462 169:0.10153462 225:0.10153462 226:0.10153462 251:0.10153462 347:0.10153462 937:0.81227693 943:0.10153462 1040:0.10153462 1112:0.10153462 1175:0.10153462 1249:0.10153462 1300:0.10153462 1343:0.10153462 
-0 2.747576299698099 10:0.37796447 83:0.37796447 98:0.37796447 243:0.37796447 357:0.37796447 937:0.37796447 1194:0.37796447 
-15.26210910235654 18.09593493252497 1:0.48038446 2:0.48038446 22:0.16012815 77:0.48038446 107:0.16012815 153:0.16012815 293:0.16012815 352:0.16012815 1029:0.16012815 1096:0.16012815 1288:0.16012815 1294:0.32025631 
-3.115395207985335 -8.211311720622247 22:0.5 23:0.25 97:0.25 341:0.25 454:0.25 522:0.25 539:0.25 633:0.25 636:0.25 650:0.25 822:0.25 937:0.25 1037:0.25 
-3.046817874907247 -3.90305162455463 7:0.1796053 21:0.1796053 22:0.3592106 23:0.1796053 58:0.1796053 99:0.1796053 127:0.1796053 336:0.1796053 340:0.1796053 429:0.1796053 471:0.1796053 473:0.1796053 540:0.1796053 565:0.1796053 570:0.1796053 611:0.1796053 622:0.1796053 623:0.1796053 709:0.1796053 725:0.1796053 811:0.1796053 870:0.1796053 904:0.1796053 916:0.1796053 937:0.3592106 
-6.64721492037433 -6.382992533085982 22:0.096673649 23:0.096673649 37:0.096673649 39:0.096673649 113:0.096673649 171:0.096673649 172:0.096673649 179:0.096673649 346:0.29002095 348:0.3866946 451:0.096673649 503:0.096673649 531:0.096673649 536:0.096673649 604:0.096673649 613:0.096673649 631:0.096673649 637:0.096673649 699:0.1933473 710:0.096673649 760:0.096673649 761:0.096673649 778:0.096673649 797:0.096673649 807:0.096673649 818:0.096673649 829:0.29002095 831:0.096673649 876:0.29002095 895:0.096673649 904:0.48336824 932:0.29002095 1030:0.096673649 
-0 -1.760745709079275 7:0.20412415 10:0.20412415 20:0.20412415 22:0.20412415 23:0.20412415 30:0.20412415 98:0.20412415 124:0.20412415 145:0.20412415 340:0.20412415 357:0.20412415 363:0.20412415 444:0.20412415 464:0.20412415 500:0.20412415 534:0.20412415 537:0.20412415 538:0.20412415 546:0.20412415 549:0.20412415 587:0.20412415 882:0.20412415 917:0.20412415 941:0.20412415 
-5.954395029585474 -5.564619299356137 7:0.1767767 22:0.1767767 23:0.1767767 43:0.1767767 107:0.35355339 142:0.1767767 169:0.1767767 340:0.1767767 341:0.1767767 459:0.1767767 493:0.1767767 494:0.1767767 517:0.1767767 562:0.35355339 660:0.1767767 672:0.1767767 684:0.1767767 707:0.1767767 776:0.1767767 891:0.1767767 915:0.1767767 923:0.1767767 937:0.35355339 
-0.9297906095931279 -0.8144460252889918 7:0.5 8:0.25 9:0.25 20:0.25 22:0.25 31:0.25 154:0.25 440:0.25 516:0.25 748:0.25 793:0.25 916:0.25 920:0.25 
-7.626994575178532 -0 4:0.29704426 7:0.89113279 10:0.099014754 29:0.099014754 107:0.099014754 112:0.099014754 170:0.099014754 293:0.099014754 297:0.099014754 364:0.099014754 717:0.099014754 751:0.099014754 820:0.099014754 919:0.099014754 
-4.229237595369481 -3.902674770466185 4:0.1767767 22:0.1767767 110:0.1767767 112:0.1767767 296:0.1767767 363:0.1767767 518:0.35355339 532:0.1767767 671:0.1767767 690:0.35355339 705:0.1767767 738:0.1767767 752:0.1767767 782:0.1767767 825:0.1767767 826:0.1767767 849:0.1767767 880:0.1767767 910:0.1767767 925:0.1767767 937:0.35355339 938:0.1767767 950:0.1767767 
-3.955160672354096 -9.733258563071338 4:0.0949158 10:0.2847474 22:0.3796632 40:0.1898316 43:0.1898316 44:0.0949158 62:0.0949158 73:0.0949158 98:0.0949158 99:0.0949158 107:0.1898316 108:0.0949158 140:0.1898316 169:0.0949158 170:0.0949158 293:0.0949158 296:0.3796632 297:0.1898316 428:0.0949158 437:0.0949158 529:0.0949158 585:0.0949158 630:0.0949158 641:0.0949158 644:0.0949158 646:0.0949158 669:0.0949158 675:0.0949158 715:0.0949158 729:0.1898316 740:0.1898316 773:0.0949158 823:0.0949158 832:0.0949158 857:0.0949158 907:0.0949158 910:0.0949158 922:0.0949158 926:0.1898316 928:0.1898316 930:0.0949158 937:0.1898316 943:0.0949158 
-0 -4.031488660113696 27:0.37796447 31:0.37796447 66:0.37796447 127:0.37796447 343:0.37796447 508:0.37796447 787:0.37796447 
-2.426397646468729 -2.960196977314731 7:0.18257419 21:0.18257419 22:0.36514837 66:0.18257419 129:0.36514837 150:0.18257419 442:0.18257419 526:0.18257419 567:0.18257419 584:0.18257419 619:0.18257419 696:0.18257419 736:0.18257419 836:0.18257419 885:0.36514837 890:0.18257419 911:0.18257419 912:0.18257419 917:0.18257419 928:0.18257419 937:0.18257419 
-5.973018755168075 -6.68135453037816 22:0.37796447 360:0.37796447 601:0.37796447 802:0.37796447 878:0.37796447 912:0.37796447 937:0.37796447 
-6.622237873277046 -10.35036708750616 22:0.62217102 27:0.10369517 105:0.10369517 144:0.10369517 428:0.10369517 453:0.10369517 463:0.10369517 489:0.10369517 490:0.20739034 495:0.10369517 504:0.10369517 514:0.10369517 520:0.10369517 548:0.10369517 602:0.10369517 612:0.10369517 621:0.10369517 639:0.10369517 655:0.10369517 667:0.10369517 679:0.10369517 683:0.10369517 698:0.20739034 704:0.10369517 708:0.10369517 732:0.10369517 758:0.10369517 769:0.10369517 785:0.10369517 801:0.10369517 810:0.10369517 815:0.10369517 830:0.10369517 860:0.10369517 888:0.10369517 907:0.10369517 913:0.10369517 922:0.10369517 923:0.10369517 934:0.10369517 937:0.31108551 950:0.10369517 1030:0.10369517 1032:0.10369517 
-3.638011675985425 -2.814276822240849 1:0.23408229 2:0.23408229 3:0.11704115 4:0.11704115 7:0.11704115 10:0.11704115 14:0.11704115 16:0.11704115 21:0.11704115 22:0.23408229 31:0.11704115 61:0.11704115 153:0.11704115 173:0.11704115 295:0.11704115 353:0.11704115 439:0.11704115 456:0.11704115 475:0.11704115 476:0.11704115 491:0.11704115 497:0.11704115 502:0.11704115 513:0.23408229 524:0.11704115 568:0.11704115 575:0.35112344 592:0.11704115 606:0.11704115 607:0.11704115 618:0.35112344 666:0.23408229 734:0.11704115 768:0.11704115 794:0.11704115 803:0.11704115 853:0.11704115 874:0.11704115 901:0.11704115 902:0.11704115 908:0.11704115 919:0.11704115 
-2.935000657408272 -5.44607052134861 22:0.24806947 39:0.12403473 59:0.12403473 124:0.12403473 141:0.24806947 142:0.12403473 170:0.12403473 171:0.24806947 172:0.24806947 452:0.24806947 498:0.12403473 511:0.24806947 543:0.12403473 544:0.24806947 553:0.12403473 590:0.12403473 632:0.12403473 682:0.12403473 723:0.12403473 763:0.24806947 779:0.12403473 788:0.12403473 838:0.24806947 869:0.12403473 873:0.12403473 896:0.12403473 899:0.3721042 911:0.12403473 937:0.12403473 1030:0.12403473 
-2.946000987066548 -4.926822303648721 22:0.2236068 59:0.2236068 114:0.2236068 173:0.2236068 457:0.2236068 505:0.2236068 523:0.2236068 572:0.2236068 581:0.2236068 595:0.2236068 609:0.2236068 643:0.2236068 653:0.2236068 713:0.2236068 790:0.2236068 864:0.2236068 889:0.2236068 937:0.2236068 939:0.2236068 1030:0.2236068 
-1.946924486464218 -2.44903288387536 7:0.35355339 8:0.11785113 9:0.11785113 20:0.11785113 22:0.11785113 59:0.11785113 135:0.35355339 141:0.11785113 170:0.11785113 427:0.11785113 466:0.11785113 499:0.11785113 509:0.11785113 515:0.11785113 552:0.11785113 557:0.11785113 583:0.11785113 588:0.11785113 610:0.11785113 640:0.11785113 677:0.35355339 706:0.23570226 721:0.11785113 733:0.11785113 770:0.11785113 771:0.11785113 772:0.11785113 780:0.11785113 784:0.11785113 817:0.35355339 835:0.11785113 839:0.11785113 894:0.11785113 904:0.11785113 921:0.11785113 944:0.11785113 1030:0.11785113 
-6.22161402508999 -1.940452174236301 1:0.10425721 2:0.10425721 7:0.10425721 9:0.10425721 21:0.10425721 22:0.10425721 30:0.10425721 37:0.10425721 39:0.10425721 60:0.10425721 63:0.10425721 66:0.10425721 97:0.10425721 107:0.10425721 109:0.10425721 111:0.10425721 115:0.10425721 116:0.10425721 117:0.10425721 119:0.10425721 120:0.20851441 121:0.10425721 123:0.20851441 125:0.10425721 126:0.31277162 128:0.10425721 131:0.10425721 134:0.20851441 136:0.10425721 137:0.10425721 138:0.10425721 139:0.10425721 143:0.20851441 146:0.10425721 151:0.20851441 170:0.10425721 297:0.10425721 359:0.10425721 362:0.10425721 363:0.31277162 430:0.10425721 903:0.10425721 905:0.10425721 909:0.10425721 918:0.20851441 929:0.10425721 931:0.10425721 934:0.10425721 937:0.31277162 951:0.10425721 
-22.627416998 -14.8248737588266 1:0.43643578 2:0.43643578 3:0.21821789 6:0.21821789 7:0.21821789 8:0.21821789 22:0.21821789 149:0.21821789 340:0.21821789 363:0.21821789 430:0.21821789 883:0.43643578 
-6.673883820627878 -11.98113460865858 22:0.66666667 99:0.33333333 586:0.33333333 635:0.33333333 804:0.33333333 937:0.33333333 
-22.627416998 -13.21273734560368 1:0.35856858 2:0.35856858 3:0.11952286 7:0.11952286 8:0.11952286 11:0.11952286 12:0.11952286 14:0.11952286 16:0.11952286 17:0.11952286 22:0.35856858 37:0.11952286 39:0.11952286 68:0.11952286 76:0.11952286 96:0.23904572 153:0.11952286 173:0.11952286 175:0.23904572 465:0.11952286 477:0.11952286 533:0.11952286 542:0.11952286 551:0.11952286 648:0.11952286 757:0.11952286 821:0.11952286 842:0.11952286 871:0.11952286 901:0.11952286 937:0.35856858 1030:0.11952286 
-6.541900968704682 -4.845863929275802 1:0.11952286 2:0.11952286 3:0.11952286 4:0.11952286 7:0.23904572 8:0.11952286 10:0.23904572 11:0.11952286 12:0.11952286 14:0.11952286 17:0.11952286 22:0.11952286 75:0.11952286 107:0.11952286 114:0.23904572 118:0.23904572 171:0.11952286 172:0.11952286 174:0.11952286 364:0.11952286 365:0.11952286 446:0.11952286 521:0.11952286 547:0.11952286 550:0.11952286 556:0.11952286 634:0.23904572 645:0.11952286 759:0.11952286 764:0.23904572 806:0.11952286 813:0.11952286 843:0.11952286 858:0.11952286 866:0.11952286 900:0.23904572 904:0.11952286 915:0.11952286 924:0.23904572 927:0.11952286 938:0.11952286 949:0.23904572 1030:0.11952286 
-1.88355358242353 -11.07081494673306 1:0.16222142 2:0.16222142 8:0.16222142 10:0.48666426 43:0.48666426 73:0.16222142 151:0.16222142 294:0.32444284 295:0.32444284 478:0.16222142 507:0.16222142 599:0.16222142 754:0.16222142 846:0.16222142 863:0.16222142 950:0.16222142 
-21.8307048063595 -7.308244324487357 1:0.3592106 2:0.3592106 6:0.1796053 7:0.53881591 8:0.3592106 69:0.1796053 295:0.1796053 458:0.1796053 468:0.1796053 617:0.3592106 902:0.1796053 
-2.470821776199988 -4.691220219913546 20:0.80903983 22:0.13483997 44:0.13483997 58:0.13483997 67:0.13483997 107:0.13483997 483:0.13483997 530:0.13483997 578:0.13483997 596:0.13483997 731:0.13483997 744:0.13483997 747:0.13483997 753:0.13483997 798:0.13483997 819:0.13483997 937:0.13483997 938:0.13483997 1030:0.13483997 1031:0.13483997 
-2.954509643010961 -4.974068352702359 74:0.37796447 150:0.37796447 350:0.37796447 649:0.37796447 661:0.37796447 851:0.37796447 938:0.37796447 
-0.2964850568202241 -3.536014123757799 4:0.16439899 10:0.16439899 22:0.32879797 57:0.16439899 73:0.16439899 107:0.16439899 108:0.16439899 122:0.16439899 145:0.32879797 341:0.16439899 474:0.16439899 479:0.16439899 525:0.16439899 563:0.16439899 573:0.16439899 582:0.16439899 638:0.16439899 662:0.16439899 665:0.16439899 681:0.16439899 688:0.16439899 697:0.16439899 718:0.32879797 743:0.16439899 749:0.16439899 834:0.16439899 881:0.16439899 925:0.16439899 
-0 -2.507174417556884 4:0.5 22:0.25 62:0.25 293:0.25 357:0.25 496:0.25 663:0.25 673:0.25 865:0.25 867:0.5 
-0.5685995109350552 -3.94453100575864 4:0.125 22:0.25 29:0.125 41:0.375 62:0.125 73:0.375 118:0.25 154:0.125 169:0.125 363:0.125 447:0.125 460:0.125 541:0.125 566:0.125 593:0.125 626:0.125 670:0.125 689:0.125 719:0.375 726:0.125 727:0.125 755:0.125 781:0.125 783:0.125 795:0.125 805:0.25 833:0.125 837:0.125 877:0.125 898:0.125 945:0.125 
-2.461390311625831 -4.389363172320428 7:0.57735027 10:0.14433757 22:0.14433757 23:0.14433757 73:0.14433757 113:0.14433757 133:0.14433757 169:0.14433757 349:0.14433757 357:0.14433757 360:0.14433757 361:0.14433757 436:0.14433757 461:0.14433757 512:0.14433757 564:0.14433757 576:0.14433757 579:0.14433757 629:0.14433757 651:0.14433757 658:0.14433757 686:0.14433757 741:0.14433757 745:0.14433757 746:0.14433757 789:0.14433757 816:0.14433757 841:0.14433757 844:0.14433757 859:0.14433757 868:0.14433757 934:0.14433757 942:0.14433757 
-0.7529288431328099 -4.400613150799671 4:0.14744196 7:0.14744196 10:0.14744196 21:0.14744196 22:0.58976782 31:0.14744196 43:0.14744196 133:0.14744196 144:0.14744196 339:0.14744196 340:0.14744196 347:0.14744196 357:0.14744196 359:0.14744196 363:0.14744196 450:0.14744196 555:0.14744196 614:0.14744196 627:0.14744196 654:0.14744196 656:0.14744196 657:0.14744196 774:0.14744196 840:0.14744196 856:0.14744196 924:0.29488391 927:0.14744196 934:0.14744196 
-0 -1.558582972370343 4:0.18569534 7:0.37139068 9:0.18569534 10:0.18569534 28:0.18569534 30:0.18569534 43:0.18569534 73:0.18569534 110:0.18569534 132:0.18569534 296:0.18569534 448:0.18569534 510:0.18569534 528:0.18569534 561:0.18569534 574:0.18569534 615:0.18569534 724:0.18569534 847:0.18569534 872:0.18569534 884:0.18569534 886:0.18569534 920:0.18569534 930:0.18569534 940:0.18569534 1035:0.18569534 
-1.425869866844313 -2.387742340142638 9:0.14002801 22:0.28005602 28:0.14002801 37:0.14002801 39:0.14002801 60:0.14002801 77:0.28005602 135:0.14002801 140:0.14002801 147:0.14002801 355:0.14002801 358:0.28005602 427:0.14002801 435:0.28005602 443:0.14002801 472:0.14002801 492:0.14002801 501:0.14002801 554:0.14002801 559:0.14002801 571:0.14002801 597:0.14002801 628:0.14002801 685:0.14002801 693:0.14002801 701:0.14002801 722:0.14002801 786:0.28005602 799:0.14002801 809:0.14002801 852:0.14002801 879:0.14002801 937:0.14002801 948:0.14002801 1029:0.14002801 1030:0.14002801 
-4.796882919090771 -7.811074076669192 9:0.14285714 22:0.57142857 28:0.14285714 43:0.28571429 294:0.14285714 358:0.14285714 481:0.14285714 506:0.14285714 527:0.14285714 569:0.14285714 642:0.14285714 668:0.14285714 674:0.14285714 711:0.14285714 742:0.14285714 796:0.14285714 814:0.14285714 828:0.14285714 862:0.14285714 913:0.28571429 926:0.28571429 937:0.28571429 
-4.158023833114322 -4.070619103660243 7:0.1 20:0.1 22:0.5 27:0.1 28:0.1 43:0.1 58:0.3 66:0.1 103:0.1 129:0.1 132:0.1 147:0.1 170:0.1 178:0.1 360:0.1 441:0.1 462:0.1 469:0.2 480:0.1 535:0.1 577:0.1 589:0.1 598:0.1 616:0.1 647:0.1 664:0.2 676:0.1 680:0.1 691:0.1 712:0.2 716:0.2 735:0.1 750:0.1 762:0.1 777:0.1 808:0.2 812:0.1 845:0.1 887:0.1 893:0.2 904:0.2 932:0.2 937:0.1 1030:0.1 
-14.47714196498101 -3.892293533323257 1:0.25400025 2:0.25400025 7:0.25400025 8:0.38100038 9:0.12700013 14:0.12700013 21:0.12700013 42:0.25400025 57:0.25400025 63:0.12700013 77:0.25400025 170:0.12700013 361:0.12700013 445:0.12700013 449:0.12700013 545:0.12700013 591:0.12700013 600:0.12700013 692:0.12700013 714:0.12700013 792:0.12700013 800:0.12700013 848:0.12700013 850:0.12700013 875:0.12700013 892:0.12700013 906:0.12700013 914:0.25400025 937:0.25400025 1029:0.12700013 
-9.422335457469513 -2.285150841759727 1:0.34874292 2:0.34874292 7:0.46499055 9:0.11624764 10:0.11624764 14:0.11624764 21:0.11624764 22:0.11624764 26:0.11624764 27:0.11624764 70:0.11624764 74:0.23249528 77:0.34874292 519:0.11624764 558:0.11624764 605:0.11624764 608:0.11624764 678:0.11624764 694:0.11624764 700:0.11624764 904:0.11624764 906:0.11624764 908:0.11624764 933:0.23249528 937:0.23249528 1029:0.11624764 
-9.740054085850224 -6.482978841255643 1:0.28571429 2:0.28571429 7:0.28571429 22:0.28571429 77:0.42857143 455:0.28571429 488:0.14285714 560:0.14285714 580:0.14285714 625:0.14285714 659:0.14285714 756:0.14285714 767:0.14285714 775:0.14285714 827:0.14285714 854:0.14285714 861:0.14285714 897:0.14285714 901:0.14285714 904:0.28571429 921:0.14285714 946:0.14285714 1029:0.14285714 
-15.0098792618801 -6.959152069995316 1:0.4330127 2:0.4330127 21:0.14433757 22:0.14433757 26:0.28867513 77:0.4330127 107:0.14433757 155:0.14433757 358:0.14433757 620:0.14433757 703:0.14433757 791:0.14433757 904:0.14433757 914:0.28867513 933:0.14433757 937:0.14433757 1029:0.14433757 1038:0.14433757 
-0.3106650958774789 -6.121901169580213 1:0.4472136 2:0.4472136 4:0.2236068 22:0.2236068 26:0.2236068 29:0.2236068 61:0.2236068 77:0.4472136 130:0.2236068 1029:0.2236068 1038:0.2236068 
-0.8387046686103972 -2.540334938955679 1:0.34815531 2:0.34815531 4:0.17407766 22:0.34815531 26:0.17407766 29:0.17407766 61:0.17407766 77:0.34815531 130:0.17407766 150:0.17407766 486:0.17407766 594:0.17407766 720:0.17407766 739:0.34815531 765:0.17407766 766:0.17407766 1029:0.17407766 1038:0.17407766 
-10.22117295260967 -9.831760049482503 1:0.14433757 2:0.14433757 7:0.14433757 10:0.14433757 16:0.14433757 22:0.57735027 37:0.14433757 39:0.14433757 102:0.14433757 122:0.14433757 357:0.14433757 429:0.14433757 467:0.14433757 470:0.14433757 482:0.14433757 484:0.14433757 485:0.14433757 487:0.14433757 603:0.14433757 624:0.14433757 652:0.14433757 695:0.14433757 702:0.14433757 730:0.14433757 737:0.14433757 824:0.14433757 855:0.14433757 903:0.14433757 937:0.28867513 947:0.14433757 
